// This file is computer-generated by onnx2c 
// (TODO: add creating command line here)
// (TODO: print creation date here )

// ONNX model:
// produced by pytorch, version 1.5
// ONNX IR version: 9
// Model documentation: 
/*

*/

#include <float.h>
#include <math.h>
#include <stdbool.h>
#include <stdint.h>
#include <string.h>
#define MAX(X,Y) ( X > Y ? X : Y)
#define MIN(X,Y) ( X < Y ? X : Y)
#define CLIP(X,L) ( MAX(MIN(X,L), -L) )

/* 0.bias*/
static const float tensor_0_bias[8] = 
{-0.16874238848686218262f, -0.0024533043615520000458f, -0.20951563119888305664f, 0.0052568418905138969421f, -0.44766622781753540039f, 0.76834297180175781250f, 0.41775685548782348633f, -0.15252432227134704590f};
/* 0.weight*/
static const float tensor_0_weight[8][3][4][4] = 
{
  {
    {
      {-4.8027966840891167521e-05f, -6.3689876697026193142e-06f, 1.8478145648259669542e-05f, 3.5364777431823313236e-05f},
      {-5.2589140977943316102e-05f, -4.0100676415022462606e-06f, 6.7893306550104171038e-05f, 1.5521316527156159282e-05f},
      {-0.27204284071922302246f, -2.2261910999077372253e-06f, 0.30759245157241821289f, 0.00030068110208958387375f},
      {-6.4687352278269827366e-05f, -3.6806122807320207357e-06f, 7.6801872637588530779e-05f, 2.4613491405034437776e-05f}
    },
    {
      {-0.00044550100574269890785f, -4.2304641283408273011e-06f, 1.0864970136026386172e-05f, 4.7490448196185752749e-06f},
      {-3.9991948142414912581e-05f, -2.1325815851014340296e-06f, 2.0864459656877443194e-05f, 4.5549331844085827470e-06f},
      {-0.10125354677438735962f, -1.4568578308171709068e-06f, 0.011681573465466499329f, 1.6667960153426975012e-05f},
      {-2.4881694116629660130e-05f, -1.6878864244063152000e-06f, 2.7185895305592566729e-05f, 9.5124869403662160039e-06f}
    },
    {
      {1.7116686876761377789e-06f, -7.0806413532409351319e-07f, 3.9817092329030856490e-05f, 4.8604010771668981761e-06f},
      {-2.7189953470951877534e-05f, -3.0001740469742799178e-07f, 1.9355977201485075057e-05f, 6.9795360104762949049e-06f},
      {-0.13927416503429412842f, -3.6952226878383953590e-07f, 0.21266044676303863525f, 3.7231016904115676880e-05f},
      {-2.0207735360600054264e-05f, 4.9027454451788798906e-07f, 2.8108594051445834339e-05f, 1.3621631296700797975e-05f}
    }
  },
  {
    {
      {4.6345867303898558021e-05f, 2.2844699287816183642e-06f, 1.6938991393544711173e-05f, 5.4558286137762479484e-06f},
      {-6.3408456298930104822e-06f, -1.2176774362160358578e-05f, -4.6362983994185924530e-05f, -8.2536107584019191563e-06f},
      {-3.8365011278074234724e-05f, -0.00046875354018993675709f, -0.52498120069503784180f, -0.00050903891678899526596f},
      {-6.8277545324235688895e-06f, -1.2842212527175433934e-05f, -6.4685722463764250278e-05f, -9.4167116913013160229e-06f}
    },
    {
      {6.1302699805310112424e-07f, 3.4402235087327426299e-06f, 2.3923990738694556057e-05f, 7.6446913226391188800e-06f},
      {5.1701289294214802794e-07f, -4.0593192807136802003e-07f, 3.7657491702702827752e-06f, 1.5807833051439956762e-06f},
      {-1.8436237951391376555e-05f, -1.7435901099815964699e-05f, -0.19404244422912597656f, -8.2061078501283191144e-06f},
      {-2.9053310299786971882e-06f, -3.0788123694946989417e-06f, -6.6344864535494707525e-06f, -9.5381631126656429842e-07f}
    },
    {
      {0.00019445006910245865583f, 2.8838305752287851647e-06f, 5.6460234191035851836e-05f, 4.7364355850731953979e-06f},
      {4.2912597564281895757e-07f, 1.2760640402120770887e-06f, 7.0085270635900087655e-06f, 2.3882653295004274696e-06f},
      {0.00092730263713747262955f, 7.0973851507005747408e-07f, 0.016548007726669311523f, 3.2279945116897579283e-06f},
      {1.0882714605031651445e-06f, 3.5135019516019383445e-06f, 8.4428493209998123348e-06f, 4.9421678340877406299e-06f}
    }
  },
  {
    {
      {-8.1802412751130759716e-05f, 2.6004545361502096057e-06f, 6.4808505157998297364e-06f, 6.1258033383637666702e-06f},
      {-2.3593880541739054024e-05f, -1.4527628081850707531e-05f, -1.4008726793690584600e-05f, 5.0528251449577510357e-06f},
      {-0.10298178344964981079f, -0.00042528950143605470657f, -0.20905728638172149658f, -0.00016780417354311794043f},
      {-2.5214911147486418486e-05f, -1.7086307707359082997e-05f, -7.7730910561513155699e-05f, -2.2348152924678288400e-05f}
    },
    {
      {6.5567787714826408774e-06f, 1.1039987839467357844e-05f, 0.0013790508965030312538f, 1.3050004781689494848e-05f},
      {-3.5482216844684444368e-06f, 1.4229208318283781409e-06f, 4.8324436647817492485e-06f, 5.3030848903290461749e-06f},
      {-0.011753436177968978882f, -2.0672601749538443983e-05f, -0.022082356736063957214f, 1.6438756347270100378e-06f},
      {-1.1115454071841668338e-05f, -4.4840890041086822748e-06f, -2.5537328838254325092e-05f, -4.7930429900588933378e-06f}
    },
    {
      {0.044332329183816909790f, 3.8077931094449013472e-05f, 0.31972283124923706055f, 3.2106378057505935431e-05f},
      {1.1271372279963998153e-08f, -7.9213884873752249405e-07f, 4.2665260480134747922e-06f, 5.1359352255531121045e-06f},
      {-2.4092103558359667659e-05f, -3.0020432859600987285e-06f, -1.6893252904992550611e-05f, -2.0090989494292443851e-07f},
      {-4.0408340282738208771e-06f, -4.3621867007459513843e-06f, -5.9987223721691407263e-06f, -4.2427332118677441031e-06f}
    }
  },
  {
    {
      {0.023381223902106285095f, -1.0755034054454881698e-05f, 0.0045523606240749359131f, -4.5831397983420174569e-06f},
      {-9.4795285576765309088e-07f, -1.1795729733421467245e-05f, -2.5642857508501037955e-05f, -1.0209707397734746337e-05f},
      {0.032567296177148818970f, 2.4531072995159775019e-06f, -2.9725668355240486562e-05f, 2.6409183192299678922e-05f},
      {1.2279997463338077068e-05f, -5.5439422794734127820e-06f, -1.6410951502621173859e-05f, -5.9972780945827253163e-06f}
    },
    {
      {-9.5063969638431444764e-06f, -2.3709000743110664189e-05f, -0.0029967685695737600327f, -2.8202370231156237423e-05f},
      {-1.5308458387153223157e-05f, -3.4824726753868162632e-05f, -9.0420209744479507208e-05f, -3.6631590774049982429e-05f},
      {-7.4859599408227950335e-05f, -7.7900323958601802588e-05f, -0.76825255155563354492f, -7.7253716881386935711e-05f},
      {-3.9530541471322067082e-06f, -3.1454947020392864943e-05f, -9.2522554041352123022e-05f, -3.3856264053611084819e-05f}
    },
    {
      {-2.8574138923431746662e-05f, -3.0025148589629679918e-05f, -0.00068336667027324438095f, -3.0779490771237760782e-05f},
      {-1.9144661564496345818e-05f, -3.5199700505472719669e-05f, -5.1382299716351553798e-05f, -3.5615059459814801812e-05f},
      {-0.00060040171956643462181f, -4.9589561967877671123e-05f, -0.030562615022063255310f, -4.8398494982393458486e-05f},
      {-1.3249033145257271826e-05f, -3.2401618227595463395e-05f, -4.9791080527938902378e-05f, -3.3169715607073158026e-05f}
    }
  },
  {
    {
      {0.00048625332419760525227f, 0.036129757761955261230f, 0.46504658460617065430f, 0.00043914839625358581543f},
      {1.6688651157892309129e-05f, 9.9551878520287573338e-05f, 0.00027634043362922966480f, 1.8833530702977441251e-05f},
      {-0.067096494138240814209f, -0.0011919308453798294067f, -0.014290726743638515472f, -0.00071678217500448226929f},
      {-5.7355780882062390447e-05f, -4.1367035009898245335e-05f, -0.00019252797937951982021f, -4.2913441575365141034e-05f}
    },
    {
      {-0.00063458812655881047249f, -0.086865864694118499756f, -0.54085016250610351562f, -0.0088559202849864959717f},
      {2.8710919650620780885e-05f, 1.4054154462428414263e-06f, -0.00018357923545408993959f, -5.9909700212301686406e-05f},
      {0.012748125009238719940f, 6.8026958615519106388e-05f, 3.7874757254030555487e-05f, 3.7614714528899639845e-05f},
      {5.3735813708044588566e-05f, 4.0648923459229990840e-05f, 4.4357060687616467476e-05f, 3.0882551072863861918e-05f}
    },
    {
      {0.017957683652639389038f, 5.5930766393430531025e-05f, 4.1593688365537673235e-05f, 5.2006686019012704492e-05f},
      {6.7651366407517343760e-05f, 6.0225669585634022951e-05f, 5.1521998102543875575e-05f, 5.2019542636116966605e-05f},
      {0.061878345906734466553f, 8.8107553892768919468e-05f, 0.017380692064762115479f, 6.7530228989198803902e-05f},
      {8.7433894805144518614e-05f, 7.2414855821989476681e-05f, 6.1343533161561936140e-05f, 6.1119695601519197226e-05f}
    }
  },
  {
    {
      {0.0092242956161499023438f, 7.8358360042329877615e-05f, 0.027108889073133468628f, 8.5031773778609931469e-05f},
      {-1.5275531950464937836e-06f, 2.0509700334514491260e-05f, 9.9854267318733036518e-05f, 2.3735556169413030148e-05f},
      {0.0090404888615012168884f, 0.00073467829497531056404f, 0.71174639463424682617f, 0.00056054827291518449783f},
      {-2.8118533919041510671e-06f, 1.6268850231426768005e-05f, 9.6771189419087022543e-05f, 3.3465097658336162567e-05f}
    },
    {
      {3.2114909117808565497e-05f, 4.4304401853878516704e-06f, -4.5393180698738433421e-06f, 3.2481734706379938871e-06f},
      {-2.6509092094784136862e-06f, 9.9316966952756047249e-06f, 2.7770585802500136197e-05f, 1.2585443073476199061e-05f},
      {-6.7118700826540589333e-05f, 1.3175053936720360070e-05f, 0.0074681444093585014343f, 1.9432909539318643510e-05f},
      {-8.3399781942716799676e-06f, 7.6194289988507080125e-08f, 1.9859950043610297143e-05f, 1.3562177628045901656e-05f}
    },
    {
      {0.00012257302296347916126f, -2.1322211978258565068e-06f, 4.5637014409294351935e-05f, -1.4202811371433199383e-06f},
      {-8.4322819020599126816e-06f, -1.3787500563466892345e-07f, 1.1272015399299561977e-05f, 4.7798862397030461580e-06f},
      {-0.0033332288730889558792f, -1.1146642464154865593e-05f, -0.00020415391190908849239f, -1.7699626368994358927e-06f},
      {-1.3148152902431320399e-05f, -6.4939813455566763878e-06f, 9.2598992296188953333e-07f, 9.2287524466883041896e-07f}
    }
  },
  {
    {
      {-0.010079200379550457001f, -2.3784386939951218665e-06f, -0.012007839046418666840f, -9.5851637524901889265e-06f},
      {1.8002965589403174818e-06f, 9.9309108918532729149e-06f, 6.9913289735268335789e-07f, 9.8825030363514088094e-06f},
      {-6.9341818743851035833e-05f, -0.00013950929860584437847f, -0.15504899621009826660f, -0.00011336112220305949450f},
      {1.1765767339966259897e-05f, 2.1630645278492011130e-05f, 7.8080183811835013330e-06f, 1.6073070582933723927e-05f}
    },
    {
      {-0.00014208880020305514336f, 4.3200193431403022259e-06f, -0.00018815277144312858582f, 2.5518140773783670738e-06f},
      {7.7064023571438156068e-06f, 1.1931879271287471056e-05f, 1.5833182260394096375e-05f, 1.3110232430335599929e-05f},
      {0.00011797603656305000186f, 2.1433839719975367188e-05f, 1.6602667528786696494e-05f, 1.7463748008594848216e-05f},
      {1.4139345694275107235e-05f, 1.8163053027819842100e-05f, 2.4646662495797500014e-05f, 1.6644586139591410756e-05f}
    },
    {
      {-2.5684625143185257912e-05f, 4.6133841351547744125e-06f, 0.00012109980889363214374f, 2.4726480205572443083e-06f},
      {1.1107115824415814131e-05f, 2.0781542843906208873e-05f, 3.2394389563705772161e-05f, 1.6318072084686718881e-05f},
      {0.033515527844429016113f, 5.1692681154236197472e-05f, 1.2207316160202026367f, 3.5251778172096237540e-05f},
      {1.4467813343799207360e-05f, 2.8414478947524912655e-05f, 4.4269003410590812564e-05f, 2.3924480046844109893e-05f}
    }
  },
  {
    {
      {-0.050762951374053955078f, -0.00070610712282359600067f, -0.35299780964851379395f, -0.0013036859454587101936f},
      {7.2246280069521162659e-07f, 4.3388417907408438623e-06f, 6.0990191741439048201e-07f, -5.5374766816385090351e-06f},
      {0.068965286016464233398f, 0.00082615268183872103691f, 0.37039002776145935059f, 0.00028714668587781488895f},
      {3.3760097721824422479e-05f, 3.5185501474188640714e-05f, 0.00010566390847088769078f, 3.8117774238344281912e-05f}
    },
    {
      {-5.9976118791382759809e-05f, -2.9661781809409148991e-05f, -0.019181346520781517029f, -3.8755570130888372660e-05f},
      {-1.2280174814804922789e-06f, 1.8883358734456123784e-06f, 2.0614400000340538099e-06f, -3.9183264561870601028e-06f},
      {-7.6271209081824054010e-07f, 1.8862714568967930973e-05f, 0.0059477551840245723724f, 2.3698462428001221269e-06f},
      {-1.1750148587452713400e-06f, 7.5245185371386469342e-07f, 1.6674050129950046539e-05f, 4.6342511268449015915e-06f}
    },
    {
      {-2.7804113415186293423e-05f, -6.7289652179169934243e-06f, -3.1662246328778564930e-05f, -1.0928208212135359645e-05f},
      {-4.3982836359646171331e-06f, 1.2541302112367702648e-06f, -4.0057807382254395634e-06f, -5.6372655308223329484e-06f},
      {-8.6705467765568755567e-06f, -1.9775563941948348656e-06f, 0.0043655540794134140015f, -4.1943867472582496703e-06f},
      {-4.2551623664621729404e-06f, -3.1112631404539570212e-06f, 6.6942180865225964226e-07f, 6.4840304503377410583e-07f}
    }
  }
};
/* 11.bias*/
static const float tensor_11_bias[10] = 
{-0.23934251070022583008f, -0.061016187071800231934f, -0.15256598591804504395f, 0.057432003319263458252f, 0.059702120721340179443f, -0.087907016277313232422f, 0.094479002058506011963f, 0.17542394995689392090f, -0.061027865856885910034f, 0.21482382714748382568f};
/* 11.weight*/
static const float tensor_11_weight[10][100] = 
{
  {0.00073324755067005753517f, -0.13331757485866546631f, 0.13670420646667480469f, -0.041668053716421127319f, 0.17527693510055541992f, 0.023090798407793045044f, -0.078897185623645782471f, 0.011505471542477607727f, -0.015443832613527774811f, 0.12856742739677429199f, -0.037870783358812332153f, 0.19130812585353851318f, -0.0091771604493260383606f, -0.058030102401971817017f, -7.4464145960462246876e-10f, -0.015917461365461349487f, -0.036237526684999465942f, 0.095081679522991180420f, 0.061519455164670944214f, -0.023412024602293968201f, 0.098764553666114807129f, 0.23591592907905578613f, 0.18471790850162506104f, -0.046856392174959182739f, -0.025025082752108573914f, -0.14921748638153076172f, 0.27362120151519775391f, -0.074845053255558013916f, 0.31992033123970031738f, -0.21565230190753936768f, 0.16072548925876617432f, -0.045698877424001693726f, -0.058928921818733215332f, -0.055321514606475830078f, -0.0055203353986144065857f, 0.26366090774536132812f, 0.42232865095138549805f, 0.23300941288471221924f, 0.091790154576301574707f, 0.077871412038803100586f, -0.043850962072610855103f, -0.12406975775957107544f, -0.068303517997264862061f, -0.16804260015487670898f, 0.035852149128913879395f, 0.081242419779300689697f, -0.0021898034028708934784f, 0.035616420209407806396f, -0.022870646789669990540f, 0.073233172297477722168f, -0.018204133957624435425f, 0.10876850783824920654f, -0.022729268297553062439f, -0.14353463053703308105f, -0.10239258408546447754f, 1.6117597624543122947e-05f, -0.035422742366790771484f, -0.054959945380687713623f, 0.042496643960475921631f, -0.067965187132358551025f, -0.050224605947732925415f, -0.056548397988080978394f, -0.064788728952407836914f, -0.042609825730323791504f, -0.042386978864669799805f, -0.13795138895511627197f, -0.086935527622699737549f, -0.056058831512928009033f, 0.25657626986503601074f, -0.085440836846828460693f, -1.2603955379386633240e-10f, -0.019239148125052452087f, 0.41318872570991516113f, -0.073431976139545440674f, -0.097821049392223358154f, 0.12636408209800720215f, -0.10447933524847030640f, 0.15687690675258636475f, 0.013617022894322872162f, -0.00037334172520786523819f, -0.018211770802736282349f, -0.18687069416046142578f, -2.6508217843002057634e-09f, 0.30986312031745910645f, -0.00026549206813797354698f, -0.061401385813951492310f, -0.093131549656391143799f, 7.7973585575819015503e-05f, 0.15103888511657714844f, -0.056035753339529037476f, 0.41788011789321899414f, -0.066050231456756591797f, 0.27612674236297607422f, -0.049290981143712997437f, -0.044978089630603790283f, -0.11703623831272125244f, 0.23319935798645019531f, -0.039971653372049331665f, -0.053128544241189956665f, -0.022236267104744911194f},
  {-0.063315682113170623779f, -0.11454630643129348755f, -0.097068548202514648438f, -0.013094313442707061768f, -0.18828368186950683594f, -0.017635773867368698120f, 0.36098065972328186035f, 0.23914065957069396973f, 0.0053131468594074249268f, -0.10749032348394393921f, -0.037151109427213668823f, 0.041991408914327621460f, -0.25017616152763366699f, 0.33435788750648498535f, -2.0399966438322536533e-10f, 0.29367849230766296387f, 0.34921988844871520996f, -0.25660777091979980469f, -0.14084829390048980713f, -0.064883887767791748047f, -0.11649642884731292725f, -0.18787351250648498535f, -0.11422348022460937500f, -0.095346704125404357910f, -0.024941446259617805481f, -0.089862316846847534180f, -0.13254103064537048340f, -0.087283611297607421875f, -0.045714128762483596802f, -0.0050199632532894611359f, 0.20740406215190887451f, -0.018164899200201034546f, -0.042913060635328292847f, 0.23868475854396820068f, -0.057921446859836578369f, -0.10590095072984695435f, -0.12293752282857894897f, -0.024263713508844375610f, 0.27771279215812683105f, -0.039726529270410537720f, -0.043785776942968368530f, -0.25343102216720581055f, -0.068298734724521636963f, -0.0018265644321218132973f, -0.056172061711549758911f, -0.066427469253540039062f, -0.0022451588883996009827f, -0.14113859832286834717f, 0.089359126985073089600f, -0.058155380189418792725f, -0.086427718400955200195f, 0.048883788287639617920f, -0.069310791790485382080f, -0.070373848080635070801f, 0.0042586592026054859161f, -4.2342820961493998766e-05f, -0.035059828311204910278f, -0.053331431001424789429f, -0.075693480670452117920f, -0.079142451286315917969f, -0.066105008125305175781f, -0.056553926318883895874f, -0.30651101469993591309f, -0.11003226041793823242f, -0.12925195693969726562f, -0.071934357285499572754f, 0.30108064413070678711f, -0.043978091329336166382f, 0.069591134786605834961f, -0.13684639334678649902f, -3.2156111107184415232e-09f, -0.040125697851181030273f, -0.051649566739797592163f, 0.25030946731567382812f, 0.14150701463222503662f, -0.080452226102352142334f, 0.36328175663948059082f, -0.14169551432132720947f, -0.061552550643682479858f, -0.12535506486892700195f, -0.16924250125885009766f, 0.049027115106582641602f, -4.1167522724094851583e-09f, -0.061258681118488311768f, 0.0025569018907845020294f, -0.061349499970674514771f, 0.31104043126106262207f, 5.7637225836515426636e-05f, 0.15099050104618072510f, 0.22504851222038269043f, -0.047994680702686309814f, 0.0048218471929430961609f, -0.049842756241559982300f, -0.042835626751184463501f, -0.031758971512317657471f, -0.12134647369384765625f, -0.15258915722370147705f, 0.35950717329978942871f, -0.053648836910724639893f, 0.43410599231719970703f},
  {-0.063913911581039428711f, 0.028502674773335456848f, 0.036109115928411483765f, 0.14697098731994628906f, -0.0091904457658529281616f, -0.027623044326901435852f, -0.079929567873477935791f, 0.0089396312832832336426f, -0.031389780342578887939f, 0.059637587517499923706f, -0.035690799355506896973f, 0.024833157658576965332f, 0.18964262306690216064f, -0.058392107486724853516f, 3.7430711863351007196e-09f, -0.062823519110679626465f, -0.035957764834165573120f, 0.098159402608871459961f, 0.088636741042137145996f, -0.13377863168716430664f, 0.18811501562595367432f, 0.19305455684661865234f, -0.027461426332592964172f, 0.21001431345939636230f, -0.047069460153579711914f, 0.097665607929229736328f, 0.015304885804653167725f, -0.045580558478832244873f, 0.026486335322260856628f, 0.055871915072202682495f, -0.10422803461551666260f, 0.031000828370451927185f, 0.15949347615242004395f, -0.074389547109603881836f, -0.055912699550390243530f, 0.10398580133914947510f, 0.12637287378311157227f, -0.0079125650227069854736f, -0.055203739553689956665f, -0.011386877857148647308f, -0.030720610171556472778f, 0.12628765404224395752f, -0.068261131644248962402f, -0.15965001285076141357f, -0.0030810672324150800705f, 0.25262063741683959961f, -0.094640947878360748291f, 0.18935170769691467285f, 0.063913762569427490234f, 0.25569036602973937988f, -0.012897209264338016510f, 0.035864356905221939087f, -0.014013584703207015991f, -0.039168555289506912231f, -0.055679149925708770752f, 5.7128690968966111541e-06f, 0.36425954103469848633f, -0.048314914107322692871f, -0.010580497793853282928f, -0.017062280327081680298f, -0.050519943237304687500f, -0.053956180810928344727f, 0.065954841673374176025f, 0.0046858615241944789886f, -0.068809457123279571533f, -0.044304370880126953125f, -0.086529806256294250488f, -0.054372426122426986694f, -0.036609843373298645020f, 0.026848563924431800842f, 3.4880887067600951923e-09f, -0.0096483333036303520203f, 0.13608315587043762207f, -0.10136881470680236816f, 0.074750952422618865967f, 0.28570735454559326172f, -0.10449592024087905884f, 0.18351222574710845947f, -0.033856280148029327393f, 0.10553700476884841919f, -0.0061461231671273708344f, -0.21350541710853576660f, -3.0099269743288914469e-09f, 0.014822196215391159058f, 0.00052166316891089081764f, -0.061333127319812774658f, -0.093072585761547088623f, 6.5096687649202067405e-06f, 0.043529417365789413452f, -0.081478804349899291992f, -0.044648855924606323242f, -0.022444274276494979858f, -0.049339495599269866943f, -0.049320388585329055786f, -0.044855777174234390259f, 0.21067224442958831787f, 0.049974333494901657104f, -0.039938848465681076050f, 0.043069120496511459351f, -0.055780041962862014771f},
  {0.10373066365718841553f, 0.064516715705394744873f, -0.052245199680328369141f, 0.054866369813680648804f, -0.018074546009302139282f, 0.025570647791028022766f, -0.068819418549537658691f, -0.10259484499692916870f, -0.020342005416750907898f, 0.13937553763389587402f, -0.039191819727420806885f, -0.12384940683841705322f, 0.077937662601470947266f, -0.058389775454998016357f, -4.1088354940654880920e-09f, -0.062889806926250457764f, -0.035911060869693756104f, 0.14615675806999206543f, -0.049053285270929336548f, 0.10564882308244705200f, -0.010418622754514217377f, -0.060011912137269973755f, -0.070184849202632904053f, 0.015881666913628578186f, 0.12193337082862854004f, 0.087253458797931671143f, -0.052793376147747039795f, -0.0074856583960354328156f, 0.0084756901487708091736f, -0.048233777284622192383f, -0.12870202958583831787f, 0.10120887309312820435f, 0.088902302086353302002f, -0.051889263093471527100f, -0.059312857687473297119f, -0.10059922188520431519f, -0.046401549130678176880f, 0.018977513536810874939f, -0.13098001480102539062f, -0.068300008773803710938f, -0.030734140425920486450f, 0.13283012807369232178f, -0.068307392299175262451f, 0.048708945512771606445f, -0.059368144720792770386f, -0.034162033349275588989f, 0.059435959905385971069f, -0.015472605824470520020f, 0.071990922093391418457f, -0.10460832715034484863f, 0.038952417671680450439f, -0.037271998822689056396f, -0.070043101906776428223f, 0.15778790414333343506f, 0.19837923347949981689f, 1.8938071661978028715e-05f, -0.017995009198784828186f, -0.050299528986215591431f, -0.075765132904052734375f, -0.058521136641502380371f, -0.044389065355062484741f, -0.055899716913700103760f, 0.087731212377548217773f, 0.062386110424995422363f, 0.10327349603176116943f, 0.18382969498634338379f, -0.086299225687980651855f, 0.13751320540904998779f, -0.078570142388343811035f, 0.16648295521736145020f, -4.7332671115896118863e-09f, 0.024442195892333984375f, -0.047019094228744506836f, -0.060061071068048477173f, 0.010720895603299140930f, -0.023233361542224884033f, -0.079983055591583251953f, -0.030175078660249710083f, -0.031315304338932037354f, -0.095364525914192199707f, -0.0069745010696351528168f, 0.052068352699279785156f, -3.2198959054596798524e-09f, -0.089240781962871551514f, 0.00025656662182882428169f, -0.061344046145677566528f, -0.056205417960882186890f, -5.5603617511224001646e-05f, -0.10187026113271713257f, -0.060830496251583099365f, -0.046293999999761581421f, 0.10027825087308883667f, -0.086367905139923095703f, -0.072818398475646972656f, -0.034394938498735427856f, 0.095553331077098846436f, -0.075826220214366912842f, -0.039923962205648422241f, -0.063264101743698120117f, -0.055824488401412963867f},
  {-0.063957817852497100830f, -0.022030614316463470459f, -0.024102561175823211670f, -0.066980510950088500977f, 0.18655879795551300049f, -0.027583645656704902649f, -0.081795051693916320801f, -0.015305894427001476288f, -0.0027784123085439205170f, 0.041682984679937362671f, 0.35060560703277587891f, 0.0011180909350514411926f, 0.22087407112121582031f, -0.058392945677042007446f, -1.7505308314014200732e-09f, -0.062902599573135375977f, -0.035894677042961120605f, 0.097450427711009979248f, 0.036065172404050827026f, -0.10175877064466476440f, 0.17923274636268615723f, 0.15589994192123413086f, 0.074558071792125701904f, 0.015954270958900451660f, -0.19582703709602355957f, 0.26203557848930358887f, 0.013509971089661121368f, -0.045606471598148345947f, 0.016869772225618362427f, 0.091050043702125549316f, -0.13794074952602386475f, 0.022094313055276870728f, -0.054569106549024581909f, -0.053845953196287155151f, 0.032419130206108093262f, 0.075679697096347808838f, -0.046867445111274719238f, 0.014293064363300800323f, -0.053098183125257492065f, -0.011422714218497276306f, -0.0088551351800560951233f, 0.13598422706127166748f, 0.029390878975391387939f, -0.0080155907198786735535f, -0.0030666587408632040024f, -0.029193837195634841919f, -0.094992831349372863770f, 0.16881607472896575928f, -0.20101614296436309814f, 0.24293233454227447510f, -0.061828412115573883057f, 0.048874676227569580078f, 0.034395266324281692505f, -0.036438573151826858521f, -0.055576901882886886597f, 5.6829903769539669156e-06f, -0.034921016544103622437f, -0.048307269811630249023f, -0.075324475765228271484f, -0.020723903551697731018f, -0.044465590268373489380f, -0.040226332843303680420f, -0.027655931189656257629f, -0.040658950805664062500f, 0.046724233776330947876f, -0.038269117474555969238f, -0.086405873298645019531f, -0.067458599805831909180f, -0.052867200225591659546f, 0.034572292119264602661f, -6.8195676883320288653e-10f, 0.011816267855465412140f, -0.17286583781242370605f, -0.073228761553764343262f, -0.14102697372436523438f, 0.0051301475614309310913f, -0.10477914661169052124f, 0.18012736737728118896f, -0.045182295143604278564f, 0.15456166863441467285f, 0.12989476323127746582f, 0.10856979340314865112f, -7.3470912687056966206e-10f, 0.028833987191319465637f, -0.00027880613924935460091f, 0.012718628160655498505f, -0.092432856559753417969f, -9.0359731075295712799e-07f, 0.10037314891815185547f, -0.041239425539970397949f, -0.046200908720493316650f, -0.091211207211017608643f, -0.087702035903930664062f, 0.0083979722112417221069f, -0.049651049077510833740f, 0.11728966981172561646f, 0.049772322177886962891f, -0.039914555847644805908f, 0.043521486222743988037f, -0.055779702961444854736f},
  {0.10292207449674606323f, 0.094054810702800750732f, -0.070030026137828826904f, 0.14236781001091003418f, -0.10143078118562698364f, 0.035667702555656433105f, -0.080248370766639709473f, -0.092975936830043792725f, -0.029873000457882881165f, 0.11078850179910659790f, -0.047261022031307220459f, -0.21609097719192504883f, 0.16914013028144836426f, -0.058400172740221023560f, -2.3968087514703029228e-09f, -0.062784068286418914795f, -0.042990807443857192993f, 0.13006871938705444336f, -0.022414134815335273743f, 0.22758138179779052734f, -0.010847342200577259064f, -0.10323303192853927612f, -0.093790747225284576416f, 0.014179289340972900391f, 0.024532321840524673462f, 0.0040930425748229026794f, -0.052722115069627761841f, -0.045503493398427963257f, 0.022237492725253105164f, -0.010966839268803596497f, -0.17626249790191650391f, 0.17945306003093719482f, 0.10168213397264480591f, -0.046730063855648040771f, -0.051354531198740005493f, -0.071227930486202239990f, -0.045281361788511276245f, -0.015117699280381202698f, -0.22235688567161560059f, -0.068226777017116546631f, -0.030668998137116432190f, 0.19310995936393737793f, -0.045859452337026596069f, 0.048887558281421661377f, -0.059502523392438888550f, 0.015451639890670776367f, 0.13273286819458007812f, -0.028356233611702919006f, 0.10958376526832580566f, -0.075827099382877349854f, 0.015364970080554485321f, -0.040502078831195831299f, -0.086857549846172332764f, 0.011026967316865921021f, 0.090007171034812927246f, 2.0250277884770184755e-05f, -0.034368038177490234375f, -0.049807362258434295654f, -0.096611484885215759277f, -0.063968434929847717285f, 0.027674721553921699524f, -0.043323725461959838867f, 0.023776760324835777283f, 0.30864563584327697754f, 0.026035033166408538818f, 0.079632505774497985840f, -0.086409293115139007568f, 0.11689658463001251221f, -0.12909263372421264648f, 0.017691196873784065247f, -2.1505366376572965237e-09f, -0.027387985959649085999f, -0.17211791872978210449f, -0.073137708008289337158f, 0.076256953179836273193f, -0.070735566318035125732f, -0.10460472106933593750f, -0.028543474152684211731f, -0.032236304134130477905f, -0.046167835593223571777f, -0.052976969629526138306f, 0.051093719899654388428f, 1.0560193830499997603e-09f, -0.061017069965600967407f, -0.00030427513411268591881f, -0.053861714899539947510f, -0.062647886574268341064f, -7.5599775300361216068e-05f, -0.15759071707725524902f, -0.040863443166017532349f, -0.046197466552257537842f, 0.11473391950130462646f, -0.087767258286476135254f, -0.042777251452207565308f, -0.044797763228416442871f, 0.090151682496070861816f, -0.075358621776103973389f, -0.039924625307321548462f, -0.052872810512781143188f, -0.055829416960477828979f},
  {-0.064606584608554840088f, 0.0047343880869448184967f, -0.049096155911684036255f, -0.17050893604755401611f, -0.077812187373638153076f, 0.0090871788561344146729f, -0.081952653825283050537f, 0.23858737945556640625f, -0.21043975651264190674f, 0.12939743697643280029f, -0.039118837565183639526f, -0.014670683071017265320f, -0.082142017781734466553f, -0.058378867805004119873f, 2.2915671582524055339e-09f, -0.062889091670513153076f, -0.036023925989866256714f, -0.060797963291406631470f, -0.024281803518533706665f, -0.049130205065011978149f, -0.15855440497398376465f, -0.036273796111345291138f, -0.097993202507495880127f, -0.13353399932384490967f, 0.27336883544921875000f, -0.075098574161529541016f, -0.0021714575123041868210f, -0.045599274337291717529f, 0.032923508435487747192f, 0.19644904136657714844f, -0.15382835268974304199f, -0.21558459103107452393f, -0.054463148117065429688f, -0.047080900520086288452f, -0.058816555887460708618f, 0.11609930545091629028f, 0.022953175008296966553f, -0.25916290283203125000f, -0.055651299655437469482f, -0.011494169011712074280f, -0.042189896106719970703f, 0.060951687395572662354f, -0.068621434271335601807f, 0.049014374613761901855f, -0.054918486624956130981f, -0.035838969051837921143f, -0.038650967180728912354f, 0.22770880162715911865f, 0.063737891614437103271f, -0.12698067724704742432f, -0.061957459896802902222f, -0.11324626952409744263f, -0.17610119283199310303f, 0.24909326434135437012f, 0.23572543263435363770f, 6.9255793277989141643e-06f, -0.034043781459331512451f, -0.015995606780052185059f, -0.074505716562271118164f, -0.058163553476333618164f, -0.066084742546081542969f, -0.053949158638715744019f, 0.012604977935552597046f, -0.041892863810062408447f, 0.37378859519958496094f, -0.014553012326359748840f, -0.086364611983299255371f, -0.056398056447505950928f, -0.10465804487466812134f, 0.28008168935775756836f, -2.9995030903506858522e-09f, 0.30994021892547607422f, -0.046372961252927780151f, -0.073227941989898681641f, -0.13952581584453582764f, 0.062377184629440307617f, -0.10459822416305541992f, -0.14033660292625427246f, 0.33726939558982849121f, 0.15451042354106903076f, 0.12359201908111572266f, 0.023758599534630775452f, -4.8787923700999158427e-10f, -0.10066787898540496826f, 4.6188335545593872666e-05f, -0.061347082257270812988f, -0.063862256705760955811f, -0.00019834924023598432541f, -0.10187982767820358276f, -0.064683064818382263184f, -0.030799420550465583801f, -0.043155163526535034180f, -0.087758250534534454346f, -0.072896681725978851318f, 0.38545796275138854980f, 0.082608349621295928955f, -0.053876880556344985962f, -0.039988402277231216431f, -0.10248950868844985962f, -0.055864516645669937134f},
  {-0.065699838101863861084f, -0.13869027793407440186f, -0.053824372589588165283f, -0.047520782798528671265f, 0.0022371720988303422928f, -0.0058792303316295146942f, -0.17618545889854431152f, -0.10398861765861511230f, 0.25375142693519592285f, -0.075956486165523529053f, -0.038957942277193069458f, -0.076334908604621887207f, 0.16352199018001556396f, -0.22764566540718078613f, 7.7985728985652258416e-11f, -0.16709886491298675537f, -0.035992328077554702759f, 0.077268362045288085938f, -0.053359489887952804565f, 0.24544394016265869141f, 0.051817305386066436768f, -0.050271857529878616333f, 0.10810791701078414917f, 0.015867419540882110596f, -0.088334470987319946289f, 0.082121036946773529053f, -0.10302621871232986450f, -0.046426832675933837891f, -0.071895405650138854980f, 0.12600171566009521484f, -0.13906107842922210693f, 0.0031671083997935056686f, -0.19502687454223632812f, -0.11903899908065795898f, 0.34591722488403320312f, -0.070811748504638671875f, -0.10861413925886154175f, 0.069177463650703430176f, -0.12085995078086853027f, -0.062696799635887145996f, 0.31843996047973632812f, 0.12558279931545257568f, 0.49485144019126892090f, 0.049050372093915939331f, -0.15750250220298767090f, -0.054677665233612060547f, 0.19440546631813049316f, -0.20210929214954376221f, -0.075170092284679412842f, 0.082775764167308807373f, -0.17090174555778503418f, 0.16201111674308776855f, 0.13103456795215606689f, -0.087108924984931945801f, -0.10962894558906555176f, 4.4539747250382788479e-06f, -0.034699466079473495483f, 0.043076861649751663208f, -0.052138496190309524536f, 0.17681166529655456543f, 0.41211169958114624023f, 0.47356745600700378418f, 0.037304434925317764282f, -0.056454773992300033569f, -0.063618168234825134277f, -0.044043876230716705322f, -0.10355640202760696411f, -0.063209883868694305420f, -0.10715749114751815796f, -0.026643756777048110962f, -1.2945464700209186049e-09f, -0.11187370121479034424f, 0.095768250524997711182f, -0.11928955465555191040f, -0.013394556939601898193f, -0.073376223444938659668f, -0.19762140512466430664f, -0.0012444528983905911446f, -0.046741276979446411133f, -0.088967226445674896240f, 0.11977548152208328247f, 0.064530469477176666260f, -3.8615284303489261220e-09f, 0.16237980127334594727f, -0.00034189401776529848576f, 0.47057515382766723633f, -0.10018864274024963379f, 4.4966553105041384697e-05f, -0.18196301162242889404f, -0.061114374548196792603f, -0.041965786367654800415f, -0.088319115340709686279f, -0.087775208055973052979f, 0.41402211785316467285f, -0.044712495058774948120f, -0.041145887225866317749f, -0.081054590642452239990f, -0.039957951754331588745f, 0.32915011048316955566f, -0.055851344019174575806f},
  {0.21884657442569732666f, 0.35447284579277038574f, 0.27213856577873229980f, 0.0087108444422483444214f, 0.16731710731983184814f, -0.017479870468378067017f, -0.042670197784900665283f, -0.073077388107776641846f, 0.0079162670299410820007f, -0.20721772313117980957f, -0.037844903767108917236f, 0.19877485930919647217f, -0.22892807424068450928f, 0.034096103161573410034f, -5.4522741876894542656e-09f, 0.034705758094787597656f, -0.054355178028345108032f, -0.068313755095005035400f, 0.24463161826133728027f, -0.087826929986476898193f, -0.10512936860322952271f, -0.030914684757590293884f, 0.18463866412639617920f, 0.0095552541315555572510f, -0.025051834061741828918f, -0.12338844686746597290f, 0.17336674034595489502f, 0.095830671489238739014f, -0.23627902567386627197f, -0.22579179704189300537f, 0.25235110521316528320f, 0.077701307833194732666f, 0.091954074800014495850f, -0.078542284667491912842f, -0.031587425619363784790f, -0.10550197213888168335f, -0.10470586270093917847f, -0.027459340170025825500f, 0.090422682464122772217f, 0.29503950476646423340f, -0.043845366686582565308f, -0.19216920435428619385f, -0.068294167518615722656f, 0.24815446138381958008f, 0.44392505288124084473f, -0.062595903873443603516f, -0.21891911327838897705f, -0.088107138872146606445f, -0.18068940937519073486f, -0.33662834763526916504f, 0.41791534423828125000f, -0.26238778233528137207f, 0.057926092296838760376f, 0.040703803300857543945f, -0.10258442908525466919f, -7.3212186180171556771e-06f, -0.035407107323408126831f, 0.33004495501518249512f, 0.51548612117767333984f, -0.044675726443529129028f, -0.066056340932846069336f, -0.056553252041339874268f, 0.064931392669677734375f, -0.042783670127391815186f, -0.20742930471897125244f, 0.19503359496593475342f, 0.017822256311774253845f, -0.053977072238922119141f, 0.069407403469085693359f, -0.14299418032169342041f, -2.9996003458876430159e-09f, -0.057936649769544601440f, -0.023189928382635116577f, 0.17719487845897674561f, -0.062539502978324890137f, -0.075321741402149200439f, 0.10833828896284103394f, -0.036811862140893936157f, -0.028543641790747642517f, 0.092785134911537170410f, -0.10606785863637924194f, 0.15045763552188873291f, 1.8781105559639854619e-09f, -0.14160993695259094238f, -6.2864703068044036627e-05f, -0.061319243162870407104f, -0.057212233543395996094f, 6.4564730564597994089e-05f, 0.094581775367259979248f, -0.060835737735033035278f, -0.065765433013439178467f, -0.065960690379142761230f, 0.31016418337821960449f, -0.049316778779029846191f, -0.045215640217065811157f, -0.12087699770927429199f, 0.25869986414909362793f, -0.039952091872692108154f, -0.051772199571132659912f, -0.022446624934673309326f},
  {-0.10473953187465667725f, -0.13770222663879394531f, -0.098587818443775177002f, -0.013145946897566318512f, -0.13660138845443725586f, 0.0027842870913445949554f, 0.32951858639717102051f, -0.11023034900426864624f, 0.043290827423334121704f, -0.21878559887409210205f, -0.037524703890085220337f, -0.027080871164798736572f, -0.25068783760070800781f, 0.20917052030563354492f, -2.4534418940902469330e-09f, 0.16891591250896453857f, -0.035854782909154891968f, -0.25846430659294128418f, -0.14089746773242950439f, -0.11788549274206161499f, -0.11647867411375045776f, -0.11629767715930938721f, -0.14837241172790527344f, -0.0057107051834464073181f, -0.013590152375400066376f, -0.095601640641689300537f, -0.13254559040069580078f, 0.30250191688537597656f, -0.073030225932598114014f, 0.036286670714616775513f, 0.21954679489135742188f, -0.13517342507839202881f, -0.036131549626588821411f, 0.28814992308616638184f, -0.057912774384021759033f, -0.10538008064031600952f, -0.096849374473094940186f, -0.0015390721382573246956f, 0.17821682989597320557f, -0.099657773971557617188f, -0.043781232088804244995f, -0.20508363842964172363f, -0.068293318152427673340f, -0.10628698021173477173f, -0.086162447929382324219f, -0.066421955823898315430f, 0.065068148076534271240f, -0.14631301164627075195f, 0.081163197755813598633f, 0.047569621354341506958f, -0.060014884918928146362f, 0.049007423222064971924f, 0.21570228040218353271f, -0.081983208656311035156f, -0.10250144451856613159f, -2.8320531782810576260e-05f, -0.10233926773071289062f, -0.052100453525781631470f, -0.097369290888309478760f, 0.23340912163257598877f, -0.051942959427833557129f, -0.056554179638624191284f, 0.10665457695722579956f, -0.041283097118139266968f, -0.038328245282173156738f, -0.10743563622236251831f, 0.30359256267547607422f, 0.14104667305946350098f, 0.11338558048009872437f, -0.13374945521354675293f, -3.1832325664282734579e-09f, -0.079983241856098175049f, -0.13182906806468963623f, 0.14624150097370147705f, 0.15106953680515289307f, -0.15646308660507202148f, 0.32893452048301696777f, -0.14171348512172698975f, -0.071458794176578521729f, -0.15116640925407409668f, -0.013642919249832630157f, -0.099136687815189361572f, -4.0610395046769554028e-09f, -0.062100663781166076660f, -0.0021279852371662855148f, -0.061339266598224639893f, 0.30771684646606445312f, 7.9006189480423927307e-05f, 0.0027826821897178888321f, 0.24203324317932128906f, -0.048010617494583129883f, 0.15730690956115722656f, -0.049735505133867263794f, -0.043161243200302124023f, -0.045092292129993438721f, -0.19587326049804687500f, -0.15294325351715087891f, -0.039935268461704254150f, -0.038560021668672561646f, -0.054493587464094161987f}
};
/* 2.bias*/
static const float tensor_2_bias[8] = 
{-0.11963921040296554565f, -0.11853849887847900391f, -0.34576654434204101562f, 0.43782681226730346680f, -0.069370262324810028076f, 0.50383317470550537109f, -0.030883464962244033813f, 0.87366646528244018555f};
/* 2.weight*/
static const float tensor_2_weight[8][8][3][3] = 
{
  {
    {
      {-0.0054117082618176937103f, 0.0023305339273065328598f, -0.0022151609882712364197f},
      {-0.0077934074215590953827f, -0.00031536453752778470516f, 0.013402487151324748993f},
      {-0.024704314768314361572f, 0.0024159117601811885834f, 0.024841858074069023132f}
    },
    {
      {-0.079100042581558227539f, 0.0062883533537387847900f, 0.0036578541621565818787f},
      {-0.13531979918479919434f, 0.013264425098896026611f, 0.011072974652051925659f},
      {-0.046360310167074203491f, 0.0023421889636665582657f, 0.0012735497439280152321f}
    },
    {
      {0.026829311624169349670f, 0.0016685558948665857315f, -0.0076138107106089591980f},
      {-0.066119097173213958740f, -0.026490474119782447815f, -0.0087437480688095092773f},
      {0.00049851054791361093521f, -3.5436893085716292262e-05f, -0.032199215143918991089f}
    },
    {
      {-0.026545688509941101074f, -0.0013086348772048950195f, 0.087312281131744384766f},
      {-0.078066229820251464844f, -0.0024735571350902318954f, 0.092524550855159759521f},
      {-0.015083261765539646149f, -0.00019006227375939488411f, 0.0065207900479435920715f}
    },
    {
      {-0.0038370571564882993698f, -0.0062709008343517780304f, -0.0030740315560251474380f},
      {-0.011823551729321479797f, -0.026492878794670104980f, -0.041580270975828170776f},
      {-0.0053435922600328922272f, -0.0076381657272577285767f, -0.024015821516513824463f}
    },
    {
      {0.16991020739078521729f, 0.027458658441901206970f, -0.092327311635017395020f},
      {0.15209278464317321777f, 0.010388322174549102783f, -0.22347253561019897461f},
      {0.056389179080724716187f, 0.0019969979766756296158f, -0.13587430119514465332f}
    },
    {
      {0.23473237454891204834f, 0.041879836469888687134f, -0.17495463788509368896f},
      {0.16500154137611389160f, 0.0081215016543865203857f, -0.27426785230636596680f},
      {0.012240174226462841034f, 0.00068250368349254131317f, -0.16183055937290191650f}
    },
    {
      {-0.017553348094224929810f, -0.012051249854266643524f, -0.019537588581442832947f},
      {-0.051859110593795776367f, -0.030311182141304016113f, -0.057573027908802032471f},
      {-0.082324832677841186523f, -0.084812380373477935791f, -0.043129920959472656250f}
    }
  },
  {
    {
      {-0.12719215452671051025f, 0.039058133959770202637f, 0.047169402241706848145f},
      {-0.027865186333656311035f, 0.095955036580562591553f, -0.0078300498425960540771f},
      {0.045252297073602676392f, 0.10693198442459106445f, -6.8637345975730568171e-05f}
    },
    {
      {0.022149009630084037781f, -6.3118510297499597073e-05f, -0.018791731446981430054f},
      {0.031091451644897460938f, 0.0036571470554918050766f, -0.16900315880775451660f},
      {-0.0010785857448354363441f, -0.0026987977325916290283f, -0.16341467201709747314f}
    },
    {
      {-0.031947139650583267212f, -0.059126053005456924438f, -0.0056886700913310050964f},
      {-0.0051372954621911048889f, -0.049312274903059005737f, -0.052261251956224441528f},
      {-0.0050934427417814731598f, -0.050681378692388534546f, -0.076972082257270812988f}
    },
    {
      {0.073508106172084808350f, 0.00012646215327549725771f, 0.0046149753034114837646f},
      {0.14700755476951599121f, -0.00024210792616941034794f, -0.026235815137624740601f},
      {0.042982235550880432129f, 0.00080879084998741745949f, -0.085935436189174652100f}
    },
    {
      {-0.00077021145261824131012f, 6.6581933424458838999e-06f, 0.00015110609820112586021f},
      {-0.023991061374545097351f, -0.0034621777012944221497f, -0.0051275603473186492920f},
      {-0.024964077398180961609f, -0.0063735549338161945343f, -0.0034349050838500261307f}
    },
    {
      {-0.18492200970649719238f, -0.00067907827906310558319f, 0.070664800703525543213f},
      {-0.23556092381477355957f, 0.017787070944905281067f, 0.090297691524028778076f},
      {-0.058064620941877365112f, 0.026386903598904609680f, 0.17346426844596862793f}
    },
    {
      {-0.25063222646713256836f, 0.00049374642549082636833f, 0.014896227046847343445f},
      {-0.29701554775238037109f, 0.035869628190994262695f, 0.10051868110895156860f},
      {-0.029694568365812301636f, 0.0088444780558347702026f, 0.16417786478996276855f}
    },
    {
      {-0.018673235550522804260f, 0.00084983673878014087677f, 0.0048904302529990673065f},
      {-0.069324910640716552734f, -0.017705857753753662109f, -0.0023018238134682178497f},
      {0.039683442562818527222f, -0.020197913050651550293f, -0.055673379451036453247f}
    }
  },
  {
    {
      {-0.0065725431777536869049f, -0.027185946702957153320f, -0.020657382905483245850f},
      {-0.029250795021653175354f, -0.095488518476486206055f, -0.070460781455039978027f},
      {-0.00013922087964601814747f, -0.0076252589933574199677f, -0.0047799241729080677032f}
    },
    {
      {-0.0031153766904026269913f, -0.028194192796945571899f, -0.010803654789924621582f},
      {-0.026481555774807929993f, -0.21352536976337432861f, -0.059033423662185668945f},
      {-0.013493146747350692749f, -0.020518898963928222656f, -0.0027911823708564043045f}
    },
    {
      {-0.0010062728542834520340f, -0.0017889755545184016228f, -0.0035025060642510652542f},
      {-0.027517523616552352905f, -0.053899724036455154419f, -0.041108317673206329346f},
      {-0.048184413462877273560f, -0.060841787606477737427f, -0.048914760351181030273f}
    },
    {
      {0.00056879880139604210854f, 0.0066465893760323524475f, 0.0018021229188889265060f},
      {0.047731954604387283325f, 0.35746568441390991211f, 0.045700609683990478516f},
      {0.0044339010491967201233f, 0.035911690443754196167f, 0.00071940210182219743729f}
    },
    {
      {-0.031923305243253707886f, 0.0053757010027766227722f, -0.032099064439535140991f},
      {0.034256123006343841553f, 0.12758702039718627930f, 0.051612004637718200684f},
      {0.12276282161474227905f, 0.60324561595916748047f, 0.25250583887100219727f}
    },
    {
      {-0.011770778335630893707f, 0.0021884669549763202667f, 0.00026541762053966522217f},
      {0.020594889298081398010f, 0.40015226602554321289f, 0.091253273189067840576f},
      {-0.011923503130674362183f, -0.0046484116464853286743f, -0.00087528186850249767303f}
    },
    {
      {-0.00085245288209989666939f, -0.0023929409217089414597f, 2.9418026770144933835e-06f},
      {-0.050662092864513397217f, -0.36946108937263488770f, -0.077439390122890472412f},
      {0.00014144321903586387634f, -0.0062394784763455390930f, 5.8419464039616286755e-06f}
    },
    {
      {0.042326096445322036743f, 0.023692661896347999573f, 0.054173447191715240479f},
      {0.036039464175701141357f, 0.082652188837528228760f, 0.045124150812625885010f},
      {-0.011639359407126903534f, -0.014671492390334606171f, -0.0094566242769360542297f}
    }
  },
  {
    {
      {-0.0039821621030569076538f, -0.034351389855146408081f, -0.067858807742595672607f},
      {-0.0024608701933175325394f, -0.081038326025009155273f, -0.16953106224536895752f},
      {-0.00055485602933913469315f, -0.0097677465528249740601f, -0.051837634295225143433f}
    },
    {
      {-0.00041934227920137345791f, 0.0065609603188931941986f, 0.0073251752182841300964f},
      {-0.019391627982258796692f, -0.037985775619745254517f, -0.00075156945968046784401f},
      {0.00069792696740478277206f, -0.013940399512648582458f, 0.0055191866122186183929f}
    },
    {
      {-0.013336847536265850067f, 0.00076512299710884690285f, -0.0060923658311367034912f},
      {-0.010934837162494659424f, 0.0034810716751962900162f, -0.00031844328623265028000f},
      {0.0019762404263019561768f, 0.22249642014503479004f, 0.078337624669075012207f}
    },
    {
      {-0.00067600997863337397575f, -0.0013565857661888003349f, -0.0019878372550010681152f},
      {-0.043936453759670257568f, -0.22366188466548919678f, -0.047062590718269348145f},
      {-0.00084800040349364280701f, -0.00068761676084250211716f, -0.0020514160860329866409f}
    },
    {
      {0.016685901209712028503f, 0.020212229341268539429f, 0.015919875353574752808f},
      {0.014917084015905857086f, 0.028858743607997894287f, 0.010699209757149219513f},
      {0.0013027150416746735573f, -0.0095822997391223907471f, -0.0019625925924628973007f}
    },
    {
      {0.0018132538534700870514f, -0.0077260676771402359009f, 0.0052401293069124221802f},
      {-0.048064760863780975342f, -0.24639797210693359375f, -0.011576708406209945679f},
      {0.0016373455291613936424f, -0.047517571598291397095f, 0.014628863893449306488f}
    },
    {
      {-0.0047601978294551372528f, -0.00039197021396830677986f, 0.0080316709354519844055f},
      {0.018559470772743225098f, 0.42647612094879150391f, 0.090368680655956268311f},
      {-0.00065140315564349293709f, -0.0018340131500735878944f, 0.0091506857424974441528f}
    },
    {
      {0.0040162671357393264771f, -0.00063048902666196227074f, 0.0030586344655603170395f},
      {-0.0051821209490299224854f, -0.061807163059711456299f, -0.014488101005554199219f},
      {-0.0035719249863177537918f, 0.035005662590265274048f, 0.0011729287216439843178f}
    }
  },
  {
    {
      {0.027435356751084327698f, 0.00031383713940158486366f, 0.0089910579845309257507f},
      {-0.011202487163245677948f, -0.095503568649291992188f, -0.027221579104661941528f},
      {-0.046149451285600662231f, -0.063846267759799957275f, -0.22470846772193908691f}
    },
    {
      {0.010552248917520046234f, 0.010655173100531101227f, 0.0013208949239924550056f},
      {0.074764326214790344238f, 0.099683947861194610596f, 0.035964004695415496826f},
      {-0.082519054412841796875f, -0.14587400853633880615f, -0.11946008354425430298f}
    },
    {
      {0.0090884016826748847961f, 0.0040900395251810550690f, 0.0047285780310630798340f},
      {-0.014125590212643146515f, -0.031600452959537506104f, -0.030703524127602577209f},
      {-0.045930240303277969360f, -0.089208178222179412842f, -0.088565550744533538818f}
    },
    {
      {0.0020262564066797494888f, 0.0014688916271552443504f, 0.0054694944992661476135f},
      {0.065786384046077728271f, 0.057635176926851272583f, 0.041933100670576095581f},
      {-0.077498838305473327637f, -0.12972302734851837158f, -0.092465668916702270508f}
    },
    {
      {0.036688987165689468384f, 0.040251675993204116821f, 0.025305733084678649902f},
      {0.0043466272763907909393f, 0.0047069299034774303436f, 0.0039976490661501884460f},
      {-0.0068652885966002941132f, -0.0085065541788935661316f, -0.0084093883633613586426f}
    },
    {
      {0.0072606648318469524384f, 0.0074771591462194919586f, -0.0042222747579216957092f},
      {-0.19861251115798950195f, -0.19038109481334686279f, -0.12685234844684600830f},
      {0.021623136475682258606f, 0.082649424672126770020f, 0.13341338932514190674f}
    },
    {
      {-0.0019402907928451895714f, -0.0054602771997451782227f, -0.020187361165881156921f},
      {-0.069478154182434082031f, -0.091174438595771789551f, -0.011013279668986797333f},
      {0.014049620367586612701f, 0.12132102996110916138f, 0.092079132795333862305f}
    },
    {
      {-0.030157908797264099121f, -0.043089494109153747559f, -0.019393105059862136841f},
      {-0.024598836898803710938f, -0.050697561353445053101f, 0.015850162133574485779f},
      {0.061195626854896545410f, 0.17680086195468902588f, 0.084173977375030517578f}
    }
  },
  {
    {
      {-0.0013396297581493854523f, 0.0043543959036469459534f, -0.013402803801000118256f},
      {0.00093390274560078978539f, 0.13333307206630706787f, -0.16440950334072113037f},
      {-0.0016430037794634699821f, 0.00058109924430027604103f, -0.0034726643934845924377f}
    },
    {
      {-0.013973392546176910400f, -0.018266720697283744812f, -0.0027324741240590810776f},
      {0.00040542980423197150230f, -0.14755636453628540039f, 0.018295757472515106201f},
      {-0.0041053807362914085388f, -0.013225971721112728119f, -6.9796784373465925455e-05f}
    },
    {
      {-2.8498886877059703693e-06f, -0.0036511181388050317764f, -0.00055189809063449501991f},
      {-0.0073205870576202869415f, -0.095614664256572723389f, -0.052864294499158859253f},
      {0.0013059123884886503220f, 0.077446371316909790039f, -0.00041577522642910480499f}
    },
    {
      {-0.0014322514180094003677f, -0.0062548257410526275635f, -0.0034150585997849702835f},
      {0.00022181440726853907108f, -0.31765335798263549805f, -0.0047599202953279018402f},
      {-0.0018631487619131803513f, 0.0029330556280910968781f, -0.0050222552381455898285f}
    },
    {
      {-0.00059474445879459381104f, -0.0027000680565834045410f, -0.00018803242710418999195f},
      {-0.00027124714688397943974f, -0.0017556872917339205742f, 0.0022085378877818584442f},
      {-0.011797813698649406433f, -0.0024990381207317113876f, -0.011675461195409297943f}
    },
    {
      {0.023230774328112602234f, 0.0077906847000122070312f, 0.013808817602694034576f},
      {0.048486690968275070190f, 0.71513372659683227539f, 0.11947028338909149170f},
      {0.019940784201025962830f, -0.025473471730947494507f, 0.034072134643793106079f}
    },
    {
      {0.020720981061458587646f, 0.035971663892269134521f, 0.016888549551367759705f},
      {0.014010802842676639557f, 0.73037612438201904297f, 0.070404276251792907715f},
      {0.0036241447087377309799f, -0.011816622689366340637f, 0.041425917297601699829f}
    },
    {
      {0.0013862663181498646736f, 0.0040543223731219768524f, 0.0011910655302926898003f},
      {0.0022615035995841026306f, 0.046693824231624603271f, 0.014617122709751129150f},
      {-0.024349188432097434998f, -0.082507997751235961914f, -0.038639646023511886597f}
    }
  },
  {
    {
      {0.022492054849863052368f, 0.0065690637566149234772f, 0.090196557343006134033f},
      {0.0013572740135714411736f, 0.049528103321790695190f, -0.021694028750061988831f},
      {1.0512287190067581832e-05f, -0.039748173207044601440f, -0.085471443831920623779f}
    },
    {
      {-0.022028395906090736389f, 0.023159118369221687317f, -0.0061058090068399906158f},
      {-0.0055766631849110126495f, -0.10732267051935195923f, 0.00018098443979397416115f},
      {0.025342192500829696655f, -0.0027105975896120071411f, 0.00076399126555770635605f}
    },
    {
      {-8.9185923570767045021e-05f, 0.0018154444405809044838f, 9.8374941444490104914e-05f},
      {-0.0042243213392794132233f, -0.13395881652832031250f, -0.026569314301013946533f},
      {-0.023480996489524841309f, 0.0095503199845552444458f, -0.0010770186781883239746f}
    },
    {
      {0.0055406778119504451752f, 0.084703765809535980225f, 0.0016986195696517825127f},
      {0.00029545163852162659168f, -0.067765854299068450928f, 7.2812967118807137012e-05f},
      {-0.0052619520574808120728f, -0.0025780559517443180084f, -0.00017082902195397764444f}
    },
    {
      {0.0075614312663674354553f, 0.017883324995636940002f, 0.015719182789325714111f},
      {-0.0051491898484528064728f, -0.0071028866805136203766f, 0.0034519864711910486221f},
      {0.0011178688146173954010f, 0.010902744717895984650f, 0.0052519142627716064453f}
    },
    {
      {-0.072942189872264862061f, -0.42989993095397949219f, -0.047263119369745254517f},
      {0.0028913344722241163254f, 0.084723562002182006836f, -0.0030178020242601633072f},
      {0.10784815996885299683f, 0.18220387399196624756f, 0.097599141299724578857f}
    },
    {
      {-0.016837550327181816101f, -0.39253655076026916504f, -0.026091547682881355286f},
      {-0.00028030615067109465599f, 0.26767379045486450195f, -1.6825677448650822043e-05f},
      {0.028121953830122947693f, 0.11321445554494857788f, 0.042836256325244903564f}
    },
    {
      {0.044101443141698837280f, -0.031691402196884155273f, -0.0027169138193130493164f},
      {0.082247912883758544922f, 0.26340320706367492676f, 0.058679938316345214844f},
      {-0.00074462546035647392273f, -0.0090921195223927497864f, 0.020517429336905479431f}
    }
  },
  {
    {
      {0.0095729930326342582703f, -0.0026529021561145782471f, -0.0023919902741909027100f},
      {0.014317311346530914307f, 0.0011676833964884281158f, 0.0067792562767863273621f},
      {6.8975343310739845037e-05f, -0.032039102166891098022f, 0.0043642707169055938721f}
    },
    {
      {-0.00046384590677917003632f, -0.0073162619955837726593f, 0.0036532240919768810272f},
      {-0.055603992193937301636f, -0.26775762438774108887f, 0.00019132292072754353285f},
      {-0.0012219565687701106071f, -0.096705704927444458008f, 7.6884462032467126846e-05f}
    },
    {
      {-0.0083560915663838386536f, -0.00039048332837410271168f, -0.0082347886636853218079f},
      {-0.00074968842091038823128f, 0.024285351857542991638f, -0.0012559520546346902847f},
      {0.0054672579281032085419f, -0.0012748531298711895943f, 0.010832023806869983673f}
    },
    {
      {0.00089021131861954927444f, 0.00085390696767717599869f, -0.00062214140780270099640f},
      {-0.042950782924890518188f, -0.22843456268310546875f, -0.00036621367326006293297f},
      {0.00037711768527515232563f, -0.076193779706954956055f, -0.00028939420008100569248f}
    },
    {
      {-0.049269068986177444458f, -0.035150527954101562500f, -0.052687793970108032227f},
      {-0.048294827342033386230f, -0.041434891521930694580f, -0.054722327739000320435f},
      {-0.087781764566898345947f, -0.096551179885864257812f, -0.091514594852924346924f}
    },
    {
      {-0.011198283173143863678f, -0.0053335493430495262146f, -0.0055035199038684368134f},
      {-0.011212722398340702057f, 0.025935232639312744141f, -0.0065827611833810806274f},
      {0.014280790463089942932f, 0.13560345768928527832f, 0.0078911026939749717712f}
    },
    {
      {-0.035210490226745605469f, -0.052172549068927764893f, -0.025421168655157089233f},
      {-0.080815896391868591309f, -0.18458166718482971191f, -0.064713209867477416992f},
      {-0.0091912457719445228577f, -0.080088429152965545654f, -0.0094097042456269264221f}
    },
    {
      {0.028768898919224739075f, 0.036202512681484222412f, 0.024448076263070106506f},
      {0.019249711185693740845f, 0.035164490342140197754f, 0.0057981014251708984375f},
      {-0.036236312240362167358f, -0.093630790710449218750f, -0.018542235717177391052f}
    }
  }
};
/* 4.bias*/
static const float tensor_4_bias[8] = 
{-0.049286518245935440063f, -0.013649027794599533081f, -1.7188410694757294550e-08f, 0.85478579998016357422f, 0.38602653145790100098f, 0.015051340684294700623f, 1.7837120294570922852f, 0.79606223106384277344f};
/* 4.weight*/
static const float tensor_4_weight[8][8][3][3] = 
{
  {
    {
      {0.010618198662996292114f, -0.11324777454137802124f, -0.17948900163173675537f},
      {-0.0012539485469460487366f, 0.0030652312561869621277f, -0.14768211543560028076f},
      {-0.093880288302898406982f, 0.012496754527091979980f, 0.018041860312223434448f}
    },
    {
      {-0.027939902618527412415f, -0.068889245390892028809f, 0.038266085088253021240f},
      {-0.0067577576264739036560f, 0.0039529320783913135529f, 0.016963200643658638000f},
      {0.025156678631901741028f, -0.034168116748332977295f, -0.060192916542291641235f}
    },
    {
      {0.00030100985895842313766f, 0.0017556025413796305656f, 0.046760171651840209961f},
      {-0.037605177611112594604f, -0.021047674119472503662f, 0.014016563072800636292f},
      {-0.025382017716765403748f, -0.032317094504833221436f, -0.022596752271056175232f}
    },
    {
      {-0.047417633235454559326f, -0.078930705785751342773f, -0.011773214675486087799f},
      {0.030257713049650192261f, -0.027586068958044052124f, -0.21552711725234985352f},
      {-0.068409085273742675781f, -0.00022739781707059592009f, -0.0096631813794374465942f}
    },
    {
      {0.016359996050596237183f, -0.052492670714855194092f, -0.098265327513217926025f},
      {-0.19501951336860656738f, -0.10562873631715774536f, -0.038717027753591537476f},
      {-0.0050754598341882228851f, -0.026043970137834548950f, -0.0083391629159450531006f}
    },
    {
      {0.052920229732990264893f, -0.18363986909389495850f, -0.070107787847518920898f},
      {0.35761281847953796387f, 0.010812791064381599426f, -0.65963482856750488281f},
      {0.19467298686504364014f, 0.29624271392822265625f, -0.13635833561420440674f}
    },
    {
      {0.22209087014198303223f, 0.053539291024208068848f, -0.088446043431758880615f},
      {0.15278330445289611816f, 0.10395152866840362549f, -0.32542857527732849121f},
      {-0.12344990670680999756f, 0.10060813277959823608f, 0.23439368605613708496f}
    },
    {
      {0.011052854359149932861f, -0.068590469658374786377f, -0.052076242864131927490f},
      {-0.0065373103134334087372f, 0.018691306933760643005f, -0.057359199970960617065f},
      {-0.024019645527005195618f, -0.0026414948515594005585f, -0.026321448385715484619f}
    }
  },
  {
    {
      {-0.021975990384817123413f, 0.013215392827987670898f, 0.039556048810482025146f},
      {0.022418299689888954163f, 0.017785703763365745544f, 0.022399969398975372314f},
      {0.00035809737164527177811f, 0.018759770318865776062f, 0.0055845254100859165192f}
    },
    {
      {-0.032078649848699569702f, -0.079595111310482025146f, -0.038075093179941177368f},
      {-0.012837453745305538177f, -0.012643219903111457825f, -0.010351807810366153717f},
      {-0.021551690995693206787f, -0.083868414163589477539f, -0.0092494105920195579529f}
    },
    {
      {-0.015524570830166339874f, -0.0020680818706750869751f, -0.012051510624587535858f},
      {-0.013515076600015163422f, -0.0055280397646129131317f, -0.010374462231993675232f},
      {-0.0054338057525455951691f, -0.0017321800114586949348f, -0.0035051333252340555191f}
    },
    {
      {-0.34129369258880615234f, -0.020585635676980018616f, 0.16259099543094635010f},
      {0.014522698707878589630f, -0.00054392358288168907166f, -0.054373133927583694458f},
      {0.0025464992504566907883f, -0.0041259471327066421509f, -0.0064904070459306240082f}
    },
    {
      {-0.0047499369829893112183f, -0.016142642125487327576f, -0.042185720056295394897f},
      {-0.0075676566921174526215f, -0.011696680448949337006f, -0.020431347191333770752f},
      {-0.0013565245317295193672f, -0.0074141770601272583008f, -0.014492701739072799683f}
    },
    {
      {-0.82964068651199340820f, 0.076392546296119689941f, 0.74352467060089111328f},
      {-0.074230976402759552002f, 0.039663404226303100586f, 0.046856079250574111938f},
      {-0.0032134973444044589996f, 0.0058181723579764366150f, 0.00096125574782490730286f}
    },
    {
      {-0.038095831871032714844f, 0.010766701772809028625f, 0.013733705505728721619f},
      {0.065804898738861083984f, 0.010607083328068256378f, -0.013757970184087753296f},
      {-1.6110159776872023940e-05f, 0.0027490332722663879395f, 0.0071696932427585124969f}
    },
    {
      {-0.028238093480467796326f, -0.051413003355264663696f, 0.0089869340881705284119f},
      {0.017934754490852355957f, -0.016059363260865211487f, -0.025925563648343086243f},
      {0.0014109582407400012016f, 0.00010423501225886866450f, 0.0016741509316489100456f}
    }
  },
  {
    {
      {-1.0842180486747565737e-09f, -5.9019784615088610735e-09f, -3.9560941189620280056e-09f},
      {3.5086153427066335553e-10f, -6.2697611546980169805e-09f, -1.1025843571488280759e-09f},
      {-4.4243053665127263230e-09f, -4.7772052980121770815e-09f, 1.7637256100044851337e-09f}
    },
    {
      {-4.9410155966711499786e-09f, -5.1421467084367122879e-09f, 3.6089378152581730319e-09f},
      {1.4831017525196443785e-09f, 6.1195817302461819054e-09f, -1.6919871059783986311e-09f},
      {-3.0043665333323588129e-09f, -5.5377930019417931362e-10f, 3.1333654421095147313e-11f}
    },
    {
      {1.6273564718005673058e-09f, -7.8665394198651483748e-09f, -4.6355448368728957576e-09f},
      {-1.0224634472422167164e-09f, -3.2912941261287187444e-09f, -3.7645149220111306931e-09f},
      {-1.6441399353084307222e-09f, -6.6770495799062246078e-09f, 1.1124877685730893973e-09f}
    },
    {
      {-8.2969409120892123610e-09f, 1.8667032364305669034e-09f, -6.7196856967655094195e-09f},
      {-3.2831082297235525402e-09f, -1.2292955986481501895e-08f, -9.0015399578646793088e-09f},
      {-6.1853548949386549793e-09f, 3.1634905806043889243e-09f, -1.0777657877270030440e-08f}
    },
    {
      {-4.7605439590370224323e-09f, 2.6237745309742876998e-09f, -5.8828670823629636288e-09f},
      {-1.3587134750636664648e-09f, -1.1135576016840786906e-08f, -7.9782367379266361240e-09f},
      {-8.7055411768233170733e-09f, 2.1011017370398121784e-09f, -3.6046629570130050979e-10f}
    },
    {
      {-1.3946269916687015211e-08f, -6.2167564429671529069e-09f, -6.5459704323700407258e-09f},
      {-2.7849475614516450150e-08f, -2.5677600490325858118e-08f, -2.0094939046089166368e-08f},
      {-1.1925214149499652194e-09f, -4.4941836918610533758e-09f, -9.4238865600004828593e-09f}
    },
    {
      {-6.2088112429137254367e-09f, -5.5811644195102871890e-09f, -4.9000927759834667086e-09f},
      {-3.8072762720275932224e-09f, -7.1680004154472953815e-09f, -1.0486941981469044549e-08f},
      {-3.6068961151158873690e-09f, -6.3480323220233003667e-09f, 8.0566248117364125392e-10f}
    },
    {
      {-7.7216579796868245467e-09f, -7.2019430419345553673e-09f, -6.1528955264122942026e-09f},
      {-3.1203508665811341416e-09f, 2.2794328646824624229e-09f, 1.7092570692156527912e-09f},
      {-8.0670492508261304465e-09f, -3.6519440804738678708e-09f, 5.9560356646670697955e-10f}
    }
  },
  {
    {
      {-0.040419541299343109131f, -0.029808297753334045410f, -0.057814110070466995239f},
      {-0.035036236047744750977f, -0.046592935919761657715f, -0.046675920486450195312f},
      {-0.015281675383448600769f, -0.044641088694334030151f, -0.045840829610824584961f}
    },
    {
      {-0.032536979764699935913f, -0.034291911870241165161f, -0.029656970873475074768f},
      {-0.026463624089956283569f, -0.031822040677070617676f, 0.015943292528390884399f},
      {-0.038414202630519866943f, -0.027184920385479927063f, 0.023702202364802360535f}
    },
    {
      {-0.095985241234302520752f, -0.088755898177623748779f, -0.10541041195392608643f},
      {-0.096406497061252593994f, -0.092625901103019714355f, -0.11497438699007034302f},
      {-0.12171964347362518311f, -0.12089452147483825684f, -0.13894191384315490723f}
    },
    {
      {-0.065950736403465270996f, -0.031196597963571548462f, -0.064168982207775115967f},
      {-0.087257854640483856201f, -0.086951740086078643799f, -0.093833319842815399170f},
      {-0.077473893761634826660f, -0.087466262280941009521f, -0.070986226201057434082f}
    },
    {
      {0.028093911707401275635f, 0.036714870482683181763f, 0.0025719874538481235504f},
      {-0.13659520447254180908f, -0.16701868176460266113f, -0.18511866033077239990f},
      {0.0077912174165248870850f, -0.0067258845083415508270f, -0.012425112538039684296f}
    },
    {
      {-0.050078164786100387573f, 0.018804488703608512878f, -0.050932507961988449097f},
      {-0.028096050024032592773f, 0.074878752231597900391f, -0.047796286642551422119f},
      {0.024455748498439788818f, 0.063028171658515930176f, 0.0027373542543500661850f}
    },
    {
      {-0.0060129757039248943329f, -0.0038984911516308784485f, -0.018429320305585861206f},
      {-0.036029797047376632690f, -0.036735266447067260742f, -0.043806631118059158325f},
      {0.059621740132570266724f, 0.082483902573585510254f, 0.065724849700927734375f}
    },
    {
      {-0.0043589044362306594849f, 0.12320020794868469238f, -0.040596954524517059326f},
      {0.24197463691234588623f, 0.52914416790008544922f, 0.24430286884307861328f},
      {0.035081777721643447876f, 0.14912816882133483887f, 0.017180304974317550659f}
    }
  },
  {
    {
      {-0.0065765185281634330750f, -0.033628277480602264404f, -0.0081170629709959030151f},
      {-0.015129059553146362305f, -0.090710490942001342773f, -0.043581876903772354126f},
      {0.017172908410429954529f, -0.023870052769780158997f, 0.0030874386429786682129f}
    },
    {
      {-0.037608858197927474976f, -0.026982594281435012817f, 0.0040355576202273368835f},
      {-0.0033009392209351062775f, 0.00082177796866744756699f, 0.032375719398260116577f},
      {0.012672260403633117676f, 0.038636542856693267822f, 0.054582238197326660156f}
    },
    {
      {0.33686801791191101074f, 0.38098090887069702148f, 0.37918788194656372070f},
      {0.24496354162693023682f, 0.28334552049636840820f, 0.27586105465888977051f},
      {0.13826775550842285156f, 0.15915158390998840332f, 0.14686894416809082031f}
    },
    {
      {-0.027952972799539566040f, -0.062660112977027893066f, -0.074140504002571105957f},
      {-0.034266833215951919556f, -0.014155323617160320282f, -0.062711820006370544434f},
      {-0.0042967316694557666779f, -0.0095589403063058853149f, -0.043735068291425704956f}
    },
    {
      {0.036393586546182632446f, 0.028185846284031867981f, 0.021750135347247123718f},
      {-0.0059863822534680366516f, -0.011251859366893768311f, -0.0085354186594486236572f},
      {-0.033102385699748992920f, -0.064692124724388122559f, -0.038207985460758209229f}
    },
    {
      {0.020361363887786865234f, 0.10276721417903900146f, 0.080612912774085998535f},
      {-0.055078342556953430176f, 0.013140448369085788727f, 0.0040711243636906147003f},
      {-0.041959736496210098267f, -0.020108927041292190552f, -0.021365234628319740295f}
    },
    {
      {0.019446322694420814514f, 0.0050964620895683765411f, 0.010176777839660644531f},
      {0.056568585336208343506f, 0.037761487066745758057f, 0.046711273491382598877f},
      {-0.036918800324201583862f, -0.030467791482806205750f, -0.043824780732393264771f}
    },
    {
      {0.051310930401086807251f, 0.057959102094173431396f, 0.039805855602025985718f},
      {0.0078200809657573699951f, -5.6018059694906696677e-05f, -0.011569038033485412598f},
      {-0.020560296252369880676f, -0.041175357997417449951f, -0.029210211709141731262f}
    }
  },
  {
    {
      {-0.019844111055135726929f, -0.0041334880515933036804f, 0.0017122515710070729256f},
      {0.0052352631464600563049f, -0.0039857067167758941650f, -0.0022272474598139524460f},
      {-0.020028989762067794800f, -0.071312770247459411621f, -0.0082637351006269454956f}
    },
    {
      {0.00011021114187315106392f, 0.0095941303297877311707f, -0.0053952825255692005157f},
      {-0.0035975913051515817642f, 0.024384029209613800049f, 0.056945674121379852295f},
      {0.00078267441131174564362f, -0.013571648858487606049f, -0.010620539076626300812f}
    },
    {
      {0.084837920963764190674f, 0.14666432142257690430f, 0.052468307316303253174f},
      {-0.056592997163534164429f, -0.068100631237030029297f, -0.038104966282844543457f},
      {0.0042727640829980373383f, 0.0047234706580638885498f, 0.0094790169969201087952f}
    },
    {
      {-0.017354413866996765137f, 0.12743696570396423340f, -0.010275922715663909912f},
      {-0.032528489828109741211f, -0.13067944347858428955f, -0.024869617074728012085f},
      {-0.0083305258303880691528f, 0.0081580616533756256104f, -0.0044683567248284816742f}
    },
    {
      {-0.020325152203440666199f, -0.062270663678646087646f, 0.0022164850961416959763f},
      {0.021134981885552406311f, 0.25908026099205017090f, 0.091670386493206024170f},
      {-0.0097619891166687011719f, -0.011302655562758445740f, -0.022808874025940895081f}
    },
    {
      {0.20557931065559387207f, 0.64957875013351440430f, 0.028467990458011627197f},
      {-0.10975094884634017944f, -0.83226597309112548828f, -0.058376275002956390381f},
      {-0.0060271816328167915344f, -0.0098495325073599815369f, 0.025422936305403709412f}
    },
    {
      {0.056742992252111434937f, 0.076496869325637817383f, 0.028344139456748962402f},
      {0.17868514358997344971f, 0.099849499762058258057f, 0.16975036263465881348f},
      {0.044038217514753341675f, 0.38685226440429687500f, 0.17055594921112060547f}
    },
    {
      {-0.0078416289761662483215f, -0.094138666987419128418f, 0.026441514492034912109f},
      {-0.046705909073352813721f, -0.18064859509468078613f, -0.081040620803833007812f},
      {0.010506870225071907043f, 0.053879559040069580078f, 0.020175991579890251160f}
    }
  },
  {
    {
      {-0.017305197194218635559f, -0.010582387447357177734f, 0.0016342698363587260246f},
      {-0.027623223140835762024f, -0.073642127215862274170f, -0.0088295210152864456177f},
      {-0.052670959383249282837f, -0.058658488094806671143f, -0.0099920220673084259033f}
    },
    {
      {0.0016030742553994059563f, -0.0012613222934305667877f, -0.026450708508491516113f},
      {-0.049253456294536590576f, -0.11103574186563491821f, -0.061862446367740631104f},
      {-0.027372706681489944458f, -0.026305746287107467651f, -0.036600880324840545654f}
    },
    {
      {-0.0095456792041659355164f, -0.030739776790142059326f, -0.027311885729432106018f},
      {-0.027278330177068710327f, -0.052866917103528976440f, -0.038544084876775741577f},
      {0.010639426298439502716f, 0.0078152595087885856628f, 0.0048817698843777179718f}
    },
    {
      {-0.011537137441337108612f, -0.00049201957881450653076f, 0.0096025886014103889465f},
      {-0.0080977464094758033752f, -0.0041717137210071086884f, 0.0062471572309732437134f},
      {0.045780446380376815796f, 0.021245127543807029724f, 0.036575209349393844604f}
    },
    {
      {-0.034732647240161895752f, -0.069312505424022674561f, -0.014470247551798820496f},
      {0.084713131189346313477f, 0.11958089470863342285f, 0.13926421105861663818f},
      {0.074669733643531799316f, 0.063444659113883972168f, 0.087221182882785797119f}
    },
    {
      {-0.074940867722034454346f, -0.010727247223258018494f, -0.037509292364120483398f},
      {-0.12620218098163604736f, -0.099795319139957427979f, -0.081108622252941131592f},
      {-0.044942341744899749756f, -0.028821352869272232056f, -0.024303713813424110413f}
    },
    {
      {-0.021088555455207824707f, -0.015468768775463104248f, -0.030026432126760482788f},
      {0.030808212235569953918f, 0.0045478683896362781525f, 0.021435108035802841187f},
      {0.041182033717632293701f, 0.065798528492450714111f, 0.086701430380344390869f}
    },
    {
      {0.025725122541189193726f, -0.011259086430072784424f, 0.042873740196228027344f},
      {-0.059477828443050384521f, -0.22630937397480010986f, -0.085740715265274047852f},
      {0.020805973559617996216f, -0.022930933162569999695f, 0.019694002345204353333f}
    }
  },
  {
    {
      {0.27213665843009948730f, 0.046917065978050231934f, 0.0056505585089325904846f},
      {0.34305012226104736328f, 0.027945432811975479126f, 0.034982010722160339355f},
      {0.18500789999961853027f, 0.12021183222532272339f, 0.022920163348317146301f}
    },
    {
      {0.016328802332282066345f, 0.0065808338113129138947f, 0.23854956030845642090f},
      {-0.0061670243740081787109f, 0.083634436130523681641f, 0.35914960503578186035f},
      {0.016112118959426879883f, 0.28126305341720581055f, 0.21332941949367523193f}
    },
    {
      {0.0073593668639659881592f, 0.024778425693511962891f, -2.6626381441019475460e-05f},
      {0.022241594269871711731f, 0.015921464189887046814f, 0.0017292767297476530075f},
      {0.024283520877361297607f, 0.031742364168167114258f, 0.015524306334555149078f}
    },
    {
      {-0.032663818448781967163f, -0.25620329380035400391f, -0.016016896814107894897f},
      {-0.044772982597351074219f, -0.23661579191684722900f, -0.024537175893783569336f},
      {-0.036514565348625183105f, -0.037560064345598220825f, -0.028672898188233375549f}
    },
    {
      {-0.033268988132476806641f, -0.13510054349899291992f, -0.048711411654949188232f},
      {0.040372010320425033569f, 0.039783321321010589600f, 0.056851882487535476685f},
      {0.032574430108070373535f, 0.0085539510473608970642f, 0.019124323502182960510f}
    },
    {
      {0.24130076169967651367f, -0.36277374625205993652f, 0.067023187875747680664f},
      {0.088031850755214691162f, -0.36684408783912658691f, 0.16315968334674835205f},
      {0.015893686562776565552f, -0.038100469857454299927f, 0.096383035182952880859f}
    },
    {
      {-0.038091622292995452881f, -0.046735871583223342896f, -0.0055933776311576366425f},
      {-0.059052158147096633911f, -0.077786728739738464355f, -0.0028535407036542892456f},
      {0.014336611144244670868f, 0.087046973407268524170f, 0.013019221834838390350f}
    },
    {
      {0.0057576098479330539703f, -0.090181954205036163330f, -0.0019271065248176455498f},
      {-0.023289538919925689697f, -0.11654295027256011963f, -0.022332374006509780884f},
      {-0.013571526855230331421f, -0.027186105027794837952f, -0.0057123885490000247955f}
    }
  }
};
/* 6.bias*/
static const float tensor_6_bias[8] = 
{0.33773517608642578125f, 0.20953984558582305908f, -0.099062450230121612549f, 0.35320767760276794434f, -0.025083625689148902893f, 0.37670791149139404297f, 1.9296861886978149414f, 0.18481783568859100342f};
/* 6.weight*/
static const float tensor_6_weight[8][8][4][4] = 
{
  {
    {
      {0.041760817170143127441f, 0.050416812300682067871f, 0.060115847736597061157f, 0.019100176170468330383f},
      {0.053809370845556259155f, 0.031293381005525588989f, 0.12994790077209472656f, 0.060703210532665252686f},
      {0.098966464400291442871f, 0.043193712830543518066f, 0.052927095443010330200f, 0.031936317682266235352f},
      {0.090821646153926849365f, 0.056318596005439758301f, 0.010701421648263931274f, 0.0023118534591048955917f}
    },
    {
      {0.059728723019361495972f, 0.089149869978427886963f, 0.049597695469856262207f, 0.025066813454031944275f},
      {0.23017488420009613037f, 0.28995770215988159180f, 0.18673826754093170166f, 0.12940433621406555176f},
      {0.39685755968093872070f, 0.52049684524536132812f, 0.32046186923980712891f, 0.28328406810760498047f},
      {0.23628936707973480225f, 0.32698979973793029785f, 0.20831717550754547119f, 0.19317337870597839355f}
    },
    {
      {-7.9355833015881671599e-10f, 1.5062593394787882062e-09f, 7.9412867393102715141e-09f, 3.2981222197747683822e-09f},
      {-3.4217244593293116850e-09f, 3.3336183813403863496e-10f, 2.5691999638866036548e-09f, -1.2742830124423676352e-09f},
      {-3.0043665333323588129e-09f, 4.6643973128368543257e-09f, 3.4526930203782058015e-09f, 5.9679559905045920232e-11f},
      {1.4336780651547087473e-09f, 5.3917759146315802354e-10f, 1.9279238205882620605e-09f, 9.8608365917129958689e-10f}
    },
    {
      {0.081122644245624542236f, -0.012571688741445541382f, -0.051615513861179351807f, -0.013539523817598819733f},
      {0.086278431117534637451f, -0.068907871842384338379f, -0.13822537660598754883f, -0.072712793946266174316f},
      {0.14463050663471221924f, -0.0053095663897693157196f, -0.059107780456542968750f, 0.011777398176491260529f},
      {0.050424203276634216309f, -0.0072542470879852771759f, -0.013310847803950309753f, 0.019636090844869613647f}
    },
    {
      {0.075210414826869964600f, 0.037315525114536285400f, 0.015081628225743770599f, 0.064974084496498107910f},
      {0.043813865631818771362f, -0.011964436620473861694f, -0.043056577444076538086f, 0.012882507406175136566f},
      {0.042127363383769989014f, -0.0060271159745752811432f, -0.061568878591060638428f, -0.019046716392040252686f},
      {0.024720335379242897034f, 0.014061558991670608521f, -0.0084317121654748916626f, 0.013647533021867275238f}
    },
    {
      {0.021359467878937721252f, 0.0019480988848954439163f, -0.0020659167785197496414f, 0.016198370605707168579f},
      {0.010632465593516826630f, -0.0036641894839704036713f, -0.0059733884409070014954f, 0.0094409035518765449524f},
      {0.010716674849390983582f, 0.016260668635368347168f, 0.030242200940847396851f, 0.040751077234745025635f},
      {0.0038671675138175487518f, 0.015237634070217609406f, 0.018170151859521865845f, 0.013993037864565849304f}
    },
    {
      {0.22357964515686035156f, -0.023516042158007621765f, -0.094979174435138702393f, -0.025579368695616722107f},
      {0.24330368638038635254f, -0.11423112452030181885f, -0.21505115926265716553f, -0.091887764632701873779f},
      {0.25897774100303649902f, -0.067323736846446990967f, -0.18958683311939239502f, -0.093357093632221221924f},
      {0.15679724514484405518f, -0.0084108449518680572510f, -0.042455915361642837524f, 0.028723558411002159119f}
    },
    {
      {-0.065214172005653381348f, -0.10780592262744903564f, -0.066537387669086456299f, -0.027849644422531127930f},
      {0.0034609360154718160629f, -0.057506449520587921143f, -0.038638528436422348022f, -0.0010808808729052543640f},
      {0.040204197168350219727f, 0.0043772640638053417206f, 0.0054958066903054714203f, 0.016221066936850547791f},
      {0.026768006384372711182f, 0.0025214867200702428818f, 0.011041671968996524811f, 0.029378900304436683655f}
    }
  },
  {
    {
      {-0.0025625769048929214478f, -0.011265068314969539642f, -0.067174315452575683594f, -0.025761779397726058960f},
      {-0.0087276799604296684265f, -0.026303773745894432068f, -0.076913990080356597900f, -0.017208710312843322754f},
      {-0.0019839394371956586838f, -0.027410224080085754395f, -0.044456727802753448486f, -0.0083293663337826728821f},
      {-0.0015965977218002080917f, -0.030236400663852691650f, -0.024370862171053886414f, -0.0035839898046106100082f}
    },
    {
      {-0.0028817097190767526627f, 0.016130490228533744812f, 0.032342959195375442505f, 0.024533120915293693542f},
      {0.017845079302787780762f, 0.082993470132350921631f, 0.080820955336093902588f, 0.056281708180904388428f},
      {0.068597570061683654785f, 0.10920795798301696777f, 0.11197465658187866211f, 0.068361282348632812500f},
      {0.059475705027580261230f, 0.041613046079874038696f, 0.046464297920465469360f, 0.016253408044576644897f}
    },
    {
      {6.9097438881726702675e-09f, 2.1229717983572982121e-09f, 4.5974073437093920802e-09f, 7.2181531862725023529e-09f},
      {-2.5564270700328961539e-09f, -1.1306846570136031005e-09f, 2.1522574833454655163e-09f, -4.4198591453437074961e-09f},
      {-4.5144035176747365767e-09f, -1.0406605355228748522e-08f, -5.2488946522544210893e-09f, -1.5847334555729730710e-09f},
      {4.2322860771548675984e-09f, 4.1926897509370064654e-09f, 1.9226391589910463154e-09f, -2.0738624151306339627e-09f}
    },
    {
      {0.10063187032938003540f, 0.056789521127939224243f, 0.024798139929771423340f, 0.054789386689662933350f},
      {0.062639281153678894043f, 0.020253602415323257446f, -0.048518564552068710327f, -0.013578521087765693665f},
      {0.088371418416500091553f, 0.031026389449834823608f, -0.055293928831815719604f, -0.027748368680477142334f},
      {0.0093182316049933433533f, -0.0045907571911811828613f, -0.054907202720642089844f, -0.035960972309112548828f}
    },
    {
      {0.060823135077953338623f, 0.048847369849681854248f, 0.042932081967592239380f, 0.058850839734077453613f},
      {0.041453868150711059570f, 0.013276381418108940125f, -0.019104007631540298462f, -0.0036535256076604127884f},
      {0.015941483899950981140f, -0.026558322831988334656f, -0.073275640606880187988f, -0.038907047361135482788f},
      {-0.018279824405908584595f, -0.056957341730594635010f, -0.086488805711269378662f, -0.053149987012147903442f}
    },
    {
      {0.0043291668407618999481f, -0.00051468802848830819130f, -9.1128829808440059423e-05f, 0.019605761393904685974f},
      {0.012282554991543292999f, -0.013137578964233398438f, -0.037051029503345489502f, -0.011293542571365833282f},
      {0.0058990721590816974640f, -0.034293301403522491455f, -0.061102136969566345215f, -0.036741148680448532104f},
      {0.0033817586954683065414f, -0.024764994159340858459f, -0.018933018669486045837f, 0.010608978569507598877f}
    },
    {
      {0.088701181113719940186f, 0.046590246260166168213f, -0.031473748385906219482f, -0.012545531615614891052f},
      {0.15994465351104736328f, 0.0051184394396841526031f, -0.17458945512771606445f, -0.23815524578094482422f},
      {0.12234534323215484619f, -0.048339616507291793823f, -0.23962758481502532959f, -0.29211315512657165527f},
      {0.017198788002133369446f, -0.059364378452301025391f, -0.15577988326549530029f, -0.13221585750579833984f}
    },
    {
      {0.14272217452526092529f, 0.29004976153373718262f, 0.22780124843120574951f, 0.081452608108520507812f},
      {0.27150502800941467285f, 0.40236428380012512207f, 0.30795088410377502441f, 0.11401216685771942139f},
      {0.17788904905319213867f, 0.29382494091987609863f, 0.22278805077075958252f, 0.078656852245330810547f},
      {0.022890372201800346375f, 0.12386343628168106079f, 0.12980431318283081055f, 0.061294663697481155396f}
    }
  },
  {
    {
      {0.053613010793924331665f, 0.042889684438705444336f, 0.00024163948546629399061f, 0.0093359742313623428345f},
      {-0.0090151764452457427979f, -0.025594647973775863647f, -0.0048418217338621616364f, 0.013343674130737781525f},
      {-0.038972511887550354004f, -0.064752787351608276367f, 0.011385603807866573334f, 0.023557182401418685913f},
      {-0.066513404250144958496f, -0.077410802245140075684f, 0.032888147979974746704f, 0.020937358960509300232f}
    },
    {
      {-0.012033254839479923248f, -0.018577188253402709961f, 0.020487764850258827209f, 0.021187108010053634644f},
      {-0.00081387133104726672173f, 0.011623288504779338837f, 0.047986112534999847412f, 0.027988949790596961975f},
      {0.011480917222797870636f, 0.014058391563594341278f, -0.00080350117059424519539f, -0.0055411425419151782990f},
      {0.00086445477791130542755f, -0.015712071210145950317f, -0.061552785336971282959f, -0.050255648791790008545f}
    },
    {
      {5.7236122508186326741e-09f, 5.2274412576380768769e-10f, 5.4532871551771222585e-09f, 1.5966522548538364390e-09f},
      {4.7954888948709140095e-09f, 3.0933144934408574045e-09f, 8.8644718232444574824e-09f, 7.9222424176350614289e-09f},
      {9.8956682847983756801e-09f, 9.4299217323623452103e-09f, 6.3429834717965150048e-09f, 1.0273778272562594793e-08f},
      {-2.5127757652398940991e-09f, 5.2986188769921227504e-09f, 6.1195759570864538546e-09f, 8.0195636797952829511e-09f}
    },
    {
      {0.058686520904302597046f, 0.11762736737728118896f, 0.10996744781732559204f, 0.045178547501564025879f},
      {-0.0064009539783000946045f, 0.0075378729961812496185f, 0.0052358317188918590546f, -0.026924626901745796204f},
      {-0.054316364228725433350f, -0.068145923316478729248f, -0.047643531113862991333f, -0.091339990496635437012f},
      {-0.065638355910778045654f, -0.062061071395874023438f, -0.044325113296508789062f, -0.072489939630031585693f}
    },
    {
      {-0.032269794493913650513f, -0.037806797772645950317f, -0.024537516757845878601f, -0.021383378654718399048f},
      {-0.075996331870555877686f, -0.090580418705940246582f, -0.069086559116840362549f, -0.064526632428169250488f},
      {-0.013295695185661315918f, -0.023643944412469863892f, -0.012554347515106201172f, -0.018332384526729583740f},
      {0.069742649793624877930f, 0.076395012438297271729f, 0.083246134221553802490f, 0.081416495144367218018f}
    },
    {
      {0.083761304616928100586f, 0.14666077494621276855f, 0.13222014904022216797f, 0.058394417166709899902f},
      {0.20975627005100250244f, 0.28700813651084899902f, 0.22639226913452148438f, 0.10760016739368438721f},
      {0.10359453409910202026f, 0.15824115276336669922f, 0.11381193250417709351f, 0.046689294278621673584f},
      {0.0053741531446576118469f, 0.036419216543436050415f, 0.042691320180892944336f, 0.014970601536333560944f}
    },
    {
      {0.40600058436393737793f, 0.49910518527030944824f, 0.46288186311721801758f, 0.31996342539787292480f},
      {0.16974455118179321289f, 0.16723015904426574707f, 0.11895704269409179688f, 0.046791087836027145386f},
      {-0.15888217091560363770f, -0.24440519511699676514f, -0.30697974562644958496f, -0.30338177084922790527f},
      {-0.23774290084838867188f, -0.22206757962703704834f, -0.21597579121589660645f, -0.20410947501659393311f}
    },
    {
      {0.094944767653942108154f, 0.13023905456066131592f, 0.098967142403125762939f, 0.066096290946006774902f},
      {0.025500943884253501892f, 0.015141869895160198212f, -0.0090189920738339424133f, -0.0039161336608231067657f},
      {-0.034817397594451904297f, -0.13500054180622100830f, -0.20659530162811279297f, -0.11926666647195816040f},
      {-0.093061044812202453613f, -0.19912950694561004639f, -0.19164495170116424561f, -0.063617624342441558838f}
    }
  },
  {
    {
      {0.045480541884899139404f, 0.035359486937522888184f, 0.066301830112934112549f, 0.049981910735368728638f},
      {0.072357080876827239990f, 0.066513881087303161621f, 0.071672983467578887939f, 0.046217661350965499878f},
      {0.054309446364641189575f, 0.037645209580659866333f, 0.027937134727835655212f, 0.0082988422363996505737f},
      {0.019906152039766311646f, 0.0023642529267817735672f, 0.020018965005874633789f, 0.0024017894174903631210f}
    },
    {
      {0.014805541373789310455f, 0.0062700780108571052551f, 0.013104873709380626678f, 0.023050973191857337952f},
      {0.018286062404513359070f, 0.013002137653529644012f, 0.013811511918902397156f, 0.026954073458909988403f},
      {0.0087156714871525764465f, 0.033459190279245376587f, 0.054634518921375274658f, 0.066591069102287292480f},
      {-0.024630555883049964905f, 0.0040131001733243465424f, 0.058514967560768127441f, 0.060797818005084991455f}
    },
    {
      {4.8557997900378069289e-11f, 2.9967712755762931920e-09f, -3.0010158802440400905e-09f, -7.4830666108027799055e-09f},
      {-2.3490280831595100608e-09f, -5.5943294441362922953e-09f, -4.6059609459803141362e-09f, -7.9386248685864302388e-09f},
      {-3.4382559022105851909e-09f, -6.2196963135363603215e-09f, -2.8965865261909584660e-09f, -1.0712739140217308886e-08f},
      {-2.9777444954248721842e-09f, -2.1094463953374997800e-09f, -9.3865253347757970914e-09f, -8.7263121173464242020e-09f}
    },
    {
      {-0.038144286721944808960f, 0.026904243975877761841f, 0.056023396551609039307f, -0.019448798149824142456f},
      {0.14287847280502319336f, 0.33701896667480468750f, 0.37953621149063110352f, 0.19752815365791320801f},
      {0.17976009845733642578f, 0.36717495322227478027f, 0.43326318264007568359f, 0.23472435772418975830f},
      {0.017633840441703796387f, 0.10488307476043701172f, 0.12137278169393539429f, 0.027350226417183876038f}
    },
    {
      {-0.0070658386684954166412f, 0.011536071076989173889f, 0.032665643841028213501f, 0.024278711527585983276f},
      {0.016498457640409469604f, 0.051619905978441238403f, 0.072294145822525024414f, 0.050522241741418838501f},
      {0.019816068932414054871f, 0.061386760324239730835f, 0.073255203664302825928f, 0.047138564288616180420f},
      {-0.011892383918166160583f, 0.020305700600147247314f, 0.022866861894726753235f, 0.0027260326314717531204f}
    },
    {
      {0.028272189199924468994f, 0.049174681305885314941f, 0.047960389405488967896f, 0.029313171282410621643f},
      {0.0080526769161224365234f, 0.012042406946420669556f, 0.0059707830660045146942f, -0.0028906306251883506775f},
      {-0.0017034455668181180954f, -0.0032694251276552677155f, -0.020312977954745292664f, -0.018096860498189926147f},
      {0.013749537058174610138f, 0.013173100538551807404f, 0.0048823463730514049530f, 0.0096326386556029319763f}
    },
    {
      {0.017226062715053558350f, -0.016365746036171913147f, -0.023652320727705955505f, 0.040089663118124008179f},
      {-0.012749291025102138519f, -0.12634862959384918213f, -0.17011684179306030273f, -0.047952868044376373291f},
      {-0.029974935576319694519f, -0.17685717344284057617f, -0.26686659455299377441f, -0.14634872972965240479f},
      {0.0083701163530349731445f, -0.0042455289512872695923f, -0.086845889687538146973f, -0.048897575587034225464f}
    },
    {
      {0.021428778767585754395f, 0.018966959789395332336f, 0.0058261337690055370331f, 0.023563584312796592712f},
      {-0.0047264723107218742371f, -0.028553273528814315796f, -0.041944049298763275146f, -0.0070910793729126453400f},
      {-0.037371635437011718750f, -0.10966803878545761108f, -0.13588850200176239014f, -0.054309681057929992676f},
      {-0.038871701806783676147f, -0.053667344152927398682f, -0.070564799010753631592f, -0.037349276244640350342f}
    }
  },
  {
    {
      {0.0033220853656530380249f, -0.011554545722901821136f, -0.029551465064287185669f, 0.0097572132945060729980f},
      {0.034745730459690093994f, 0.016076428815722465515f, -0.024078138172626495361f, 0.033935915678739547729f},
      {0.053490810096263885498f, 0.036508031189441680908f, -0.0073164463974535465240f, 0.047511227428913116455f},
      {0.027891231700778007507f, 0.021635595709085464478f, -0.015146660618484020233f, 0.025761632248759269714f}
    },
    {
      {-0.011391591280698776245f, -0.025798637419939041138f, -0.0029309974052011966705f, 0.0089992797002196311951f},
      {-0.021577851846814155579f, -0.056656979024410247803f, -0.021566290408372879028f, -0.0097738578915596008301f},
      {0.025025609880685806274f, -0.013672841712832450867f, 0.0086458548903465270996f, 0.0013326378539204597473f},
      {0.035380732268095016479f, 0.00056000443873926997185f, 0.038355641067028045654f, 0.028483204543590545654f}
    },
    {
      {2.1702648567156757053e-09f, 2.3740873711375343191e-09f, -2.1982604625492285777e-09f, -3.5362246464387681044e-09f},
      {6.0102807175610450940e-09f, 6.5415926009393388085e-09f, 5.0305883902979076083e-09f, 2.7487228049238865424e-09f},
      {4.2003400757550934941e-10f, 4.5821169081250445743e-09f, 5.3312604331168245153e-10f, -7.5403289168107789919e-10f},
      {-4.1564454100750936050e-09f, -3.4422438233150387532e-09f, 2.2890025430655214222e-09f, -1.6260920387978217150e-09f}
    },
    {
      {-0.077208496630191802979f, -0.072673670947551727295f, -0.13853703439235687256f, -0.17873787879943847656f},
      {0.044521778821945190430f, 0.082606121897697448730f, 0.016477333381772041321f, -0.045559484511613845825f},
      {0.026177020743489265442f, 0.080666095018386840820f, 0.0069052502512931823730f, -0.037440914660692214966f},
      {0.013521303422749042511f, 0.078633166849613189697f, 0.019352244213223457336f, -0.041352882981300354004f}
    },
    {
      {0.17375324666500091553f, 0.24439984560012817383f, 0.29215502738952636719f, 0.31647515296936035156f},
      {0.17976796627044677734f, 0.24401979148387908936f, 0.26816385984420776367f, 0.27803596854209899902f},
      {0.077887482941150665283f, 0.11374671757221221924f, 0.11567943543195724487f, 0.11334954947233200073f},
      {0.038358751684427261353f, 0.071645833551883697510f, 0.063615448772907257080f, 0.039390943944454193115f}
    },
    {
      {0.020655758678913116455f, 0.045494090765714645386f, 0.044876202940940856934f, 0.023648981004953384399f},
      {0.018545664846897125244f, 0.025847686454653739929f, 0.017528181895613670349f, -0.0061090094968676567078f},
      {-0.0079921064898371696472f, 0.0016599027439951896667f, -0.0038561085239052772522f, -0.015438680537045001984f},
      {-0.040835976600646972656f, -0.021145325154066085815f, -0.0039740880019962787628f, -0.012483796104788780212f}
    },
    {
      {-0.12955176830291748047f, -0.18604652583599090576f, -0.24256518483161926270f, -0.36867019534111022949f},
      {0.055722393095493316650f, 0.060923561453819274902f, 0.010947861708700656891f, -0.19675782322883605957f},
      {0.18588833510875701904f, 0.22817917168140411377f, 0.17645493149757385254f, -0.057381581515073776245f},
      {0.19718220829963684082f, 0.27583289146423339844f, 0.26645386219024658203f, 0.019381662830710411072f}
    },
    {
      {-0.0011177950073033571243f, -0.087833188474178314209f, -0.060930795967578887939f, -8.2784914411604404449e-05f},
      {0.037992227822542190552f, -0.011730182915925979614f, -0.0088913664221763610840f, 0.014345141127705574036f},
      {0.063998535275459289551f, 0.0038827636744827032089f, 0.0078054754994809627533f, 0.041615005582571029663f},
      {0.021937539801001548767f, -0.049588195979595184326f, -0.023163521662354469299f, 0.024207681417465209961f}
    }
  },
  {
    {
      {0.035562660545110702515f, 0.034622628241777420044f, 0.068788111209869384766f, 0.0066890153102576732635f},
      {-8.8228525783051736653e-06f, 0.026196781545877456665f, 0.15995961427688598633f, 0.035771381109952926636f},
      {0.020348517224192619324f, 0.0056607206352055072784f, 0.051478337496519088745f, 0.0028343065641820430756f},
      {0.00053911871509626507759f, -0.014420244842767715454f, -0.031898770481348037720f, -0.043172325938940048218f}
    },
    {
      {-0.00015377077215816825628f, 0.0076798535883426666260f, 0.0046332785859704017639f, 0.0092037050053477287292f},
      {-0.0022326463367789983749f, 0.019128916785120964050f, 0.00012166059605078771710f, 0.0066250995732843875885f},
      {-0.017328513786196708679f, 0.019352676346898078918f, -0.031197283416986465454f, 0.00037895300192758440971f},
      {-0.053053084760904312134f, -0.021250072866678237915f, -0.015375206246972084045f, 0.014249509200453758240f}
    },
    {
      {9.4326080279927282390e-10f, -1.1498536567344785908e-09f, -4.5106931523264393036e-09f, 4.4070143090380042850e-09f},
      {5.0924260364126894274e-09f, 2.0910135845042532310e-09f, 3.3301377211358840214e-09f, -7.2124173300380789442e-10f},
      {-4.1925221627714392980e-10f, -3.8223393339364974963e-09f, -3.8137142333027895802e-09f, -2.8462403545148617923e-09f},
      {-8.5660895043915274982e-10f, 2.9645244037368456702e-09f, -1.8435277748807266107e-09f, -8.6411371114092361267e-11f}
    },
    {
      {0.017641330137848854065f, 0.021055547520518302917f, 0.013745864853262901306f, 0.041434682905673980713f},
      {-0.072260707616806030273f, -0.090689942240715026855f, -0.088651224970817565918f, -0.018305560573935508728f},
      {-0.021070439368486404419f, -0.019863622263073921204f, -0.041208278387784957886f, -0.0072384560480713844299f},
      {0.029407441616058349609f, 0.063193380832672119141f, 0.060936931520700454712f, 0.051384225487709045410f}
    },
    {
      {0.011658500880002975464f, 0.023421708494424819946f, 0.018512435257434844971f, 0.028144195675849914551f},
      {0.0078044878318905830383f, 0.0038762064650654792786f, -0.0047509134747087955475f, 0.0075886156409978866577f},
      {0.024191081523895263672f, 0.021867178380489349365f, 0.013245538808405399323f, 0.023382669314742088318f},
      {0.015430970117449760437f, 0.011900756508111953735f, 0.012125220149755477905f, 0.030686980113387107849f}
    },
    {
      {0.034098412841558456421f, 0.085442945361137390137f, 0.11475769430398941040f, 0.077605731785297393799f},
      {0.17127980291843414307f, 0.31437650322914123535f, 0.35669559240341186523f, 0.24896016716957092285f},
      {0.18226182460784912109f, 0.33556827902793884277f, 0.40087983012199401855f, 0.27653324604034423828f},
      {0.041607640683650970459f, 0.15496367216110229492f, 0.18947283923625946045f, 0.076915770769119262695f}
    },
    {
      {-0.0090332766994833946228f, 0.0023378417827188968658f, -0.056823443621397018433f, 0.0044835335575044155121f},
      {-0.17300544679164886475f, -0.22422455251216888428f, -0.26479485630989074707f, -0.13365054130554199219f},
      {-0.036185778677463531494f, -0.026245549321174621582f, -0.032983213663101196289f, 0.039705608040094375610f},
      {0.12791100144386291504f, 0.23047563433647155762f, 0.26499480009078979492f, 0.26644057035446166992f}
    },
    {
      {0.0040723802521824836731f, -0.010399512015283107758f, -0.040202938020229339600f, -0.0036562313325703144073f},
      {-0.068329051136970520020f, -0.14155326783657073975f, -0.17046363651752471924f, -0.083165891468524932861f},
      {-0.066175341606140136719f, -0.084609217941761016846f, -0.074496522545814514160f, -0.032863557338714599609f},
      {-0.0091035654768347740173f, 0.0059472140856087207794f, 0.015370235778391361237f, 0.0051507418975234031677f}
    }
  },
  {
    {
      {0.0045014168135821819305f, 0.00062601140234619379044f, 0.042285483330488204956f, 0.013879373669624328613f},
      {-0.030994728207588195801f, -0.035125665366649627686f, 0.034249361604452133179f, 0.010030217468738555908f},
      {-0.0080237351357936859131f, -0.026613002642989158630f, -0.020195186138153076172f, -0.0080439802259206771851f},
      {0.0054274471476674079895f, -0.0029887915588915348053f, -0.027902495115995407104f, -0.0077646253630518913269f}
    },
    {
      {-0.0049300403334200382233f, 0.010311971418559551239f, -0.00074042036430910229683f, 0.0032383017241954803467f},
      {-0.0057680630125105381012f, 0.023652121424674987793f, -0.023727620020508766174f, -0.022783359512686729431f},
      {-0.018135689198970794678f, 0.0077472515404224395752f, -0.092403985559940338135f, -0.076415628194808959961f},
      {-0.013222893700003623962f, -0.0034852465614676475525f, -0.090135283768177032471f, -0.081891022622585296631f}
    },
    {
