// This file is computer-generated by onnx2c 
// (TODO: add creating command line here)
// (TODO: print creation date here )

// ONNX model:
// produced by pytorch, version 1.5
// ONNX IR version: 9
// Model documentation: 
/*

*/

#include <float.h>
#include <math.h>
#include <stdbool.h>
#include <stdint.h>
#include <string.h>
#define MAX(X,Y) ( X > Y ? X : Y)
#define MIN(X,Y) ( X < Y ? X : Y)
#define CLIP(X,L) ( MAX(MIN(X,L), -L) )

/* 0.bias*/
static const float tensor_0_bias[8] = 
{-0.35745012760162353516f, 0.38926398754119873047f, -0.17900083959102630615f, -0.67015260457992553711f, -0.25358882546424865723f, -0.27278965711593627930f, 0.51006102561950683594f, 1.5819394588470458984f};
/* 0.weight*/
static const float tensor_0_weight[8][3][4][4] = 
{
  {
    {
      {0.0010672529460862278938f, 0.69409650564193725586f, 0.0010259918635711073875f, 0.088664688169956207275f},
      {8.1891033914871513844e-05f, 6.8128960265312343836e-05f, 4.3457628635223954916e-05f, 4.0954564610728994012e-05f},
      {-0.00070776167558506131172f, -0.64361137151718139648f, -0.0010854495922103524208f, -0.11677365005016326904f},
      {-9.2251568275969475508e-05f, -0.027318678796291351318f, -6.1862272559665143490e-05f, -0.00030426259036175906658f}
    },
    {
      {0.00060453597689047455788f, 0.47058856487274169922f, 0.00057360588107258081436f, 0.044104356318712234497f},
      {-1.3880038750357925892e-05f, 6.1885257309768348932e-05f, -3.6008859751746058464e-05f, -1.0059299711429048330e-05f},
      {-0.00037665062700398266315f, -0.44363397359848022461f, -0.00062735093524679541588f, -0.049704428762197494507f},
      {-8.6724227003287523985e-05f, -0.0038873886223882436752f, -7.0394751674029976130e-05f, -8.9961627963930368423e-05f}
    },
    {
      {0.00020451161253731697798f, 0.11308093369007110596f, 0.00023438902280759066343f, 0.0029301694594323635101f},
      {-4.2254196159774437547e-05f, -0.00010976796329487115145f, -8.7662447185721248388e-05f, -0.00012683928071055561304f},
      {-0.00021002005087211728096f, -0.087522268295288085938f, -0.00024020792625378817320f, -0.0017317855963483452797f},
      {-0.00010328962525818496943f, -0.00036905950400978326797f, -6.0143967857584357262e-05f, -8.7159998656716197729e-05f}
    }
  },
  {
    {
      {-0.00017667718930169939995f, -0.12583996355533599854f, -0.00017331961134914308786f, -0.062796063721179962158f},
      {-0.00013601063983514904976f, -0.057417701929807662964f, -0.00015333217743318527937f, -0.012483804486691951752f},
      {-0.00044638774124905467033f, -0.24129475653171539307f, -0.00056285050231963396072f, -0.095140442252159118652f},
      {-0.00013628977467305958271f, -0.045316781848669052124f, -0.00019932091527152806520f, -0.021062450483441352844f}
    },
    {
      {3.0265595341916196048e-05f, -0.00028531849966384470463f, 4.4578388042282313108e-05f, -0.022338353097438812256f},
      {-1.4556191672454588115e-05f, -5.5605327361263334751e-05f, -1.9723795048776082695e-05f, -0.00029517232906073331833f},
      {-6.0315436712699010968e-05f, -0.00034404604230076074600f, -8.7246451585087925196e-05f, -0.00068115693284198641777f},
      {-5.1939015975221991539e-05f, -0.0013626313302665948868f, -7.3128889198414981365e-05f, -0.0020485115237534046173f}
    },
    {
      {0.00017928252054844051600f, 0.11949256062507629395f, 0.00017382537771482020617f, 0.0078338999301195144653f},
      {0.0068255215883255004883f, 1.1975784301757812500f, 0.011319171637296676636f, 0.17866125702857971191f},
      {0.00014643803297076374292f, 0.17868161201477050781f, 0.00021155398280825465918f, 0.032425601035356521606f},
      {-9.1416390205267816782e-05f, 0.019470471888780593872f, -0.00022049258404877036810f, -0.00028017719159834086895f}
    }
  },
  {
    {
      {-0.00013091380242258310318f, -0.10398489236831665039f, -0.00025088276015594601631f, -0.00014156078395899385214f},
      {-0.00034854916157200932503f, -0.15774410963058471680f, -0.00050275120884180068970f, -0.020077407360076904297f},
      {8.5866835433989763260e-05f, 0.00013718583795707672834f, 6.1821498093195259571e-05f, 0.00018955915584228932858f},
      {0.00052485929336398839951f, 0.23531965911388397217f, 0.00057511869817972183228f, 0.010216698050498962402f}
    },
    {
      {-4.5228374801808968186e-05f, -0.064301319420337677002f, -0.00012500298907980322838f, -4.3000480218324810266e-05f},
      {-0.00018696545157581567764f, -0.033251117914915084839f, -0.00029245822224766016006f, -0.0010282440343871712685f},
      {2.2157040802994742990e-05f, 0.00018218220793642103672f, -3.4900537571047607344e-08f, 0.00023030181182548403740f},
      {0.00021082644525449723005f, 0.045860070735216140747f, 0.00023378233890980482101f, 0.00022319819254335016012f}
    },
    {
      {-0.00014039997768122702837f, -0.052210718393325805664f, -0.00022047555830795317888f, -0.0024210722185671329498f},
      {-0.0028818610589951276779f, -0.40027323365211486816f, -0.0045994138345122337341f, -0.10383726656436920166f},
      {-2.3360085833701305091e-05f, 0.00035945264971815049648f, -1.1692643965943716466e-05f, 0.00045115375542081892490f},
      {0.0060897753573954105377f, 0.79978930950164794922f, 0.0073127988725900650024f, 0.10533806681632995605f}
    }
  },
  {
    {
      {-0.0011249824892729520798f, -0.062196183949708938599f, -0.0011836134362965822220f, -0.082367137074470520020f},
      {-2.7305682124278973788e-06f, 0.010633489117026329041f, 0.00014241017925087362528f, 3.7876572605455294251e-05f},
      {0.00082327355630695819855f, 0.66168999671936035156f, 0.062229707837104797363f, 0.11087609082460403442f},
      {4.5825901906937360764e-05f, 0.076602004468441009521f, 0.00020767808018717914820f, -1.4325987649499438703e-06f}
    },
    {
      {0.00037362900911830365658f, 0.00018516248383093625307f, 0.00036359720979817211628f, 0.00039733236189931631088f},
      {-7.3497452831361442804e-05f, -0.030882036313414573669f, -8.1287209468428045511e-05f, -9.3472581284004263580e-06f},
      {-0.0041802860796451568604f, -0.73623895645141601562f, -0.13146294653415679932f, -0.14889736473560333252f},
      {-0.00013430487888399511576f, -0.12680882215499877930f, -0.00056994502665475010872f, -7.4419884185772389174e-05f}
    },
    {
      {0.00066891568712890148163f, 0.061710923910140991211f, 0.00041494940523989498615f, 0.065431572496891021729f},
      {0.0015423267614096403122f, 0.056268602609634399414f, 0.00059135304763913154602f, 0.072513140738010406494f},
      {0.00014203805767465382814f, 9.1141162556596100330e-05f, 0.00011780934437410905957f, 0.00027173105627298355103f},
      {0.00055445590987801551819f, 0.0045017786324024200439f, 0.00040465328493155539036f, 0.036519207060337066650f}
    }
  },
  {
    {
      {0.00018156455189455300570f, 0.00062153162434697151184f, 0.00013034664152655750513f, 0.00015919088036753237247f},
      {0.00038186498568393290043f, 0.082721300423145294189f, 8.4812192653771489859e-05f, -0.055348031222820281982f},
      {0.0010436527663841843605f, 0.62973904609680175781f, 0.00014464806008618324995f, -0.48940092325210571289f},
      {0.00031681591644883155823f, 0.076904848217964172363f, 0.00010725505853770300746f, -0.051642701029777526855f}
    },
    {
      {1.6880832845345139503e-05f, 1.2876644177595153451e-05f, 4.1776615944399964064e-06f, 9.0103831098531372845e-06f},
      {0.00010502307122806087136f, 0.013899290934205055237f, 5.4271975386654958129e-05f, -0.020535955205559730530f},
      {0.00036547589115798473358f, 0.38654583692550659180f, 4.6272660256363451481e-05f, -0.54801809787750244141f},
      {0.00010714342352002859116f, 0.012431573122739791870f, 9.4214243290480226278e-05f, -0.016806082800030708313f}
    },
    {
      {5.5965579122130293399e-06f, -6.6692555265035480261e-05f, -1.0610282515699509531e-05f, -6.7125401983503252268e-05f},
      {0.0011038698721677064896f, 0.13807378709316253662f, -2.0832856534980237484e-05f, -0.15705208480358123779f},
      {0.00021017638209741562605f, 0.11824469268321990967f, 4.1392948332941159606e-05f, -0.11947082728147506714f},
      {0.00075584964361041784286f, 0.13124196231365203857f, 3.4739012335194274783e-05f, -0.10609347373247146606f}
    }
  },
  {
    {
      {0.00057649274822324514389f, 0.28922632336616516113f, 0.00034767109900712966919f, 0.0075821569189429283142f},
      {0.00075411004945635795593f, 0.25080731511116027832f, 0.00054456840734928846359f, 0.0064783999696373939514f},
      {0.00087860366329550743103f, 0.46640980243682861328f, 0.00048769902787171304226f, 0.050748609006404876709f},
      {4.2337680497439578176e-05f, 7.5966738222632557154e-05f, 2.8796903279726393521e-05f, 3.2720225135562941432e-05f}
    },
    {
      {4.8637783038429915905e-05f, -0.16809585690498352051f, -8.6962114437483251095e-05f, -0.014028418809175491333f},
      {6.5276850364170968533e-05f, -0.020952124148607254028f, -6.3258659793063998222e-05f, -0.0014079198008403182030f},
      {1.0011568747358978726e-06f, -0.31947621703147888184f, -0.00042566310730762779713f, -0.038569752126932144165f},
      {1.4736937373527325690e-05f, -0.0068511199206113815308f, 1.4973402358009479940e-05f, -7.1429126364819239825e-06f}
    },
    {
      {1.6524834791198372841e-05f, -0.064977146685123443604f, -7.0854491696081822738e-07f, -0.00024521455634385347366f},
      {-0.0016266977181658148766f, -0.34070488810539245605f, -0.0026972081977874040604f, -0.025718254968523979187f},
      {-3.7733720091637223959e-05f, -0.11815979331731796265f, -0.00018967702635563910007f, -0.00040513495332561433315f},
      {-1.8989117833712043648e-08f, -0.035693775862455368042f, -9.7223848570138216019e-05f, -0.00011721541523002088070f}
    }
  },
  {
    {
      {5.6539334764238446951e-05f, -0.023748973384499549866f, 0.00038023697561584413052f, 0.25095823407173156738f},
      {6.2519255152437835932e-05f, -0.0095571596175432205200f, 0.00036680611083284020424f, 0.13363432884216308594f},
      {8.5927036707289516926e-05f, -0.025582633912563323975f, 0.00043923530029132962227f, 0.30129110813140869141f},
      {9.0487337729427963495e-05f, -0.0068666338920593261719f, 0.00017181826115120202303f, 0.0019562051165848970413f}
    },
    {
      {-7.4754840170498937368e-05f, -0.12743213772773742676f, 0.00010188278974965214729f, 0.12797579169273376465f},
      {-4.4927601265953853726e-05f, -0.012949981726706027985f, 0.00010195929644396528602f, 0.020519748330116271973f},
      {-6.5111111325677484274e-05f, -0.12222510576248168945f, 0.00013504076923709362745f, 0.14817790687084197998f},
      {2.1436700990307144821e-05f, -0.0077579370699822902679f, 4.6270284656202420592e-05f, -0.00015177560271695256233f}
    },
    {
      {-4.7148583689704537392e-05f, -0.0058096274733543395996f, 0.00018866617756430059671f, 0.087858863174915313721f},
      {-0.00014263382763601839542f, -0.0062840436585247516632f, 0.0049137859605252742767f, 0.73068559169769287109f},
      {-2.0538549506454728544e-05f, -0.00012917733693029731512f, 0.00031436202698387205601f, 0.13850143551826477051f},
      {6.1037215346004813910e-05f, -0.00017228671640623360872f, 0.00031850047525949776173f, 0.052677530795335769653f}
    }
  },
  {
    {
      {7.9510115028824657202e-05f, 0.062451191246509552002f, 0.00012231402797624468803f, 0.00055048556532710790634f},
      {0.00023280878667719662189f, 0.073063291609287261963f, 0.00025679790996946394444f, 0.00077817577403038740158f},
      {0.00052446959307417273521f, 0.45348855853080749512f, 0.00078393321018666028976f, 0.065989352762699127197f},
      {7.2284907219000160694e-05f, 0.070049077272415161133f, 0.00021887336333747953176f, 0.013447391800582408905f}
    },
    {
      {0.00016501458594575524330f, 0.078490406274795532227f, 0.00018624305084813386202f, 0.0016706452006474137306f},
      {0.00018045680189970880747f, 0.016325403004884719849f, 0.00017037794168572872877f, -0.00013114284956827759743f},
      {0.00023813382722437381744f, 0.32867041230201721191f, 0.00035039670183323323727f, 0.026110116392374038696f},
      {6.0943104472244158387e-05f, 0.013334458693861961365f, 7.2084359999280422926e-05f, 0.0014211630914360284805f}
    },
    {
      {0.00012957508442923426628f, -0.00016701666754670441151f, 0.00016645964933559298515f, -0.00094603368779644370079f},
      {0.00016088188567664474249f, 0.012833358719944953918f, 0.00016511128342244774103f, -0.0072914250195026397705f},
      {4.1897666960721835494e-05f, 0.0047779576852917671204f, 6.9728012022096663713e-05f, -0.0011464724084362387657f},
      {6.1141799960751086473e-05f, 0.0049577238969504833221f, 0.00020362337818369269371f, -0.00080913683632388710976f}
    }
  }
};
/* 2.bias*/
static const float tensor_2_bias[16] = 
{0.16172137856483459473f, 0.32270577549934387207f, 1.2003700733184814453f, -0.026277255266904830933f, -0.048562947660684585571f, -0.23250725865364074707f, 0.39472973346710205078f, 0.070082820951938629150f, -0.21412841975688934326f, -0.093562237918376922607f, -0.56383472681045532227f, -0.28326383233070373535f, 0.014126019552350044250f, -0.11044246703386306763f, 1.7429245710372924805f, 0.98381960391998291016f};
/* 2.weight*/
static const float tensor_2_weight[16][8][4][4] = 
{
  {
    {
      {-0.0023785703815519809723f, -0.0015795228537172079086f, -0.0026129416655749082565f, 0.0020951027981936931610f},
      {-0.010013046674430370331f, -0.011455127038061618805f, -0.011490034870803356171f, -0.0087280441075563430786f},
      {-0.011595815420150756836f, -0.014491264708340167999f, -0.017254933714866638184f, -0.010067298077046871185f},
      {0.0015865778550505638123f, 0.0041476907208561897278f, 0.0061648767441511154175f, 0.00082054751692339777946f}
    },
    {
      {-0.0026504457928240299225f, 7.3820832767523825169e-05f, -0.0068664243444800376892f, -0.0017225241754204034805f},
      {-0.0011109235929325222969f, -0.026409175246953964233f, -0.034094646573066711426f, -0.014431139454245567322f},
      {0.00026423574308864772320f, 4.6565044613089412451e-05f, -0.0027916720137000083923f, -0.00063618988497182726860f},
      {1.2535524547274690121e-05f, 0.011825172230601310730f, 0.022443631663918495178f, 0.0014735732693225145340f}
    },
    {
      {-0.0084143113344907760620f, -0.018917590379714965820f, -0.025625690817832946777f, -0.015741180628538131714f},
      {-0.0040399958379566669464f, -0.013634396716952323914f, -0.020685680210590362549f, -0.012789580971002578735f},
      {-0.00018528921646066009998f, -0.00023198602139018476009f, -0.0010552307358011603355f, 0.00084926147246733307838f},
      {-0.00014682527398690581322f, 0.00061851495411247014999f, 0.0011759191984310746193f, 0.00013167812721803784370f}
    },
    {
      {0.20241291821002960205f, 0.26416200399398803711f, 0.26439976692199707031f, 0.19399635493755340576f},
      {0.25647968053817749023f, 0.33241885900497436523f, 0.33184415102005004883f, 0.25212499499320983887f},
      {0.16760824620723724365f, 0.22784306108951568604f, 0.22982195019721984863f, 0.16404007375240325928f},
      {0.053243517875671386719f, 0.086992673575878143311f, 0.087155185639858245850f, 0.051473990082740783691f}
    },
    {
      {-0.025547187775373458862f, -0.023580707609653472900f, -0.031409978866577148438f, -0.010907675139605998993f},
      {-0.015461488626897335052f, -0.0085040871053934097290f, -0.023882996290922164917f, -0.0082277776673436164856f},
      {-0.0038213927764445543289f, 0.0082140378654003143311f, -0.0040913433767855167389f, -0.00036681938217952847481f},
      {-0.00033053086372092366219f, 0.012673723511397838593f, 0.00091390265151858329773f, -2.8092639695387333632e-05f}
    },
    {
      {0.057949628680944442749f, 0.12750744819641113281f, 0.16065084934234619141f, 0.087225899100303649902f},
      {0.12277911603450775146f, 0.23232731223106384277f, 0.27657270431518554688f, 0.16986458003520965576f},
      {0.093859404325485229492f, 0.18173053860664367676f, 0.22691611945629119873f, 0.12620033323764801025f},
      {0.0074621560052037239075f, 0.045387387275695800781f, 0.060312714427709579468f, 0.016584588214755058289f}
    },
    {
      {-0.018424160778522491455f, -0.030595678836107254028f, -0.011723726987838745117f, -0.00077723740832880139351f},
      {-0.042779240757226943970f, -0.066767945885658264160f, -0.027334935963153839111f, 0.0030747004784643650055f},
      {-0.031757220625877380371f, -0.065346688032150268555f, -0.018729550763964653015f, 4.5407854486256837845e-05f},
      {-0.018610626459121704102f, -0.036451932042837142944f, -0.0073695904575288295746f, -0.00058986706426367163658f}
    },
    {
      {0.022199528291821479797f, 0.026885833591222763062f, 0.035879455506801605225f, 0.013066648505628108978f},
      {0.032104432582855224609f, 0.032841771841049194336f, 0.055643688887357711792f, 0.024578716605901718140f},
      {-0.0050978739745914936066f, -0.016956325620412826538f, 0.0068439152091741561890f, -0.0045110364444553852081f},
      {-0.00073631439590826630592f, -0.0016758877318352460861f, 0.013657235540449619293f, 0.0031305199954658746719f}
    }
  },
  {
    {
      {0.019410200417041778564f, 0.0041442723013460636139f, -0.012594087049365043640f, -0.014552820473909378052f},
      {-0.00061583402566611766815f, -0.016518026590347290039f, -0.024869445711374282837f, -0.021632404997944831848f},
      {1.2506218354246811941e-06f, -0.024705668911337852478f, -0.00023242949100676923990f, 0.0050773611292243003845f},
      {-0.00026993823121301829815f, 0.00057678524171933531761f, 0.0089630503207445144653f, 0.012378973886370658875f}
    },
    {
      {3.6905526940245181322e-05f, -0.17443349957466125488f, -0.13314300775527954102f, 0.0033172559924423694611f},
      {-0.085140064358711242676f, -0.43986099958419799805f, -0.092665955424308776855f, 0.086700439453125000000f},
      {-0.13544355332851409912f, -0.21158833801746368408f, 0.017778774723410606384f, 0.17865414917469024658f},
      {-0.047353133559226989746f, -0.046367753297090530396f, 0.029139004647731781006f, 0.10047460347414016724f}
    },
    {
      {-0.027724254876375198364f, -0.061543516814708709717f, 0.0093125905841588973999f, 0.023637793958187103271f},
      {-0.032159887254238128662f, -0.00022558712225873023272f, 0.024112671613693237305f, 0.031735539436340332031f},
      {0.045300666242837905884f, 0.054120421409606933594f, 0.038620036095380783081f, 0.0042853876948356628418f},
      {0.062074523419141769409f, 0.046747200191020965576f, 0.047204528003931045532f, 0.011263851076364517212f}
    },
    {
      {-0.016411559656262397766f, -0.042863868176937103271f, -0.038002192974090576172f, -0.014443874359130859375f},
      {-0.023754267022013664246f, -0.043622665107250213623f, -0.038404438644647598267f, -0.030355460941791534424f},
      {-0.015596058219671249390f, -0.023407248780131340027f, -0.027289971709251403809f, -0.036997549235820770264f},
      {-0.0065744025632739067078f, -0.0073200277984142303467f, -0.020657818764448165894f, -0.031914167106151580811f}
    },
    {
      {-0.00052209425484761595726f, 0.027983406558632850647f, -0.00086311082122847437859f, -0.0093841087073087692261f},
      {0.00027436896925792098045f, -2.7403699277783744037e-05f, -0.0036425951402634382248f, 0.00014211262168828397989f},
      {-0.0019538709893822669983f, -9.2062233306933194399e-05f, 0.0036542543675750494003f, 0.0086860666051506996155f},
      {-0.0034222502727061510086f, 0.00076105073094367980957f, 0.012680727988481521606f, 0.011150528676807880402f}
    },
    {
      {0.0095124058425426483154f, 0.032883487641811370850f, 0.0026590726338326931000f, -0.011472206562757492065f},
      {0.040734086185693740845f, 0.057283177971839904785f, 0.0086824363097548484802f, -0.014787646010518074036f},
      {0.035335496068000793457f, 0.025163967162370681763f, 0.00020041775132995098829f, -0.015061932615935802460f},
      {3.6909124901285395026e-05f, 0.00035521137760952115059f, -0.0077010514214634895325f, -0.023293372243642807007f}
    },
    {
      {-0.031070869415998458862f, -0.069959938526153564453f, 0.028660671785473823547f, 0.14813420176506042480f},
      {-0.15168058872222900391f, -0.020981147885322570801f, 0.11881312727928161621f, 0.29673090577125549316f},
      {-0.026018891483545303345f, 0.032178055495023727417f, 0.13187448680400848389f, 0.25240775942802429199f},
      {0.042465236037969589233f, 0.043434567749500274658f, 0.054081071168184280396f, 0.046643536537885665894f}
    },
    {
      {0.021264769136905670166f, -0.26576325297355651855f, -0.15522573888301849365f, 0.046116162091493606567f},
      {-0.16574127972126007080f, -0.44377428293228149414f, -0.081680908799171447754f, 0.19322094321250915527f},
      {-0.15349672734737396240f, -0.21531210839748382568f, 0.050116151571273803711f, 0.25272402167320251465f},
      {-0.024515924975275993347f, -0.052710812538862228394f, 0.031736172735691070557f, 0.093177594244480133057f}
    }
  },
  {
    {
      {0.0034542295616120100021f, 0.0066372286528348922729f, 0.013989358209073543549f, 0.012756579555571079254f},
      {-0.0031023209448903799057f, 0.00058245699619874358177f, 0.0069950628094375133514f, 0.0011933760251849889755f},
      {0.047115225344896316528f, 0.038303777575492858887f, 0.041481722146272659302f, 0.062189210206270217896f},
      {0.054015059024095535278f, 0.035465408116579055786f, 0.012682397849857807159f, 0.030580585822463035583f}
    },
    {
      {0.024580258876085281372f, 0.024475654587149620056f, 0.020309103652834892273f, 0.021023089066147804260f},
      {0.043847523629665374756f, 0.050284441560506820679f, 0.037613548338413238525f, 0.031400162726640701294f},
      {0.050785552710294723511f, 0.043243087828159332275f, 0.041254587471485137939f, 0.047406986355781555176f},
      {0.041077055037021636963f, 0.034247789531946182251f, 0.020385341718792915344f, 0.050194602459669113159f}
    },
    {
      {-0.0022840972524136304855f, -0.00060345104429870843887f, 0.00037829446955583989620f, -0.00061582471244037151337f},
      {-0.0074611888267099857330f, -0.0095490412786602973938f, -0.0033805558923631906509f, 0.0013336493866518139839f},
      {0.022015042603015899658f, 0.0099398093298077583313f, 0.0048237047158181667328f, 0.021625375375151634216f},
      {0.020478064194321632385f, 0.014150312170386314392f, 0.0084900353103876113892f, 0.018689146265387535095f}
    },
    {
      {0.15020781755447387695f, 0.16598652303218841553f, 0.15260943770408630371f, 0.12356151640415191650f},
      {0.080821730196475982666f, 0.097375482320785522461f, 0.090451292693614959717f, 0.070573784410953521729f},
      {0.00011982504656771197915f, -0.0093898065388202667236f, -0.0061974148266017436981f, 0.0073050456121563911438f},
      {0.0095247207209467887878f, 0.00034171063452959060669f, 0.0023107954766601324081f, 0.014548142440617084503f}
    },
    {
      {0.012390796095132827759f, 0.026172278448939323425f, 0.035706494003534317017f, 0.025035448372364044189f},
      {0.032517459243535995483f, 0.033893741667270660400f, 0.061293967068195343018f, 0.043538928031921386719f},
      {0.0092820450663566589355f, -0.0080245090648531913757f, 0.030095878988504409790f, 0.027974041178822517395f},
      {-0.0097124157473444938660f, -0.0081349238753318786621f, 0.0055406894534826278687f, 0.00077078572940081357956f}
    },
    {
      {0.0031815669499337673187f, 0.0051550120115280151367f, 0.0023727840743958950043f, 0.0016710505587980151176f},
      {-0.0020025339908897876740f, -0.0081757167354226112366f, -0.014678443782031536102f, -0.017616569995880126953f},
      {-0.052178718149662017822f, -0.069201909005641937256f, -0.068374931812286376953f, -0.049722202122211456299f},
      {-0.041375327855348587036f, -0.060768727213144302368f, -0.051340356469154357910f, -0.024680452421307563782f}
    },
    {
      {-0.013724040240049362183f, -0.029918592423200607300f, -0.025761745870113372803f, 0.0018263306701555848122f},
      {-0.020208498463034629822f, -0.061573985964059829712f, -0.043791215866804122925f, 0.0044653089717030525208f},
      {-0.031324975192546844482f, -0.061570361256599426270f, -0.020519431680440902710f, 0.036180820316076278687f},
      {-0.025460464879870414734f, -0.029315745458006858826f, 0.0078984955325722694397f, 0.051222704350948333740f}
    },
    {
      {0.0090440530329942703247f, -0.0011614118702709674835f, 0.0099087571725249290466f, 0.033307742327451705933f},
      {-0.058591838926076889038f, -0.12060024589300155640f, -0.13038316369056701660f, -0.042880188673734664917f},
      {-0.10631234943866729736f, -0.21829883754253387451f, -0.19212871789932250977f, -0.020295815542340278625f},
      {-0.015833156183362007141f, -0.080918453633785247803f, -0.062707826495170593262f, 0.027355259284377098083f}
    }
  },
  {
    {
      {8.4168852481525391340e-05f, -0.0014496436342597007751f, -0.00025868375087156891823f, -0.00055802112910896539688f},
      {4.7896314754325430840e-06f, 0.00071491650305688381195f, 0.00082083116285502910614f, 0.00070803042035549879074f},
      {-0.0028660239186137914658f, -0.0022700165864080190659f, -0.0016614510677754878998f, -0.0022022083867341279984f},
      {-0.00051659182645380496979f, -0.00069894408807158470154f, -0.0023113870993256568909f, -0.0029908909928053617477f}
    },
    {
      {-0.0030197061132639646530f, -0.00092302629491314291954f, -0.0011036869836971163750f, -0.00096712145023047924042f},
      {-0.0015002951258793473244f, 0.0027244368102401494980f, -0.00065912195714190602303f, 0.00057329336414113640785f},
      {-0.0016699652187526226044f, -0.0014522897545248270035f, -0.0025890425313264131546f, -0.0022797591518610715866f},
      {-0.0084308246150612831116f, -0.012152652256190776825f, -0.017050426453351974487f, -0.010672944597899913788f}
    },
    {
      {0.00068005349021404981613f, 0.00048111198702827095985f, 0.00010243925498798489571f, 0.00033260104828514158726f},
      {0.0016407211078330874443f, 0.0014709727838635444641f, 0.0022838737349957227707f, 0.0016345597105100750923f},
      {-0.00064319249941036105156f, -0.00094063457800075411797f, -0.0017490404425188899040f, -0.0014886814169585704803f},
      {-0.0013821087777614593506f, -0.0018009762279689311981f, -0.00034509971737861633301f, -0.00043653883039951324463f}
    },
    {
      {-0.00033317247289232909679f, -0.00034321966813877224922f, -0.00026491453172639012337f, 0.00045357210910879075527f},
      {0.00014425795234274119139f, -5.7942546845879405737e-05f, -0.00011959662515437230468f, 0.00077949359547346830368f},
      {5.4871375141374301165e-06f, -3.6193025152897462249e-05f, 0.00075261952588334679604f, 0.00058496691053733229637f},
      {0.00065876962617039680481f, -3.3499087294330820441e-05f, 0.00047792951227165758610f, 0.00069598428672179579735f}
    },
    {
      {-0.0024778430815786123276f, -0.0018501742742955684662f, -0.0029026393312960863113f, -0.0029896839987486600876f},
      {-0.00014743866631761193275f, -5.5891664487717207521e-06f, -0.0014539111871272325516f, -0.0024730763398110866547f},
      {-0.0012488381471484899521f, 0.00013041521015111356974f, -0.0022087318357080221176f, -0.0021108300425112247467f},
      {-0.0019336369587108492851f, -0.0026269021909683942795f, -0.0061973077245056629181f, -0.0028380274306982755661f}
    },
    {
      {0.00010627187293721362948f, -0.00025069285766221582890f, 0.00053105788538232445717f, 0.00073231640271842479706f},
      {0.00011870822345372289419f, 7.5338743044994771481e-05f, 0.00031865609344094991684f, 0.00013202075206208974123f},
      {0.00087753642583265900612f, 0.00071904627839103341103f, 0.00040382822044193744659f, 0.00036214006831869482994f},
      {0.0019915672019124031067f, 0.0011371070286259055138f, 0.00037644276744686067104f, 0.00040929435635916888714f}
    },
    {
      {0.00071851222310215234756f, 0.00039786210982128977776f, 0.00090085616102442145348f, -0.00015173878637142479420f},
      {0.00099453725852072238922f, 0.0010880546178668737411f, 0.00037578109186142683029f, -0.00054540007840842008591f},
      {0.0011915928917005658150f, 0.00052268715808168053627f, -0.00027351922472007572651f, -0.00083840603474527597427f},
      {0.00023956749646458774805f, -0.0034649425651878118515f, -0.0013183100381866097450f, 0.00067828519968315958977f}
    },
    {
      {-0.0037568646948784589767f, 0.0033890539780259132385f, -0.00032420860952697694302f, -0.0031174309551715850830f},
      {0.00098989496473222970963f, 0.0049916123971343040466f, -0.00046908430522307753563f, -0.0017119080293923616409f},
      {-0.00017890687740873545408f, 0.00084596686065196990967f, -0.0022741209249943494797f, -0.0017918128287419676781f},
      {-0.011880827136337757111f, -0.016104038804769515991f, -0.019564557820558547974f, -0.013849742710590362549f}
    }
  },
  {
    {
      {-0.0018517143325880169868f, -0.0038448525592684745789f, -0.0030678214970976114273f, -0.00075631320942193269730f},
      {0.00083918293239548802376f, 0.00034810058423317968845f, 0.0040364949963986873627f, 0.0091412076726555824280f},
      {0.038470681756734848022f, 0.059055976569652557373f, 0.051332958042621612549f, 0.038611214607954025269f},
      {0.042442917823791503906f, 0.070345699787139892578f, 0.091376118361949920654f, 0.063102819025516510010f}
    },
    {
      {0.00042865765863098204136f, -0.00071353378007188439369f, 0.00084274628898128867149f, -0.00023905617126729339361f},
      {0.0043758908286690711975f, -0.00022449446259997785091f, -0.00049945898354053497314f, -0.0087929349392652511597f},
      {-0.064790599048137664795f, -0.15289144217967987061f, -0.14806793630123138428f, -0.067016027867794036865f},
      {0.040493082255125045776f, 0.076362498104572296143f, 0.11616206914186477661f, 0.077952764928340911865f}
    },
    {
      {-0.0087676066905260086060f, -0.024875216186046600342f, -0.021564843133091926575f, -0.0057831960730254650116f},
      {-0.057718008756637573242f, -0.097448863089084625244f, -0.074658103287220001221f, -0.025552913546562194824f},
      {0.14038342237472534180f, 0.20253175497055053711f, 0.20595191419124603271f, 0.14226798713207244873f},
      {0.10016916692256927490f, 0.18604278564453125000f, 0.19724512100219726562f, 0.086083114147186279297f}
    },
    {
      {0.0071682319976389408112f, 0.0068316361866891384125f, 0.0037224858533591032028f, 0.00086840364383533596992f},
      {-0.010357697494328022003f, -0.012961914762854576111f, -0.020701453089714050293f, -0.025512602180242538452f},
      {-0.011483644135296344757f, -0.014254643581807613373f, -0.0092150466516613960266f, -0.0026456690393388271332f},
      {0.061334595084190368652f, 0.068794168531894683838f, 0.074980534613132476807f, 0.069976687431335449219f}
    },
    {
      {-0.0029740033205598592758f, -0.0083478968590497970581f, -0.0021890159696340560913f, 0.00084973027696833014488f},
      {-0.017872052267193794250f, -0.042691089212894439697f, -0.023056790232658386230f, 0.011672050692141056061f},
      {-0.061765737831592559814f, -0.070794805884361267090f, -0.034178916364908218384f, -0.0027164602652192115784f},
      {-0.12959182262420654297f, -0.13181330263614654541f, -0.040022879838943481445f, -0.021946562454104423523f}
    },
    {
      {0.0032126966398209333420f, 0.0084551153704524040222f, 0.0059532895684242248535f, 0.0024356432259082794189f},
      {-0.0055837663821876049042f, -0.0055890269577503204346f, -0.0096097579225897789001f, -0.0065997987985610961914f},
      {-0.048464395105838775635f, -0.075100019574165344238f, -0.088646195828914642334f, -0.062395777553319931030f},
      {0.011360267177224159241f, 0.0082143833860754966736f, 0.0051007037982344627380f, 0.0093200262635946273804f}
    },
    {
      {0.0020880638621747493744f, -0.0038315493147820234299f, -0.00041727218194864690304f, 4.8135414544958621264e-05f},
      {0.0060184230096638202667f, -0.0087484586983919143677f, 0.0032063277903944253922f, -0.0033279501367360353470f},
      {-0.081337645649909973145f, -0.093424923717975616455f, -0.0083592375740408897400f, -0.023835383355617523193f},
      {0.051430240273475646973f, 0.062142960727214813232f, 0.029601270332932472229f, 0.031067283824086189270f}
    },
    {
      {0.017008293420076370239f, 0.018047282472252845764f, 0.022074293345212936401f, 0.0064282212406396865845f},
      {-0.11294464021921157837f, -0.19423831999301910400f, -0.22102716565132141113f, -0.20998507738113403320f},
      {-0.21158948540687561035f, -0.24646449089050292969f, -0.19022922217845916748f, -0.14570322632789611816f},
      {0.21032829582691192627f, 0.32854023575782775879f, 0.37418454885482788086f, 0.25945621728897094727f}
    }
  },
  {
    {
      {0.012886009179055690765f, 0.010494156740605831146f, 0.016120139509439468384f, 0.010225890204310417175f},
      {0.017321284860372543335f, 0.042042840272188186646f, 0.053142800927162170410f, 0.028950856998562812805f},
      {0.060805212706327438354f, 0.11625341325998306274f, 0.13693991303443908691f, 0.096080958843231201172f},
      {0.0067044575698673725128f, 0.042124468833208084106f, 0.057348597794771194458f, 0.019820328801870346069f}
    },
    {
      {0.010075667873024940491f, 0.043690785765647888184f, 0.054181322455406188965f, 0.0045776432380080223083f},
      {-0.089919865131378173828f, -0.23584698140621185303f, -0.20096696913242340088f, -0.11865992844104766846f},
      {0.033755131065845489502f, 0.058796837925910949707f, 0.11428864300251007080f, 0.080363586544990539551f},
      {0.032334212213754653931f, 0.075565762817859649658f, 0.079063594341278076172f, 0.022684430703520774841f}
    },
    {
      {-0.028295457363128662109f, -0.063990905880928039551f, -0.063117474317550659180f, -0.023629615083336830139f},
      {0.073391020298004150391f, 0.15087924897670745850f, 0.16794471442699432373f, 0.093668900430202484131f},
      {0.0096791964024305343628f, 0.043227676302194595337f, 0.047023855149745941162f, 0.011903680860996246338f},
      {-0.014325640164315700531f, -0.021314587444067001343f, -0.028239056468009948730f, -0.026460934430360794067f}
    },
    {
      {-0.018862418830394744873f, -0.015992613509297370911f, -0.015724658966064453125f, -0.018511133268475532532f},
      {-0.011881259270012378693f, -0.021358154714107513428f, -0.018855916336178779602f, -0.0079464577138423919678f},
      {0.044750586152076721191f, 0.048559170216321945190f, 0.049810789525508880615f, 0.049242686480283737183f},
      {0.025611907243728637695f, 0.018612645566463470459f, 0.023958478122949600220f, 0.025916270911693572998f}
    },
    {
      {0.017303489148616790771f, -0.0017905717249959707260f, 0.00089959177421405911446f, 0.031599201261997222900f},
      {-0.021440753713250160217f, -0.055069122463464736938f, -0.043540671467781066895f, -0.0049432911910116672516f},
      {-0.12982442975044250488f, -0.17642702162265777588f, -0.092209860682487487793f, -0.046229410916566848755f},
      {-0.030826730653643608093f, -0.077374041080474853516f, -0.040658965706825256348f, -0.0058286087587475776672f}
    },
    {
      {-0.00039374065818265080452f, -0.0010531764710322022438f, -0.00018845223530661314726f, -0.0031658122316002845764f},
      {-0.060397278517484664917f, -0.10784348100423812866f, -0.13122145831584930420f, -0.099109567701816558838f},
      {0.0087336525321006774902f, 0.0081890197470784187317f, 0.0031899600289762020111f, 0.0099724121391773223877f},
      {0.037974610924720764160f, 0.067399367690086364746f, 0.080194942653179168701f, 0.054293569177389144897f}
    },
    {
      {0.022844502702355384827f, 0.015896577388048171997f, 0.016606440767645835876f, 0.00072039669612422585487f},
      {-0.13130627572536468506f, -0.18421958386898040771f, -0.093608692288398742676f, -0.052406627684831619263f},
      {0.036734938621520996094f, 0.034132421016693115234f, 0.025249036028981208801f, 0.022919027134776115417f},
      {0.025789184495806694031f, 0.023761941120028495789f, 0.010800043120980262756f, -0.0013590911403298377991f}
    },
    {
      {-0.049469657242298126221f, -0.068220958113670349121f, -0.058374714106321334839f, -0.071121789515018463135f},
      {-0.20232221484184265137f, -0.28944158554077148438f, -0.27072361111640930176f, -0.20700582861900329590f},
      {0.20789042115211486816f, 0.28984183073043823242f, 0.31299397349357604980f, 0.20954291522502899170f},
      {0.018263027071952819824f, 0.050928980112075805664f, 0.034194666892290115356f, -0.0040257018990814685822f}
    }
  },
  {
    {
      {0.00061049609212204813957f, 0.0046775611117482185364f, 0.017804389819502830505f, 0.013101065531373023987f},
      {0.0019314954988658428192f, -0.0077777006663382053375f, -0.010591001249849796295f, -0.00086603604722768068314f},
      {0.012403406202793121338f, 0.010950878262519836426f, 0.028436332941055297852f, 0.033419366925954818726f},
      {0.0069261491298675537109f, 0.027489749714732170105f, 0.049617607146501541138f, 0.034731369465589523315f}
    },
    {
      {-0.00050442363135516643524f, -0.063202202320098876953f, -0.088997147977352142334f, -0.025424562394618988037f},
      {-0.015707988291978836060f, -0.15051791071891784668f, -0.14862844347953796387f, -0.079847097396850585938f},
      {-0.00089522992493584752083f, -0.11231925338506698608f, -0.14823301136493682861f, -0.057467050850391387939f},
      {-0.0034038028679788112640f, -0.065727397799491882324f, -0.079139672219753265381f, -0.019445752725005149841f}
    },
    {
      {0.0042307963594794273376f, 0.0039652190171182155609f, 0.011479807086288928986f, 0.012643714435398578644f},
      {0.0020437953062355518341f, 0.0019789715297520160675f, 0.0061501730233430862427f, 0.015396962873637676239f},
      {0.0067572416737675666809f, 0.010607280768454074860f, 0.011222681030631065369f, 0.018208259716629981995f},
      {0.0038737792056053876877f, 0.0039714160375297069550f, 0.014161701314151287079f, 0.014016038738191127777f}
    },
    {
      {-0.062763564288616180420f, -0.069309018552303314209f, -0.057384654879570007324f, -0.047526501119136810303f},
      {-0.075306728482246398926f, -0.084999293088912963867f, -0.083155751228332519531f, -0.069274567067623138428f},
      {-0.068075843155384063721f, -0.085293211042881011963f, -0.097840167582035064697f, -0.083051174879074096680f},
      {-0.057290580123662948608f, -0.067238532006740570068f, -0.070996619760990142822f, -0.061502296477556228638f}
    },
    {
      {-0.0083380285650491714478f, -0.011669884435832500458f, 0.0032041687518358230591f, 0.0051645953208208084106f},
      {-0.0031528901308774948120f, -0.025544257834553718567f, 0.0081988908350467681885f, 0.017297551035881042480f},
      {-0.0016362596070393919945f, -0.0038856468163430690765f, 0.040024332702159881592f, 0.037104703485965728760f},
      {0.0017889495939016342163f, 0.032802797853946685791f, 0.064590245485305786133f, 0.039741251617670059204f}
    },
    {
      {0.00028870656387880444527f, -0.020972205325961112976f, -0.050563227385282516479f, -0.035196583718061447144f},
      {-0.0082217659801244735718f, -0.029539870098233222961f, -0.069355584681034088135f, -0.059500981122255325317f},
      {0.0031239623203873634338f, -0.0024108944926410913467f, -0.024549167603254318237f, -0.026081874966621398926f},
      {0.011104700155556201935f, 0.0085508301854133605957f, -0.0037235757336020469666f, -0.0037004901096224784851f}
    },
    {
      {-0.026455882936716079712f, -0.081001773476600646973f, -0.056370217353105545044f, -0.0091605829074978828430f},
      {-0.031770545989274978638f, -0.15635375678539276123f, -0.12840504944324493408f, -0.0070515903644263744354f},
      {0.0020243281032890081406f, -0.12006815522909164429f, -0.10825884342193603516f, 0.016099192202091217041f},
      {-0.0038154069334268569946f, -0.063444606959819793701f, -0.059358328580856323242f, 0.012135855853557586670f}
    },
    {
      {-0.0061229593120515346527f, -0.024779183790087699890f, 0.042488656938076019287f, 0.042838554829359054565f},
      {0.00086656864732503890991f, 0.050677467137575149536f, 0.19495953619480133057f, 0.15722563862800598145f},
      {0.042686995118856430054f, 0.11592117697000503540f, 0.27507740259170532227f, 0.22162267565727233887f},
      {0.0068160118535161018372f, 0.045907024294137954712f, 0.15868707001209259033f, 0.14016181230545043945f}
    }
  },
  {
    {
      {-0.073055855929851531982f, -0.060562621802091598511f, -0.063666604459285736084f, -0.064062699675559997559f},
      {-0.11464699357748031616f, -0.15996843576431274414f, -0.16819974780082702637f, -0.11245603114366531372f},
      {-0.14304412901401519775f, -0.22351332008838653564f, -0.24163089692592620850f, -0.14415986835956573486f},
      {-0.070629678666591644287f, -0.12969568371772766113f, -0.14111900329589843750f, -0.073928043246269226074f}
    },
    {
      {-0.011619453318417072296f, -0.011207425035536289215f, -0.015952145680785179138f, -0.013476678170263767242f},
      {-0.019587727263569831848f, -0.020431352779269218445f, -0.035777404904365539551f, -0.027729269117116928101f},
      {-0.014371420256793498993f, -0.012450843118131160736f, -0.034070540219545364380f, -0.022785864770412445068f},
      {-0.029309740290045738220f, -0.0093398820608854293823f, -0.027009505778551101685f, -0.036924831569194793701f}
    },
    {
      {-0.032214801758527755737f, -0.053404469043016433716f, -0.057086210697889328003f, -0.029494345188140869141f},
      {-0.066843397915363311768f, -0.11390223354101181030f, -0.11104775220155715942f, -0.051489271223545074463f},
      {-0.092558741569519042969f, -0.13046891987323760986f, -0.13607096672058105469f, -0.083659738302230834961f},
      {-0.082341231405735015869f, -0.080135755240917205811f, -0.10362613201141357422f, -0.088418833911418914795f}
    },
    {
      {-0.037036005407571792603f, -0.045875441282987594604f, -0.042225115001201629639f, -0.031673736870288848877f},
      {-0.056923147290945053101f, -0.074624888598918914795f, -0.069408379495143890381f, -0.048004720360040664673f},
      {-0.039638917893171310425f, -0.065261758863925933838f, -0.062037769705057144165f, -0.033445626497268676758f},
      {-0.026309421285986900330f, -0.043942771852016448975f, -0.037983853369951248169f, -0.018330391496419906616f}
    },
    {
      {-0.095405220985412597656f, -0.12168150395154953003f, -0.029956620186567306519f, -0.00093557446962222456932f},
      {-0.12612386047840118408f, -0.18638902902603149414f, -0.060423623770475387573f, -0.0047596907243132591248f},
      {-0.11895072460174560547f, -0.17193238437175750732f, -0.067251518368721008301f, -0.013683308847248554230f},
      {-0.10124106705188751221f, -0.11749348789453506470f, -0.027970040217041969299f, -0.0060419663786888122559f}
    },
    {
      {0.0015391758643090724945f, 0.0094471639022231101990f, 0.011431235820055007935f, 0.0044608139432966709137f},
      {0.0090746730566024780273f, 0.0085450895130634307861f, 0.011625000275671482086f, 0.015639247372746467590f},
      {0.0069749713875353336334f, 0.0042705587111413478851f, 0.0075189243070781230927f, 0.012849668972194194794f},
      {0.00018655729945749044418f, -0.0014787607360631227493f, 0.00056595954811200499535f, 0.00085328542627394199371f}
    },
    {
      {0.023860646411776542664f, 0.029541131108999252319f, -0.00096296099945902824402f, -0.019850984215736389160f},
      {0.078147456049919128418f, 0.087035134434700012207f, 0.028954479843378067017f, -0.0071487626992166042328f},
      {0.086293593049049377441f, 0.10523596405982971191f, 0.022400358691811561584f, -0.0077812587842345237732f},
      {0.017933700233697891235f, 0.030569534748792648315f, -0.026213165372610092163f, -0.041928391903638839722f}
    },
    {
      {0.033340930938720703125f, 0.11389697343111038208f, 0.061653390526771545410f, -0.017680503427982330322f},
      {0.13115727901458740234f, 0.22155541181564331055f, 0.13475801050662994385f, 0.041133884340524673462f},
      {0.084955766797065734863f, 0.15331019461154937744f, 0.087284572422504425049f, 0.034722823649644851685f},
      {-0.00015970080858096480370f, 0.045606464147567749023f, -0.0042716921307146549225f, -0.015370351262390613556f}
    }
  },
  {
    {
      {0.089867539703845977783f, 0.19822654128074645996f, 0.22275207936763763428f, 0.11116731166839599609f},
      {0.15405420958995819092f, 0.25627696514129638672f, 0.29094958305358886719f, 0.18939113616943359375f},
      {0.13848400115966796875f, 0.26779675483703613281f, 0.27989742159843444824f, 0.13630485534667968750f},
      {0.018654098734259605408f, 0.012163654901087284088f, 0.00049792439676821231842f, 0.0098728351294994354248f}
    },
    {
      {0.037538096308708190918f, 0.070902377367019653320f, 0.065998785197734832764f, 0.016395306214690208435f},
      {0.0088466200977563858032f, 0.010964200831949710846f, 0.0028489141259342432022f, -0.0097047658637166023254f},
      {-0.030795847997069358826f, -0.067947961390018463135f, -0.083372026681900024414f, -0.055404432117938995361f},
      {-0.0060574901290237903595f, -0.027577331289649009705f, -0.030024137347936630249f, -0.013537014834582805634f}
    },
    {
      {0.066940717399120330811f, 0.13519011437892913818f, 0.13109277188777923584f, 0.063459582626819610596f},
      {0.074445299804210662842f, 0.13566634058952331543f, 0.15282212197780609131f, 0.082463622093200683594f},
      {0.018377926200628280640f, 0.055844899266958236694f, 0.063097864389419555664f, 0.028115453198552131653f},
      {-0.00015535853162873536348f, 0.00014518531679641455412f, 4.5248387323226779699e-05f, -9.0187231762683950365e-06f}
    },
    {
      {0.086718790233135223389f, 0.10886101424694061279f, 0.10560822486877441406f, 0.078273326158523559570f},
      {0.056302323937416076660f, 0.072206050157546997070f, 0.072803452610969543457f, 0.047935210168361663818f},
      {-0.0070504159666597843170f, -0.022068882361054420471f, -0.019490672275424003601f, -0.0075057540088891983032f},
      {-0.0061642900109291076660f, -0.019483743235468864441f, -0.017991790547966957092f, -0.0076727685518562793732f}
    },
    {
      {-0.10429485887289047241f, -0.13282282650470733643f, -0.070154592394828796387f, -0.027760453522205352783f},
      {-0.085220798850059509277f, -0.14239341020584106445f, -0.10576116293668746948f, -0.023497369140386581421f},
      {-0.031313154846429824829f, -0.092847242951393127441f, -0.099461935460567474365f, -0.030414251610636711121f},
      {-0.017420096322894096375f, -0.045946273952722549438f, -0.035709917545318603516f, -0.020998219028115272522f}
    },
    {
      {0.035831037908792495728f, 0.096850752830505371094f, 0.11536722630262374878f, 0.056492041796445846558f},
      {0.011325988918542861938f, 0.038135323673486709595f, 0.049454625695943832397f, 0.025172064080834388733f},
      {-0.022502521052956581116f, -0.050019901245832443237f, -0.056988906115293502808f, -0.026335449889302253723f},
      {-0.012714835815131664276f, -0.032244659960269927979f, -0.039703708142042160034f, -0.019525652751326560974f}
    },
    {
      {0.025849793106317520142f, 0.057640630751848220825f, 0.021061703562736511230f, 0.0046272962354123592377f},
      {-0.020102921873331069946f, -0.013088859617710113525f, -0.0061030555516481399536f, -0.0071932896971702575684f},
      {-0.0018319791415706276894f, -0.016101000830531120300f, -8.5513420344796031713e-05f, -0.0021680432837456464767f},
      {0.0079688038676977157593f, 0.0086319847032427787781f, 9.9998978839721530676e-05f, -0.00018255171016789972782f}
    },
    {
      {0.14426410198211669922f, 0.23450909554958343506f, 0.17956690490245819092f, 0.075855597853660583496f},
      {0.00014830523286946117878f, -0.062121562659740447998f, -0.13438785076141357422f, -0.097529560327529907227f},
      {-0.037136700004339218140f, -0.16959193348884582520f, -0.22819399833679199219f, -0.11048188805580139160f},
      {0.019940968602895736694f, 0.019554290920495986938f, 0.0051201847381889820099f, 0.014280045405030250549f}
    }
  },
  {
    {
      {0.00054464075947180390358f, 0.043535593897104263306f, 0.082270741462707519531f, 0.021650629118084907532f},
      {-0.090041242539882659912f, -0.036101657897233963013f, 0.012397636659443378448f, 0.0034930505789816379547f},
      {-0.0061434428207576274872f, -0.034873347729444503784f, 0.015720956027507781982f, 0.075062625110149383545f},
      {0.023799065500497817993f, 4.3778973122243769467e-06f, -0.0074336444959044456482f, 0.027169527485966682434f}
    },
    {
      {-0.13369002938270568848f, -0.026534292846918106079f, 0.080261886119842529297f, 0.14174892008304595947f},
      {-0.074314504861831665039f, -0.22699032723903656006f, -0.044508524239063262939f, 0.12904445827007293701f},
      {0.11292430013418197632f, -0.029971253126859664917f, -0.28010132908821105957f, -0.052964273840188980103f},
      {0.14601743221282958984f, 0.15532566606998443604f, -0.018555982038378715515f, -0.15499718487262725830f}
    },
    {
      {0.043732058256864547729f, -0.021315384656190872192f, -0.0077621201053261756897f, 0.0051367972046136856079f},
      {0.095845825970172882080f, 0.046760667115449905396f, -0.050679627805948257446f, -0.0043357922695577144623f},
      {0.028031054884195327759f, 0.081666052341461181641f, 0.059066217392683029175f, -0.00016574947221670299768f},
      {0.0020605507306754589081f, 0.15518905222415924072f, 0.15324155986309051514f, 0.025085316970944404602f}
    },
    {
      {-0.0051078349351882934570f, 0.0017999869305640459061f, 0.016309425234794616699f, 0.045862272381782531738f},
      {-0.026789061725139617920f, -0.022698530927300453186f, 2.6354351575719192624e-05f, 0.013070848770439624786f},
      {-0.035779293626546859741f, -0.033845163881778717041f, -0.016982834786176681519f, 0.0032649938948452472687f},
      {-0.028834128752350807190f, -0.035110604017972946167f, -0.019873678684234619141f, -0.0059037944301962852478f}
    },
    {
      {0.071102254092693328857f, -0.0066218785941600799561f, -0.011022262275218963623f, 0.0077595319598913192749f},
      {0.14141023159027099609f, 0.13429735600948333740f, -0.025719355791807174683f, -0.027799220755696296692f},
      {0.10039574652910232544f, 0.14174363017082214355f, 0.090336434543132781982f, 6.5957377955783158541e-05f},
      {-0.017823595553636550903f, 0.051977943629026412964f, 0.071246579289436340332f, 0.082019135355949401855f}
    },
    {
      {0.00017835125618148595095f, 5.4062031267676502466e-05f, 0.010742302052676677704f, 0.010892746970057487488f},
      {0.0010607879376038908958f, -0.0091485306620597839355f, 0.0014248655643314123154f, 0.00057267234660685062408f},
      {-0.0080341743305325508118f, -0.014985931105911731720f, -0.0049193538725376129150f, 0.00017974276852328330278f},
      {-0.012930297292768955231f, -0.020234864205121994019f, -0.0047666723839938640594f, 0.0010613583726808428764f}
    },
    {
      {-0.028104458004236221313f, 0.037870302796363830566f, 0.071394532918930053711f, 0.066850945353507995605f},
      {-0.14701309800148010254f, -0.070527344942092895508f, 0.051517635583877563477f, 0.29971727728843688965f},
      {-0.026209754869341850281f, -0.22479748725891113281f, -0.040706034749746322632f, 0.11020804196596145630f},
      {0.096234366297721862793f, 0.014061016961932182312f, -0.13008786737918853760f, -0.099901720881462097168f}
    },
    {
      {-0.27384415268898010254f, -0.14051312208175659180f, 0.11466085910797119141f, 0.30408465862274169922f},
      {-0.069261401891708374023f, -0.29285600781440734863f, -0.27838522195816040039f, 0.093362741172313690186f},
      {0.26376527547836303711f, 0.026280345395207405090f, -0.23942849040031433105f, -0.25266349315643310547f},
      {0.19166688621044158936f, 0.26500046253204345703f, 0.014799399301409721375f, -0.21262001991271972656f}
    }
  },
  {
    {
      {0.00017602570005692541599f, 0.0096897752955555915833f, 5.7246539654443040490e-05f, -0.0026955839712172746658f},
      {0.011591683141887187958f, 0.018272124230861663818f, 0.027369515970349311829f, 0.019034065306186676025f},
      {-0.015515432693064212799f, -0.0063762972131371498108f, 0.0080255903303623199463f, 0.0070686223916709423065f},
      {-0.055297359824180603027f, -0.022293567657470703125f, -0.010931869968771934509f, -0.012417770922183990479f}
    },
    {
      {-0.00066218426218256354332f, 0.074224993586540222168f, 0.081961452960968017578f, 0.011695449240505695343f},
      {-0.00054372858721762895584f, 0.13593919575214385986f, 0.19282335042953491211f, 0.13719220459461212158f},
      {-0.071671441197395324707f, 0.035738270729780197144f, 0.11728324741125106812f, 0.093210302293300628662f},
      {-0.15166249871253967285f, -0.054473225027322769165f, 0.0024257148616015911102f, -0.0099485628306865692139f}
    },
    {
      {-0.0019639518577605485916f, 0.0027009537443518638611f, 0.029223497956991195679f, 0.024469120427966117859f},
      {-0.0022589860018342733383f, 0.024493681266903877258f, 0.072301775217056274414f, 0.067335382103919982910f},
      {-0.035349674522876739502f, 5.1128569822367353481e-08f, 0.021347958594560623169f, 0.011597802862524986267f},
      {-0.10249122232198715210f, -0.059613294899463653564f, -0.019778294488787651062f, -0.026789065450429916382f}
    },
    {
      {0.0058413739316165447235f, 0.0069004283286631107330f, 0.0019334636162966489792f, -0.0012649951968342065811f},
      {0.031886126846075057983f, 0.020641492679715156555f, 0.0064678611233830451965f, 0.0034763226285576820374f},
      {0.037455402314662933350f, 0.020228773355484008789f, 0.00024086852499749511480f, -0.0012165550142526626587f},
      {0.00038254886749200522900f, -0.0021297135390341281891f, -0.012740990146994590759f, -0.012593480758368968964f}
    },
    {
      {-0.0066400361247360706329f, -0.0010151870083063840866f, 0.017485450953245162964f, 0.00065707130124792456627f},
      {-0.0052241752855479717255f, -1.8036413166555576026e-05f, 0.027104306966066360474f, 0.0041160592809319496155f},
      {0.00020580235286615788937f, 0.0041794846765697002411f, 0.013525086455047130585f, 4.5315900933928787708e-05f},
      {-0.00041339825838804244995f, 0.0029702635947614908218f, 0.010873354040086269379f, 5.0761511374730616808e-05f}
    },
    {
      {0.00088779983343556523323f, 0.0073871174827218055725f, 0.020124793052673339844f, 0.010349076241254806519f},
      {0.012476322241127490997f, 0.0054046101868152618408f, 0.022913206368684768677f, 0.020594956353306770325f},
      {0.054913148283958435059f, 0.019558325409889221191f, 0.025582371279597282410f, 0.030893778428435325623f},
      {0.068375654518604278564f, 0.037587132304906845093f, 0.014158750884234905243f, 0.011538974009454250336f}
    },
    {
      {0.0010948564158752560616f, 0.053435426205396652222f, 0.040732517838478088379f, 0.0023279045708477497101f},
      {-0.012189210392534732819f, 0.11414290219545364380f, 0.14790685474872589111f, 0.062727980315685272217f},
      {-0.079572580754756927490f, 0.025320157408714294434f, 0.10052480548620223999f, 0.092966563999652862549f},
      {-0.14643639326095581055f, -0.058500155806541442871f, -0.0011792671866714954376f, -0.0031009556259959936142f}
    },
    {
      {-0.0027610918041318655014f, 0.090913556516170501709f, 0.051968496292829513550f, -0.0046270517632365226746f},
      {-0.037671312689781188965f, 0.12592519819736480713f, 0.15164633095264434814f, 0.093738719820976257324f},
      {-0.17346329987049102783f, 0.010294804349541664124f, 0.084281682968139648438f, 0.075172975659370422363f},
      {-0.25165432691574096680f, -0.084190919995307922363f, 0.0069078793749213218689f, -0.0028053545393049716949f}
    }
  },
  {
    {
      {-0.011103043332695960999f, -0.011384271085262298584f, 0.0023340217303484678268f, 0.019838808104395866394f},
      {-0.0059474660083651542664f, -0.0034089947585016489029f, 0.0042550819925963878632f, 0.023018799722194671631f},
      {0.0049464274197816848755f, 0.00033207674277946352959f, -0.0037844527978450059891f, -0.047266930341720581055f},
      {0.0035288394428789615631f, -0.0029856353066861629486f, -0.011324048042297363281f, -0.028971727937459945679f}
    },
    {
      {0.041088707745075225830f, 0.035170320421457290649f, -0.022322267293930053711f, -0.051726959645748138428f},
      {0.26149332523345947266f, 0.14229230582714080811f, -0.061664134263992309570f, -0.28993332386016845703f},
      {0.27290084958076477051f, 0.10041642934083938599f, -0.088623233139514923096f, -0.26094332337379455566f},
      {0.053092677146196365356f, 0.0030909506604075431824f, -0.040556706488132476807f, -0.045744955539703369141f}
    },
    {
      {0.011581383645534515381f, -0.0028601787053048610687f, -0.0066685238853096961975f, -0.029181893914937973022f},
      {0.028174173086881637573f, 0.0042850822210311889648f, -0.00052833592053502798080f, -0.018855266273021697998f},
      {-0.0061471401713788509369f, -0.0016446311492472887039f, 0.0019965183455497026443f, 0.0083615053445100784302f},
      {-0.0047594406642019748688f, 0.00057789153652265667915f, 0.00072396971518173813820f, 0.0029046735726296901703f}
    },
    {
      {0.0011628655483946204185f, -0.0023820777423679828644f, -0.0056400028988718986511f, -0.0061823595315217971802f},
      {-0.0051132822409272193909f, -0.0070935287512838840485f, -0.0064045111648738384247f, -0.0050229057669639587402f},
      {-0.013059635646641254425f, -0.012115354649722576141f, -0.0096166748553514480591f, -0.0067555480636656284332f},
      {-0.0042915903031826019287f, -0.0062929932028055191040f, -0.0053553888574242591858f, -0.0020297190640121698380f}
    },
    {
      {0.054868184030055999756f, 0.016071045771241188049f, -0.0090381782501935958862f, -0.0044760657474398612976f},
      {0.13067260384559631348f, 0.080084502696990966797f, -0.00028880551690235733986f, -0.0085610868409276008606f},
      {0.11749164015054702759f, 0.088119551539421081543f, 0.00047517585335299372673f, -0.0075964303687214851379f},
      {0.026175323873758316040f, 0.019061500206589698792f, -0.0088867088779807090759f, -0.0047229467891156673431f}
    },
    {
      {-0.0070349886082112789154f, -0.00025604033726267516613f, -0.00027197721647098660469f, 0.0030574055854231119156f},
      {-0.023875704035162925720f, -0.010161469690501689911f, 0.0060878023505210876465f, 0.031648740172386169434f},
      {-0.021779689937829971313f, -0.012014372274279594421f, 0.015143296681344509125f, 0.035679746419191360474f},
      {3.4934146242449060082e-05f, -0.00030042065191082656384f, 0.0093353278934955596924f, 0.0084231626242399215698f}
    },
    {
      {0.058070555329322814941f, 0.029999664053320884705f, -0.00079778337385505437851f, -0.065361768007278442383f},
      {0.19734911620616912842f, 0.070699147880077362061f, -0.065117411315441131592f, -0.26246222853660583496f},
      {0.12333434075117111206f, 0.051301289349794387817f, -0.088796146214008331299f, -0.24136593937873840332f},
      {0.00036783551331609487534f, 0.021613430231809616089f, -0.023005807772278785706f, -0.021422557532787322998f}
    },
    {
      {0.085336111485958099365f, 0.032879330217838287354f, -0.034786012023687362671f, -0.10593029856681823730f},
      {0.31038898229598999023f, 0.11035188287496566772f, -0.089549876749515533447f, -0.25357583165168762207f},
      {0.21834322810173034668f, 0.064493522047996520996f, -0.094879359006881713867f, -0.21188884973526000977f},
      {0.0041514215990900993347f, 0.0050548422150313854218f, -0.036103937774896621704f, -0.031028872355818748474f}
    }
  },
  {
    {
      {0.010914674960076808929f, 0.016937214881181716919f, -0.0026753125712275505066f, -0.028706395998597145081f},
      {0.010013462044298648834f, 0.00018759624799713492393f, -0.031904533505439758301f, -0.084688678383827209473f},
      {0.0096868611872196197510f, -0.0034717863891273736954f, -0.049986578524112701416f, -0.15852454304695129395f},
      {0.0016972116427496075630f, -0.0027832351624965667725f, -0.027945876121520996094f, -0.11663538217544555664f}
    },
    {
      {0.0028180086519569158554f, 0.020537165924906730652f, 0.0066132792271673679352f, -0.059697523713111877441f},
      {0.0030341048259288072586f, 0.038884762674570083618f, 0.12324449419975280762f, -0.25888076424598693848f},
      {0.0027375468052923679352f, 0.032316137105226516724f, 0.15984123945236206055f, -0.29118809103965759277f},
      {0.0033113071694970130920f, 0.031869087368249893188f, 0.066669709980487823486f, -0.15208955109119415283f}
    },
    {
      {0.0032316520810127258301f, 0.0030449884943664073944f, 0.010233303532004356384f, -0.099875003099441528320f},
      {0.0059257419779896736145f, 0.010010570287704467773f, 0.00085777248023077845573f, -0.18673045933246612549f},
      {0.0086753899231553077698f, 0.0074426000937819480896f, -0.026743991300463676453f, -0.085882730782032012939f},
      {0.0054231518879532814026f, 0.0028105636592954397202f, -0.010559669695794582367f, -0.020445551723241806030f}
    },
    {
      {0.0030991642270237207413f, 0.0066682407632470130920f, 0.0010452900314703583717f, 0.00019192129548173397779f},
      {0.0017871670424938201904f, 0.0046306573785841464996f, -0.013017313554883003235f, -0.025649545714259147644f},
      {-0.00033993512624874711037f, -0.00020018151553813368082f, -0.014485078863799571991f, -0.024293549358844757080f},
      {-0.0023946755100041627884f, -0.0059331096708774566650f, -0.0024669535923749208450f, -0.0053299646824598312378f}
    },
    {
      {-0.017800558358430862427f, 0.0068396674469113349915f, 0.11816012114286422729f, -0.058034904301166534424f},
      {-0.029441954568028450012f, -0.0043089929968118667603f, 0.29029434919357299805f, -0.094458781182765960693f},
      {-0.043546203523874282837f, -0.012171380221843719482f, 0.27926960587501525879f, -0.060675762593746185303f},
      {-0.032230213284492492676f, -0.0018398481188341975212f, 0.11030595004558563232f, -0.010980201885104179382f}
    },
    {
      {-7.0935144321992993355e-05f, 0.0045051462948322296143f, 0.0046241898089647293091f, 0.054124955087900161743f},
      {0.00019526455434970557690f, 0.0074989371933043003082f, 0.0057293674908578395844f, 0.021612767130136489868f},
      {-9.0199413534719496965e-05f, 0.0039909295737743377686f, -0.00054653140250593423843f, -0.025708122178912162781f},
      {-0.0020680951420217752457f, -0.00019411068933550268412f, -0.0027593257836997509003f, -0.030433809384703636169f}
    },
    {
      {0.00031739479163661599159f, -0.011644007638096809387f, -0.012924380600452423096f, 0.051951125264167785645f},
      {-0.0043143462389707565308f, -0.0086505860090255737305f, -0.10262144356966018677f, 0.34230253100395202637f},
      {-0.0093335546553134918213f, -0.0059514092281460762024f, -0.12233859300613403320f, 0.43149819970130920410f},
      {-0.0070409886538982391357f, -0.028399424627423286438f, -0.060343235731124877930f, 0.17967657744884490967f}
    },
    {
      {0.015650173649191856384f, 0.055813577026128768921f, 0.029341829940676689148f, -0.23916389048099517822f},
      {0.0088367545977234840393f, 0.065547689795494079590f, 0.11223982274532318115f, -0.39757928252220153809f},
      {0.030673203989863395691f, 0.060753732919692993164f, 0.092315807938575744629f, -0.34711486101150512695f},
      {0.034707341343164443970f, 0.037076808512210845947f, 0.0086738122627139091492f, -0.20226699113845825195f}
    }
  },
  {
    {
      {0.0039318026974797248840f, -0.0028867286164313554764f, -0.019628776237368583679f, -0.0072042448446154594421f},
      {-0.030651066452264785767f, -0.043420150876045227051f, -0.069883555173873901367f, -0.024826951324939727783f},
      {-0.037258554250001907349f, -0.063918426632881164551f, -0.15970374643802642822f, -0.029301133006811141968f},
      {-0.014363418333232402802f, -0.034289471805095672607f, -0.10983032733201980591f, -0.0086511485278606414795f}
    },
    {
      {0.039370272308588027954f, -0.0027196127921342849731f, -0.079995535314083099365f, 0.013346068561077117920f},
      {0.069615401327610015869f, 0.067753680050373077393f, -0.27620032429695129395f, 0.11628358066082000732f},
      {0.063314445316791534424f, 0.072242118418216705322f, -0.30345222353935241699f, 0.12952698767185211182f},
      {0.053987022489309310913f, 0.012275719083845615387f, -0.11997222900390625000f, 0.053851511329412460327f}
    },
    {
      {9.2867703642696142197e-05f, 0.00092794321244582533836f, -0.11105873435735702515f, 0.024924373254179954529f},
      {-0.0054871262982487678528f, -0.022086977958679199219f, -0.16748717427253723145f, -0.0021285661496222019196f},
      {-0.014380174688994884491f, -0.036202806979417800903f, -0.049335915595293045044f, -0.041548036038875579834f},
      {-0.00028031659894622862339f, -0.010741973295807838440f, -0.015015517361462116241f, -0.0036862166598439216614f}
    },
    {
      {0.014193080365657806396f, 1.8053857274935580790e-05f, -0.0042500807903707027435f, 0.0041095311753451824188f},
      {0.0070023587904870510101f, -0.019286673516035079956f, -0.043477557599544525146f, -0.0068606524728238582611f},
      {0.0029728349763900041580f, -0.0099962670356035232544f, -0.025701310485601425171f, -0.0011131056817248463631f},
      {-0.0032939137890934944153f, -0.0018661036156117916107f, -0.0028626117855310440063f, 6.2200488173402845860e-05f}
    },
    {
      {0.021668616682291030884f, 0.15490378439426422119f, 0.022921102121472358704f, 0.0052635218016803264618f},
      {0.033315591514110565186f, 0.32775005698204040527f, 0.016174886375665664673f, 0.032269023358821868896f},
      {0.036714196205139160156f, 0.27679795026779174805f, 0.052282877266407012939f, 0.022554596886038780212f},
      {0.019901702180504798889f, 0.078046813607215881348f, 0.029403453692793846130f, -0.0039973165839910507202f}
    },
    {
      {0.00023278838489204645157f, 0.0062638283707201480865f, 0.065602526068687438965f, 1.9088020053459331393e-05f},
      {0.00051339436322450637817f, 0.0052239699289202690125f, 0.036653909832239151001f, 0.0013582071987912058830f},
      {-0.0026367239188402891159f, -0.0038270908407866954803f, -0.0095586981624364852905f, -0.010459110140800476074f},
      {-0.013654399663209915161f, -0.0054189865477383136749f, -0.011996371671557426453f, -0.014226061291992664337f}
    },
    {
      {0.0034259383101016283035f, -0.038935739547014236450f, 0.0079087661579251289368f, 0.054582733660936355591f},
      {0.053156126290559768677f, -0.11438667774200439453f, 0.12335389107465744019f, 0.063255891203880310059f},
      {0.032842479646205902100f, -0.10633453726768493652f, 0.13014005124568939209f, 0.057055264711380004883f},
      {0.0075159445405006408691f, -0.041488826274871826172f, 0.046555273234844207764f, 0.060907106846570968628f}
    },
    {
      {0.090997897088527679443f, 0.00051746418466791510582f, -0.30720099806785583496f, 0.089805766940116882324f},
      {0.12524837255477905273f, 0.021700922399759292603f, -0.45256316661834716797f, 0.25647851824760437012f},
      {0.078357934951782226562f, -0.0071717733517289161682f, -0.39784449338912963867f, 0.20665529370307922363f},
      {0.048130214214324951172f, -0.024727290496230125427f, -0.21888454258441925049f, 0.053707797080278396606f}
    }
  },
  {
    {
      {0.018063494935631752014f, 0.0031551555730402469635f, -0.0085273422300815582275f, -0.0079384557902812957764f},
      {0.0028747105970978736877f, -0.010765652172267436981f, -0.022731125354766845703f, -0.013035736046731472015f},
      {-0.024377632886171340942f, -0.023977205157279968262f, -0.036663539707660675049f, -0.039911970496177673340f},
      {-0.028714794665575027466f, -0.018748158589005470276f, -0.016516761854290962219f, -0.025011444464325904846f}
    },
    {
      {0.0026381034404039382935f, -0.040707688778638839722f, -0.10357463359832763672f, -0.065234795212745666504f},
      {-0.010570387355983257294f, -0.081243179738521575928f, -0.17442670464515686035f, -0.14674934744834899902f},
      {0.0057669878005981445312f, -0.014119960367679595947f, -0.083734244108200073242f, -0.088760085403919219971f},
      {0.030023336410522460938f, 0.0058768293820321559906f, -0.0079491259530186653137f, -0.0094127915799617767334f}
    },
    {
      {0.0076777786016464233398f, -0.00069680804153904318810f, -0.022542377933859825134f, -0.017889257520437240601f},
      {0.0012316275388002395630f, -0.0066138799302279949188f, -0.029917988926172256470f, -0.025646230205893516541f},
      {0.0055559598840773105621f, -0.0034515794832259416580f, -0.0058497409336268901825f, -0.00027265137759968638420f},
      {0.031693268567323684692f, 0.022968444973230361938f, 0.0058850408531725406647f, 0.0090596675872802734375f}
    },
    {
      {-0.058529879897832870483f, -0.083574414253234863281f, -0.12141188234090805054f, -0.10314910858869552612f},
      {-0.068814754486083984375f, -0.089768975973129272461f, -0.12885297834873199463f, -0.12067386507987976074f},
      {-0.041505850851535797119f, -0.038732293993234634399f, -0.038454715162515640259f, -0.043671209365129470825f},
      {-0.036063484847545623779f, -0.032124720513820648193f, -0.018086755648255348206f, -0.016525009647011756897f}
    },
    {
      {0.028526915237307548523f, 0.023323796689510345459f, -0.0046624424867331981659f, 0.0035980199463665485382f},
      {0.047093328088521957397f, 0.043080259114503860474f, -0.0032414600718766450882f, 0.014439874328672885895f},
      {0.037796214222908020020f, 0.037041079252958297729f, -0.00013913083239458501339f, 0.0082574989646673202515f},
      {0.024977728724479675293f, 0.022649437189102172852f, -0.0049870633520185947418f, 1.5052535218273987994e-06f}
    },
    {
      {0.0079944347962737083435f, 0.020384361967444419861f, 0.041326411068439483643f, 0.034398492425680160522f},
      {0.010815120302140712738f, 0.022196425125002861023f, 0.043236300349235534668f, 0.043039299547672271729f},
      {0.00047604786232113838196f, 0.0063730548135936260223f, 0.017109887674450874329f, 0.025257747620344161987f},
      {-0.012333234772086143494f, -0.0077738207764923572540f, 0.0013990711886435747147f, 0.0066721718758344650269f}
    },
    {
      {0.014161191880702972412f, -0.0019002637127414345741f, 0.0041567748412489891052f, 0.012153657153248786926f},
      {0.023147979751229286194f, 0.0093747545033693313599f, -0.00015412425273098051548f, -0.013023483566939830780f},
      {0.027204547077417373657f, 0.022829379886388778687f, 0.0016582699026912450790f, -0.010239049792289733887f},
      {0.011437051929533481598f, 0.0064428923651576042175f, -0.0027980811428278684616f, 0.0031265357974916696548f}
    },
    {
      {0.019538901746273040771f, -0.042290870100259780884f, -0.10050135850906372070f, -0.081963479518890380859f},
      {-0.0099690333008766174316f, -0.076280489563941955566f, -0.14145381748676300049f, -0.14943060278892517090f},
      {0.049694228917360305786f, 0.012605698779225349426f, -0.047114867717027664185f, -0.066918917000293731689f},
      {0.082895830273628234863f, 0.059556175023317337036f, 0.029705939814448356628f, 0.017118632793426513672f}
    }
  },
  {
    {
      {0.0035807208623737096786f, 0.00047093542525544762611f, 0.017845602706074714661f, 0.017463929951190948486f},
      {-0.072534851729869842529f, -0.11698318272829055786f, -0.12924665212631225586f, -0.085745133459568023682f},
      {-0.088560372591018676758f, -0.13518230617046356201f, -0.18734636902809143066f, -0.14172020554542541504f},
      {0.00077996449545025825500f, -0.0012712058378383517265f, -0.0090284217149019241333f, -0.0047463541850447654724f}
    },
    {
      {-0.00074696826050058007240f, 0.0030694701708853244781f, 0.016021564602851867676f, 0.010432092472910881042f},
      {0.0078570889309048652649f, 0.050617776811122894287f, 0.11345469951629638672f, 0.084821023046970367432f},
      {0.050751797854900360107f, 0.11285253614187240601f, 0.22146987915039062500f, 0.15225417912006378174f},
      {0.032148495316505432129f, 0.063085652887821197510f, 0.13184820115566253662f, 0.084508031606674194336f}
    },
    {
      {-0.015003642998635768890f, -0.027249222621321678162f, -0.034854322671890258789f, -0.025720858946442604065f},
      {-0.049381323158740997314f, -0.094129934906959533691f, -0.11345460265874862671f, -0.071915596723556518555f},
      {-0.033740218728780746460f, -0.073731452226638793945f, -0.096949964761734008789f, -0.071979954838752746582f},
      {0.0011952192289754748344f, -0.00030184796196408569813f, 0.0015609170077368617058f, 0.00087625550804659724236f}
    },
    {
      {-0.0067306589335203170776f, -0.0070133865810930728912f, -0.0093872565776109695435f, -0.010227981954813003540f},
      {-0.00070681760553270578384f, -0.0024961449671536684036f, -0.0027616906445473432541f, -0.0016922074137255549431f},
      {0.016413642093539237976f, 0.015961637720465660095f, 0.016047755256295204163f, 0.019462931901216506958f},
      {0.025984747335314750671f, 0.032158087939023971558f, 0.036825243383646011353f, 0.037178833037614822388f}
    },
    {
      {-0.089080758392810821533f, -0.18344278633594512939f, -0.14527988433837890625f, -0.059337068349123001099f},
      {-0.11112029105424880981f, -0.23515340685844421387f, -0.19325010478496551514f, -0.073735810816287994385f},
      {-0.077398449182510375977f, -0.17928405106067657471f, -0.16226512193679809570f, -0.063197076320648193359f},
      {-0.028883619233965873718f, -0.094696484506130218506f, -0.078237280249595642090f, -0.015846146270632743835f}
    },
    {
      {-0.0098884254693984985352f, -0.0098115252330899238586f, -0.017919547855854034424f, -0.013597179204225540161f},
      {-0.024577846750617027283f, -0.045836120843887329102f, -0.076642833650112152100f, -0.063490018248558044434f},
      {-0.023838475346565246582f, -0.050183929502964019775f, -0.088967189192771911621f, -0.069158755242824554443f},
      {-0.012101352214813232422f, -0.022264910861849784851f, -0.038108676671981811523f, -0.021672358736395835876f}
    },
    {
      {-0.0078946249559521675110f, -0.021050177514553070068f, -0.021190753206610679626f, 0.00088847498409450054169f},
      {-0.078542456030845642090f, -0.16204629838466644287f, -0.13974401354789733887f, -0.026217753067612648010f},
      {-0.061340793967247009277f, -0.18653692305088043213f, -0.15581105649471282959f, -0.030193010345101356506f},
      {0.00080287671880796551704f, -0.060134511440992355347f, -0.042557131499052047729f, -0.0036089718341827392578f}
    },
    {
      {0.043611612170934677124f, 0.038356240838766098022f, 0.073737896978855133057f, 0.089321926236152648926f},
      {-0.0013784432085230946541f, -0.033338807523250579834f, -0.013368515297770500183f, 0.015506691299378871918f},
      {0.018822360783815383911f, -0.049369864165782928467f, -0.038871478289365768433f, -0.010361961089074611664f},
      {0.038073670119047164917f, 0.015386535786092281342f, 0.033114902675151824951f, 0.028187694028019905090f}
    }
  }
};
/* 5.bias*/
static const float tensor_5_bias[100] = 
{-0.0076607102528214454651f, 0.064198143780231475830f, -0.037857886403799057007f, 0.014213341288268566132f, 0.011860748752951622009f, 0.10295224189758300781f, -0.050524078309535980225f, 0.10121094435453414917f, 0.0044308905489742755890f, 0.036208968609571456909f, 0.0040923198685050010681f, 0.084554813802242279053f, 0.055732578039169311523f, -0.041747141629457473755f, 0.026480274274945259094f, -0.011302514933049678802f, -0.056842841207981109619f, 0.049019623547792434692f, 0.00039471889613196253777f, 1.6535727809241507202e-07f, 0.010828053578734397888f, -0.064491443336009979248f, -0.0096114408224821090698f, 0.020231911912560462952f, 0.012956983409821987152f, -0.052721966058015823364f, -0.027098830789327621460f, 0.040470331907272338867f, 0.17479060590267181396f, -0.0058677536435425281525f, -0.020994605496525764465f, 0.051833022385835647583f, -1.2790178516297601163e-06f, -1.1880732699864893220e-06f, 0.0029878173954784870148f, 0.023186514154076576233f, -0.040427908301353454590f, 0.018446346744894981384f, 0.0023657621350139379501f, 0.056708730757236480713f, -0.0079399487003684043884f, -0.0079607367515563964844f, -0.016229830682277679443f, 0.035656847059726715088f, 0.040118519216775894165f, 0.041035920381546020508f, 0.010107195004820823669f, 0.018362162634730339050f, 0.11363390088081359863f, 0.053767152130603790283f, -0.055250633507966995239f, 0.0034092830028384923935f, 0.14083150029182434082f, -0.077759206295013427734f, -0.014171479269862174988f, -0.038891427218914031982f, -0.029532574117183685303f, 0.017189804464578628540f, -1.0692695013858610764e-06f, -0.0070362519472837448120f, 0.063519477844238281250f, 0.069820158183574676514f, -0.0035172454081475734711f, -0.043790142983198165894f, 0.047746405005455017090f, 0.020155675709247589111f, 0.12754963338375091553f, -1.3232171340860077180e-06f, -0.031530026346445083618f, -4.8846180789041682146e-07f, -0.067444384098052978516f, 0.079168073832988739014f, 0.0057813697494566440582f, 0.0019205270800739526749f, -0.013301410712301731110f, -0.032870683819055557251f, -0.00082120136357843875885f, 0.043066065758466720581f, 0.084017418324947357178f, 0.011232865042984485626f, 0.0086235897615551948547f, 0.049478802829980850220f, -1.7412132820027181879e-06f, 0.048376411199569702148f, 0.054353844374418258667f, 0.0027574584819376468658f, 0.24309037625789642334f, 0.13188323378562927246f, -0.079590283334255218506f, 0.017619922757148742676f, 0.050051100552082061768f, 0.063568271696567535400f, 0.054032456129789352417f, -0.069269463419914245605f, 0.017801346257328987122f, -0.0079300152137875556946f, 0.00055174151202663779259f, 0.063494108617305755615f, 0.0091218724846839904785f, -0.029359355568885803223f};
/* 5.weight*/
static const float tensor_5_weight[100][1024] = 
{
  {0.0043564774096012115479f, -0.00033703874214552342892f, -0.0036456617526710033417f, -0.0052405386231839656830f, -0.0029050146695226430893f, 0.00048694395809434354305f, -0.0023655404802411794662f, -0.00090787780936807394028f, 0.012971746735274791718f, 0.0010836118599399924278f, -0.0011398956412449479103f, -0.0051263351924717426300f, -0.00077091855928301811218f, 0.0027144108898937702179f, 0.0014508374733850359917f, 0.00088195531861856579781f, 0.014624263159930706024f, 0.0025759250856935977936f, -0.0012832783395424485207f, -0.010130235925316810608f, -0.0081409886479377746582f, -0.0014135621022433042526f, 0.0056548821739852428436f, 0.0029657031409442424774f, 0.013630069792270660400f, 0.00042928353650495409966f, 0.0033826683647930622101f, -0.0094849579036235809326f, -0.016547583043575286865f, -0.0037540488410741090775f, 0.0098398560658097267151f, 0.0056070685386657714844f, 0.012230251915752887726f, -0.00061726022977381944656f, 0.0023014605976641178131f, -0.0057305251248180866241f, -0.011121660470962524414f, 0.0026582870632410049438f, 0.018320159986615180969f, 0.0084692230448126792908f, 0.010350329801440238953f, -0.0034349400084465742111f, -0.00092325051082298159599f, -0.0035272014793008565903f, -0.0092287277802824974060f, 0.0042863669805228710175f, 0.014020983129739761353f, 0.0065384218469262123108f, 0.012397489510476589203f, -0.0018466738983988761902f, 0.0014845305122435092926f, -0.0013000322505831718445f, -0.0031752421054989099503f, 0.0027455531526356935501f, 0.0081520099192857742310f, 0.0033410701435059309006f, 0.0070234127342700958252f, 0.00025890080723911523819f, 0.0036038032267242670059f, 0.00053927756380289793015f, -0.00012553734995890408754f, -0.00036586410715244710445f, 0.0029990384355187416077f, 0.0032622199505567550659f, -0.014775798656046390533f, -0.0072086201980710029602f, -0.0076901726424694061279f, -0.0082512423396110534668f, -0.012885927222669124603f, -0.012584311887621879578f, -0.0045956671237945556641f, -0.00090079370420426130295f, -0.027532249689102172852f, -0.017250204458832740784f, -0.0048854006454348564148f, -0.0098828617483377456665f, -0.0043025850318372249603f, -0.010068129748106002808f, -0.012680155225098133087f, -0.00041851718560792505741f, -0.039513479918241500854f, -0.015232773497700691223f, 0.0057117450051009654999f, 0.0034517520107328891754f, -0.0047979694791138172150f, -0.020626131445169448853f, -0.026434483006596565247f, -0.0047964495606720447540f, -0.058058463037014007568f, -0.024202330037951469421f, 0.034242812544107437134f, 0.049136612564325332642f, 0.00089214986655861139297f, -0.037846948951482772827f, -0.049754243344068527222f, -0.0096685159951448440552f, -0.083492942154407501221f, -0.035128943622112274170f, 0.055094420909881591797f, 0.075212709605693817139f, 0.0077695986256003379822f, -0.075970850884914398193f, -0.068895004689693450928f, -0.011994373984634876251f, -0.073846749961376190186f, -0.025344265624880790710f, 0.032550148665904998779f, 0.034640662372112274170f, -0.038267496973276138306f, -0.11105895042419433594f, -0.072288714349269866943f, -0.0036647596862167119980f, -0.043266497552394866943f, -0.0013036709278821945190f, 0.0065902764908969402313f, 0.00083244417328387498856f, -0.055543858557939529419f, -0.12269148230552673340f, -0.064580120146274566650f, 0.010879830457270145416f, -0.024272184818983078003f, 0.0025639364030212163925f, -0.0017142802244052290916f, 0.0054665496572852134705f, -0.017025629058480262756f, -0.074876122176647186279f, -0.037181492894887924194f, 0.021926613524556159973f, -0.020534964278340339661f, -0.0019181926036253571510f, -0.0042842254042625427246f, -0.0071279802359640598297f, -0.0075257825665175914764f, -0.0080875819548964500427f, -0.010846585035324096680f, 0.0099277477711439132690f, -0.024651873856782913208f, 0.0046875989064574241638f, -0.0057731191627681255341f, -0.010178669355809688568f, -0.0035812065470963716507f, 0.00067295267945155501366f, 0.0061065899208188056946f, 0.022271204739809036255f, -0.023602170869708061218f, 0.0046618003398180007935f, -0.011064949445426464081f, -0.014857182279229164124f, -0.0037578805349767208099f, 0.010727780871093273163f, 0.011938593350350856781f, 0.021780349314212799072f, -0.041569288820028305054f, -0.0047883731313049793243f, 9.9606768344528973103e-05f, 0.0026132201310247182846f, 6.0830014263046905398e-05f, -0.0053402828052639961243f, 0.0015222787624225020409f, 0.021389756351709365845f, -0.059717543423175811768f, -0.0096204960718750953674f, 0.0068496544845402240753f, 0.015863059088587760925f, -0.0034578575287014245987f, -0.019080558791756629944f, 0.0026262823957949876785f, 0.025508960708975791931f, -0.051096312701702117920f, -0.0075808702968060970306f, 0.00058544642524793744087f, 0.0048163840547204017639f, -0.017097558826208114624f, -0.015344874002039432526f, 0.0037618237547576427460f, 0.029055191203951835632f, -0.026809113100171089172f, -0.00052147987298667430878f, 0.00017225618648808449507f, 0.0012123571941629052162f, -0.0090541765093803405762f, -0.0073431502096354961395f, 0.0022031131666153669357f, 0.024646824225783348083f, -0.0094588398933410644531f, 4.8887119191931560636e-05f, 0.0047944639809429645538f, 0.00056077842600643634796f, -0.0044235014356672763824f, -0.0031827008351683616638f, 0.0024371582549065351486f, 0.019061258062720298767f, -0.00024717199266888201237f, -0.00046910264063626527786f, -8.8308814156334847212e-05f, 0.00068517524050548672676f, 0.00041780513129197061062f, 0.00017248730000574141741f, -6.8826069764327257872e-05f, -0.00012410331692080944777f, -0.0013746821787208318710f, 0.00030518829589709639549f, 0.0013102123048156499863f, 0.0024433410726487636566f, 0.0016497244359925389290f, 0.00058631645515561103821f, 0.00058465369511395692825f, 0.00057158456183969974518f, -0.0018168094102293252945f, -0.0017610590439289808273f, 0.0013770518125966191292f, 0.0013866693479940295219f, -0.00077936163870617747307f, -0.0029472380410879850388f, -0.0013679339317604899406f, -0.0014387415722012519836f, -0.0029379343613982200623f, -0.0020981819834560155869f, 0.0038693081587553024292f, 0.0026551922783255577087f, -0.00074966315878555178642f, -0.0023064003325998783112f, -0.00086192809976637363434f, -0.0016486984677612781525f, -0.0019041770137846469879f, -0.0015038801357150077820f, -0.0013415281428024172783f, -0.0010914326412603259087f, -0.0012816600501537322998f, -0.0016369984950870275497f, -0.0012472096132114529610f, -0.0012857771944254636765f, -0.00044112559407949447632f, -0.00089693145127967000008f, -0.0019189674640074372292f, -0.0019377535209059715271f, -0.0023694392293691635132f, -0.0017088587628677487373f, -0.0012419671984389424324f, -0.00042135865078307688236f, 0.0011413110187277197838f, 0.0012977297883480787277f, 6.4309249864891171455e-05f, -0.00076274632010608911514f, -0.00087804987560957670212f, -8.0979909398593008518e-05f, 5.8777633967110887170e-05f, -0.00080110772978514432907f, 0.0014102386776357889175f, 0.0017750272527337074280f, -0.0015527170617133378983f, -0.0019183054100722074509f, -0.00021313286561053246260f, 0.00098886061459779739380f, -0.0011356449685990810394f, -0.0039318548515439033508f, -0.0022393998224288225174f, 0.0060647693462669849396f, 0.00048057595267891883850f, 0.0012495429255068302155f, -0.00020215581753291189671f, 0.0040769176557660102844f, -0.0023886056151241064072f, -0.0063675860874354839325f, -0.0017314497381448745728f, 0.0028098407201468944550f, -0.00031028935336507856846f, -0.00059815536951646208763f, 0.00021867005852982401848f, 0.0070779062807559967041f, 0.0015736892819404602051f, -0.0027340690139681100845f, 0.0041744858026504516602f, 0.015532967634499073029f, 0.0092567829415202140808f, 0.0095489751547574996948f, 0.010714996606111526489f, 0.014923260547220706940f, 0.012020736001431941986f, -0.0031977645121514797211f, 0.0042349640280008316040f, 0.017416572198271751404f, 0.0093087917193770408630f, 0.011948951520025730133f, 0.031494565308094024658f, 0.018476692959666252136f, 0.0046944716013967990875f, -0.011577949859201908112f, 0.00033402425469830632210f, 0.0040993965230882167816f, -0.00080268370220437645912f, 0.0080902185291051864624f, 0.036223985254764556885f, 0.0072562932036817073822f, 0.010504649952054023743f, -0.0065270350314676761627f, -0.011145113036036491394f, -0.013923293910920619965f, -0.012794163078069686890f, 0.0027257564943283796310f, 0.0042428411543369293213f, -0.0088486541062593460083f, 0.0030326887499541044235f, -0.0037331569474190473557f, -0.013853850774466991425f, -0.016438921913504600525f, -0.015035058371722698212f, 0.00082612183177843689919f, -0.010809162631630897522f, -0.0087430458515882492065f, 0.0051267067901790142059f, -0.00088168238289654254913f, 0.0075422693043947219849f, 0.0022024773061275482178f, 0.0042812372557818889618f, 0.0049937493167817592621f, 0.0069456174969673156738f, 0.011221980676054954529f, 0.0082228342071175575256f, 0.011828084476292133331f, 0.0023020289372652769089f, 0.0054530892521142959595f, 0.0015373323112726211548f, 0.0012896052794530987740f, 0.00043049725354649126530f, 0.0056034140288829803467f, 0.00029704876942560076714f, 0.00099657371174544095993f, -0.0012196678435429930687f, -0.00042931269854307174683f, -0.0063894940540194511414f, -0.0046657575294375419617f, -0.00014537679089698940516f, -0.00088549684733152389526f, -0.00095050793606787919998f, -0.0076013156212866306305f, 0.0046249488368630409241f, 0.013103173114359378815f, 0.0047156265936791896820f, 0.0051895687356591224670f, 0.0089716520160436630249f, 0.0071703265421092510223f, 0.0088139669969677925110f, -0.0033464273437857627869f, 0.0090753827244043350220f, 0.013072704896330833435f, 0.0072152917273342609406f, 0.0043684523552656173706f, 0.016318837180733680725f, 0.013883170671761035919f, 0.013156496919691562653f, -0.0065109557472169399261f, 0.0036324393004179000854f, 0.0094541078433394432068f, 0.010464254766702651978f, 0.0092707034200429916382f, 0.028766095638275146484f, 0.012306933291256427765f, 0.0063314158469438552856f, -0.011053353548049926758f, -0.0038864873349666595459f, -0.014405172318220138550f, -0.0041912170127034187317f, 0.0021632874850183725357f, 0.014839359559118747711f, 0.0083462055772542953491f, 0.010758453980088233948f, -0.0071441000327467918396f, -0.0095660556107759475708f, -0.011601078324019908905f, -0.0017430137377232313156f, 0.00048798223724588751793f, 0.00057056796504184603691f, 0.0052084056660532951355f, 0.019625853747129440308f, -0.0021441213320940732956f, -0.012114657089114189148f, -0.018997099250555038452f, -0.015452579595148563385f, -0.0087205562740564346313f, -0.013766155578196048737f, -0.0087285554036498069763f, -0.0018462375737726688385f, -0.0051226918585598468781f, 0.012615372426807880402f, -0.0032373396679759025574f, -0.0034306852612644433975f, -0.0029534457717090845108f, 0.00021361174003686755896f, 0.0011115382658317685127f, 0.00081677868729457259178f, -0.020440714433789253235f, 0.027329599484801292419f, -0.0047493572346866130829f, -0.0022462296765297651291f, -0.0039703845977783203125f, 0.0042522107250988483429f, 0.0078449575230479240417f, 0.013048031367361545563f, -0.025150630623102188110f, 0.034111458808183670044f, -0.00042694303556345403194f, -0.0016016652807593345642f, -0.0026090031024068593979f, 0.011016208678483963013f, 0.019523255527019500732f, 0.018746674060821533203f, -0.028239445760846138000f, 0.056042708456516265869f, 0.0024428630713373422623f, 0.0011482378467917442322f, -0.0055061830207705497742f, 0.020830124616622924805f, 0.035264186561107635498f, 0.029484869912266731262f, -0.032411240041255950928f, 0.070310592651367187500f, 0.00016452601994387805462f, -0.0011668936349451541901f, 0.00098865688778460025787f, 0.022859120741486549377f, 0.043760932981967926025f, 0.036905977874994277954f, -0.036061353981494903564f, 0.049524258822202682495f, -0.0058682695962488651276f, 0.0025823793839663267136f, 0.0038143605925142765045f, 0.019259883090853691101f, 0.034421265125274658203f, 0.026708360761404037476f, -0.041991274803876876831f, 0.029687998816370964050f, -0.0029791160486638545990f, 0.0044442531652748584747f, 0.0016617549117654561996f, 0.012179651297628879547f, 0.017680345103144645691f, 0.021592313423752784729f, -0.039663542062044143677f, 0.0078689502552151679993f, -0.0044727125205099582672f, -0.0025432028342038393021f, -0.0029453090392053127289f, 0.0015190005069598555565f, 0.0057569313794374465942f, 0.0068708681501448154449f, -0.034799590706825256348f, 0.0033641604240983724594f, -0.00070577661972492933273f, -0.0022957101464271545410f, -0.0014333629515022039413f, -0.0025722179561853408813f, -0.0023289853706955909729f, 0.0015590098919346928596f, -0.0062030474655330181122f, -0.0052932254038751125336f, -0.00065788533538579940796f, -0.0046274890191853046417f, -0.0060986778698861598969f, -0.0011603302555158734322f, 0.00062422716291621327400f, 0.0086830863729119300842f, 0.0035495453048497438431f, 0.0031746954191476106644f, 0.0074103656224906444550f, -0.011666457168757915497f, -0.019376751035451889038f, -0.0058352123014628887177f, 0.011846398003399372101f, 0.025490177795290946960f, -0.0025510201230645179749f, 0.018153440207242965698f, 0.010456148535013198853f, -0.022140735760331153870f, -0.042733021080493927002f, -0.0076531064696609973907f, 0.032284393906593322754f, 0.043027311563491821289f, -0.0036762335803359746933f, 0.022606987506151199341f, 0.0049947742372751235962f, -0.017154296860098838806f, -0.038054287433624267578f, 0.0023233904503285884857f, 0.035735387355089187622f, 0.049610920250415802002f, -0.0086207883432507514954f, 0.014947799034416675568f, 0.013632234185934066772f, -0.0014138781698420643806f, -0.0062147802673280239105f, 0.018080854788422584534f, 0.029915042221546173096f, 0.030706727877259254456f, -0.018706012517213821411f, 0.0088625736534595489502f, 0.0078760767355561256409f, -0.0042746318504214286804f, -0.0038946066051721572876f, 0.012904035858809947968f, 0.016464877873659133911f, 0.0081868730485439300537f, -0.018348248675465583801f, 0.0054547912441194057465f, 0.00065078330226242542267f, -0.0063893413171172142029f, -0.0027161843609064817429f, 0.0056603956036269664764f, 0.0069267237558960914612f, -0.0034628242719918489456f, -0.019168114289641380310f, 0.0029511693865060806274f, -0.0014958471292629837990f, -0.0023530132602900266647f, -0.0021742361132055521011f, -0.0013238603714853525162f, -0.0049202754162251949310f, 0.00012257382331881672144f, 0.00059402693295851349831f, -0.00021394126815721392632f, -0.00015575520228594541550f, -0.0020676336716860532761f, -0.0017465051496401429176f, -0.0028425527270883321762f, -0.0061443587765097618103f, -0.011979050002992153168f, -0.017250839620828628540f, -0.0037941846530884504318f, 0.0077474997378885746002f, 0.026883173733949661255f, 0.014575147069990634918f, 0.00038772239349782466888f, -0.0036729674320667982101f, -0.0044660521671175956726f, -0.017940379679203033447f, -0.0094974562525749206543f, 0.012940397486090660095f, 0.027694102376699447632f, 0.019540218636393547058f, 0.0034116953611373901367f, -0.0093980217352509498596f, -0.0038229618221521377563f, -0.013363165780901908875f, -0.0056695267558097839355f, 0.0051091341301798820496f, 0.0074949781410396099091f, -0.0050754854455590248108f, 0.00052965828217566013336f, -0.00036000690306536853313f, 0.0039516380056738853455f, -0.0087459878996014595032f, -0.013224097900092601776f, -0.014412712305784225464f, -0.0023205003235489130020f, -0.0053777582943439483643f, -0.0083865094929933547974f, -0.0053715398535132408142f, 0.0093910628929734230042f, -0.0043566725216805934906f, 0.00081285694614052772522f, -0.0014988374896347522736f, 0.0049073789268732070923f, 0.0045555438846349716187f, -0.0012641896028071641922f, 0.0028165897820144891739f, 0.0093931443989276885986f, -0.0082732904702425003052f, 0.0013809837400913238525f, -0.0050110071897506713867f, -0.0051417215727269649506f, -0.0024755098856985569000f, -0.0049618668854236602783f, -0.0038834232836961746216f, 0.0029529030434787273407f, -0.018301451578736305237f, -0.0013502080691978335381f, -0.0062253312207758426666f, -0.011686627753078937531f, -0.011156879365444183350f, -0.015226632356643676758f, -0.014155655167996883392f, -0.015356374904513359070f, 0.00050601369002833962440f, 0.014544609002768993378f, 0.0075435023754835128784f, 0.0020402004010975360870f, -0.0015821106499060988426f, -0.0088699860498309135437f, -0.032295119017362594604f, -0.038499366492033004761f, -0.0026215193793177604675f, 0.020583188161253929138f, 0.0035451466683298349380f, 0.013036854565143585205f, 0.015345809981226921082f, -0.022148365154862403870f, -0.050999172031879425049f, -0.044999990612268447876f, 0.00020776774908881634474f, 0.011580497957766056061f, 0.0086065214127302169800f, 0.024043926969170570374f, 0.029238577932119369507f, -0.012502565979957580566f, -0.040758188813924789429f, -0.041246894747018814087f, 0.00049629074055701494217f, 0.0017668214859440922737f, 0.0024864163715392351151f, 0.022595090791583061218f, 0.0098028369247913360596f, -0.00083930679829791188240f, -0.010597939603030681610f, -0.024005634710192680359f, -0.0022513724397867918015f, -0.032660327851772308350f, -0.00042126976768486201763f, 0.0014669210650026798248f, -0.0050733527168631553650f, 0.00088996218983083963394f, 0.016113078221678733826f, -0.010056815110146999359f, -0.0043324287980794906616f, -0.048409383744001388550f, -0.011094818823039531708f, 0.0029876411426812410355f, -0.0024322953540831804276f, -0.00058725359849631786346f, 0.012083695270121097565f, -0.011808411218225955963f, -0.013866901397705078125f, -0.021680656820535659790f, -0.00010953057062579318881f, 0.013832954689860343933f, 0.014763696119189262390f, 0.010364633984863758087f, -0.0052914367988705635071f, -0.0072011533193290233612f, -0.00060857331845909357071f, -9.5782605058047920465e-05f, 0.0047329901717603206635f, 0.0078062107786536216736f, 0.0041089383885264396667f, -0.0038788816891610622406f, -0.0046022790484130382538f, -0.014700308442115783691f, -0.0063459677621722221375f, 0.0058838422410190105438f, 0.0046388097107410430908f, 0.0036481877323240041733f, 0.016961792483925819397f, 0.0053778677247464656830f, -0.0040705264545977115631f, -0.024366058409214019775f, -0.010863703675568103790f, 0.0012329516466706991196f, -0.012291120365262031555f, -0.0071617038920521736145f, 0.023419629782438278198f, 0.020967245101928710938f, -0.0098994551226496696472f, -0.033132977783679962158f, -0.016204763203859329224f, 0.0068466714583337306976f, -0.025085043162107467651f, -0.030645377933979034424f, 0.0082951448857784271240f, 0.022805612534284591675f, -0.0071652871556580066681f, -0.046456336975097656250f, -0.018490087240934371948f, 0.017277674749493598938f, -0.028099127113819122314f, -0.030758386477828025818f, 0.0043461308814585208893f, 0.0041656726971268653870f, -0.012162867933511734009f, -0.037299964576959609985f, -0.0087950900197029113770f, 0.026072578504681587219f, -0.016535475850105285645f, -0.011916148476302623749f, 0.015192666091024875641f, 0.020052714273333549500f, -0.0086125750094652175903f, -0.026571877300739288330f, -0.0064386441372334957123f, 0.018119052052497863770f, -0.0049451906234025955200f, 0.0010513034649193286896f, 0.013152694329619407654f, 0.034065123647451400757f, -0.00061030918732285499573f, -0.018583089113235473633f, -0.010249248705804347992f, 0.0060385875403881072998f, 0.0017816914478316903114f, 6.9276313297450542450e-05f, 0.021532403305172920227f, 0.032472442835569381714f, 0.014039169996976852417f, -0.0096343634650111198425f, -0.0082044471055269241333f, -0.0022112755104899406433f, -0.041457843035459518433f, -0.032040625810623168945f, -0.011915893293917179108f, -0.011487452313303947449f, -0.018872886896133422852f, 0.0034031509421765804291f, -0.0022201247047632932663f, 0.00054141751024872064590f, -0.038245197385549545288f, -0.013039994984865188599f, -0.0037705767899751663208f, -0.022269761189818382263f, -0.029474731534719467163f, -0.0026159626431763172150f, -0.0034468888770788908005f, 0.0034411272499710321426f, -0.0016667479649186134338f, 0.021121656522154808044f, 0.00023577317188028246164f, -0.035099718719720840454f, -0.044068843126296997070f, -0.022442881017923355103f, -0.00084351218538358807564f, 0.0053720972500741481781f, 0.026135735213756561279f, 0.059590782970190048218f, 0.010126649402081966400f, -0.044939391314983367920f, -0.063864655792713165283f, -0.040049601346254348755f, -0.0050166011787950992584f, 0.0040298174135386943817f, 0.0090921381488442420959f, 0.033726759254932403564f, 0.0025541542563587427139f, -0.044637218117713928223f, -0.067156895995140075684f, -0.047616362571716308594f, -0.012499340809881687164f, 0.0056026326492428779602f, -0.024181663990020751953f, -0.00010357013525208458304f, -0.013554813340306282043f, -0.044662378728389739990f, -0.074380256235599517822f, -0.032333560287952423096f, -0.010853764601051807404f, 0.0030724958050996065140f, -0.010672404430806636810f, -0.0045134634710848331451f, -0.019132196903228759766f, -0.029938112944364547729f, -0.064292661845684051514f, -0.022315692156553268433f, -0.010936034843325614929f, 0.0018273381283506751060f, 0.0090210279449820518494f, -0.0052961995825171470642f, -0.017245881259441375732f, -0.017837865278124809265f, -0.033953640609979629517f, -0.017679005861282348633f, -0.016630455851554870605f, -0.0038613670039921998978f, -0.0098729124292731285095f, -0.0061434316448867321014f, -0.0063759237527847290039f, -0.00033814294147305190563f, -0.011042348109185695648f, 0.023955225944519042969f, -0.0077172452583909034729f, -0.00085354328621178865433f, -0.0059106792323291301727f, -0.0073022898286581039429f, -0.0012444403255358338356f, 0.0041284472681581974030f, -0.0091184601187705993652f, 0.022268217056989669800f, -0.00062683684518560767174f, -0.0066474210470914840698f, -0.0029912972822785377502f, 0.0036150210071355104446f, 0.0034222987014800310135f, 0.0050031994469463825226f, -0.021726695820689201355f, 0.020423639565706253052f, 0.00062588881701231002808f, -0.014065055176615715027f, -0.010556851513683795929f, 0.017063286155462265015f, 0.0049302121624350547791f, -0.015475245192646980286f, -0.043624121695756912231f, 0.022496327757835388184f, -0.00077340495772659778595f, -0.021728230640292167664f, -0.0094894999638199806213f, 0.024352381005883216858f, -0.0034361195284873247147f, -0.036865778267383575439f, -0.060107771307229995728f, 0.035692989826202392578f, -0.0047599999234080314636f, -0.0082172891125082969666f, -0.0015512115787714719772f, 0.032983239740133285522f, -5.3609197493642568588e-05f, -0.023904753848910331726f, -0.061325676739215850830f, 0.041881956160068511963f, -0.013270836323499679565f, 0.0053658699616789817810f, 0.0089361267164349555969f, 0.021762510761618614197f, 0.0093924067914485931396f, -0.020509069785475730896f, -0.038554575294256210327f, 0.033448196947574615479f, -0.014189794659614562988f, -0.00091438234085217118263f, 0.010580971837043762207f, 0.0033200052566826343536f, -7.3524694016668945551e-05f, -0.022499185055494308472f, -0.023310136049985885620f, 0.011898533441126346588f, -0.018800934776663780212f, -0.022607373073697090149f, -0.0080280592665076255798f, -0.010284066200256347656f, -0.012702869251370429993f, -0.0043351361528038978577f, -0.0083855297416448593140f, -0.0092572867870330810547f, 0.0095422873273491859436f, -0.027273235842585563660f, -0.0030034275259822607040f, -0.0097553264349699020386f, -0.0060671749524772167206f, 0.0017861628439277410507f, -0.0025696279481053352356f, -0.021629653871059417725f, 0.0088299140334129333496f, -0.014723247848451137543f, -0.0030762420501559972763f, -0.0026364438235759735107f, 0.0037157740443944931030f, 0.00089369527995586395264f, -0.011895326897501945496f, -0.033647328615188598633f, 0.0093345437198877334595f, -0.020882319658994674683f, -0.0083431042730808258057f, 0.0053918943740427494049f, 0.019554527476429939270f, -0.014666420407593250275f, -0.045022498816251754761f, 