// This file is computer-generated by onnx2c 
// (TODO: add creating command line here)
// (TODO: print creation date here )

// ONNX model:
// produced by pytorch, version 1.8
// ONNX IR version: 9
// Model documentation: 
/*

*/

#include <float.h>
#include <math.h>
#include <stdbool.h>
#include <stdint.h>
#include <string.h>
#define MAX(X,Y) ( X > Y ? X : Y)
#define MIN(X,Y) ( X < Y ? X : Y)
#define CLIP(X,L) ( MAX(MIN(X,L), -L) )

/* conv1.weight*/
static const float tensor_conv1_weight[8][3][3][3] = 
{
  {
    {
      {0.17979857325553894043f, 0.00085848075104877352715f, 0.18901933729648590088f},
      {0.0014477906515821814537f, 0.00099689385388046503067f, 0.0010452215792611241341f},
      {0.27235159277915954590f, 0.0011546553578227758408f, 0.29057207703590393066f}
    },
    {
      {0.18572893738746643066f, 0.00042252798448316752911f, 0.15811489522457122803f},
      {0.0012233627494424581528f, 0.00052818475523963570595f, 0.00080863718176260590553f},
      {0.20024602115154266357f, 0.00058491510571911931038f, 0.18593628704547882080f}
    },
    {
      {0.065830148756504058838f, 0.00077885593054816126823f, 0.049963455647230148315f},
      {0.0012026022886857390404f, 0.0014151135692372918129f, 0.0010111586889252066612f},
      {0.059045836329460144043f, 0.0010683307191357016563f, 0.017147723585367202759f}
    }
  },
  {
    {
      {-0.15684776008129119873f, -0.00094585114857181906700f, -0.18257908523082733154f},
      {-0.0020969242323189973831f, -0.0015080475714057683945f, -0.0019237886881455779076f},
      {-0.27152147889137268066f, -0.0018938718130812048912f, -0.29650846123695373535f}
    },
    {
      {-0.19952028989791870117f, -0.00034898292506113648415f, -0.19288057088851928711f},
      {-0.0019619583617895841599f, -0.00061120948521420359612f, -0.0016654611099511384964f},
      {-0.24820052087306976318f, -0.0014093547360971570015f, -0.24098634719848632812f}
    },
    {
      {-0.060477294027805328369f, 0.00079969101352617144585f, -0.037711396813392639160f},
      {-0.00035737178404815495014f, 0.00043129586265422403812f, -0.00014488214219454675913f},
      {-0.064195998013019561768f, -0.00010338699212297797203f, -0.016081076115369796753f}
    }
  },
  {
    {
      {-0.0085946517065167427063f, 0.00025803720927797257900f, 0.026826554909348487854f},
      {-0.00096796883735805749893f, 2.5435316274524666369e-05f, 0.00068979512434452772141f},
      {-0.0096382638439536094666f, 0.00042258502799086272717f, 0.10288085043430328369f}
    },
    {
      {-0.19625736773014068604f, 0.00016692024655640125275f, -0.12407896667718887329f},
      {-0.00092900084564462304115f, -0.00016036709712352603674f, 0.00050344277406111359596f},
      {-0.15784932672977447510f, 1.3438073438010178506e-05f, -0.043554291129112243652f}
    },
    {
      {-0.057654287666082382202f, 0.0012396021047607064247f, 0.080817282199859619141f},
      {0.00098104123026132583618f, 0.0015992645639926195145f, 0.0036717671900987625122f},
      {0.20356047153472900391f, 0.0027708122506737709045f, 0.74084728956222534180f}
    }
  },
  {
    {
      {0.13257493078708648682f, 0.00099271733779460191727f, 0.66271531581878662109f},
      {-0.00029264789191074669361f, 5.9735855757026001811e-05f, -0.00012201911158626899123f},
      {-0.10111345350742340088f, -0.0019498955225571990013f, -0.62940251827239990234f}
    },
    {
      {0.067655444145202636719f, 0.00062307133339345455170f, 0.49144074320793151855f},
      {-0.00031054316787049174309f, -0.00020518868404906243086f, -0.00015728230937384068966f},
      {-0.054646715521812438965f, -0.0013576317578554153442f, -0.50616747140884399414f}
    },
    {
      {-0.0093025499954819679260f, 0.00067444652086123824120f, 0.35977151989936828613f},
      {-8.6297091911546885967e-05f, 0.00022831156093161553144f, -1.5560038946205168031e-06f},
      {-0.021848276257514953613f, -0.0011926800943911075592f, -0.38782238960266113281f}
    }
  },
  {
    {
      {0.043026708066463470459f, -0.00043918352457694709301f, 0.014171395450830459595f},
      {0.0011616932461038231850f, 4.3839991121785715222e-05f, -0.0018691633595153689384f},
      {0.64641183614730834961f, 0.00042309807031415402889f, -0.54114520549774169922f}
    },
    {
      {-0.0070430999621748924255f, -0.00069315888686105608940f, -0.076517805457115173340f},
      {0.00068422732874751091003f, -0.00019580639491323381662f, -0.0024586957879364490509f},
      {0.46799013018608093262f, -0.00014295149594545364380f, -0.62172544002532958984f}
    },
    {
      {0.015091856010258197784f, -0.00040290947072207927704f, 0.026253715157508850098f},
      {0.0011847404530271887779f, -0.00022193654149305075407f, -0.0018766829743981361389f},
      {0.48240104317665100098f, -1.5041092638057307340e-06f, -0.42226096987724304199f}
    }
  },
  {
    {
      {0.38670933246612548828f, 0.0014982230495661497116f, 0.41804984211921691895f},
      {0.0024006066378206014633f, 0.0014397535705938935280f, 0.0021435760427266359329f},
      {0.42955145239830017090f, 0.0017849211581051349640f, 0.46377378702163696289f}
    },
    {
      {-0.25878253579139709473f, -0.0012620305642485618591f, -0.25246322154998779297f},
      {-0.00096655375091359019279f, -0.0010855592554435133934f, -0.0012269577709957957268f},
      {-0.26846918463706970215f, -0.00099762633908540010452f, -0.24883601069450378418f}
    },
    {
      {-0.15947693586349487305f, -0.0012026837794110178947f, -0.16655765473842620850f},
      {-0.0011083334684371948242f, -0.0010546185076236724854f, -0.0015704203397035598755f},
      {-0.19730824232101440430f, -0.0014348634285852313042f, -0.20750911533832550049f}
    }
  },
  {
    {
      {0.069434836506843566895f, -0.00020067053264938294888f, -0.060804653912782669067f},
      {-0.0024763981346040964127f, 0.00027747004060074687004f, 0.0013095801696181297302f},
      {-0.63196581602096557617f, 0.00026483647525310516357f, 0.66506975889205932617f}
    },
    {
      {0.049061287194490432739f, -0.00048275614972226321697f, -0.025303103029727935791f},
      {-0.0023334303405135869980f, -0.00029330269899219274521f, 0.00080981536302715539932f},
      {-0.56475126743316650391f, -8.6642066889908164740e-05f, 0.51262742280960083008f}
    },
    {
      {0.076532430946826934814f, -0.00093204865697771310806f, -0.087704256176948547363f},
      {-0.0024653922300785779953f, -0.00044350221287459135056f, 0.00051291787531226873398f},
      {-0.48908498883247375488f, -0.00069869717117398977280f, 0.50181323289871215820f}
    }
  },
  {
    {
      {-0.24953210353851318359f, -0.0015961303142830729485f, -0.29767856001853942871f},
      {-0.0013201035326346755028f, -0.0013326044427230954170f, -0.0017011000309139490128f},
      {-0.31141194701194763184f, -0.0019681006669998168945f, -0.35478985309600830078f}
    },
    {
      {0.094485670328140258789f, -0.00032107267179526388645f, 0.050460208207368850708f},
      {0.00038119015516713261604f, -0.00047362470650114119053f, -0.00017357425531372427940f},
      {0.057318788021802902222f, -0.00062212493503466248512f, 0.023864312097430229187f}
    },
    {
      {0.47892335057258605957f, 0.0016448817914351820946f, 0.33254423737525939941f},
      {0.0031900929752737283707f, 0.0013270558556541800499f, 0.0017763421637937426567f},
      {0.38741278648376464844f, 0.00085587607463821768761f, 0.25430479645729064941f}
    }
  }
};
/* conv1.bias*/
static const float tensor_conv1_bias[8] = 
{0.31103995442390441895f, -0.29683208465576171875f, 0.67722314596176147461f, -0.15755756199359893799f, -0.14426268637180328369f, 0.025402953848242759705f, -0.12440009415149688721f, 0.40129452943801879883f};
/* layer1.0.conv1.weight*/
static const float tensor_layer1_0_conv1_weight[16][8][3][3] = 
{
  {
    {
      {0.11532612890005111694f, -0.15681938827037811279f, 0.084700375795364379883f},
      {0.14908136427402496338f, -0.18633468449115753174f, 0.091729685664176940918f},
      {0.057923454791307449341f, -0.18214488029479980469f, 0.0079909050837159156799f}
    },
    {
      {-0.057169608771800994873f, 0.13467562198638916016f, -0.076473072171211242676f},
      {-0.15517263114452362061f, 0.21008735895156860352f, -0.14237049221992492676f},
      {-0.074773862957954406738f, 0.18366324901580810547f, -0.035932131111621856689f}
    },
    {
      {0.022549409419298171997f, -0.17720346152782440186f, 0.13409037888050079346f},
      {0.13708497583866119385f, -0.30043318867683410645f, 0.23745782673358917236f},
      {0.033511683344841003418f, -0.16539905965328216553f, 0.095373317599296569824f}
    },
    {
      {0.0097247166559100151062f, -0.075906194746494293213f, 0.033429499715566635132f},
      {-0.059102434664964675903f, -0.037771925330162048340f, -0.080417066812515258789f},
      {-0.025021856650710105896f, -0.069806598126888275146f, -0.067392818629741668701f}
    },
    {
      {-0.013419548980891704559f, 0.17742018401622772217f, -0.12298335134983062744f},
      {-0.060264199972152709961f, 0.29006212949752807617f, -0.24569559097290039062f},
      {-0.00037447054637596011162f, 0.24038073420524597168f, -0.11418691277503967285f}
    },
    {
      {-0.025800287723541259766f, 0.035851631313562393188f, 0.0084717134013772010803f},
      {0.0072908434085547924042f, -0.0046326401643455028534f, -0.0036071618087589740753f},
      {-0.00045947742182761430740f, -0.035188548266887664795f, -0.022228050976991653442f}
    },
    {
      {0.0037475165445357561111f, -0.11982661485671997070f, 0.21117433905601501465f},
      {0.011820305138826370239f, -0.20818361639976501465f, 0.36180284619331359863f},
      {-0.0071263238787651062012f, -0.13512696325778961182f, 0.23741602897644042969f}
    },
    {
      {0.024166615679860115051f, 0.017307110130786895752f, 0.0023967511951923370361f},
      {0.016364863142371177673f, 0.065234594047069549561f, -0.043406035751104354858f},
      {0.0052001336589455604553f, 0.013325197622179985046f, -0.12484736740589141846f}
    }
  },
  {
    {
      {-5.5229503459486295469e-07f, -5.4600363910140004009e-06f, -1.4966467460908461362e-06f},
      {-2.3239365418703528121e-06f, -3.7902166241110535339e-06f, -9.8615623755904380232e-07f},
      {-1.9766323475778335705e-06f, -1.2911544899907312356e-07f, 1.0703154629254640895e-07f}
    },
    {
      {-4.7426301534869708121e-06f, -3.5815219234791584313e-07f, 7.5155980994168203324e-07f},
      {-1.3313323279362521134e-06f, 5.9275782859913306311e-07f, -2.5890435608744155616e-06f},
      {-4.3084910430479794741e-06f, -6.6914401486428687349e-07f, -4.1514795157127082348e-06f}
    },
    {
      {6.2083995544526260346e-07f, 1.5039091749713406898e-07f, -2.2686392640025587752e-06f},
      {-1.9508408968249568716e-06f, -1.9526540029346506344e-07f, -2.5035492399183567613e-06f},
      {-9.1586247208397253416e-07f, -2.8544786800921428949e-06f, -3.1932765978126553819e-06f}
    },
    {
      {-9.7705776624934514984e-07f, 4.4829656076217361260e-07f, -9.5175494152499595657e-08f},
      {-3.7895696891609986778e-07f, -1.0983427500832476653e-06f, -2.0315615074650850147e-06f},
      {-1.0107244179380359128e-06f, -2.9526374873967142776e-06f, -2.9191537578299175948e-06f}
    },
    {
      {2.6961410526382678654e-07f, 5.3618248330167261884e-07f, -3.1043014132592361420e-06f},
      {-2.2695892312185605988e-06f, 1.3059570846962742507e-06f, 6.0153786307637346908e-07f},
      {-1.4745829730600235052e-06f, 5.9821871900567202829e-08f, -4.1195676203642506152e-06f}
    },
    {
      {-5.3562384891847614199e-06f, -6.7197527187090599909e-07f, -1.7982474673772230744e-06f},
      {-5.9873664213228039443e-06f, -1.9353599327587289736e-06f, -1.8622025663717067800e-06f},
      {-4.4338012230582535267e-06f, -5.0793414629879407585e-06f, -4.9072482397605199367e-06f}
    },
    {
      {-2.5075630674109561369e-06f, -3.2184583886873951997e-08f, -1.4387401279236655682e-06f},
      {-7.6324630526869441383e-07f, -1.9378974229766754434e-06f, 4.7558205551467835903e-07f},
      {-2.4143091650330461562e-06f, -1.6508890894328942522e-06f, -2.5787715003389166668e-06f}
    },
    {
      {2.3227448764373548329e-07f, -3.4166478144470602274e-06f, -3.8050625335017684847e-06f},
      {-3.1741617476654937491e-06f, 8.3242201753819244914e-07f, 1.4507102719107933808e-07f},
      {1.1775558732551871799e-06f, -5.3194594329397659749e-07f, -4.2322826629970222712e-06f}
    }
  },
  {
    {
      {-0.22943945229053497314f, 0.042809627950191497803f, 0.18942289054393768311f},
      {0.17710447311401367188f, -0.27790531516075134277f, -0.044332742691040039062f},
      {0.31307026743888854980f, 0.033454712480306625366f, -0.21338857710361480713f}
    },
    {
      {0.16604237258434295654f, 0.0069000343792140483856f, -0.20958064496517181396f},
      {-0.14721103012561798096f, 0.24020300805568695068f, 0.053393475711345672607f},
      {-0.30084949731826782227f, -0.0053231259807944297791f, 0.17149364948272705078f}
    },
    {
      {-0.078335471451282501221f, -0.0029905077535659074783f, 0.13393843173980712891f},
      {0.12746432423591613770f, -0.21482904255390167236f, -0.039254512637853622437f},
      {0.12683789432048797607f, 0.037540197372436523438f, -0.077781684696674346924f}
    },
    {
      {0.0067412434145808219910f, 0.10739543288946151733f, -0.047985013574361801147f},
      {-0.074379824101924896240f, 0.067692473530769348145f, 0.13745333254337310791f},
      {0.067044727504253387451f, -0.054230075329542160034f, 0.087749145925045013428f}
    },
    {
      {0.13048218190670013428f, -0.077787458896636962891f, -0.029554074630141258240f},
      {0.18717275559902191162f, 0.26646399497985839844f, -0.056065544486045837402f},
      {-0.14719317853450775146f, 0.11246014386415481567f, 0.11818108707666397095f}
    },
    {
      {0.0010487786494195461273f, 0.0045064226724207401276f, 0.0016065974486991763115f},
      {0.024623079225420951843f, -0.017730938270688056946f, -0.021654758602380752563f},
      {0.043636839836835861206f, -0.025168783962726593018f, -0.035281132906675338745f}
    },
    {
      {-0.055206574499607086182f, 0.23116265237331390381f, 0.12512457370758056641f},
      {-0.056152451783418655396f, -0.039469551295042037964f, 0.17478440701961517334f},
      {0.18923087418079376221f, 0.10095021873712539673f, -0.012619190849363803864f}
    },
    {
      {-0.063830301165580749512f, -0.0066754864528775215149f, 0.12155783921480178833f},
      {0.034729827195405960083f, -0.13973399996757507324f, 0.018930008634924888611f},
      {0.11467269062995910645f, -0.012398051097989082336f, -0.10343463718891143799f}
    }
  },
  {
    {
      {0.25467342138290405273f, 0.037124138325452804565f, -0.28669577836990356445f},
      {0.028382172808051109314f, -0.31330189108848571777f, 0.042000185698270797729f},
      {-0.18113674223423004150f, 0.042785502970218658447f, 0.27452710270881652832f}
    },
    {
      {-0.29747042059898376465f, 0.0043128165416419506073f, 0.25234299898147583008f},
      {0.048319172114133834839f, 0.21980132162570953369f, -0.034692618995904922485f},
      {0.14765129983425140381f, -0.0038361502811312675476f, -0.26357552409172058105f}
    },
    {
      {0.15347479283809661865f, -0.10197126120328903198f, -0.039356026798486709595f},
      {-0.16436828672885894775f, -0.047794550657272338867f, 0.10440378636121749878f},
      {0.018006797879934310913f, 0.10912712663412094116f, 0.097681462764739990234f}
    },
    {
      {0.016244689002633094788f, 0.078390106558799743652f, -0.016814868897199630737f},
      {0.13650847971439361572f, 0.0018531592795625329018f, -0.028352577239274978638f},
      {0.0024524754844605922699f, -0.078992486000061035156f, 0.040317703038454055786f}
    },
    {
      {0.15407921373844146729f, 0.17405927181243896484f, -0.028505785390734672546f},
      {0.16840524971485137939f, -0.10047917068004608154f, -0.086652584373950958252f},
      {-0.075207628309726715088f, -0.042111605405807495117f, 0.10329387336969375610f}
    },
    {
      {0.060858514159917831421f, 0.0070432648062705993652f, 0.028617488220334053040f},
      {0.042285189032554626465f, -0.034726973623037338257f, 0.0099005065858364105225f},
      {-0.041373312473297119141f, -0.041375562548637390137f, -0.018864689394831657410f}
    },
    {
      {-0.15718609094619750977f, -0.015587529167532920837f, 0.12211756408214569092f},
      {-0.028126934543251991272f, 0.18454079329967498779f, 0.20222599804401397705f},
      {0.14804245531558990479f, 0.16443049907684326172f, -0.00036208599340170621872f}
    },
    {
      {0.081029228866100311279f, 0.036476835608482360840f, -0.085188090801239013672f},
      {0.076412625610828399658f, -0.087433211505413055420f, -0.060650818049907684326f},
      {-0.085318028926849365234f, -0.082828447222709655762f, 0.049640417098999023438f}
    }
  },
  {
    {
      {0.013190062716603279114f, -0.14504599571228027344f, 0.15648938715457916260f},
      {0.048719093203544616699f, -0.10955543071031570435f, 0.12913374602794647217f},
      {-0.056031357496976852417f, -0.14497762918472290039f, 0.10659814625978469849f}
    },
    {
      {0.020068926736712455750f, 0.075016945600509643555f, -0.082411728799343109131f},
      {-0.0077151721343398094177f, 0.043933711946010589600f, -0.11516907066106796265f},
      {0.080831788480281829834f, 0.060506120324134826660f, -0.083339691162109375000f}
    },
    {
      {-0.14045669138431549072f, 0.12401088327169418335f, -0.045904323458671569824f},
      {-0.14059711992740631104f, 0.21221068501472473145f, -0.026462944224476814270f},
      {-0.11054049432277679443f, 0.058843165636062622070f, -0.0065903114154934883118f}
    },
    {
      {-0.084252290427684783936f, 0.032101552933454513550f, 0.010351885110139846802f},
      {-0.13173563778400421143f, -0.0020136365201324224472f, -0.0016893425490707159042f},
      {-0.097802005708217620850f, -0.051222220063209533691f, 0.0020990686025470495224f}
    },
    {
      {0.27706733345985412598f, -0.075988955795764923096f, 0.032253537327051162720f},
      {0.39461734890937805176f, -0.18396347761154174805f, -0.011101611889898777008f},
      {0.25373113155364990234f, -0.091389030218124389648f, -0.030637362971901893616f}
    },
    {
      {0.028970431536436080933f, 0.020488353446125984192f, -0.026173494756221771240f},
      {-0.0034222332760691642761f, -0.024234756827354431152f, 0.021127291023731231689f},
      {-0.040792100131511688232f, -0.038958989083766937256f, 0.017166135832667350769f}
    },
    {
      {-0.18384830653667449951f, 0.17276136577129364014f, -0.072115272283554077148f},
      {-0.30305451154708862305f, 0.28573197126388549805f, -0.13329985737800598145f},
      {-0.15249541401863098145f, 0.19999295473098754883f, -0.038398016244173049927f}
    },
    {
      {0.092894479632377624512f, -0.053736317902803421021f, 0.040740463882684707642f},
      {0.11124534159898757935f, -0.097830690443515777588f, 0.045796480029821395874f},
      {0.050913844257593154907f, -0.14483568072319030762f, 0.0080630145967006683350f}
    }
  },
  {
    {
      {0.040076460689306259155f, 0.047799594700336456299f, 0.019835852086544036865f},
      {-0.38062548637390136719f, -0.50305461883544921875f, -0.40008032321929931641f},
      {0.32530111074447631836f, 0.40862858295440673828f, 0.43907260894775390625f}
    },
    {
      {0.0055379252880811691284f, -0.019543318077921867371f, 0.026765763759613037109f},
      {0.30478757619857788086f, 0.38205575942993164062f, 0.33608633279800415039f},
      {-0.28253832459449768066f, -0.35672485828399658203f, -0.38077393174171447754f}
    },
    {
      {-0.044809821993112564087f, -0.026416480541229248047f, -0.036750189960002899170f},
      {-0.10374991595745086670f, -0.12067225575447082520f, -0.10979478806257247925f},
      {0.13886523246765136719f, 0.18934741616249084473f, 0.15243573486804962158f}
    },
    {
      {-0.0056708860211074352264f, -0.014125562272965908051f, 0.018277799710631370544f},
      {0.16504827141761779785f, 0.11323633044958114624f, 0.14436809718608856201f},
      {0.083239443600177764893f, 0.17895434796810150146f, 0.10744854062795639038f}
    },
    {
      {0.040084067732095718384f, 0.077906630933284759521f, 0.037507522851228713989f},
      {-0.026209689676761627197f, 0.047849327325820922852f, 0.046278826892375946045f},
      {-0.12724025547504425049f, -0.16341903805732727051f, -0.064539253711700439453f}
    },
    {
      {0.031025724485516548157f, 0.047464083880186080933f, 0.012068191543221473694f},
      {-0.087483339011669158936f, -0.039093371480703353882f, -0.096352331340312957764f},
      {0.010512343607842922211f, 0.013457406312227249146f, 0.0097784670069813728333f}
    },
    {
      {-0.0037438180297613143921f, -0.0027676119934767484665f, 0.011755545623600482941f},
      {0.014866440556943416595f, -0.018198335543274879456f, 0.014635319821536540985f},
      {-0.015675723552703857422f, -0.025552565231919288635f, -0.080532848834991455078f}
    },
    {
      {0.039453126490116119385f, 0.052700847387313842773f, 0.038149617612361907959f},
      {-0.051284477114677429199f, -0.052137684077024459839f, -0.050311323255300521851f},
      {-0.0094724958762526512146f, 0.010325791314244270325f, -0.021944457665085792542f}
    }
  },
  {
    {
      {-0.20496320724487304688f, -0.39226210117340087891f, -0.39792832732200622559f},
      {0.25658896565437316895f, 0.31720304489135742188f, 0.32097736001014709473f},
      {-0.016423875465989112854f, 0.068429246544837951660f, 0.020431226119399070740f}
    },
    {
      {0.25323024392127990723f, 0.36113002896308898926f, 0.35363826155662536621f},
      {-0.18477943539619445801f, -0.33868214488029479980f, -0.27661550045013427734f},
      {-0.067946985363960266113f, -0.045295469462871551514f, -0.052895601838827133179f}
    },
    {
      {-0.096242293715476989746f, -0.12981282174587249756f, -0.081959396600723266602f},
      {0.11154523491859436035f, 0.19624811410903930664f, 0.10511769354343414307f},
      {-0.034768991172313690186f, -0.032057128846645355225f, -0.018491497263312339783f}
    },
    {
      {0.13930776715278625488f, 0.10863877832889556885f, 0.053960442543029785156f},
      {0.19398543238639831543f, 0.25680729746818542480f, 0.18820309638977050781f},
      {0.072050981223583221436f, 0.073040731251239776611f, 0.039556954056024551392f}
    },
    {
      {0.060752317309379577637f, 0.039204426109790802002f, -0.021172761917114257812f},
      {-0.10469350963830947876f, -0.050647951662540435791f, 0.048508312553167343140f},
      {0.050747171044349670410f, 0.042218532413244247437f, -0.011798048391938209534f}
    },
    {
      {-0.034133024513721466064f, -0.061589330434799194336f, -0.032021049410104751587f},
      {0.027128338813781738281f, 0.071240440011024475098f, 0.035734873265027999878f},
      {-0.021546004340052604675f, -0.0044094589538872241974f, -0.037121616303920745850f}
    },
    {
      {-0.0067149377427995204926f, 0.072529852390289306641f, 0.098439842462539672852f},
      {0.094774425029754638672f, 0.052622474730014801025f, -0.062253519892692565918f},
      {-0.0089938240125775337219f, -0.021004548296332359314f, 0.015805829316377639771f}
    },
    {
      {-0.028948912397027015686f, -0.067928917706012725830f, -0.10818479210138320923f},
      {0.027004482224583625793f, -0.034022562205791473389f, 0.022661052644252777100f},
      {0.051662735641002655029f, 0.083690501749515533447f, 0.064909152686595916748f}
    }
  },
  {
    {
      {0.16457721590995788574f, 0.28817117214202880859f, 0.043928734958171844482f},
      {0.33847811818122863770f, 0.062158141285181045532f, -0.26836991310119628906f},
      {-0.051907803863286972046f, -0.25133651494979858398f, -0.29210412502288818359f}
    },
    {
      {-0.18295867741107940674f, -0.20034252107143402100f, 0.013912019319832324982f},
      {-0.24834074079990386963f, -0.042361915111541748047f, 0.25204217433929443359f},
      {0.025876335799694061279f, 0.21432462334632873535f, 0.23918533325195312500f}
    },
    {
      {0.13423891365528106689f, 0.077030055224895477295f, -0.041515253484249114990f},
      {0.083078913390636444092f, -0.050739165395498275757f, -0.11190454661846160889f},
      {-0.078309394419193267822f, -0.085817798972129821777f, -0.040133569389581680298f}
    },
    {
      {-0.031219039112329483032f, 0.064723938703536987305f, 0.059076704084873199463f},
      {0.063173808157444000244f, 0.071858800947666168213f, 0.081825673580169677734f},
      {0.046175807714462280273f, -0.014646817930042743683f, -0.070244066417217254639f}
    },
    {
      {0.010047303512692451477f, 0.018093189224600791931f, 0.083761014044284820557f},
      {0.10642029345035552979f, 0.11459652334451675415f, 0.051640532910823822021f},
      {0.082470685243606567383f, 0.058897748589515686035f, -0.017595969140529632568f}
    },
    {
      {0.019402313977479934692f, 0.042737618088722229004f, 0.041068762540817260742f},
      {0.055607922375202178955f, -0.021149881184101104736f, -0.012875954620540142059f},
      {0.041683364659547805786f, -0.034917652606964111328f, -0.026619154959917068481f}
    },
    {
      {0.013341994956135749817f, -0.035325154662132263184f, -0.10833498090505599976f},
      {-0.059375979006290435791f, -0.13014836609363555908f, -0.032855581492185592651f},
      {-0.026450635865330696106f, -0.0062955436296761035919f, 0.024137737229466438293f}
    },
    {
      {-0.0026113188359886407852f, 0.047371689230203628540f, 0.040453840047121047974f},
      {0.059130687266588211060f, 0.018258798867464065552f, -0.044245213270187377930f},
      {0.014680366031825542450f, -0.046564899384975433350f, -0.058665741235017776489f}
    }
  },
  {
    {
      {-0.074730083346366882324f, 0.019781008362770080566f, 0.12552621960639953613f},
      {-0.38966619968414306641f, -0.030645852908492088318f, 0.33946359157562255859f},
      {-0.18468017876148223877f, 0.046574797481298446655f, 0.14580833911895751953f}
    },
    {
      {0.11481017619371414185f, 0.040054254233837127686f, -0.10574796050786972046f},
      {0.33981895446777343750f, -0.054785057902336120605f, -0.33324554562568664551f},
      {0.18350513279438018799f, 0.013350820168852806091f, -0.17866727709770202637f}
    },
    {
      {-0.12080109119415283203f, 0.014664093032479286194f, 0.11411015689373016357f},
      {-0.14413790404796600342f, 0.048878148198127746582f, 0.17689199745655059814f},
      {-0.039223112165927886963f, -0.022225322201848030090f, 0.068605080246925354004f}
    },
    {
      {0.054871521890163421631f, -0.033823728561401367188f, -0.029667502269148826599f},
      {0.026038935407996177673f, 0.00063987862085923552513f, -0.040586087852716445923f},
      {-0.017869755625724792480f, 0.022990910336375236511f, -0.0039921086281538009644f}
    },
    {
      {0.059162314981222152710f, -0.044749513268470764160f, 0.0017204951727762818336f},
      {0.069398477673530578613f, -0.054424356669187545776f, 0.013740073889493942261f},
      {0.070291608572006225586f, 0.091448225080966949463f, 0.0032110714819282293320f}
    },
    {
      {0.028586300089955329895f, -0.013430413790047168732f, 0.0035411322023719549179f},
      {0.0097091691568493843079f, -0.0061784456484019756317f, 0.019512597471475601196f},
      {0.025991264730691909790f, 0.011343519203364849091f, 0.018939744681119918823f}
    },
    {
      {0.12981370091438293457f, 0.13658390939235687256f, 0.060782939195632934570f},
      {0.22762958705425262451f, 0.16065903007984161377f, 0.069828860461711883545f},
      {0.058153651654720306396f, 0.037658482789993286133f, 0.033786475658416748047f}
    },
    {
      {-0.015937438234686851501f, 0.0017548369942232966423f, 0.0058621228672564029694f},
      {-0.14719873666763305664f, -0.042502932250499725342f, 0.10569506883621215820f},
      {-0.090162254869937896729f, 0.024213844910264015198f, 0.10162574797868728638f}
    }
  },
  {
    {
      {0.17820154130458831787f, 0.23459127545356750488f, 0.12295805662870407104f},
      {-0.25970298051834106445f, -0.025542559102177619934f, 0.18737466633319854736f},
      {-0.16810633242130279541f, -0.22621296346187591553f, -0.094204045832157135010f}
    },
    {
      {-0.13320969045162200928f, -0.18057389557361602783f, -0.12228851765394210815f},
      {0.27274334430694580078f, 0.092458195984363555908f, -0.064467959105968475342f},
      {0.072209186851978302002f, 0.084325604140758514404f, 0.032680861651897430420f}
    },
    {
      {0.090745761990547180176f, 0.12987382709980010986f, 0.10703928023576736450f},
      {-0.12033795565366744995f, -0.082369670271873474121f, 0.021718319505453109741f},
      {0.053560420870780944824f, -0.033435616642236709595f, -0.039096295833587646484f}
    },
    {
      {0.085170276463031768799f, -0.035147082060575485229f, -0.099895983934402465820f},
      {0.24671612679958343506f, 0.27609667181968688965f, 0.14481642842292785645f},
      {-0.052292279899120330811f, 0.024495238438248634338f, 0.060375630855560302734f}
    },
    {
      {-0.11360894143581390381f, -0.093958899378776550293f, 0.020521011203527450562f},
      {-0.045066218823194503784f, -0.15174508094787597656f, -0.097058057785034179688f},
      {0.038270901888608932495f, 0.032264582812786102295f, -0.045637484639883041382f}
    },
    {
      {0.099807113409042358398f, 0.091790169477462768555f, 0.11449018120765686035f},
      {-0.041983041912317276001f, 0.011690351180732250214f, 0.061264403164386749268f},
      {-0.12979663908481597900f, -0.068200752139091491699f, -0.029917944222688674927f}
    },
    {
      {0.080397777259349822998f, 0.013995509594678878784f, -0.061197191476821899414f},
      {0.053717475384473800659f, 0.018611069768667221069f, 0.036796826869249343872f},
      {-0.046130023896694183350f, -0.019443992525339126587f, 0.026258243247866630554f}
    },
    {
      {0.032081391662359237671f, 0.068604528903961181641f, -0.042556401342153549194f},
      {-0.046090010553598403931f, 0.019179305061697959900f, 0.052477199584245681763f},
      {-0.015782695263624191284f, -0.051530919969081878662f, -0.021477667614817619324f}
    }
  },
  {
    {
      {-0.15672060847282409668f, -0.20284813642501831055f, -0.17861364781856536865f},
      {0.067225992679595947266f, 0.13546018302440643311f, 0.074444048106670379639f},
      {0.057959251105785369873f, 0.092038229107856750488f, 0.086231589317321777344f}
    },
    {
      {-0.00048042915295809507370f, 0.0080195246264338493347f, 0.027314802631735801697f},
      {0.0072770882397890090942f, -0.022771250456571578979f, -0.030421938747167587280f},
      {0.030680278316140174866f, -0.012434353120625019073f, 0.0043306634761393070221f}
    },
    {
      {0.081723019480705261230f, 0.18955141305923461914f, 0.10984456539154052734f},
      {-0.085676759481430053711f, -0.14016062021255493164f, 0.0045961616560816764832f},
      {-0.10419229418039321899f, -0.069597087800502777100f, -0.067238070070743560791f}
    },
    {
      {0.037161275744438171387f, 0.017394864931702613831f, 0.027045743539929389954f},
      {0.094695679843425750732f, 0.12305455654859542847f, 0.095877513289451599121f},
      {0.036982391029596328735f, 0.025276608765125274658f, 0.013559688813984394073f}
    },
    {
      {-0.021560002118349075317f, 0.0084842145442962646484f, -0.0054447674192488193512f},
      {0.0019409920787438750267f, -0.034902714192867279053f, 0.0090908836573362350464f},
      {-0.013697444461286067963f, 0.0098673691973090171814f, 0.028147039934992790222f}
    },
    {
      {-0.24766692519187927246f, -0.33698841929435729980f, -0.26225844025611877441f},
      {0.089768812060356140137f, -0.077191472053527832031f, 0.021789764985442161560f},
      {0.33449485898017883301f, 0.30608746409416198730f, 0.23968389630317687988f}
    },
    {
      {0.0058085480704903602600f, -0.0072329053655266761780f, -0.019179705530405044556f},
      {-0.025001445785164833069f, -0.053145762532949447632f, -0.016654105857014656067f},
      {0.018636310473084449768f, -0.014787702821195125580f, -0.0074949646368622779846f}
    },
    {
      {0.16516563296318054199f, 0.12877552211284637451f, 0.16756898164749145508f},
      {0.024343287572264671326f, -0.025670133531093597412f, 0.043012060225009918213f},
      {-0.14457604289054870605f, -0.16724687814712524414f, -0.14668004214763641357f}
    }
  },
  {
    {
      {0.028847217559814453125f, 0.029985468834638595581f, -0.079123891890048980713f},
      {0.027387451380491256714f, 0.31163784861564636230f, -0.26534593105316162109f},
      {-0.023788847029209136963f, 0.095562621951103210449f, -0.11804325878620147705f}
    },
    {
      {-0.059582576155662536621f, 0.058256108313798904419f, 0.030802527442574501038f},
      {0.039520885795354843140f, -0.32026734948158264160f, 0.24514976143836975098f},
      {0.092543423175811767578f, -0.18942196667194366455f, 0.078805916011333465576f}
    },
    {
      {0.036798231303691864014f, 0.0013396572321653366089f, -0.077376782894134521484f},
      {0.022099379450082778931f, 0.23906905949115753174f, -0.23278114199638366699f},
      {0.013680988922715187073f, 0.049506183713674545288f, -0.063676759600639343262f}
    },
    {
      {-0.032229855656623840332f, -0.019652936607599258423f, 0.075734168291091918945f},
      {-0.027518244460225105286f, -0.059279453009366989136f, 0.081556156277656555176f},
      {-0.045832995325326919556f, 0.0047345077618956565857f, -0.0022790541406720876694f}
    },
    {
      {0.049078457057476043701f, 0.20035435259342193604f, 0.17121779918670654297f},
      {-0.077680937945842742920f, -0.021916596218943595886f, 0.42161005735397338867f},
      {0.063835173845291137695f, 0.071568302810192108154f, 0.17651464045047760010f}
    },
    {
      {0.018872626125812530518f, -0.024031288921833038330f, -0.012321896851062774658f},
      {0.019953643903136253357f, 0.030683616176247596741f, -0.063977256417274475098f},
      {-0.0060686571523547172546f, 0.042937893420457839966f, -0.011703546158969402313f}
    },
    {
      {0.087852291762828826904f, 0.040917932987213134766f, 0.17273041605949401855f},
      {0.22595313191413879395f, 0.072164997458457946777f, 0.071942195296287536621f},
      {0.073195919394493103027f, 0.18045265972614288330f, 0.061052475124597549438f}
    },
    {
      {0.030129492282867431641f, -0.0012841304996982216835f, -0.050995014607906341553f},
      {-0.0089362785220146179199f, 0.17835961282253265381f, -0.088684380054473876953f},
      {-0.062687508761882781982f, 0.069064565002918243408f, -0.088091328740119934082f}
    }
  },
  {
    {
      {-1.6094622878881637007e-06f, -3.3743526728358119726e-06f, -3.1438698897545691580e-06f},
      {1.8029633110927534290e-06f, -1.2555741477626725100e-06f, 2.3563829927297774702e-06f},
      {-3.7344273096096003428e-06f, -2.5575172912795096636e-06f, -1.9687431631609797478e-06f}
    },
    {
      {-5.2561545089702121913e-06f, -3.1306035452871583402e-06f, -1.4479154515356640331e-06f},
      {-2.4820515136525500566e-06f, -5.2493960538413375616e-06f, -9.5464338301098905504e-07f},
      {1.3717097999688121490e-06f, -5.1934844123024959117e-06f, -1.2087555205653188750e-06f}
    },
    {
      {-4.4687008085020352155e-06f, -3.9066562749212607741e-06f, -5.1326509264981723391e-07f},
      {-2.7002274691767524928e-06f, -3.9882615965325385332e-06f, -6.5865729084180202335e-06f},
      {-5.0290141189179848880e-06f, -2.0625418528652517125e-06f, -7.0610558395856060088e-06f}
    },
    {
      {-7.7350450737867504358e-06f, -4.0563895709055941552e-06f, -7.5525199463299941272e-06f},
      {-4.3915438254771288484e-06f, -2.1433791062008822337e-06f, -5.2273976507422048599e-06f},
      {-5.5106520449044182897e-06f, -4.9127147576655261219e-06f, -2.9241959964565467089e-06f}
    },
    {
      {-3.5886346267943736166e-06f, -7.7021519473419175483e-07f, -2.6647214781405637041e-06f},
      {-2.6621935376169858500e-06f, 1.3223755104263545945e-06f, -3.2017542253015562892e-06f},
      {-2.8587708129634847865e-06f, 2.1097214357723714784e-06f, 5.3668037480747443624e-07f}
    },
    {
      {2.2701954094372922555e-06f, -2.5850763449852820486e-06f, -2.8577596822287887335e-06f},
      {-1.7629179183131782338e-06f, -2.1420519260573200881e-06f, 1.7359798221150413156e-07f},
      {-3.6887195165036246181e-06f, -9.4597822908326634206e-07f, 3.5693196309694030788e-07f}
    },
    {
      {-3.3777168937376700342e-06f, -3.2246487080556107685e-06f, -2.4214029963331995532e-06f},
      {-4.6390432544285431504e-06f, -1.0572121311724913539e-07f, -4.9670411499391775578e-06f},
      {1.4327621045140404021e-07f, -4.7484727474511601031e-06f, 1.4392120419870479964e-06f}
    },
    {
      {-7.0086134655866771936e-06f, -6.5374333644285798073e-06f, -5.0480275604058988392e-06f},
      {-9.8946952675760257989e-07f, -6.3217726165021304041e-06f, -6.2253288888314273208e-06f},
      {-2.0760330698976758868e-06f, -5.1029046517214737833e-06f, -3.6234000617696437985e-06f}
    }
  },
  {
    {
      {-0.085671305656433105469f, -0.069488853216171264648f, -0.045377973467111587524f},
      {0.011461320333182811737f, 0.12893059849739074707f, 0.10856715589761734009f},
      {0.081118680536746978760f, 0.11161936074495315552f, 0.13941219449043273926f}
    },
    {
      {0.068970657885074615479f, 0.020294334739446640015f, 0.012378914281725883484f},
      {-0.012143341824412345886f, -0.057391196489334106445f, -0.094591923058032989502f},
      {-0.066421598196029663086f, -0.11973820626735687256f, -0.11362991482019424438f}
    },
    {
      {-0.16755789518356323242f, -0.23244149982929229736f, -0.11939714848995208740f},
      {-0.27160155773162841797f, -0.18446736037731170654f, -0.21606829762458801270f},
      {-0.12523588538169860840f, -0.15721026062965393066f, -0.12952405214309692383f}
    },
    {
      {0.00081849511479958891869f, 0.0086876461282372474670f, 0.0086645800620317459106f},
      {0.026229020208120346069f, 0.035851497203111648560f, 0.022702516987919807434f},
      {0.0063763810321688652039f, 0.0023153461515903472900f, 0.017039220780134201050f}
    },
    {
      {-0.0026876300107687711716f, -0.0077898013405501842499f, -0.032434478402137756348f},
      {0.00095958512974902987480f, -0.031716890633106231689f, -0.047949630767107009888f},
      {-0.026493646204471588135f, -0.0084022916853427886963f, -0.017155306413769721985f}
    },
    {
      {0.0016096004983410239220f, 0.00027655117446556687355f, -0.017548507079482078552f},
      {0.054484564810991287231f, -0.045416701585054397583f, 0.031187469139695167542f},
      {0.0065365862101316452026f, 0.0088460240513086318970f, -0.0033002090640366077423f}
    },
    {
      {0.00036178436130285263062f, 0.056659687310457229614f, 0.023228269070386886597f},
      {0.043132424354553222656f, 0.037417192012071609497f, 0.041694052517414093018f},
      {0.031975798308849334717f, 0.042546398937702178955f, 0.012352924793958663940f}
    },
    {
      {-0.029913201928138732910f, -0.0099877249449491500854f, -0.068787634372711181641f},
      {-0.019932107999920845032f, 0.36149322986602783203f, -0.016129737719893455505f},
      {-0.019029648974537849426f, -0.014796069823205471039f, -0.12666410207748413086f}
    }
  },
  {
    {
      {-0.014319783076643943787f, -0.048010010272264480591f, -0.026928324252367019653f},
      {0.032014008611440658569f, 0.21102301776409149170f, 0.070919804275035858154f},
      {-0.023556871339678764343f, -0.15445356070995330811f, -0.075608335435390472412f}
    },
    {
      {0.055388260632753372192f, 0.089402809739112854004f, 0.086330115795135498047f},
      {-0.12054560333490371704f, -0.32921186089515686035f, -0.16457490622997283936f},
      {0.14551417529582977295f, 0.19708445668220520020f, 0.088895127177238464355f}
    },
    {
      {-0.067161910235881805420f, -0.098134189844131469727f, -0.068178765475749969482f},
      {0.074977941811084747314f, 0.29470148682594299316f, 0.096638649702072143555f},
      {-0.10548059642314910889f, -0.16559886932373046875f, -0.078815981745719909668f}
    },
    {
      {0.021772123873233795166f, 0.043404545634984970093f, 0.059323117136955261230f},
      {0.042050782591104507446f, -0.11168535053730010986f, 0.026544479653239250183f},
      {0.26974338293075561523f, 0.40187418460845947266f, 0.26418188214302062988f}
    },
    {
      {0.025619762018322944641f, 0.016905851662158966064f, -0.037847615778446197510f},
      {-0.069484993815422058105f, -0.011969208717346191406f, 0.049565546214580535889f},
      {0.072029359638690948486f, 0.013142662122845649719f, -0.11447620391845703125f}
    },
    {
      {0.022008158266544342041f, 0.0074424156919121742249f, 0.0059474403969943523407f},
      {0.027680657804012298584f, 0.14628246426582336426f, 0.041930478066205978394f},
      {-0.057962894439697265625f, -0.10940916091203689575f, -0.11512130498886108398f}
    },
    {
      {-0.0090785948559641838074f, -0.015342330560088157654f, 0.010468505322933197021f},
      {0.092064432799816131592f, 0.095138072967529296875f, -0.013476822525262832642f},
      {-0.048530224710702896118f, 0.0099829854443669319153f, 0.093879520893096923828f}
    },
    {
      {0.0084139537066221237183f, 0.0018262815428897738457f, 0.0054030246101319789886f},
      {0.069489158689975738525f, 0.057275928556919097900f, 0.045102450996637344360f},
      {-0.038524694740772247314f, -0.044003944844007492065f, -0.041009161621332168579f}
    }
  },
  {
    {
      {0.10744350403547286987f, -0.18777237832546234131f, -0.16365043818950653076f},
      {0.32545867562294006348f, -0.081280246376991271973f, -0.34685581922531127930f},
      {0.27009958028793334961f, 0.16889016330242156982f, -0.082550212740898132324f}
    },
    {
      {0.0032446694094687700272f, 0.20113372802734375000f, 0.16063685715198516846f},
      {-0.29776653647422790527f, 0.078560896217823028564f, 0.30056554079055786133f},
      {-0.39229133725166320801f, -0.083480693399906158447f, 0.13652798533439636230f}
    },
    {
      {0.029800804331898689270f, -0.10570214688777923584f, -0.093889251351356506348f},
      {0.15067014098167419434f, -0.061232782900333404541f, -0.16387149691581726074f},
      {0.11842968314886093140f, 0.063202276825904846191f, -0.052108809351921081543f}
    },
    {
      {-0.056277897208929061890f, -0.054170280694961547852f, -0.010936689563095569611f},
      {-0.054183173924684524536f, -0.027992896735668182373f, -0.056903570890426635742f},
      {-0.020906422287225723267f, -0.039834037423133850098f, -0.067142851650714874268f}
    },
    {
      {0.11190740764141082764f, 0.11476840078830718994f, 0.019642040133476257324f},
      {0.049660895019769668579f, 0.092614352703094482422f, 0.13862417638301849365f},
      {-0.038605660200119018555f, 0.014288138598203659058f, 0.10975353419780731201f}
    },
    {
      {0.0062103825621306896210f, 0.0078409332782030105591f, 0.11012376099824905396f},
      {0.0050664758309721946716f, -0.078433625400066375732f, 0.048407282680273056030f},
      {-0.016412807628512382507f, -0.020629065111279487610f, 0.023945506662130355835f}
    },
    {
      {-0.072263553738594055176f, -0.10628192126750946045f, -0.052723165601491928101f},
      {-0.055819638073444366455f, -0.10882978141307830811f, -0.11382223665714263916f},
      {-0.012617582455277442932f, -0.055848255753517150879f, -0.075269535183906555176f}
    },
    {
      {0.0069105029106140136719f, -0.058909896761178970337f, -0.045748181641101837158f},
      {0.087861075997352600098f, -0.033367395401000976562f, -0.073098361492156982422f},
      {0.11165408790111541748f, 0.037411455065011978149f, -0.025919757783412933350f}
    }
  }
};
/* layer1.0.conv1.bias*/
static const float tensor_layer1_0_conv1_bias[16] = 
{-0.029862795025110244751f, -1.5175262433331226930e-06f, -0.014739325270056724548f, -0.073090590536594390869f, -0.021258288994431495667f, -0.096290521323680877686f, -0.10890714824199676514f, -0.14028526842594146729f, -0.11199506372213363647f, -0.18012230098247528076f, -0.096724271774291992188f, 0.0074478765018284320831f, -8.9298973762197420001e-06f, 1.0683454275131225586f, -0.018702212721109390259f, 0.0098145874217152595520f};
/* layer1.0.conv2.weight*/
static const float tensor_layer1_0_conv2_weight[16][16][3][3] = 
{
  {
    {
      {0.016788942739367485046f, 0.034242555499076843262f, -0.0088801486417651176453f},
      {0.011751244775950908661f, 0.034107353538274765015f, -0.020911233499646186829f},
      {0.066940829157829284668f, 0.027960034087300300598f, -0.022893806919455528259f}
    },
    {
      {-1.4621094805988832377e-06f, -1.9553717720555141568e-06f, 1.3591629794973414391e-06f},
      {9.3558128355653025210e-07f, 4.2013073198177153245e-07f, 1.9650403828563867137e-06f},
      {-5.8114466128245112486e-07f, 1.4501671330435783602e-06f, -1.0207294280917267315e-06f}
    },
    {
      {-0.035135254263877868652f, -0.058135062456130981445f, -0.024948991835117340088f},
      {-0.037567116320133209229f, -0.066946119070053100586f, 0.0078660016879439353943f},
      {-0.050036400556564331055f, -0.017899483442306518555f, 0.0017649151850491762161f}
    },
    {
      {-0.0062114167958498001099f, -0.034648895263671875000f, -0.058372437953948974609f},
      {-0.017246207222342491150f, -0.044449012726545333862f, -0.0026414159219712018967f},
      {0.019243193790316581726f, 0.016794947907328605652f, -0.021563785150647163391f}
    },
    {
      {0.030054859817028045654f, 0.0054230508394539356232f, 0.0065534911118447780609f},
      {0.0023316533770412206650f, 0.026084356009960174561f, 0.010286475531756877899f},
      {0.012097167782485485077f, 0.056830856949090957642f, 0.030045034363865852356f}
    },
    {
      {0.018721932545304298401f, -0.041016951203346252441f, 0.037665832787752151489f},
      {0.00012957016588188707829f, -0.054091177880764007568f, 0.029498755931854248047f},
      {0.035050440579652786255f, -0.027728768065571784973f, 0.034171339124441146851f}
    },
    {
      {0.043242860585451126099f, -0.0064252060838043689728f, 0.035731699317693710327f},
      {-0.030163835734128952026f, -0.088229887187480926514f, -0.0033182785846292972565f},
      {0.00050298683345317840576f, -0.046583645045757293701f, -0.029914677143096923828f}
    },
    {
      {0.0011869482696056365967f, 0.0016871597617864608765f, 0.083846569061279296875f},
      {-0.033306416124105453491f, 0.071075588464736938477f, 0.14635857939720153809f},
      {-0.068842343986034393311f, -0.016910772770643234253f, 0.0069800708442926406860f}
    },
    {
      {0.041015259921550750732f, 0.040042445063591003418f, -0.041156269609928131104f},
      {0.0078217452391982078552f, 0.047161556780338287354f, 0.016087736934423446655f},
      {-0.024913655593991279602f, 0.022586842998862266541f, -0.014267738908529281616f}
    },
    {
      {0.020197656005620956421f, -0.034715645015239715576f, -0.016236936673521995544f},
      {0.058430291712284088135f, -0.0053283902816474437714f, -0.013596179895102977753f},
      {0.035100143402814865112f, 0.065488725900650024414f, -0.011001295410096645355f}
    },
    {
      {0.060938958078622817993f, 0.14275681972503662109f, 0.089288309216499328613f},
      {0.027738187462091445923f, 0.13862532377243041992f, 0.074159421026706695557f},
      {-0.015618470497429370880f, -0.024091860279440879822f, -0.014080163091421127319f}
    },
    {
      {-0.020296571776270866394f, -0.00019538593187462538481f, -0.042647816240787506104f},
      {0.013043162412941455841f, -0.021233275532722473145f, -0.010558851994574069977f},
      {-0.028815409168601036072f, -0.014802114106714725494f, -0.010204509831964969635f}
    },
    {
      {2.9685279514524154365e-06f, -1.2084562968084355816e-06f, 1.6572589629504363984e-06f},
      {-7.1916971933205786627e-08f, 6.8885469772794749588e-07f, -1.2501311630330746993e-07f},
      {2.6066707050631521270e-06f, 4.7145636017376091331e-06f, -2.9590464123430137988e-07f}
    },
    {
      {-0.046818252652883529663f, 0.022548483684659004211f, -0.047987431287765502930f},
      {-0.053244907408952713013f, 0.25320276618003845215f, -0.053279403597116470337f},
      {-0.042774036526679992676f, -0.019528439268469810486f, -0.026281477883458137512f}
    },
    {
      {0.018824858590960502625f, -0.040188454091548919678f, 0.012366165407001972198f},
      {-0.0089509179815649986267f, -0.039201948791742324829f, 0.0085260681807994842529f},
      {0.019629850983619689941f, 0.0033191272523254156113f, -0.0028466531075537204742f}
    },
    {
      {0.018682276830077171326f, 0.022807026281952857971f, -0.026901978999376296997f},
      {0.091076418757438659668f, 0.055118709802627563477f, -0.034275472164154052734f},
      {0.044519759714603424072f, 0.022894289344549179077f, 0.0049494071863591670990f}
    }
  },
  {
    {
      {-0.033481366932392120361f, -0.044818181544542312622f, -0.0054058134555816650391f},
      {-0.027305899187922477722f, -0.073924288153648376465f, 0.026166636496782302856f},
      {0.056787747889757156372f, 0.036225933581590652466f, 0.074131935834884643555f}
    },
    {
      {2.2279300537775270641e-06f, 1.4705152295846346533e-07f, -1.9818287455564131960e-06f},
      {-1.6101713526950334199e-06f, 8.3648978943529073149e-07f, -1.3508282563634566031e-06f},
      {6.6930209641213878058e-07f, 2.8271890641917707399e-06f, 1.2104030702175805345e-06f}
    },
    {
      {-0.079003170132637023926f, -0.060078546404838562012f, 0.014713129028677940369f},
      {-0.062400065362453460693f, 0.011327586136758327484f, 0.075862132012844085693f},
      {0.0052371900528669357300f, -0.019151253625750541687f, -0.026863647624850273132f}
    },
    {
      {0.010900236666202545166f, 0.023942325264215469360f, 0.014941320754587650299f},
      {0.0041195959784090518951f, -0.032522518187761306763f, 0.10374327003955841064f},
      {0.022034170106053352356f, 0.0089131416752934455872f, 0.011710083112120628357f}
    },
    {
      {-0.0097098331898450851440f, -0.036087229847908020020f, -0.010338008403778076172f},
      {-0.021093547344207763672f, -0.070185132324695587158f, 0.035629820078611373901f},
      {0.0077589526772499084473f, 0.0030231196433305740356f, 0.061991550028324127197f}
    },
    {
      {0.067268513143062591553f, -0.0021296516060829162598f, -0.10492879897356033325f},
      {0.070386692881584167480f, -0.067354589700698852539f, -0.10148107260465621948f},
      {-0.055387645959854125977f, -0.060003183782100677490f, -0.013098591007292270660f}
    },
    {
      {0.017804555594921112061f, 0.020208219066262245178f, -0.060168914496898651123f},
      {0.15072762966156005859f, -0.046819541603326797485f, -0.18425408005714416504f},
      {-0.14954553544521331787f, -0.15750242769718170166f, 0.013277691788971424103f}
    },
    {
      {0.0046370066702365875244f, 0.0052498891018331050873f, 0.21610099077224731445f},
      {-0.011891382746398448944f, 0.074722319841384887695f, 0.36720424890518188477f},
      {0.00034251462784595787525f, 0.10162000358104705811f, 0.10589747130870819092f}
    },
    {
      {0.012676863931119441986f, 0.10212861746549606323f, -0.062415450811386108398f},
      {-0.0051894527859985828400f, -0.057413633912801742554f, -0.020587051287293434143f},
      {-0.017854094505310058594f, -0.055470865219831466675f, -0.010758581571280956268f}
    },
    {
      {-0.046337448060512542725f, -0.13332031667232513428f, 0.0056269206106662750244f},
      {-0.071730382740497589111f, -0.13843381404876708984f, 0.0089872041717171669006f},
      {0.031672682613134384155f, -0.036690022796392440796f, -0.14305895566940307617f}
    },
    {
      {0.026375075802206993103f, -0.0097210155799984931946f, 0.0044118263758718967438f},
      {-0.020822146907448768616f, -0.045794755220413208008f, 0.027801264077425003052f},
      {0.0065951910801231861115f, -0.017370825633406639099f, -0.021810851991176605225f}
    },
    {
      {-0.10181975364685058594f, -0.0048591960221529006958f, -0.0090423533692955970764f},
      {-0.094944722950458526611f, 0.055859301239252090454f, 0.024260384961962699890f},
      {0.064439095556735992432f, 0.057436093688011169434f, -0.028277402743697166443f}
    },
    {
      {1.9413371319387806579e-06f, -2.0243305698386393487e-07f, -1.0822401463883579709e-06f},
      {7.2350252366959466599e-07f, -1.1329306062179966830e-06f, -1.9846595478156814352e-06f},
      {9.3098230991017771885e-07f, 4.1320166133118618745e-07f, -2.0332629446784267202e-06f}
    },
    {
      {0.051790762692689895630f, -0.018748296424746513367f, -0.049004945904016494751f},
      {0.023302799090743064880f, -0.052416130900382995605f, -0.024110311642289161682f},
      {0.038845643401145935059f, 0.010654548183083534241f, -0.028562005609273910522f}
    },
    {
      {-0.055088795721530914307f, -0.12740544974803924561f, 0.12369783967733383179f},
      {-0.053987018764019012451f, -0.096678584814071655273f, 0.070902451872825622559f},
      {0.027286997064948081970f, 0.0076460139825940132141f, -0.025731809437274932861f}
    },
    {
      {-0.015768624842166900635f, -0.039104584604501724243f, 0.082692921161651611328f},
      {0.0039692046120762825012f, -0.011250056326389312744f, 0.40759873390197753906f},
      {-0.019762963056564331055f, 0.084306813776493072510f, 0.26828569173812866211f}
    }
  },
  {
    {
      {-0.013751336373388767242f, -0.0094804037362337112427f, -0.031514901667833328247f},
      {-0.016010958701372146606f, -0.041508223861455917358f, -0.023159412667155265808f},
      {0.032854747027158737183f, 0.023717857897281646729f, 0.016591401770710945129f}
    },
    {
      {-6.7154712724004639313e-07f, 1.3745550404564710334e-06f, -1.6830048252813867293e-06f},
      {-3.9723790905554778874e-06f, -5.1633328439493197948e-06f, -3.4388406220386968926e-06f},
      {2.7933538149227388203e-06f, 2.1385833406384335831e-06f, 1.9045364751946181059e-06f}
    },
    {
      {-0.021913612261414527893f, 0.067795723676681518555f, 0.084880173206329345703f},
      {-0.0058247917331755161285f, 0.047734200954437255859f, 0.063970170915126800537f},
      {-0.014927041716873645782f, -0.0070449332706630229950f, -0.021921757608652114868f}
    },
    {
      {0.040492828935384750366f, 0.070994257926940917969f, 0.049239926040172576904f},
      {0.042273279279470443726f, 0.094427876174449920654f, 0.044927503913640975952f},
      {0.0087759923189878463745f, 0.023657392710447311401f, -0.0067251548171043395996f}
    },
    {
      {-0.012431900948286056519f, 0.0056899613700807094574f, -0.019756020978093147278f},
      {0.0035379114560782909393f, -0.043998658657073974609f, -0.029664503410458564758f},
      {0.018986882641911506653f, 0.045377902686595916748f, 0.071389324963092803955f}
    },
    {
      {0.20264415442943572998f, 0.40721169114112854004f, 0.13549903035163879395f},
      {0.0061336923390626907349f, 0.079974576830863952637f, -0.030859889462590217590f},
      {-0.030560996383428573608f, 0.040718913078308105469f, -0.029697982594370841980f}
    },
    {
      {0.0030819948296993970871f, 0.18260297179222106934f, -0.026597224175930023193f},
      {0.25993061065673828125f, 0.49244850873947143555f, 0.16512583196163177490f},
      {-0.10895352065563201904f, -0.065346792340278625488f, -0.080835625529289245605f}
    },
    {
      {-0.0016179041704162955284f, 0.039972733706235885620f, -0.045942474156618118286f},
      {0.032216470688581466675f, 0.10635099560022354126f, 0.018377155065536499023f},
      {0.11101512610912322998f, 0.087839595973491668701f, 0.043526880443096160889f}
    },
    {
      {-0.10543822497129440308f, -0.033067770302295684814f, 0.11067032814025878906f},
      {-0.0084080565720796585083f, 0.010063650086522102356f, -0.032606128603219985962f},
      {-0.090388461947441101074f, -0.083233252167701721191f, 0.067060880362987518311f}
    },
    {
      {-0.028672061860561370850f, 0.059630643576383590698f, -0.0067560393363237380981f},
      {0.017872314900159835815f, 0.16528734564781188965f, 0.11387003213167190552f},
      {0.033345289528369903564f, 0.031166780740022659302f, 0.050610914826393127441f}
    },
    {
      {0.041613332927227020264f, 0.089202456176280975342f, 0.046037722378969192505f},
      {0.076075896620750427246f, 0.15570645034313201904f, 0.086600981652736663818f},
      {0.0050441925413906574249f, 0.0033701020292937755585f, -0.011805486865341663361f}
    },
    {
      {-0.00044341286411508917809f, -0.041894935071468353271f, -0.029509229585528373718f},
      {-0.060619935393333435059f, -0.047899261116981506348f, 0.00087771029211580753326f},
      {0.013344677165150642395f, -0.065831854939460754395f, -0.022420499473810195923f}
    },
    {
      {-3.7925572087260661647e-06f, -2.0491820862389431568e-07f, -2.4838295757945161313e-06f},
      {2.1671978345239040209e-07f, 1.4924441984476288781e-06f, 3.1668516697891391232e-08f},
      {1.4136419395072152838e-06f, 2.5064079522962856572e-07f, 3.6067624478164361790e-06f}
    },
    {
      {0.061378724873065948486f, 0.00054010743042454123497f, 0.040583774447441101074f},
      {0.0040031368844211101532f, -0.13268351554870605469f, -0.010147255845367908478f},
      {0.026294253766536712646f, -0.019399853423237800598f, 0.035971328616142272949f}
    },
    {
      {0.019669080153107643127f, 0.13557276129722595215f, 0.060380555689334869385f},
      {0.070372417569160461426f, 0.10229137539863586426f, 0.12288603186607360840f},
      {-0.019300846382975578308f, -0.010538331232964992523f, -0.037198159843683242798f}
    },
    {
      {0.093581885099411010742f, 0.11671634763479232788f, 0.0025270888581871986389f},
      {-0.060291320085525512695f, -0.14419476687908172607f, 0.035524629056453704834f},
      {-0.017155932262539863586f, -0.080850839614868164062f, -0.10883717238903045654f}
    }
  },
  {
    {
      {-0.0081107076257467269897f, -0.027270136401057243347f, 0.010049634613096714020f},
      {0.070907212793827056885f, -0.073395565152168273926f, 0.047349888831377029419f},
      {0.018531244248151779175f, 0.010945455171167850494f, 0.028681561350822448730f}
    },
    {
      {-3.5278305858810199425e-06f, -4.1369694372406229377e-06f, -4.5256942939886357635e-06f},
      {5.1504150633263634518e-07f, -7.7419457511496148072e-07f, 1.5270909443643176928e-06f},
      {-1.2293288591536111198e-06f, -4.9361501623934600502e-06f, -2.1824246232426958159e-06f}
    },
    {
      {-0.0023389267735183238983f, 0.021658902987837791443f, -0.020045004785060882568f},
      {0.021785160526633262634f, -0.11953490972518920898f, 0.018459629267454147339f},
      {-0.0044797649607062339783f, 0.00086650386219844222069f, -0.018350748345255851746f}
    },
    {
      {0.034156069159507751465f, 0.0081580709666013717651f, -0.034252572804689407349f},
      {0.038029413670301437378f, -0.15181799232959747314f, 0.00024751803721301257610f},
      {-0.016500443220138549805f, 0.013849962502717971802f, 0.022934792563319206238f}
    },
    {
      {-0.0049755102954804897308f, 0.028461916372179985046f, -0.034304428845643997192f},
      {-0.0057436339557170867920f, 0.012552807107567787170f, 0.0079384017735719680786f},
      {0.0032706523779779672623f, 0.021100182086229324341f, -0.00052273640176281332970f}
    },
    {
      {0.010443637147545814514f, -0.017388965934514999390f, -0.013804693706333637238f},
      {-0.050570398569107055664f, -0.29183462262153625488f, -0.010996465571224689484f},
      {0.031095936894416809082f, 0.11357873678207397461f, 0.079545281827449798584f}
    },
    {
      {0.042352456599473953247f, -0.041200015693902969360f, -0.051919505000114440918f},
      {-0.087120801210403442383f, -0.098452530801296234131f, -0.063695438206195831299f},
      {0.038677670061588287354f, 0.050708830356597900391f, 0.082266241312026977539f}
    },
    {
      {0.053201392292976379395f, 0.10903079807758331299f, -0.12509407103061676025f},
      {0.12321139872074127197f, 0.062900908291339874268f, -0.064373157918453216553f},
      {-0.13528449833393096924f, -0.031732600182294845581f, 0.0088614365085959434509f}
    },
    {
      {-0.014047292061150074005f, -0.024019993841648101807f, 0.020763333886861801147f},
      {-0.067688763141632080078f, -0.19191201031208038330f, 0.13126851618289947510f},
      {-0.0054341750219464302063f, -0.024516107514500617981f, 0.12550918757915496826f}
    },
    {
      {-0.026451464742422103882f, 0.054724194109439849854f, 0.099061317741870880127f},
      {-0.037141200155019760132f, -0.064351737499237060547f, 0.042039215564727783203f},
      {-0.033656246960163116455f, -0.019069841131567955017f, -0.11714143306016921997f}
    },
    {
      {-0.013258879072964191437f, 0.0030389567837119102478f, 0.0049680639058351516724f},
      {-0.0039442251436412334442f, -0.049767967313528060913f, -0.031589739024639129639f},
      {0.0013859195169061422348f, 0.016716303303837776184f, -0.014297493733465671539f}
    },
    {
      {-0.024511042982339859009f, 0.0015662318328395485878f, -0.010880609974265098572f},
      {0.013041523285210132599f, 0.035937905311584472656f, -0.011205706745386123657f},
      {0.0043731662444770336151f, -0.014512064866721630096f, 0.0083386767655611038208f}
    },
    {
      {4.1396519918635021895e-06f, 3.5670534543896792457e-06f, 1.8229970919492188841e-06f},
      {3.8682824197167064995e-06f, 8.0300787885789759457e-06f, 5.9299636632204055786e-06f},
      {-7.0838846113474573940e-06f, -4.4730963963957037777e-06f, -4.9199724116988363676e-07f}
    },
    {
      {-0.0078046536073088645935f, 0.017784558236598968506f, -0.0033261547796428203583f},
      {0.032552435994148254395f, 0.094123035669326782227f, 0.038779247552156448364f},
      {-0.016780979931354522705f, -0.0021328725852072238922f, -0.026618156582117080688f}
    },
    {
      {-0.014781003817915916443f, -0.025165483355522155762f, 0.013905646279454231262f},
      {0.0028771618381142616272f, 0.043838378041982650757f, 0.0015204508090391755104f},
      {-0.016738204285502433777f, 0.012013170868158340454f, -0.066594734787940979004f}
    },
    {
      {-0.092976771295070648193f, -0.053767405450344085693f, -0.0032613347284495830536f},
      {0.10162135213613510132f, 0.0027652732096612453461f, -0.018253928050398826599f},
      {0.10992836952209472656f, 0.081188522279262542725f, -0.043269641697406768799f}
    }
  },
  {
    {
      {-0.019281489774584770203f, -0.014769259840250015259f, -0.0050291139632463455200f},
      {0.00099380232859402894974f, -0.035090163350105285645f, -0.0058232117444276809692f},
      {0.031374603509902954102f, 0.014648318290710449219f, -0.00056659942492842674255f}
    },
    {
      {5.9436410992930177599e-07f, -1.6240843478954047896e-06f, -2.1774808374175336212e-06f},
      {-5.2459508879110217094e-06f, -4.3223612919973675162e-06f, -2.2599188014282844961e-06f},
      {-1.4069647704673116095e-06f, -6.4631024088157573715e-07f, -1.6532526387891266495e-06f}
    },
    {
      {-0.0069462470710277557373f, -0.021840713918209075928f, -0.023878306150436401367f},
      {-0.012210490182042121887f, -0.020946135744452476501f, 0.029848502948880195618f},
      {-0.0061853742226958274841f, 0.0041067106649279594421f, 0.0045374804176390171051f}
    },
    {
      {-0.0085565056651830673218f, -0.057697106152772903442f, -0.0041148317977786064148f},
      {0.016418393701314926147f, -0.082664705812931060791f, 0.011063819751143455505f},
      {-0.0076331151649355888367f, -0.032801274210214614868f, 0.012105903588235378265f}
    },
    {
      {0.012621218338608741760f, -0.025779627263545989990f, -0.0066260532476007938385f},
      {0.0047437739558517932892f, -0.032481800764799118042f, 0.0052706277929246425629f},
      {0.0015139612369239330292f, 0.040521387010812759399f, 0.040578283369541168213f}
    },
    {
      {0.032112725079059600830f, 0.092884711921215057373f, 0.026345999911427497864f},
      {-0.069778531789779663086f, -0.089896038174629211426f, -0.038770951330661773682f},
      {0.063018351793289184570f, 0.045192640274763107300f, 0.069781348109245300293f}
    },
    {
      {0.027715353295207023621f, 0.013868050649762153625f, 0.037562437355518341064f},
      {0.014406625181436538696f, 0.020442007109522819519f, 0.011971725150942802429f},
      {0.025598226115107536316f, 0.032314181327819824219f, 0.031378507614135742188f}
    },
    {
      {-0.0090788826346397399902f, 0.0040994752198457717896f, 0.010500690899789333344f},
      {0.040312159806489944458f, -0.11999598890542984009f, -0.044111631810665130615f},
      {0.013267080299556255341f, -0.037693619728088378906f, 0.015143178403377532959f}
    },
    {
      {0.015130732208490371704f, 0.0030698517803102731705f, -0.037816274911165237427f},
      {0.079291343688964843750f, 0.076080247759819030762f, 0.093859292566776275635f},
      {-0.095704816281795501709f, -0.060535218566656112671f, -0.033145982772111892700f}
    },
    {
      {0.051788862794637680054f, 0.042199186980724334717f, 0.063026867806911468506f},
      {-0.028322616592049598694f, -0.12861284613609313965f, 0.065478235483169555664f},
      {0.073560208082199096680f, -0.054985035210847854614f, 0.044482260942459106445f}
    },
    {
      {0.053504254668951034546f, -0.013193232007324695587f, 0.056480307132005691528f},
      {-0.023142810910940170288f, -0.068750806152820587158f, -0.010869423858821392059f},
      {0.13450075685977935791f, 0.080910503864288330078f, 0.14322590827941894531f}
    },
    {
      {0.0012242223601788282394f, -0.052155699580907821655f, -0.026908298954367637634f},
      {0.034754883497953414917f, -0.071625486016273498535f, 0.011516467668116092682f},
      {-0.0070342062972486019135f, -0.047354903072118759155f, -0.030739370733499526978f}
    },
    {
      {-1.7849995970209420193e-07f, -3.1462054721487220377e-06f, -1.2794761232726159506e-06f},
      {-5.2729669732798356563e-06f, -7.9913679655874148011e-06f, -8.7052676462917588651e-06f},
      {-1.9987958239653380588e-06f, -4.0663135791874083225e-07f, -3.0777719075558707118e-06f}
    },
    {
      {0.070560440421104431152f, -0.020857820287346839905f, 0.036326207220554351807f},
      {-0.078027375042438507080f, -0.30176690220832824707f, -0.056262142956256866455f},
      {0.085650369524955749512f, 0.013580912724137306213f, 0.082093074917793273926f}
    },
    {
      {0.025646412745118141174f, 0.032671142369508743286f, 0.051906444132328033447f},
      {-0.015242963097989559174f, -0.015344430692493915558f, -0.0029846408870071172714f},
      {0.029398398473858833313f, 0.025074305012822151184f, 0.034756138920783996582f}
    },
    {
      {0.045415963977575302124f, 0.058178421109914779663f, -0.0096488744020462036133f},
      {-0.045707248151302337646f, -0.0067837373353540897369f, 0.027066620066761970520f},
      {-0.0062226690351963043213f, -0.037273384630680084229f, -0.099421679973602294922f}
    }
  },
  {
    {
      {-0.022774884477257728577f, 0.19721935689449310303f, 0.011512589640915393829f},
      {-0.085238464176654815674f, 0.42166465520858764648f, 0.049968846142292022705f},
      {-0.042070254683494567871f, 0.23294569551944732666f, 0.0041722124442458152771f}
    },
    {
      {-1.1090866109952912666e-06f, -2.6505224468564847484e-06f, -2.1300065782270394266e-06f},
      {-7.4889396728394785896e-07f, 2.9681668820558115840e-06f, 2.9598847959277918562e-06f},
      {-6.0660909184662159532e-07f, 1.4419462104342528619e-06f, -4.1886619328579399735e-06f}
    },
    {
      {-0.0047228462062776088715f, 0.057135324925184249878f, -0.078681737184524536133f},
      {-0.13393074274063110352f, 0.10243281722068786621f, -0.060332763940095901489f},
      {-0.076333522796630859375f, -0.017065178602933883667f, -0.014605511911213397980f}
    },
    {
      {-0.030691910535097122192f, 0.010848076082766056061f, 0.036528591066598892212f},
      {-0.12206841260194778442f, 0.018248505890369415283f, -0.036746975034475326538f},
      {-0.070784881711006164551f, -0.018754841759800910950f, -0.033531434834003448486f}
    },
    {
      {0.0016493356088176369667f, 0.11118403077125549316f, 0.097425721585750579834f},
      {-0.033683225512504577637f, 0.29739338159561157227f, 0.18642967939376831055f},
      {-0.051373172551393508911f, 0.16083492338657379150f, 0.083678074181079864502f}
    },
    {
      {0.24967615306377410889f, -0.14190541207790374756f, 0.075710572302341461182f},
      {0.043671496212482452393f, -0.30079770088195800781f, -0.14392717182636260986f},
      {-0.0037600521463900804520f, -0.055323190987110137939f, -0.047146759927272796631f}
    },
    {
      {0.039687141776084899902f, -0.12991242110729217529f, 0.035218644887208938599f},
      {0.14579354226589202881f, -0.12296259403228759766f, -0.018832467496395111084f},
      {-0.088509812951087951660f, -0.20814944803714752197f, -0.18569365143775939941f}
    },
    {
      {0.024276079609990119934f, -0.021665235981345176697f, 0.063621371984481811523f},
      {0.025102442130446434021f, 0.0025776301044970750809f, -0.041815519332885742188f},
      {0.067756354808807373047f, 0.040440987795591354370f, 0.053749013692140579224f}
    },
    {
      {-0.12251557409763336182f, -0.0048173358663916587830f, 0.12979225814342498779f},
      {-0.062669664621353149414f, 0.21772290766239166260f, 0.27650383114814758301f},
      {-0.025791853666305541992f, 0.058315813541412353516f, 0.070141024887561798096f}
    },
    {
      {0.023237641900777816772f, 0.033331062644720077515f, -0.018637549132108688354f},
      {-0.096060127019882202148f, 0.020329961553215980530f, -0.11010286211967468262f},
      {0.083522953093051910400f, -0.086273252964019775391f, 0.037352070212364196777f}
    },
    {
      {0.039198368787765502930f, -0.058150220662355422974f, -0.0045746914111077785492f},
      {0.046073004603385925293f, -0.061120398342609405518f, -0.071037776768207550049f},
      {0.039587974548339843750f, -0.041201841086149215698f, 0.014874109067022800446f}
    },
    {
      {0.012615827843546867371f, -0.024380777031183242798f, -0.0076165995560586452484f},
      {-0.019114676862955093384f, 0.18574124574661254883f, -0.047061000019311904907f},
      {-0.016077034175395965576f, 0.063117317855358123779f, -0.017252786085009574890f}
    },
    {
      {-1.1724129080903367139e-06f, -7.9676701716380193830e-06f, -8.0327881732955574989e-06f},
      {-3.2603791169094620273e-06f, -1.7246560446437797509e-06f, -2.9904083476139931008e-06f},
      {-1.7177557083414285444e-06f, -1.5669413642172003165e-06f, 4.5723900257144123316e-06f}
    },
    {
      {0.041311040520668029785f, -0.11127877235412597656f, 0.0048916093073785305023f},
      {0.095898769795894622803f, -0.10330769419670104980f, 0.087185993790626525879f},
      {0.036683619022369384766f, -0.052672240883111953735f, 0.034617103636264801025f}
    },
    {
      {-0.0045121456496417522430f, -0.031455472111701965332f, -0.066217035055160522461f},
      {-0.065822206437587738037f, -0.13644300401210784912f, -0.087673120200634002686f},
      {0.052743181586265563965f, -0.010036814957857131958f, 0.042701043188571929932f}
    },
    {
      {0.032213322818279266357f, 0.11233354359865188599f, -0.048720054328441619873f},
      {0.11213603615760803223f, 0.22649909555912017822f, -0.0026727588847279548645f},
      {0.0065131071023643016815f, 0.086490571498870849609f, -0.024726189672946929932f}
    }
  },
  {
    {
      {0.0030712082516402006149f, -0.092136643826961517334f, -0.055072050541639328003f},
      {-0.10284033417701721191f, -0.017011145129799842834f, -0.056694444268941879272f},
      {-0.12936170399188995361f, -0.048318699002265930176f, -0.0041946438141167163849f}
    },
    {
      {-4.0626746340421959758e-06f, -3.0033913844818016514e-06f, -1.5122545846679713577e-06f},
      {-1.0203932561125839129e-06f, -3.4050733574986224994e-06f, 1.0244369832435040735e-06f},
      {6.9240149969118647277e-07f, -7.9289571885965415277e-07f, -5.8691199456006870605e-07f}
    },
    {
      {0.070266999304294586182f, 0.13263133168220520020f, 0.045199099928140640259f},
      {0.18527938425540924072f, 0.41630211472511291504f, 0.061452273279428482056f},
      {-0.014628966338932514191f, 0.11108557879924774170f, 0.15583066642284393311f}
    },
    {
      {0.010615889914333820343f, -0.071463808417320251465f, -0.050882760435342788696f},
      {-0.010745833627879619598f, -0.12683291733264923096f, 0.0051516280509531497955f},
      {-0.13749600946903228760f, -0.0025770335923880338669f, -0.10940625518560409546f}
    },
    {
      {0.027102582156658172607f, -0.061772406101226806641f, -0.051707915961742401123f},
      {-0.032561182975769042969f, -0.10017999261617660522f, -0.069380469620227813721f},
      {-0.029340524226427078247f, -0.032695766538381576538f, -0.058894526213407516479f}
    },
    {
      {-0.077276267111301422119f, -0.023010835051536560059f, -0.059851117432117462158f},
      {0.17524418234825134277f, -0.00080486939987167716026f, -0.26623675227165222168f},
      {-0.17916595935821533203f, -0.018828846514225006104f, 0.091148935258388519287f}
    },
    {
      {-0.041066575795412063599f, 0.044223062694072723389f, -0.0052122054621577262878f},
      {0.15120179951190948486f, -0.29541268944740295410f, -0.082374922931194305420f},
      {-0.12027122080326080322f, 0.21690490841865539551f, -0.014538438990712165833f}
    },
    {
      {-0.018481213599443435669f, -0.12075345963239669800f, -0.078339070081710815430f},
      {-0.12208459526300430298f, -0.25700277090072631836f, -0.13538593053817749023f},
      {-0.17035107314586639404f, -0.16937348246574401855f, -0.13036796450614929199f}
    },
    {
      {0.062168169766664505005f, 0.048158943653106689453f, -0.022867027670145034790f},
      {-0.16616494953632354736f, 0.21740975975990295410f, 0.080368585884571075439f},
      {-0.11131513118743896484f, -0.15642549097537994385f, 0.092088967561721801758f}
    },
    {
      {0.086294449865818023682f, 0.065695494413375854492f, -0.0037634568288922309875f},
      {-0.17166203260421752930f, 0.39581513404846191406f, 0.25676611065864562988f},
      {0.011659999378025531769f, 0.029526919126510620117f, 0.30408945679664611816f}
    },
    {
      {0.083591364324092864990f, 0.019841326400637626648f, -0.013243941590189933777f},
      {0.0010666390880942344666f, 0.087467290461063385010f, 0.064122438430786132812f},
      {-0.065928228199481964111f, 0.012719555757939815521f, 0.029924092814326286316f}
    },
    {
      {0.036325246095657348633f, 0.069743432104587554932f, -0.025817872956395149231f},
      {0.25622966885566711426f, 0.023680148646235466003f, 0.029804166406393051147f},
      {-0.039831068366765975952f, 0.099900022149085998535f, 0.0042764609679579734802f}
    },
    {
      {-2.2924621134734479710e-06f, -2.9926188744866522029e-06f, -3.9361643757729325444e-06f},
      {-1.9207179775548866019e-06f, -1.5680237197557289619e-07f, -1.2930896673424285837e-06f},
      {-5.0339276640443131328e-06f, -2.7422713628766359761e-06f, 2.2013175566826248541e-06f}
    },
    {
      {-0.0066405045799911022186f, 0.070018798112869262695f, 0.042225904762744903564f},
      {0.0072688893415033817291f, -0.049462709575891494751f, 0.061052493751049041748f},
      {-0.048613477498292922974f, -0.021649962291121482849f, -0.059666737914085388184f}
    },
    {
      {0.076620586216449737549f, 0.10081634670495986938f, 0.0048934346996247768402f},
      {-0.15503515303134918213f, 0.27307578921318054199f, 0.26796025037765502930f},
      {-0.0071768229827284812927f, 0.068490497767925262451f, -0.041861843317747116089f}
    },
    {
      {-0.13656836748123168945f, 0.051482316106557846069f, 0.035006605088710784912f},
      {0.27572077512741088867f, 0.17089562118053436279f, 0.0034629779402166604996f},
      {0.068650320172309875488f, 0.32139301300048828125f, 0.13330323994159698486f}
    }
  },
  {
    {
      {-0.00065536797046661376953f, -0.0041458257474005222321f, -0.024783467873930931091f},
      {0.0042422218248248100281f, -0.036173280328512191772f, 0.039624948054552078247f},
      {-0.038743276149034500122f, 0.025834985077381134033f, -0.047129120677709579468f}
    },
    {
      {4.5883157895332260523e-07f, -2.1351254417822929099e-06f, 2.4885857783374376595e-06f},
      {-1.3894114090362563729e-06f, -2.0547915937640937045e-06f, -1.2219267091495567001e-06f},
      {-3.1945687624101992697e-06f, -2.1904504592384910211e-06f, -5.8832119975704699755e-07f}
    },
    {
      {0.0096309902146458625793f, 0.10669002681970596313f, -0.011536587961018085480f},
      {-0.0054838215000927448273f, 0.077175229787826538086f, 0.033377986401319503784f},
      {-0.050242189317941665649f, 0.024289358407258987427f, 0.0013126835692673921585f}
    },
    {
      {-0.0014519478427246212959f, -0.012887769378721714020f, 0.041672512888908386230f},
      {0.040392190217971801758f, 0.12924841046333312988f, 0.0077213309705257415771f},
      {0.010858923196792602539f, -0.054990589618682861328f, -0.017198791727423667908f}
    },
    {
      {-0.035619921982288360596f, -0.030830850824713706970f, 0.017480073496699333191f},
      {-0.0061667785048484802246f, -0.024899668991565704346f, -0.030349928885698318481f},
      {-0.029219098389148712158f, 0.048274058848619461060f, -0.016812942922115325928f}
    },
    {
      {-0.075483247637748718262f, 0.028650043532252311707f, -0.037734970450401306152f},
      {-0.015041111968457698822f, 0.13122686743736267090f, 0.12022426724433898926f},
      {-0.054684892296791076660f, -0.044105064123868942261f, -0.074921511113643646240f}
    },
    {
      {0.022904051467776298523f, 0.024078568443655967712f, 0.029570383951067924500f},
      {-0.12595534324645996094f, 0.061072960495948791504f, 0.12402790039777755737f},
      {-0.019287962466478347778f, -0.13134650886058807373f, 0.035027768462896347046f}
    },
    {
      {-0.055648300796747207642f, -0.070253096520900726318f, -0.033827722072601318359f},
      {-0.043215811252593994141f, -0.16402392089366912842f, -0.15272331237792968750f},
      {-0.031179761514067649841f, -0.064134679734706878662f, -0.011100877076387405396f}
    },
    {
      {-0.0048232306726276874542f, 0.048728018999099731445f, 0.041380774229764938354f},
      {0.18330870568752288818f, 0.21764792501926422119f, -0.029549555853009223938f},
      {0.096281297504901885986f, 0.21724554896354675293f, -0.024909535422921180725f}
    },
    {
      {0.036138284951448440552f, 0.015208355151116847992f, -0.088054187595844268799f},
      {0.011712964624166488647f, 0.037424631416797637939f, -0.053731884807348251343f},
      {-0.032453663647174835205f, 0.061129547655582427979f, 0.034633081406354904175f}
    },
    {
      {-0.0015275129117071628571f, -0.036224000155925750732f, -0.022402469068765640259f},
      {0.017285099253058433533f, -0.013760880567133426666f, -0.019853653386235237122f},
      {-0.063552781939506530762f, 0.032713491469621658325f, -0.011708612553775310516f}
    },
    {
      {0.062961794435977935791f, -0.0013951853616163134575f, 0.012031718157231807709f},
      {-0.057047404348850250244f, -0.048986032605171203613f, -0.039794635027647018433f},
      {-0.10369279980659484863f, 0.010428790003061294556f, -0.022740006446838378906f}
    },
    {
      {-3.0666544716950738803e-06f, -1.8310546465727384202e-06f, -3.8611724448855966330e-06f},
      {5.8679749059820096591e-08f, 2.5061583528440678492e-06f, -5.7311450518682249822e-07f},
      {-2.5661258860054658726e-06f, -2.0606305497494759038e-06f, -2.1230471247690729797e-06f}
    },
    {
      {-0.060161523520946502686f, 0.011068149469792842865f, -0.032870691269636154175f},
      {-0.0079376716166734695435f, -0.095739461481571197510f, -0.015284023247659206390f},
      {-0.00080804934259504079819f, -0.0029182033613324165344f, -0.034951742738485336304f}
    },
    {
      {0.011729994788765907288f, 6.0354537708917632699e-05f, -0.067182801663875579834f},
      {-0.020874572917819023132f, -0.13038577139377593994f, -0.077139087021350860596f},
      {-0.0036963624879717826843f, 0.022494945675134658813f, 0.028532275930047035217f}
    },
    {
      {-0.010057364590466022491f, 0.18489997088909149170f, 0.042833227664232254028f},
      {-0.084208361804485321045f, 0.098807573318481445312f, 0.17992272973060607910f},
      {0.010488897562026977539f, -0.13935627043247222900f, -0.057223528623580932617f}
    }
  },
  {
    {
      {0.066792912781238555908f, 0.077836431562900543213f, -0.032992478460073471069f},
      {0.31624254584312438965f, 0.47969245910644531250f, 0.11513516306877136230f},
      {-0.018810577690601348877f, 0.0075441109947860240936f, -0.015455145388841629028f}
    },
    {
      {1.5320605939450615551e-07f, 2.5902163542923517525e-06f, 1.8130441503672045656e-06f},
      {-2.8748759177688043565e-06f, -6.6198538206663215533e-07f, -2.4479632543261686806e-07f},
      {-9.7414908850623760372e-07f, -1.8410904658594517969e-06f, -2.0442773802642477676e-06f}
    },
    {
      {-0.13246926665306091309f, 0.050194595009088516235f, -0.014645632356405258179f},
      {0.0087064122781157493591f, 0.090750329196453094482f, 0.11136075109243392944f},
      {-0.0066096675582230091095f, -0.019976954907178878784f, -0.064632140100002288818f}
    },
    {
      {0.074547931551933288574f, 0.086928732693195343018f, -0.10566397011280059814f},
      {0.16106951236724853516f, 0.13816346228122711182f, 0.0012203060323372483253f},
      {-0.045568175613880157471f, -0.022211764007806777954f, 0.018620122224092483521f}
    },
    {
      {-0.047866478562355041504f, 0.16225591301918029785f, 0.033340308815240859985f},
      {0.10011729598045349121f, 0.48925334215164184570f, 0.26363959908485412598f},
      {0.012631364166736602783f, 0.025395343080163002014f, -0.0037406615447252988815f}
    },
    {
      {0.099115677177906036377f, 0.014928973279893398285f, 0.10127933323383331299f},
      {0.082676932215690612793f, -0.18989276885986328125f, 0.0062273605726659297943f},
      {0.088135205209255218506f, 0.092355959117412567139f, 0.069207295775413513184f}
    },
    {
      {0.073528856039047241211f, -0.036915872246026992798f, 0.0030808567535132169724f},
      {0.059988349676132202148f, -0.17881427705287933350f, 0.064738675951957702637f},
      {0.080857746303081512451f, 0.013654969632625579834f, 0.037288062274456024170f}
    },
    {
      {0.14851213991641998291f, 0.072537831962108612061f, -0.092888958752155303955f},
      {0.061762791126966476440f, -0.0027414599899202585220f, 0.10154426842927932739f},
      {-0.059896443039178848267f, -0.10513391345739364624f, 0.074600078165531158447f}
    },
    {
      {-0.036226868629455566406f, -0.00056660047266632318497f, -0.13854952156543731689f},
      {0.12204895913600921631f, 0.29630988836288452148f, -0.038226038217544555664f},
      {-0.044667683541774749756f, -0.043035872280597686768f, -0.10539259761571884155f}
    },
    {
      {-0.027189467102289199829f, 0.064391449093818664551f, 0.10518974810838699341f},
      {0.061148997396230697632f, -0.11444815993309020996f, 0.030778275802731513977f},
      {0.10736773163080215454f, -0.014393319375813007355f, -0.023737186565995216370f}
    },
    {
      {0.049143545329570770264f, -0.043955747038125991821f, 0.042036347091197967529f},
      {0.037597652524709701538f, -0.085372328758239746094f, 0.021799396723508834839f},
      {0.069125458598136901855f, -0.0071288999170064926147f, 0.033161886036396026611f}
    },
    {
      {-0.18889017403125762939f, 0.12231686711311340332f, -0.098964504897594451904f},
      {0.083626113831996917725f, 0.53629565238952636719f, 0.025889929383993148804f},
      {-0.11217957735061645508f, 0.0033026670571416616440f, -0.092513546347618103027f}
    },
    {
      {4.5353513087320607156e-06f, 1.7808677199582234607e-08f, 1.6164646012839511968e-06f},
      {1.7580372002612421056e-07f, -1.5030677786853630096e-06f, -2.0388245047797681764e-06f},
      {2.1622504391416441649e-06f, 2.5712993192428257316e-06f, -2.1919765913480659947e-06f}
    },
    {
      {-0.0092530567198991775513f, -0.023881761357188224792f, 0.0045686541125178337097f},
      {0.017293957993388175964f, -0.084852397441864013672f, 0.024723131209611892700f},
      {-0.027708746492862701416f, -0.058187548071146011353f, -0.032339267432689666748f}
    },
    {
      {0.072428882122039794922f, -0.041357196867465972900f, 0.060763850808143615723f},
      {0.069553688168525695801f, -0.072161152958869934082f, 0.064240597188472747803f},
      {0.018591990694403648376f, 0.012439767830073833466f, -0.019163616001605987549f}
    },
    {
      {-0.071217201650142669678f, -0.043499045073986053467f, 0.082860581576824188232f},
      {-0.032985348254442214966f, -0.017534069716930389404f, 0.12156207114458084106f},
      {-0.0012259281938895583153f, -0.057981822639703750610f, -0.095734462141990661621f}
    }
  },
  {
    {
      {-0.028076920658349990845f, 0.018473172560334205627f, -0.015144337899982929230f},
      {-0.0047602839767932891846f, -0.038812905550003051758f, 0.0060983290895819664001f},
      {-0.045236870646476745605f, -0.041123397648334503174f, 0.011140928603708744049f}
    },
    {
      {-3.0988599064585287124e-06f, 1.4410085213967249729e-06f, -3.1743552426632959396e-06f},
      {-4.0418171920464374125e-06f, -3.2241630378848640248e-06f, -6.7992673393746372312e-06f},
      {-3.2077621199277928099e-06f, -2.5327963157906197011e-06f, -5.1246174734842497855e-06f}
    },
    {
      {0.035631116479635238647f, 0.027567718178033828735f, 0.048538681119680404663f},
      {0.019215639680624008179f, -0.085556238889694213867f, 0.038808327168226242065f},
      {0.045044887810945510864f, 0.017677405849099159241f, 0.043266698718070983887f}
    },
    {
      {0.036804821342229843140f, -0.00050024699885398149490f, 0.0068095661699771881104f},
      {-0.0063965637236833572388f, -0.064761795103549957275f, 0.019320890307426452637f},
      {-0.00090197002282366156578f, -0.0027510703075677156448f, 0.10005928575992584229f}
    },
    {
      {-0.016732016578316688538f, 0.023298365995287895203f, -0.012017047032713890076f},
      {-0.012822550721466541290f, -0.034972693771123886108f, -0.011981273069977760315f},
      {0.0081177921965718269348f, -0.030346659943461418152f, -0.032416138797998428345f}
    },
    {
      {0.050745949149131774902f, 0.080297790467739105225f, 0.039011966437101364136f},
      {-0.028482820838689804077f, -0.10605082660913467407f, -0.045328535139560699463f},
      {-0.0042996439151465892792f, 0.00055899348808452486992f, -0.0033011820632964372635f}
    },
    {
      {-0.011278677731752395630f, 0.051895815879106521606f, 0.0024126979988068342209f},
      {0.092566803097724914551f, 0.035479351878166198730f, 0.084131196141242980957f},
      {0.019653979688882827759f, -0.013258049264550209045f, 0.043086502701044082642f}
    },
    {
      {-0.026648916304111480713f, 0.0040054349228739738464f, -0.039479255676269531250f},
      {-0.041938018053770065308f, -0.21514621376991271973f, -0.033355224877595901489f},
      {-0.0028566184919327497482f, -0.032856661826372146606f, 0.058319278061389923096f}
    },
    {
      {-0.092437766492366790771f, -0.012076640501618385315f, 0.024428913369774818420f},
      {0.019087594002485275269f, -0.18348608911037445068f, 0.0038034908939152956009f},
      {0.089582040905952453613f, -0.016451593488454818726f, 0.019012095406651496887f}
    },
    {
      {0.050814881920814514160f, 0.045238479971885681152f, 0.00032932346221059560776f},
      {-0.048623926937580108643f, -0.11292877048254013062f, -0.015867901965975761414f},
      {0.038757864385843276978f, -0.036292783915996551514f, -0.028808575123548507690f}
    },
    {
      {-0.013005849905312061310f, 0.055665019899606704712f, -0.013648832216858863831f},
      {-0.018669428303837776184f, -0.014219438657164573669f, -0.0087940916419029235840f},
      {-0.030185189098119735718f, -0.081157371401786804199f, -0.051204007118940353394f}
    },
    {
      {0.052361983805894851685f, -0.016631221398711204529f, -0.0039539411664009094238f},
      {0.029575243592262268066f, 0.021522333845496177673f, 0.054700497537851333618f},
      {0.051275685429573059082f, 0.0071349153295159339905f, 0.041891966015100479126f}
    },
    {
      {1.0792153943839366548e-06f, 2.2496501514979172498e-06f, 6.8628296503447927535e-06f},
      {-1.9298454390082042664e-06f, -4.2289711927878670394e-06f, 2.6730217541626188904e-06f},
      {-1.1695244666043436155e-06f, -1.4357285635924199596e-06f, 4.3223353713983669877e-06f}
    },
    {
      {0.011809547431766986847f, 0.12010874599218368530f, -0.091962411999702453613f},
      {0.24169377982616424561f, 0.43051296472549438477f, 0.068893663585186004639f},
      {0.035433709621429443359f, 0.10851726680994033813f, -0.099269255995750427246f}
    },
    {
      {0.010262962430715560913f, 0.051167856901884078979f, 0.013442950323224067688f},
      {-0.066984698176383972168f, -0.10174473375082015991f, -0.048774771392345428467f},
      {0.043814308941364288330f, 0.018457239493727684021f, 0.028836807236075401306f}
    },
    {
      {-0.048445653170347213745f, 0.0054091066122055053711f, -0.0035808717366307973862f},
      {-0.065988652408123016357f, -0.14222568273544311523f, 0.0039327531121671199799f},
      {-0.087451934814453125000f, -0.12362759560346603394f, -0.024583803489804267883f}
    }
  },
  {
    {
      {-0.034236907958984375000f, -0.072233483195304870605f, 0.010254603810608386993f},
      {-0.057497918605804443359f, -0.030192106962203979492f, -0.088024534285068511963f},
      {-0.039343051612377166748f, -0.080900311470031738281f, -0.054818440228700637817f}
    },
    {
      {-3.4402235087327426299e-06f, -4.2069605115102604032e-06f, -5.7176339396391995251e-07f},
      {7.6948902005824493244e-07f, 6.2426181557384552434e-07f, 1.6655181980240740813e-06f},
      {-1.2683141221714322455e-06f, -3.5081191072094952688e-06f, -4.0381387407251168042e-06f}
    },
    {
      {-0.025833079591393470764f, 0.017439797520637512207f, 0.041635651141405105591f},
      {0.091295257210731506348f, -0.11826013773679733276f, 0.028890987858176231384f},
      {-0.11400333791971206665f, -0.0098716234788298606873f, -0.13628914952278137207f}
    },
    {
      {0.033710982650518417358f, 0.10866017639636993408f, 0.038153387606143951416f},
      {0.013337199576199054718f, 0.43792748451232910156f, 0.17090307176113128662f},
      {0.18672943115234375000f, 0.22803555428981781006f, 0.048179738223552703857f}
    },
    {
      {-0.027342764660716056824f, -0.070993401110172271729f, 0.015992170199751853943f},
      {-0.014811826869845390320f, -0.083154514431953430176f, -0.027001677080988883972f},
      {-0.11752931028604507446f, -0.044805128127336502075f, -0.095934480428695678711f}
    },
    {
      {-0.049946773797273635864f, -0.023044075816869735718f, -0.058043051511049270630f},
      {-0.25587829947471618652f, 0.12209568172693252563f, 0.17117130756378173828f},
      {0.12347779422998428345f, 0.010418570600450038910f, -0.11542376875877380371f}
    },
    {
      {0.012786289677023887634f, 0.070225663483142852783f, -0.020673338323831558228f},
      {0.011051933281123638153f, -0.15728473663330078125f, 0.23345594108104705811f},
      {0.057826109230518341064f, 0.25022637844085693359f, -0.10628245025873184204f}
    },
    {
      {0.069369293749332427979f, 0.0086479745805263519287f, 0.010142267681658267975f},
      {0.15641026198863983154f, 0.44996148347854614258f, -0.035142779350280761719f},
      {0.34031578898429870605f, 0.12573722004890441895f, 0.11379610747098922729f}
    },
    {
      {0.0031181967351585626602f, 0.0086376331746578216553f, -0.055102385580539703369f},
      {0.016408894211053848267f, 0.013210763223469257355f, 0.29848745465278625488f},
      {0.10225727409124374390f, 0.30722436308860778809f, -0.070995189249515533447f}
    },
    {
      {-0.0018890476785600185394f, -0.0082625122740864753723f, 0.028689416125416755676f},
      {-0.047007255256175994873f, -0.18818005919456481934f, -0.10865560173988342285f},
      {-0.072262801229953765869f, -0.20726485550403594971f, -0.090200677514076232910f}
    },
    {
      {-0.0066740857437252998352f, 0.017504045739769935608f, 0.053217723965644836426f},
      {0.024784605950117111206f, 0.050323225557804107666f, -0.0094536896795034408569f},
      {0.010033589787781238556f, -0.022819951176643371582f, -0.063029050827026367188f}
    },
    {
      {-0.070146687328815460205f, 0.061934344470500946045f, 0.0016287902835756540298f},
      {0.089923754334449768066f, 0.015041303820908069611f, -0.016942154616117477417f},
      {-0.085068970918655395508f, -0.036246664822101593018f, -0.060035105794668197632f}
    },
    {
      {-4.7729672587593086064e-06f, -5.8611631175153888762e-06f, -3.5515747640602057800e-06f},
      {1.2715159982690238394e-06f, -8.4918673337597283535e-07f, -4.7462258407904300839e-06f},
      {2.8637803097808500752e-06f, -3.7963770864735124633e-06f, -6.8610456764872651547e-06f}
    },
    {
      {0.068092063069343566895f, 0.053978301584720611572f, -0.026430968195199966431f},
      {0.046811539679765701294f, -0.089186914265155792236f, 0.015058050863444805145f},
      {-0.040672130882740020752f, -0.0047975894995033740997f, -0.019056469202041625977f}
    },
    {
      {-0.075706288218498229980f, -0.0084923757240176200867f, 0.013563835993409156799f},
      {0.17217984795570373535f, 0.11963602900505065918f, -0.14871078729629516602f},
      {-0.10534857213497161865f, -0.0081091253086924552917f, -0.046641632914543151855f}
    },
    {
      {-0.044565480202436447144f, -0.059855695813894271851f, 0.031473666429519653320f},
      {-0.17723919451236724854f, -0.17498753964900970459f, -0.10782710462808609009f},
      {-0.15965299308300018311f, -0.22384807467460632324f, -0.097709432244300842285f}
    }
  },
  {
    {
      {-0.0032874937169253826141f, 0.015375866554677486420f, 0.0050677736289799213409f},
      {-0.021311933174729347229f, -0.0033948069903999567032f, 0.026993883773684501648f},
      {0.021478403359651565552f, 0.022259404882788658142f, 0.076030984520912170410f}
    },
    {
      {-2.8361805348708912788e-08f, -9.4908796199888456613e-07f, -2.2158249066706048325e-06f},
      {3.4432113693583232816e-07f, 1.5239063486660597846e-06f, 8.5729789134347811341e-07f},
      {-8.3333867451074183919e-07f, -3.1298409908231406007e-07f, -2.1184341676416806877e-06f}
    },
    {
      {0.018562600016593933105f, 0.012105531990528106689f, 0.018367126584053039551f},
      {0.011908306740224361420f, -0.061646930873394012451f, 0.00066152989165857434273f},
      {-0.0031486593652516603470f, -0.0017487899167463183403f, 0.0040936060249805450439f}
    },
    {
      {0.031140932813286781311f, -0.012311573140323162079f, 0.027895238250494003296f},
      {-0.0022770208306610584259f, 0.0092847896739840507507f, 0.065697185695171356201f},
      {0.016997264698147773743f, 0.035964731127023696899f, 0.0046224575489759445190f}
    },
    {
      {-0.0085272528231143951416f, 0.026113955304026603699f, 0.00036810961319133639336f},
      {-0.021573046222329139709f, -0.027020065113902091980f, 0.042048946022987365723f},
      {-0.00053155928617343306541f, 0.030435269698500633240f, 0.066069081425666809082f}
    },
    {
      {-0.052849169820547103882f, -0.017470501363277435303f, -0.0074455495923757553101f},
      {-0.045838735997676849365f, -0.0054042525589466094971f, -0.026329113170504570007f},
      {0.014226161874830722809f, -0.0095009487122297286987f, -0.030228950083255767822f}
    },
    {
      {-0.033127423375844955444f, 0.0062348423525691032410f, -0.018175631761550903320f},
      {-0.015781957656145095825f, -0.074648752808570861816f, 0.010153402574360370636f},
      {-0.011604614555835723877f, -0.0047806645743548870087f, -0.033833347260951995850f}
    },
    {
      {0.033811859786510467529f, 0.015986686572432518005f, -0.023916304111480712891f},
      {-0.035023108124732971191f, 0.024630211293697357178f, -0.018011344596743583679f},
      {0.0017015284392982721329f, 0.034808889031410217285f, -0.019217802211642265320f}
    },
    {
      {-0.011441118083894252777f, 0.026837140321731567383f, 0.033504322171211242676f},
      {-0.041138440370559692383f, -0.025908363983035087585f, -0.040469218045473098755f},
      {0.019616765901446342468f, -0.022936115041375160217f, 0.013828684575855731964f}
    },
    {
      {-0.0047980854287743568420f, -0.030704963952302932739f, 0.020071379840373992920f},
      {0.032064724713563919067f, -0.0021269335411489009857f, 0.040949039161205291748f},
      {-0.017468743026256561279f, 0.0099996533244848251343f, -0.032975096255540847778f}
    },
    {
      {-0.011544581502676010132f, 0.14138370752334594727f, 0.017630686983466148376f},
      {0.059674918651580810547f, 0.22256453335285186768f, 0.047654859721660614014f},
      {0.037074964493513107300f, 0.11305648833513259888f, 0.016389673575758934021f}
    },
    {
      {-0.0080628795549273490906f, 0.012477567419409751892f, -0.0038408217951655387878f},
      {-0.035442844033241271973f, -0.076037943363189697266f, 0.010500505566596984863f},
      {-0.050564713776111602783f, -0.010770055465400218964f, 0.036213550716638565063f}
    },
    {
      {1.2942542753080488183e-06f, 3.0675948892167070881e-06f, 1.1338090644130716100e-06f},
      {3.0813964713161112741e-07f, -3.0355820967997715343e-07f, 2.4794360342639265582e-06f},
      {3.6433117855949603836e-08f, 3.3095202525146305561e-06f, 8.6792118736411794089e-07f}
    },
    {
      {-0.14576768875122070312f, -0.17973674833774566650f, -0.065195560455322265625f},
      {-0.20924992859363555908f, -0.28402364253997802734f, -0.14275985956192016602f},
      {-0.067208185791969299316f, -0.13989792764186859131f, -0.029150404036045074463f}
    },
    {
      {0.0080422870814800262451f, 0.017099464312195777893f, 0.031404629349708557129f},
      {0.030946644023060798645f, -0.013091368600726127625f, -0.012950501404702663422f},
      {0.0017790292622521519661f, 0.0021821008995175361633f, -0.010817913338541984558f}
    },
    {
      {-0.014191747643053531647f, -0.0054807113483548164368f, -0.012267327867448329926f},
      {0.015199592337012290955f, -0.010374597273766994476f, -0.015102414414286613464f},
      {0.053864460438489913940f, 0.052477356046438217163f, 0.036192636936902999878f}
    }
  },
  {
    {
      {0.12305811792612075806f, 0.025582719594240188599f, 0.025159860029816627502f},
      {0.057807113975286483765f, -0.010001732967793941498f, -0.012668100185692310333f},
      {-0.042995408177375793457f, -0.11431225389242172241f, -0.039045110344886779785f}
    },
    {
      {-2.7080676545665482990e-07f, -2.6633001652953680605e-06f, 4.3443204589266315452e-08f},
      {-3.5606248616204538848e-07f, -2.6727373096946394071e-06f, 2.4544522148062242195e-07f},
      {1.9664003048092126846e-06f, 4.5926427105769107584e-07f, -2.6478068093638285063e-07f}
    },
    {
      {-0.012102792039513587952f, -0.037767436355352401733f, -0.031901858747005462646f},
      {-0.035522934049367904663f, -0.0026608025655150413513f, -0.029423255473375320435f},
      {0.041283097118139266968f, -0.022179821506142616272f, -0.061504434794187545776f}
    },
    {
      {-0.027447104454040527344f, -0.026542864739894866943f, 0.024003442376852035522f},
      {0.049755506217479705811f, 0.032677784562110900879f, -0.0095128770917654037476f},
      {-0.013061137869954109192f, 0.050771176815032958984f, -0.031443472951650619507f}
    },
    {
      {0.047140035778284072876f, 0.11080789566040039062f, -0.0017208990175276994705f},
      {0.017746504396200180054f, 0.13835249841213226318f, -0.027294013649225234985f},
      {-0.047528441995382308960f, -0.030502952635288238525f, -0.032946895807981491089f}
    },
    {
      {-0.052047003060579299927f, -0.081106133759021759033f, -0.030771534889936447144f},
      {-0.020687526091933250427f, 0.10580285638570785522f, 0.044656980782747268677f},
      {0.050044808536767959595f, 0.099231898784637451172f, 0.097676143050193786621f}
    },
    {
      {0.023411864414811134338f, -0.0065704146400094032288f, 0.012458289973437786102f},
      {-0.10671775788068771362f, -0.10785705596208572388f, -0.022764870896935462952f},
      {0.036585565656423568726f, 0.12347462773323059082f, 0.074330337345600128174f}
    },
    {
      {-0.025392243638634681702f, -0.036022093147039413452f, -0.0056694671511650085449f},
      {-0.090242698788642883301f, -0.058606572449207305908f, 0.054998099803924560547f},
      {0.19156457483768463135f, 0.15537531673908233643f, 0.040617011487483978271f}
    },
    {
      {-0.054013967514038085938f, 0.045766472816467285156f, -0.023470897227525711060f},
      {-0.039253458380699157715f, 0.069358006119728088379f, -0.039289910346269607544f},
      {-0.14334681630134582520f, -0.25446668267250061035f, -0.052920464426279067993f}
    },
    {
      {0.0064909770153462886810f, -0.017615299671888351440f, -0.0069532617926597595215f},
      {0.0029787474777549505234f, -0.15793670713901519775f, -0.017582431435585021973f},
      {0.25907379388809204102f, 0.38665282726287841797f, 0.14819873869419097900f}
    },
    {
      {-0.012969319708645343781f, 0.0012841081479564309120f, -0.030324343591928482056f},
      {-0.0047454996965825557709f, -0.099784776568412780762f, 0.0049315104261040687561f},
      {0.11057948321104049683f, 0.15571644902229309082f, 0.068115256726741790771f}
    },
    {
