// This file is computer-generated by onnx2c 
// (TODO: add creating command line here)
// (TODO: print creation date here )

// ONNX model:
// produced by pytorch, version 1.8
// ONNX IR version: 9
// Model documentation: 
/*

*/

#include <float.h>
#include <math.h>
#include <stdbool.h>
#include <stdint.h>
#include <string.h>
#define MAX(X,Y) ( X > Y ? X : Y)
#define MIN(X,Y) ( X < Y ? X : Y)
#define CLIP(X,L) ( MAX(MIN(X,L), -L) )

/* conv1.weight*/
static const float tensor_conv1_weight[16][3][3][3] = 
{
  {
    {
      {-0.27607387304306030273f, 0.16216903924942016602f, 0.14558608829975128174f},
      {-0.29858082532882690430f, 0.13411971926689147949f, 0.18077161908149719238f},
      {-0.30579453706741333008f, 0.11376855522394180298f, 0.19872587919235229492f}
    },
    {
      {-0.21798120439052581787f, 0.10748729854822158813f, 0.10394760221242904663f},
      {-0.27714565396308898926f, 0.10004246234893798828f, 0.14231964945793151855f},
      {-0.23576915264129638672f, 0.073474697768688201904f, 0.13849715888500213623f}
    },
    {
      {-0.19083683192729949951f, 0.11508640646934509277f, 0.083356529474258422852f},
      {-0.31171208620071411133f, 0.16813053190708160400f, 0.16785217821598052979f},
      {-0.21935394406318664551f, 0.081183314323425292969f, 0.12137363106012344360f}
    }
  },
  {
    {
      {-0.10771121084690093994f, -0.17343676090240478516f, -0.15064331889152526855f},
      {-0.11773439496755599976f, -0.20804210007190704346f, -0.14671158790588378906f},
      {-0.16737440228462219238f, -0.20903299748897552490f, -0.18996451795101165771f}
    },
    {
      {-0.029160276055335998535f, -0.057412307709455490112f, -0.051011770963668823242f},
      {-0.037006411701440811157f, -0.076031498610973358154f, -0.050367165356874465942f},
      {-0.051152188330888748169f, -0.064189583063125610352f, -0.056953892111778259277f}
    },
    {
      {0.010972041636705398560f, -0.0091032907366752624512f, -0.0076888897456228733063f},
      {-0.00027883893926627933979f, -0.018691811710596084595f, -0.011676983907818794250f},
      {-0.015947626903653144836f, -0.023116417229175567627f, -0.020467247813940048218f}
    }
  },
  {
    {
      {-0.40282705426216125488f, -0.019510872662067413330f, 0.43720462918281555176f},
      {-0.0027620596811175346375f, -0.014593266882002353668f, 0.024296641349792480469f},
      {0.42923888564109802246f, 0.0025249617174267768860f, -0.41645291447639465332f}
    },
    {
      {-0.28974798321723937988f, -0.018677080050110816956f, 0.30422648787498474121f},
      {-0.00063735770527273416519f, -0.017781248316168785095f, 0.0090113002806901931763f},
      {0.31000256538391113281f, -0.0072493623010814189911f, -0.31848898530006408691f}
    },
    {
      {-0.25174543261528015137f, -0.013545306399464607239f, 0.26915371417999267578f},
      {0.0040217102505266666412f, -0.021023212000727653503f, 0.010325637646019458771f},
      {0.29003378748893737793f, 0.0030902891885489225388f, -0.28111717104911804199f}
    }
  },
  {
    {
      {0.075902692973613739014f, 0.21995571255683898926f, -0.26438519358634948730f},
      {0.11679579317569732666f, 0.19831213355064392090f, -0.29683107137680053711f},
      {0.14235101640224456787f, 0.18303245306015014648f, -0.32374265789985656738f}
    },
    {
      {0.062398016452789306641f, 0.15609192848205566406f, -0.21075809001922607422f},
      {0.089948795735836029053f, 0.15580953657627105713f, -0.27499464154243469238f},
      {0.089060470461845397949f, 0.11829199641942977905f, -0.24952176213264465332f}
    },
    {
      {0.034440442919731140137f, 0.16225497424602508545f, -0.18090854585170745850f},
      {0.090310320258140563965f, 0.24807438254356384277f, -0.30597606301307678223f},
      {0.063904546201229095459f, 0.12521365284919738770f, -0.22836032509803771973f}
    }
  },
  {
    {
      {0.066599048674106597900f, 0.10449594259262084961f, 0.066323995590209960938f},
      {0.035562448203563690186f, 0.069755189120769500732f, 0.032382834702730178833f},
      {0.0069184219464659690857f, 0.013686413876712322235f, -0.011777014471590518951f}
    },
    {
      {0.0046317148953676223755f, 0.022314326837658882141f, 0.0029256013222038745880f},
      {-0.012276301160454750061f, -0.0049369446933269500732f, -0.016451252624392509460f},
      {-0.025766618549823760986f, -0.025435989722609519958f, -0.036818325519561767578f}
    },
    {
      {-0.11768713593482971191f, -0.11900733411312103271f, -0.11204143613576889038f},
      {-0.15198224782943725586f, -0.22661758959293365479f, -0.16128401458263397217f},
      {-0.15033496916294097900f, -0.17845852673053741455f, -0.16588684916496276855f}
    }
  },
  {
    {
      {0.075449436902999877930f, 0.12336235493421554565f, 0.13297735154628753662f},
      {0.14039275050163269043f, 0.25942087173461914062f, 0.20372082293033599854f},
      {0.19650697708129882812f, 0.27513721585273742676f, 0.26816058158874511719f}
    },
    {
      {-0.082469440996646881104f, -0.098383508622646331787f, -0.085553981363773345947f},
      {-0.096831254661083221436f, -0.13983547687530517578f, -0.10331675410270690918f},
      {-0.13433636724948883057f, -0.15793795883655548096f, -0.15503096580505371094f}
    },
    {
      {-0.022937038913369178772f, -0.039130657911300659180f, -0.037287894636392593384f},
      {-0.058574911206960678101f, -0.11693884432315826416f, -0.084729261696338653564f},
      {-0.086893379688262939453f, -0.13629861176013946533f, -0.12909902632236480713f}
    }
  },
  {
    {
      {-0.14141543209552764893f, -0.17782244086265563965f, -0.14986987411975860596f},
      {0.22257308661937713623f, 0.33304643630981445312f, 0.27245834469795227051f},
      {-0.089825659990310668945f, -0.13580889999866485596f, -0.11773329973220825195f}
    },
    {
      {-0.097030192613601684570f, -0.13221491873264312744f, -0.11220659315586090088f},
      {0.17194323241710662842f, 0.26557478308677673340f, 0.20949491858482360840f},
      {-0.092990905046463012695f, -0.12590709328651428223f, -0.11407023668289184570f}
    },
    {
      {-0.11736796796321868896f, -0.19780535995960235596f, -0.13652245700359344482f},
      {0.21632720530033111572f, 0.45487889647483825684f, 0.25916224718093872070f},
      {-0.12143819034099578857f, -0.19767923653125762939f, -0.15247473120689392090f}
    }
  },
  {
    {
      {0.19763332605361938477f, 0.29539415240287780762f, 0.21491332352161407471f},
      {-0.00038540817331522703171f, 0.025105640292167663574f, 0.033019378781318664551f},
      {-0.20057152211666107178f, -0.30071485042572021484f, -0.21455401182174682617f}
    },
    {
      {0.12732362747192382812f, 0.19063815474510192871f, 0.13511827588081359863f},
      {-0.011815205216407775879f, 0.00057895889040082693100f, 0.012551032006740570068f},
      {-0.14009833335876464844f, -0.21524435281753540039f, -0.14972779154777526855f}
    },
    {
      {0.13104629516601562500f, 0.22853711247444152832f, 0.13853389024734497070f},
      {-0.010272931307554244995f, 0.0024583546910434961319f, 0.017030894756317138672f},
      {-0.12098030000925064087f, -0.22045564651489257812f, -0.13302010297775268555f}
    }
  },
  {
    {
      {0.12807697057723999023f, 0.18125812709331512451f, 0.12108568102121353149f},
      {-0.25865918397903442383f, -0.40797814726829528809f, -0.28880843520164489746f},
      {0.14470501244068145752f, 0.21494607627391815186f, 0.18433260917663574219f}
    },
    {
      {0.097901292145252227783f, 0.13731165230274200439f, 0.091632716357707977295f},
      {-0.18878993391990661621f, -0.28205177187919616699f, -0.20770107209682464600f},
      {0.086144424974918365479f, 0.14420244097709655762f, 0.11438982933759689331f}
    },
    {
      {0.11095267534255981445f, 0.17929255962371826172f, 0.11067381501197814941f},
      {-0.20068024098873138428f, -0.34035524725914001465f, -0.21756173670291900635f},
      {0.086353026330471038818f, 0.16335633397102355957f, 0.10741657018661499023f}
    }
  },
  {
    {
      {-0.089148394763469696045f, -0.068455681204795837402f, -0.10342975705862045288f},
      {-0.076267383992671966553f, -0.069266825914382934570f, -0.086123540997505187988f},
      {-0.13109202682971954346f, -0.096754074096679687500f, -0.13520289957523345947f}
    },
    {
      {-0.0011117579415440559387f, 0.027567494660615921021f, -0.0038663016166538000107f},
      {0.010563065297901630402f, 0.048385012894868850708f, 0.0047470321878790855408f},
      {0.0035188037436455488205f, 0.031074553728103637695f, -0.0035193113144487142563f}
    },
    {
      {0.044032428413629531860f, 0.17344111204147338867f, 0.075819663703441619873f},
      {0.11279668658971786499f, 0.44646987318992614746f, 0.14714302122592926025f},
      {0.029560297727584838867f, 0.13924419879913330078f, 0.044964946806430816650f}
    }
  },
  {
    {
      {-0.19019588828086853027f, -0.27014994621276855469f, -0.20902821421623229980f},
      {0.0070424978621304035187f, -0.0053353486582636833191f, -0.020475609228014945984f},
      {0.19689752161502838135f, 0.28893607854843139648f, 0.23013506829738616943f}
    },
    {
      {-0.12620739638805389404f, -0.17857930064201354980f, -0.14391988515853881836f},
      {0.0039800754748284816742f, -0.0079708145931363105774f, -0.020155740901827812195f},
      {0.12946593761444091797f, 0.18846458196640014648f, 0.15332914888858795166f}
    },
    {
      {-0.11954322457313537598f, -0.19308418035507202148f, -0.13249735534191131592f},
      {-0.0069234953261911869049f, -0.027909992262721061707f, -0.035023216158151626587f},
      {0.12376090139150619507f, 0.21504159271717071533f, 0.13706046342849731445f}
    }
  },
  {
    {
      {0.0027654769364744424820f, 0.010401367209851741791f, 0.066783502697944641113f},
      {0.027910251170396804810f, 0.013019626960158348083f, 0.041723269969224929810f},
      {0.072752706706523895264f, 0.025556959211826324463f, 0.047493509948253631592f}
    },
    {
      {-0.10009053349494934082f, -0.16112661361694335938f, -0.099763996899127960205f},
      {-0.11775979399681091309f, -0.26585948467254638672f, -0.15449285507202148438f},
      {-0.10345569252967834473f, -0.21835345029830932617f, -0.18090932071208953857f}
    },
    {
      {0.070179857313632965088f, 0.058573134243488311768f, 0.082302831113338470459f},
      {0.060577061027288436890f, 0.038264282047748565674f, 0.057901371270418167114f},
      {0.052452765405178070068f, 0.0074887163937091827393f, 0.023267718032002449036f}
    }
  },
  {
    {
      {-0.047932598739862442017f, -0.095955222845077514648f, -0.052157372236251831055f},
      {-0.036963511258363723755f, -0.089181020855903625488f, -0.035871915519237518311f},
      {-0.011990643106400966644f, -0.055488802492618560791f, -0.0010111324954777956009f}
    },
    {
      {0.0097957905381917953491f, -0.015554120764136314392f, 0.0090398592874407768250f},
      {0.0098854824900627136230f, -0.010165046900510787964f, 0.017381336539983749390f},
      {0.022905744612216949463f, 0.0087427804246544837952f, 0.036547202616930007935f}
    },
    {
      {0.078893445432186126709f, 0.071395486593246459961f, 0.079253166913986206055f},
      {0.15358398854732513428f, 0.27785971760749816895f, 0.17750455439090728760f},
      {0.17851948738098144531f, 0.22623190283775329590f, 0.20191788673400878906f}
    }
  },
  {
    {
      {0.20178435742855072021f, -0.34361314773559570312f, 0.16631728410720825195f},
      {0.20249505341053009033f, -0.37603983283042907715f, 0.18130534887313842773f},
      {0.19876816868782043457f, -0.40523195266723632812f, 0.21433022618293762207f}
    },
    {
      {0.14901547133922576904f, -0.26767006516456604004f, 0.11623555421829223633f},
      {0.17224290966987609863f, -0.34561356902122497559f, 0.15018792450428009033f},
      {0.14038853347301483154f, -0.30458325147628784180f, 0.14838160574436187744f}
    },
    {
      {0.14765068888664245605f, -0.24797567725181579590f, 0.12231875211000442505f},
      {0.22045902907848358154f, -0.43746373057365417480f, 0.19780614972114562988f},
      {0.14383387565612792969f, -0.30043989419937133789f, 0.15315081179141998291f}
    }
  },
  {
    {
      {0.097925901412963867188f, 0.15451894700527191162f, 0.13621069490909576416f},
      {0.10265123844146728516f, 0.17686802148818969727f, 0.12927882373332977295f},
      {0.14652135968208312988f, 0.18296507000923156738f, 0.16338647902011871338f}
    },
    {
      {0.025328403338789939880f, 0.048972427845001220703f, 0.045629370957612991333f},
      {0.034663978964090347290f, 0.063266932964324951172f, 0.048035070300102233887f},
      {0.050840679556131362915f, 0.058677013963460922241f, 0.055916659533977508545f}
    },
    {
      {-0.011573286727070808411f, 0.011037107557058334351f, 0.0053803035989403724670f},
      {-0.0012760690879076719284f, 0.023870266973972320557f, 0.011063003912568092346f},
      {0.0060190916992723941803f, 0.012137871235609054565f, 0.0081909047439694404602f}
    }
  },
  {
    {
      {-0.078507386147975921631f, -0.083440795540809631348f, -0.094670280814170837402f},
      {-0.093464627861976623535f, -0.11400093883275985718f, -0.099308192729949951172f},
      {-0.13439375162124633789f, -0.14496369659900665283f, -0.15263661742210388184f}
    },
    {
      {0.15293148159980773926f, 0.21735267341136932373f, 0.17498040199279785156f},
      {0.20620068907737731934f, 0.36745077371597290039f, 0.24779629707336425781f},
      {0.22616334259510040283f, 0.28768509626388549805f, 0.25724050402641296387f}
    },
    {
      {-0.10484436154365539551f, -0.12956973910331726074f, -0.11610759794712066650f},
      {-0.14831638336181640625f, -0.24528951942920684814f, -0.15884692966938018799f},
      {-0.11921888589859008789f, -0.15469075739383697510f, -0.13440555334091186523f}
    }
  }
};
/* conv1.bias*/
static const float tensor_conv1_bias[16] = 
{-0.072632029652595520020f, -0.22181199491024017334f, -0.049915891140699386597f, -0.092399284243583679199f, -0.15804153680801391602f, -0.20721511542797088623f, -0.10305254906415939331f, -0.14243234694004058838f, -0.092229336500167846680f, 0.38839310407638549805f, -0.10927747935056686401f, -0.15233983099460601807f, 0.19699981808662414551f, -0.052411440759897232056f, 0.20541302859783172607f, -0.034911740571260452271f};
/* layer1.0.conv1.weight*/
static const float tensor_layer1_0_conv1_weight[32][16][3][3] = 
{
  {
    {
      {0.0029007527045905590057f, -0.0020000222139060497284f, 0.00082544935867190361023f},
      {0.022263946011662483215f, 0.030402556061744689941f, 0.024564659222960472107f},
      {0.017318265512585639954f, -0.00069721671752631664276f, 0.0072652325034141540527f}
    },
    {
      {0.015248979441821575165f, 0.012747388333082199097f, 0.016276247799396514893f},
      {-0.050778299570083618164f, -0.083179190754890441895f, -0.060408737510442733765f},
      {-0.045303914695978164673f, -0.10275631397962570190f, -0.086289294064044952393f}
    },
    {
      {-0.0043618855997920036316f, -0.013278548605740070343f, 0.0021371687762439250946f},
      {-0.0093875853344798088074f, -0.0061791702173650264740f, 0.0096677253022789955139f},
      {-0.0035094141494482755661f, -0.0058472654782235622406f, -0.0032497919164597988129f}
    },
    {
      {0.0013787142233923077583f, -0.0046320077963173389435f, -0.0010590207530185580254f},
      {0.013279689475893974304f, 0.014395596459507942200f, 0.013715115375816822052f},
      {0.0012322544353082776070f, -0.0093221208080649375916f, 0.0050186193548142910004f}
    },
    {
      {-0.016323236748576164246f, 0.013717413879930973053f, -0.028605520725250244141f},
      {0.062734313309192657471f, 0.11609096825122833252f, 0.081508353352546691895f},
      {0.065836705267429351807f, 0.14703060686588287354f, 0.092910774052143096924f}
    },
    {
      {0.064994692802429199219f, 0.10105488449335098267f, 0.060767862945795059204f},
      {0.13778871297836303711f, 0.15909349918365478516f, 0.15556806325912475586f},
      {0.097296543419361114502f, 0.17808461189270019531f, 0.14703890681266784668f}
    },
    {
      {-0.014213531278073787689f, -0.0055116587318480014801f, -0.012459194287657737732f},
      {-0.010631908662617206573f, -0.017769359052181243896f, -0.015265721827745437622f},
      {-0.010459158569574356079f, -0.013781500048935413361f, -0.012462949380278587341f}
    },
    {
      {-0.0093230130150914192200f, 0.0077838455326855182648f, 0.016659470275044441223f},
      {-0.029015704989433288574f, -0.0017970151966437697411f, -0.0096738934516906738281f},
      {-0.018544619902968406677f, -0.037515446543693542480f, -0.032262109220027923584f}
    },
    {
      {-0.0060187121853232383728f, -0.012161834165453910828f, -0.0022462224587798118591f},
      {-0.010367336682975292206f, 0.0032179355621337890625f, -0.0016944208182394504547f},
      {-0.0014646346680819988251f, 5.7414617913309484720e-05f, -0.00067812483757734298706f}
    },
    {
      {0.020827293395996093750f, 0.027555624023079872131f, 0.045241549611091613770f},
      {-0.029468934983015060425f, -0.045117121189832687378f, -0.010056821629405021667f},
      {0.0055230609141290187836f, -0.020928429439663887024f, 0.0012807374587282538414f}
    },
    {
      {-0.0088035929948091506958f, -0.016698643565177917480f, -0.016848808154463768005f},
      {-0.0042099156416952610016f, 0.011844113469123840332f, -0.0013919560005888342857f},
      {0.0026771924458444118500f, 0.0084577035158872604370f, 0.0017679920420050621033f}
    },
    {
      {-0.0060245916247367858887f, -0.0042093349620699882507f, -0.0086707798764109611511f},
      {0.062702171504497528076f, 0.071617111563682556152f, 0.066678859293460845947f},
      {0.067175939679145812988f, 0.10993705689907073975f, 0.071246914565563201904f}
    },
    {
      {0.019198887050151824951f, -0.012771833688020706177f, 0.048570036888122558594f},
      {-0.031405195593833923340f, -0.072528623044490814209f, -0.031838364899158477783f},
      {0.012976211495697498322f, -0.049871053546667098999f, -0.024170018732547760010f}
    },
    {
      {0.0074050435796380043030f, 0.00072136288508772850037f, 0.0036129280924797058105f},
      {0.015227758325636386871f, 0.0058726668357849121094f, 0.016523461788892745972f},
      {0.013281848281621932983f, 0.0018809355096891522408f, 0.0083164470270276069641f}
    },
    {
      {0.0090700304135680198669f, -0.025233214721083641052f, -0.020791808143258094788f},
      {0.055610030889511108398f, 0.011315428651869297028f, 0.023418255150318145752f},
      {0.022683545947074890137f, 0.014117242768406867981f, 0.013478772714734077454f}
    },
    {
      {-0.017257533967494964600f, -0.026409951969981193542f, -0.018034642562270164490f},
      {-0.0039153331890702247620f, -0.040933873504400253296f, -0.0080219162628054618835f},
      {-0.0056296023540198802948f, 0.0055586537346243858337f, 0.0046161729842424392700f}
    }
  },
  {
    {
      {0.0018520557787269353867f, 0.021870970726013183594f, 0.023407636210322380066f},
      {-0.017830364406108856201f, 0.00021452106011565774679f, 0.023736126720905303955f},
      {-0.0072899200022220611572f, 0.0042972578667104244232f, 0.0092868916690349578857f}
    },
    {
      {-0.018661258742213249207f, -0.011960392817854881287f, 0.093658924102783203125f},
      {-0.067844033241271972656f, -0.090351819992065429688f, -0.013687903992831707001f},
      {0.031704738736152648926f, -0.070586420595645904541f, -0.00015292632451746612787f}
    },
    {
      {-0.0098444921895861625671f, -0.0040285284630954265594f, -0.0055542634800076484680f},
      {-0.023728635162115097046f, -0.014208020642399787903f, -0.0045067896135151386261f},
      {-0.022362535819411277771f, -0.025432456284761428833f, -0.0023106839507818222046f}
    },
    {
      {-0.0070823412388563156128f, 0.0033999867737293243408f, 0.012955289334058761597f},
      {-0.0090407179668545722961f, 0.0042190859094262123108f, 0.012681658379733562469f},
      {0.022935608401894569397f, 0.010699051432311534882f, 0.016804445534944534302f}
    },
    {
      {0.046422310173511505127f, 0.014890354126691818237f, 0.056867364794015884399f},
      {-0.0026905615814030170441f, -0.014319577254354953766f, -0.00056947558186948299408f},
      {0.025633011013269424438f, -0.036826416850090026855f, -0.016154950484633445740f}
    },
    {
      {0.0020934117492288351059f, -0.013795713894069194794f, -0.021731039509177207947f},
      {0.0021171357948333024979f, 0.0038809573743492364883f, -0.027551403269171714783f},
      {-0.012035577557981014252f, -0.024539053440093994141f, -0.031324241310358047485f}
    },
    {
      {0.0078957984223961830139f, 0.0065671876072883605957f, 0.0057362308725714683533f},
      {-0.014119015075266361237f, -0.016374912112951278687f, -0.0040538297034800052643f},
      {-0.016537396237254142761f, -0.0081355078145861625671f, 0.013169660232961177826f}
    },
    {
      {0.0012582115596160292625f, 0.0010092196753248572350f, -0.00038261123700067400932f},
      {0.0075210193172097206116f, 0.031639099121093750000f, 0.019624851644039154053f},
      {0.025811119005084037781f, 0.017241150140762329102f, 0.047062147408723831177f}
    },
    {
      {-0.0055660055950284004211f, -0.0072411093860864639282f, -0.0074912798590958118439f},
      {-0.034937113523483276367f, -0.034328542649745941162f, 0.0088833170011639595032f},
      {0.00051573058590292930603f, -0.018270149827003479004f, -0.0017427062848582863808f}
    },
    {
      {-0.095592245459556579590f, -0.097617089748382568359f, -0.049657240509986877441f},
      {-0.099215969443321228027f, -0.094010517001152038574f, -0.062319032847881317139f},
      {-0.077800005674362182617f, -0.092644356191158294678f, -0.060803957283496856689f}
    },
    {
      {0.0061898995190858840942f, 0.023586215451359748840f, 0.011722846888005733490f},
      {-0.057720113545656204224f, -0.063184142112731933594f, 0.023772289976477622986f},
      {-0.0027611874975264072418f, 0.014422973617911338806f, 0.030592961236834526062f}
    },
    {
      {-0.051993876695632934570f, -0.025350289419293403625f, 0.00028869614470750093460f},
      {-0.093057945370674133301f, -0.047403134405612945557f, -0.033897705376148223877f},
      {-0.059345107525587081909f, -0.071515291929244995117f, -0.054254852235317230225f}
    },
    {
      {-0.10005336254835128784f, -0.10144681483507156372f, -0.096397854387760162354f},
      {-0.10928782075643539429f, -0.11523737013339996338f, -0.10605864971876144409f},
      {-0.11260488629341125488f, -0.072828449308872222900f, -0.066814586520195007324f}
    },
    {
      {-0.0051345182582736015320f, 0.0066093858331441879272f, 0.0075852563604712486267f},
      {-0.012444182299077510834f, 0.0015058943536132574081f, 0.00037076487205922603607f},
      {0.0015889959177002310753f, 0.0046379175037145614624f, -0.0012405790621414780617f}
    },
    {
      {0.042650122195482254028f, 0.053098443895578384399f, 0.0025584383402019739151f},
      {0.065687887370586395264f, 0.10014177858829498291f, 0.072570867836475372314f},
      {0.038927398622035980225f, 0.16107358038425445557f, 0.12044433504343032837f}
    },
    {
      {-0.0087804831564426422119f, -0.012743325904011726379f, -0.010318649932742118835f},
      {-0.0086951116099953651428f, 0.0042409170418977737427f, -0.010737421922385692596f},
      {-0.0036122109740972518921f, -0.010746533982455730438f, -0.0090453969314694404602f}
    }
  },
  {
    {
      {-0.023069445043802261353f, -0.035782486200332641602f, -0.0049899402074515819550f},
      {-0.058656368404626846313f, -0.057465746998786926270f, 0.023860862478613853455f},
      {-0.053979851305484771729f, -0.032168328762054443359f, 0.010714865289628505707f}
    },
    {
      {-0.0040410710498690605164f, 0.0074531259015202522278f, 0.0079740658402442932129f},
      {-0.00041577688534744083881f, 0.034257661551237106323f, 0.019657261669635772705f},
      {0.077794454991817474365f, 0.086956813931465148926f, 0.077335231006145477295f}
    },
    {
      {-0.0054595372639596462250f, -0.0081094978377223014832f, 0.010626709088683128357f},
      {-0.041151426732540130615f, -0.035035364329814910889f, 0.0047922451049089431763f},
      {-0.033257585018873214722f, -0.031360287219285964966f, -0.00080428784713149070740f}
    },
    {
      {-0.018425811082124710083f, -0.033342268317937850952f, 0.017519887536764144897f},
      {-0.032060973346233367920f, -0.052023530006408691406f, 0.0076056374236941337585f},
      {-0.026539273560047149658f, -0.018570557236671447754f, 0.024179939180612564087f}
    },
    {
      {0.011332153342664241791f, -0.019892899319529533386f, -0.027021113783121109009f},
      {-0.10664813220500946045f, -0.13908760249614715576f, -0.11340550333261489868f},
      {-0.067330256104469299316f, -0.13416327536106109619f, -0.10549008101224899292f}
    },
    {
      {0.035261400043964385986f, 0.031998638063669204712f, 0.027191709727048873901f},
      {0.0063156252726912498474f, 0.017276909202337265015f, 0.040835641324520111084f},
      {0.043782509863376617432f, 0.046369735151529312134f, 0.073466248810291290283f}
    },
    {
      {-0.0048784683458507061005f, 0.0062763560563325881958f, -0.0076510934159159660339f},
      {0.0064687761478126049042f, -0.019928345456719398499f, -0.014798076823353767395f},
      {-0.0065144384279847145081f, 0.0083572352305054664612f, -0.00075775041477754712105f}
    },
    {
      {-0.0090847844257950782776f, 0.0047126100398600101471f, -0.0029117316007614135742f},
      {0.0072597572579979896545f, 0.0055415602400898933411f, 0.0010169466258957982063f},
      {-0.020192170515656471252f, -0.033059846609830856323f, 0.0067323572002351284027f}
    },
    {
      {0.023812068626284599304f, 0.014176856726408004761f, 0.00048771180445328354836f},
      {0.017858821898698806763f, 0.034289691597223281860f, 0.0032266669441014528275f},
      {-0.011112797074019908905f, -0.024561638012528419495f, -0.0048265275545418262482f}
    },
    {
      {-0.011697473004460334778f, 0.011810319498181343079f, 0.010863185860216617584f},
      {0.079326875507831573486f, 0.094360008835792541504f, 0.068081326782703399658f},
      {0.078973904252052307129f, 0.13055306673049926758f, 0.041763979941606521606f}
    },
    {
      {0.024023441597819328308f, 0.020809657871723175049f, 0.027150508016347885132f},
      {-0.015638766810297966003f, -0.032315213233232498169f, -0.0093299457803368568420f},
      {-0.034621458500623703003f, -0.018331058323383331299f, -0.012458936311304569244f}
    },
    {
      {-0.044041085988283157349f, -0.062979251146316528320f, -0.047406997531652450562f},
      {-0.10527716577053070068f, -0.11986787617206573486f, -0.088378868997097015381f},
      {-0.058710064738988876343f, -0.087770022451877593994f, -0.044329270720481872559f}
    },
    {
      {-0.063749209046363830566f, -0.033257663249969482422f, -0.011369382962584495544f},
      {-0.025669280439615249634f, 0.0022365071345120668411f, 0.036610629409551620483f},
      {0.046842485666275024414f, 0.072404153645038604736f, 0.036500349640846252441f}
    },
    {
      {-0.012717327103018760681f, -0.021550107747316360474f, 0.013380175456404685974f},
      {-0.030556268990039825439f, -0.018445996567606925964f, 0.020583657547831535339f},
      {-0.026883708313107490540f, -0.0085941106081008911133f, 0.021738631650805473328f}
    },
    {
      {0.032135043293237686157f, 0.033922933042049407959f, 0.034082788974046707153f},
      {-0.065048992633819580078f, -0.10405387729406356812f, -0.014657639898359775543f},
      {-0.11235108226537704468f, -0.16377177834510803223f, -0.071967422962188720703f}
    },
    {
      {0.027038054540753364563f, 0.035084001719951629639f, 0.017209760844707489014f},
      {0.043862301856279373169f, 0.052566785365343093872f, 0.035133022814989089966f},
      {0.033993847668170928955f, 0.039184492081403732300f, 0.026770247146487236023f}
    }
  },
  {
    {
      {0.098120763897895812988f, 0.058765366673469543457f, 0.019319141283631324768f},
      {0.11851110309362411499f, 0.052758373320102691650f, 0.0037816911935806274414f},
      {0.045494213700294494629f, -0.014652661979198455811f, -0.015049370005726814270f}
    },
    {
      {0.016264734789729118347f, -0.013731770217418670654f, 0.059204425662755966187f},
      {-0.0013962318189442157745f, 0.040032126009464263916f, 0.089158974587917327881f},
      {-0.033354897052049636841f, 0.034883357584476470947f, 0.11240769922733306885f}
    },
    {
      {0.0027851907070726156235f, -0.029878307133913040161f, -0.036746069788932800293f},
      {0.032520249485969543457f, -0.0029141716659069061279f, -0.046579591929912567139f},
      {0.019637376070022583008f, 0.0098415277898311614990f, -0.016295403242111206055f}
    },
    {
      {0.060834638774394989014f, 0.066269092261791229248f, -0.013189768418669700623f},
      {0.11074220389127731323f, 0.10387900471687316895f, -0.0023345907684415578842f},
      {0.041130151599645614624f, 0.011262148618698120117f, -0.037035726010799407959f}
    },
    {
      {-0.020794272422790527344f, -0.071224220097064971924f, 0.024474514648318290710f},
      {-0.040654305368661880493f, -0.077093511819839477539f, 0.0018798644887283444405f},
      {-0.0046151485294103622437f, -0.070321060717105865479f, -0.0031328017357736825943f}
    },
    {
      {-0.012833560816943645477f, -0.056118849664926528931f, -0.019823465496301651001f},
      {0.0020196638070046901703f, -0.042980767786502838135f, -0.044907096773386001587f},
      {0.15444244444370269775f, 0.089838899672031402588f, 0.058978751301765441895f}
    },
    {
      {-0.016441598534584045410f, -0.011220983229577541351f, -0.0092679848894476890564f},
      {0.012905508279800415039f, -0.010524513199925422668f, -0.014682016335427761078f},
      {-0.017569364979863166809f, -0.0078074149787425994873f, -0.0032359363976866006851f}
    },
    {
      {-0.030209125950932502747f, -0.043852843344211578369f, -0.016510231420397758484f},
      {-0.021551910787820816040f, -0.043499149382114410400f, -0.068002626299858093262f},
      {0.0096854623407125473022f, 0.0013782600872218608856f, 0.0087983952835202217102f}
    },
    {
      {-0.0034024326596409082413f, -0.017495458945631980896f, -0.0036440910771489143372f},
      {-0.027461528778076171875f, -0.0043678698129951953888f, -0.010712455958127975464f},
      {0.025419257581233978271f, 0.031291853636503219604f, 0.0098940124735236167908f}
    },
    {
      {-0.0064143636263906955719f, 0.032888155430555343628f, 0.027153626084327697754f},
      {0.040828038007020950317f, 0.050811488181352615356f, 0.095207236707210540771f},
      {0.024542873725295066833f, 0.084549866616725921631f, 0.11178672313690185547f}
    },
    {
      {0.025763705372810363770f, 0.0015510745579376816750f, 0.0049660182558000087738f},
      {-0.00079245876986533403397f, -0.0078126322478055953979f, 0.013027658686041831970f},
      {0.042909789830446243286f, 0.066163897514343261719f, 0.035735048353672027588f}
    },
    {
      {-0.054608847945928573608f, -0.066284984350204467773f, -0.025802498683333396912f},
      {-0.051589623093605041504f, -0.049439445137977600098f, -0.046821419149637222290f},
      {-0.0051496145315468311310f, -0.033428091555833816528f, -0.035170540213584899902f}
    },
    {
      {-0.0089192315936088562012f, -0.013255188241600990295f, 0.00041600855183787643909f},
      {0.051798943430185317993f, 0.041455034166574478149f, 0.11738146841526031494f},
      {0.026023145765066146851f, 0.095368221402168273926f, 0.11413097381591796875f}
    },
    {
      {0.073941260576248168945f, 0.074389271438121795654f, 0.0038734602276235818863f},
      {0.090004920959472656250f, 0.094446808099746704102f, 0.010384409688413143158f},
      {0.032180696725845336914f, 0.026548158377408981323f, -0.0090803159400820732117f}
    },
    {
      {-0.0072077931836247444153f, -0.12509922683238983154f, -0.12596344947814941406f},
      {0.046472746878862380981f, -0.13643981516361236572f, -0.12085648626089096069f},
      {0.12127971649169921875f, 0.010641281493008136749f, -0.036026146262884140015f}
    },
    {
      {-0.038570426404476165771f, 0.018835118040442466736f, 0.047091491520404815674f},
      {-0.0041536148637533187866f, 0.036412373185157775879f, 0.068244397640228271484f},
      {0.039243847131729125977f, 0.067031621932983398438f, 0.083076395094394683838f}
    }
  },
  {
    {
      {0.060213763266801834106f, 0.033429827541112899780f, 0.078607633709907531738f},
      {0.11328466236591339111f, 0.088324047625064849854f, 0.14360640943050384521f},
      {0.050049830228090286255f, 0.035662099719047546387f, 0.028688982129096984863f}
    },
    {
      {0.080825060606002807617f, -0.22566044330596923828f, 0.16377107799053192139f},
      {0.14646987617015838623f, -0.44139418005943298340f, 0.27191182971000671387f},
      {0.15607778728008270264f, -0.32176828384399414062f, 0.16432596743106842041f}
    },
    {
      {-0.030182180926203727722f, -0.011829507537186145782f, 0.0078913755714893341064f},
      {0.0030262826476246118546f, 0.0083717862144112586975f, 0.076852597296237945557f},
      {0.0014842234086245298386f, -0.0053495876491069793701f, 0.054770447313785552979f}
    },
    {
      {-0.011479604057967662811f, 0.064932189881801605225f, 0.038853220641613006592f},
      {-0.069249637424945831299f, 0.11124143004417419434f, 0.095049805939197540283f},
      {-0.066976092755794525146f, 0.050199951976537704468f, 0.067789211869239807129f}
    },
    {
      {0.021188413724303245544f, -0.14219674468040466309f, 0.088732875883579254150f},
      {0.041462369263172149658f, -0.16307185590267181396f, 0.10526753962039947510f},
      {0.042254853993654251099f, -0.12573634088039398193f, 0.070303298532962799072f}
    },
    {
      {0.00042453280184417963028f, -0.0087101757526397705078f, 0.022325444966554641724f},
      {-0.023931737989187240601f, 0.020861458033323287964f, 0.0011648500803858041763f},
      {-0.017533015459775924683f, 0.022328112274408340454f, 0.0048335567116737365723f}
    },
    {
      {-0.0073692090809345245361f, -0.014170669019222259521f, 0.0080349920317530632019f},
      {-0.025046791881322860718f, 0.065018996596336364746f, -0.051679369062185287476f},
      {-0.014161529019474983215f, 0.020078487694263458252f, -0.0051339878700673580170f}
    },
    {
      {0.034876462072134017944f, -0.084522955119609832764f, 0.065849684178829193115f},
      {0.0061062988825142383575f, -0.044308029115200042725f, 0.037920344620943069458f},
      {-0.049834903329610824585f, 0.045419316738843917847f, -0.034246277064085006714f}
    },
    {
      {-0.0020756586454808712006f, -0.0030104159377515316010f, -0.023844080045819282532f},
      {0.0095340134575963020325f, -0.066625520586967468262f, 0.054635163396596908569f},
      {-0.00064167182426899671555f, -0.030085209757089614868f, 0.018923860043287277222f}
    },
    {
      {-0.0040371129289269447327f, 0.047317218035459518433f, -0.053946819156408309937f},
      {-0.054095629602670669556f, 0.20131742954254150391f, -0.17294417321681976318f},
      {-0.028158551082015037537f, 0.14299382269382476807f, -0.12122187763452529907f}
    },
    {
      {-0.042794909328222274780f, 0.095002397894859313965f, -0.073728203773498535156f},
      {-0.040414180606603622437f, 0.033584460616111755371f, 0.022348737344145774841f},
      {0.0086910193786025047302f, -0.076692044734954833984f, 0.094682075083255767822f}
    },
    {
      {0.020890805870294570923f, -0.034009478986263275146f, 0.031686823815107345581f},
      {0.047036938369274139404f, -0.11174357682466506958f, 0.064406357705593109131f},
      {0.047159429639577865601f, -0.042062796652317047119f, 0.042063057422637939453f}
    },
    {
      {0.0073571824468672275543f, 0.13222534954547882080f, -0.14130936563014984131f},
      {0.0066341077908873558044f, 0.22018852829933166504f, -0.21387714147567749023f},
      {0.0020234584808349609375f, 0.14687067270278930664f, -0.12085127085447311401f}
    },
    {
      {0.0067657832987606525421f, 0.047329954802989959717f, 0.033975169062614440918f},
      {0.013197962194681167603f, 0.026407210156321525574f, 0.067641913890838623047f},
      {-0.0059790397062897682190f, -0.017576204612851142883f, 0.029475618153810501099f}
    },
    {
      {-0.024220496416091918945f, 0.21630376577377319336f, -0.19205439090728759766f},
      {-0.031016001477837562561f, 0.34724286198616027832f, -0.31860759854316711426f},
      {-0.063171848654747009277f, 0.24560238420963287354f, -0.20437987148761749268f}
    },
    {
      {0.013722342438995838165f, 0.015617036260664463043f, -0.033461801707744598389f},
      {0.0041499151848256587982f, 0.056630503386259078979f, -0.064437203109264373779f},
      {0.0076798642985522747040f, 0.046167887747287750244f, -0.025781517848372459412f}
    }
  },
  {
    {
      {-0.0046698534861207008362f, -0.029816219583153724670f, -0.013587482273578643799f},
      {-0.025566445663571357727f, -0.017296686768531799316f, -0.015775356441736221313f},
      {0.027267294004559516907f, 0.030336653813719749451f, 0.019834777340292930603f}
    },
    {
      {0.042620737105607986450f, 0.067149735987186431885f, 0.046862982213497161865f},
      {0.055693455040454864502f, 0.096089713275432586670f, 0.064374268054962158203f},
      {-0.078163474798202514648f, -0.15000073611736297607f, -0.14181512594223022461f}
    },
    {
      {-0.014402855187654495239f, -0.026150591671466827393f, -0.0071281562559306621552f},
      {-0.012859152629971504211f, 0.00090325315250083804131f, 0.0039102416485548019409f},
      {0.0020384807139635086060f, 0.034209024161100387573f, 0.031668309122323989868f}
    },
    {
      {-0.016940534114837646484f, -0.029969235882163047791f, -0.023169476538896560669f},
      {-0.017043726518750190735f, -0.012589014135301113129f, -0.0015433058142662048340f},
      {0.017677674070000648499f, 0.035235781222581863403f, 0.035260006785392761230f}
    },
    {
      {-0.10215818881988525391f, -0.15143153071403503418f, -0.12171834707260131836f},
      {-0.087066225707530975342f, -0.12896102666854858398f, -0.081364192068576812744f},
      {0.13329319655895233154f, 0.21746136248111724854f, 0.15923641622066497803f}
    },
    {
      {-0.14147955179214477539f, -0.20935456454753875732f, -0.15630169212818145752f},
      {0.0099932132288813591003f, -0.079949796199798583984f, 0.0060670897364616394043f},
      {0.17926011979579925537f, 0.30975711345672607422f, 0.22648078203201293945f}
    },
    {
      {-0.025293225422501564026f, -0.034015432000160217285f, -0.035531964153051376343f},
      {-0.0027417677920311689377f, 0.032697662711143493652f, 0.029259137809276580811f},
      {0.040085446089506149292f, 0.047600533813238143921f, 0.041200004518032073975f}
    },
    {
      {-0.013658377341926097870f, 0.0089969653636217117310f, 0.019835045561194419861f},
      {-0.017145495861768722534f, -0.036233391612768173218f, -0.023262720555067062378f},
      {-0.0060362904332578182220f, -0.0013104350073263049126f, -0.0084258485585451126099f}
    },
    {
      {-0.0028467117808759212494f, 0.0099759437143802642822f, 0.010536247864365577698f},
      {0.0022782171145081520081f, 0.022445032373070716858f, 0.0079587660729885101318f},
      {0.0031421293970197439194f, 0.023341007530689239502f, 0.015224838629364967346f}
    },
    {
      {0.080806724727153778076f, 0.14544959366321563721f, 0.082504287362098693848f},
      {0.072475358843803405762f, 0.11726235598325729370f, 0.067999750375747680664f},
      {-0.12437202781438827515f, -0.21616584062576293945f, -0.18299898505210876465f}
    },
    {
      {-0.039860900491476058960f, -0.065053276717662811279f, -0.048759859055280685425f},
      {0.019630685448646545410f, 0.047630015760660171509f, 0.0098724467679858207703f},
      {0.022851508110761642456f, 0.085283316671848297119f, 0.076197303831577301025f}
    },
    {
      {-0.078683443367481231689f, -0.10852882266044616699f, -0.066604100167751312256f},
      {-0.034600827842950820923f, -0.099128298461437225342f, -0.013971631415188312531f},
      {0.12715694308280944824f, 0.20077313482761383057f, 0.14839744567871093750f}
    },
    {
      {0.044769722968339920044f, 0.076943233609199523926f, 0.062657222151756286621f},
      {0.030270101502537727356f, 0.060959830880165100098f, 0.051531020551919937134f},
      {-0.099298916757106781006f, -0.12806995213031768799f, -0.11595514416694641113f}
    },
    {
      {-0.0060030058957636356354f, -0.011792825534939765930f, -0.0097904801368713378906f},
      {-0.0033016088418662548065f, 0.0036492350045591592789f, -0.012749074958264827728f},
      {0.0078844493255019187927f, 0.010264606215059757233f, 0.017668832093477249146f}
    },
    {
      {-0.090623736381530761719f, -0.15626968443393707275f, -0.10405813157558441162f},
      {-0.049835614860057830811f, -0.10176286846399307251f, -0.053048785775899887085f},
      {0.14697493612766265869f, 0.20469544827938079834f, 0.17476521432399749756f}
    },
    {
      {-0.019239950925111770630f, -0.034629892557859420776f, -0.015253637917339801788f},
      {0.0032585680019110441208f, -0.056349247694015502930f, -0.0064146379008889198303f},
      {0.055920217186212539673f, 0.073196351528167724609f, 0.046785220503807067871f}
    }
  },
  {
    {
      {0.0056940908543765544891f, -0.030511515215039253235f, -0.040610127151012420654f},
      {-0.013052877970039844513f, -0.013746770098805427551f, -0.0061553823761641979218f},
      {0.017669081687927246094f, 0.031081182882189750671f, -0.012174881994724273682f}
    },
    {
      {-0.13221214711666107178f, -0.22095930576324462891f, -0.16654327511787414551f},
      {0.17795507609844207764f, 0.18783366680145263672f, 0.11739107221364974976f},
      {0.017432538792490959167f, -0.0047689913772046566010f, 0.035744771361351013184f}
    },
    {
      {0.0048425542190670967102f, 0.015301153063774108887f, -0.012162554077804088593f},
      {0.0071458700112998485565f, 0.010191651992499828339f, -0.00066971528576686978340f},
      {-0.040656417608261108398f, -0.042985316365957260132f, -0.023622861132025718689f}
    },
    {
      {-0.039053685963153839111f, -0.0010805067140609025955f, -0.013722469098865985870f},
      {0.013419892638921737671f, -0.029848322272300720215f, -0.040143128484487533569f},
      {-0.0014199333963915705681f, 0.017305035144090652466f, 0.030871938914060592651f}
    },
    {
      {-0.018785070627927780151f, -0.030618276447057723999f, -0.024402091279625892639f},
      {0.072625704109668731689f, 0.056692175567150115967f, 0.064303494989871978760f},
      {0.0045010610483586788177f, -0.038367174565792083740f, 0.0037439023144543170929f}
    },
    {
      {0.077049322426319122314f, 0.068129353225231170654f, 0.051845621317625045776f},
      {-0.044748004525899887085f, -0.094941318035125732422f, -0.047181606292724609375f},
      {0.010220759548246860504f, -0.0042778439819812774658f, 0.0075223231688141822815f}
    },
    {
      {0.095413893461227416992f, 0.13284644484519958496f, 0.068704456090927124023f},
      {0.018156252801418304443f, 0.036061350256204605103f, 0.064607799053192138672f},
      {-0.013369847089052200317f, 0.012380726635456085205f, -0.016859237104654312134f}
    },
    {
      {0.059450533241033554077f, 0.089484892785549163818f, 0.010440067388117313385f},
      {0.12935262918472290039f, 0.18549975752830505371f, 0.14340043067932128906f},
      {-0.15183307230472564697f, -0.19070333242416381836f, -0.074955157935619354248f}
    },
    {
      {-0.021935790777206420898f, -0.038148250430822372437f, -0.022857233881950378418f},
      {0.14200937747955322266f, 0.24364340305328369141f, 0.12432360649108886719f},
      {-0.025595804676413536072f, -0.051599647849798202515f, 0.0027877166867256164551f}
    },
    {
      {0.076767385005950927734f, 0.10674927383661270142f, 0.045106895267963409424f},
      {-0.052530497312545776367f, -0.11285120248794555664f, -0.030685758218169212341f},
      {0.014974972233176231384f, 0.040684461593627929688f, 0.013141690753400325775f}
    },
    {
      {0.0071053062565624713898f, 0.071031078696250915527f, 0.052626449614763259888f},
      {0.028797905892133712769f, 0.051092479377985000610f, 0.067434072494506835938f},
      {0.024237386882305145264f, 0.049318410456180572510f, 0.0033535747788846492767f}
    },
    {
      {-0.0056491466239094734192f, -0.022481011226773262024f, -0.0024608087260276079178f},
      {0.012079546228051185608f, 0.023491777479648590088f, 0.017775027081370353699f},
      {-0.018318908289074897766f, -0.040265280753374099731f, -0.016226835548877716064f}
    },
    {
      {0.054239761084318161011f, 0.076840512454509735107f, 0.060116838663816452026f},
      {-0.089577943086624145508f, -0.12812112271785736084f, -0.033453479409217834473f},
      {0.0047199018299579620361f, 0.010253878310322761536f, -0.027422299608588218689f}
    },
    {
      {-0.012852687388658523560f, -0.022558618336915969849f, -0.013718864880502223969f},
      {-0.0089361425489187240601f, 0.012028562836349010468f, -0.011256654746830463409f},
      {0.026856448501348495483f, 0.032533120363950729370f, 0.015740944072604179382f}
    },
    {
      {0.15932457149028778076f, 0.17899811267852783203f, 0.14865128695964813232f},
      {-0.14318706095218658447f, -0.19938327372074127197f, -0.052180901169776916504f},
      {0.011723913252353668213f, -0.033472299575805664062f, -0.047527991235256195068f}
    },
    {
      {0.042593322694301605225f, 0.055471405386924743652f, 0.054048210382461547852f},
      {-0.063848167657852172852f, -0.10220631957054138184f, -0.041920997202396392822f},
      {-0.00032827525865286588669f, -0.0064935963600873947144f, -0.011502750217914581299f}
    }
  },
  {
    {
      {0.018638025969266891479f, -0.0060537247918546199799f, 0.013645208440721035004f},
      {0.010313375853002071381f, 0.0075888056308031082153f, -0.0084005324169993400574f},
      {-0.027439069002866744995f, 0.025621648877859115601f, 0.031750872731208801270f}
    },
    {
      {-0.013675370253622531891f, -0.11377020925283432007f, -0.047939077019691467285f},
      {-0.068315073847770690918f, -0.19600020349025726318f, -0.13417032361030578613f},
      {0.10255055129528045654f, 0.29941618442535400391f, 0.16421256959438323975f}
    },
    {
      {0.015978159382939338684f, 0.033085990697145462036f, 0.016282185912132263184f},
      {0.041947856545448303223f, 0.070173181593418121338f, 0.046124491840600967407f},
      {0.041009373962879180908f, 0.098334103822708129883f, 0.060661233961582183838f}
    },
    {
      {0.0072796498425304889679f, 0.020589651539921760559f, 0.016291556879878044128f},
      {-0.022584538906812667847f, 0.015926448628306388855f, 0.014340639114379882812f},
      {0.025711338967084884644f, 0.020703326910734176636f, -0.0099720777943730354309f}
    },
    {
      {-0.0038197224494069814682f, -0.049108553677797317505f, -0.030858749523758888245f},
      {-0.024103337898850440979f, -0.049236346036195755005f, -0.051835343241691589355f},
      {0.075959578156471252441f, 0.13545227050781250000f, 0.075570061802864074707f}
    },
    {
      {0.027918137609958648682f, 0.029548048973083496094f, 0.033244878053665161133f},
      {0.024125017225742340088f, 0.061911109834909439087f, 0.039761509746313095093f},
      {-0.048561617732048034668f, -0.070632085204124450684f, -0.064218945801258087158f}
    },
    {
      {-0.013750664889812469482f, -0.016247609630227088928f, -0.0089994193986058235168f},
      {0.026180204004049301147f, 0.082938484847545623779f, 0.072948478162288665771f},
      {0.025849884375929832458f, 0.014644389040768146515f, 0.020863758400082588196f}
    },
    {
      {-0.035788528621196746826f, -0.019116213545203208923f, 0.0065265861339867115021f},
      {0.027745341882109642029f, 0.014703439548611640930f, 0.044375076889991760254f},
      {0.090763464570045471191f, 0.23887696862220764160f, 0.17162221670150756836f}
    },
    {
      {-0.014804432168602943420f, -0.0049041258171200752258f, 0.0071309311315417289734f},
      {-0.033567178994417190552f, -0.077418543398380279541f, -0.049005329608917236328f},
      {0.0074660587124526500702f, 0.076654992997646331787f, 0.046166244894266128540f}
    },
    {
      {-0.0023437538184225559235f, 0.010142345912754535675f, 0.010232458822429180145f},
      {0.037231568247079849243f, 0.095893077552318572998f, 0.082044370472431182861f},
      {-0.028663733974099159241f, -0.088106200098991394043f, -0.052887536585330963135f}
    },
    {
      {0.010190783068537712097f, 0.021013876423239707947f, 0.044292274862527847290f},
      {0.045265242457389831543f, 0.0096106287091970443726f, 0.024238243699073791504f},
      {0.068682573735713958740f, 0.046981196850538253784f, 0.049975357949733734131f}
    },
    {
      {-0.0078228199854493141174f, -0.010914496146142482758f, -0.0084434393793344497681f},
      {-0.017252335324883460999f, -0.041888449341058731079f, -0.033445626497268676758f},
      {0.016398735344409942627f, 0.037632744759321212769f, 0.020699115470051765442f}
    },
    {
      {0.016557734459638595581f, 0.034976921975612640381f, 0.016935804858803749084f},
      {0.035068266093730926514f, 0.084398731589317321777f, 0.068143017590045928955f},
      {-0.036289826035499572754f, -0.19032096862792968750f, -0.097252242267131805420f}
    },
    {
      {0.0057291104458272457123f, 0.011905245482921600342f, 0.0063172751106321811676f},
      {-0.0027065586764365434647f, 0.0013597871875390410423f, 0.0059488303959369659424f},
      {0.0030995937995612621307f, 0.00019899764447472989559f, 0.022420855239033699036f}
    },
    {
      {0.057195089757442474365f, 0.12747186422348022461f, 0.094219267368316650391f},
      {0.064642943441867828369f, 0.18281884491443634033f, 0.12443018704652786255f},
      {-0.087370127439498901367f, -0.35909470915794372559f, -0.19442680478096008301f}
    },
    {
      {0.0086503978818655014038f, 0.010164138861000537872f, 0.0052459295839071273804f},
      {0.0082522034645080566406f, 0.029635865241289138794f, 0.021779086440801620483f},
      {-0.015399298630654811859f, -0.069103151559829711914f, -0.037239126861095428467f}
    }
  },
  {
    {
      {-0.046990968286991119385f, -0.010866654105484485626f, 0.053226113319396972656f},
      {0.038966335356235504150f, 0.087682306766510009766f, 0.056744024157524108887f},
      {0.040791556239128112793f, -0.039402585476636886597f, -0.042854323983192443848f}
    },
    {
      {-0.071802228689193725586f, 0.13567495346069335938f, -0.014601498842239379883f},
      {0.069502599537372589111f, -0.0094673987478017807007f, -0.072918280959129333496f},
      {0.033820122480392456055f, -0.17015287280082702637f, 0.015039472840726375580f}
    },
    {
      {0.064032241702079772949f, 0.12965366244316101074f, 0.089630626142024993896f},
      {0.13892091810703277588f, 0.25812184810638427734f, 0.17240372300148010254f},
      {0.094448134303092956543f, 0.14723475277423858643f, 0.058902423828840255737f}
    },
    {
      {0.039268232882022857666f, 0.035460863262414932251f, -0.017668832093477249146f},
      {0.057085186243057250977f, 0.077678076922893524170f, 0.076036818325519561768f},
      {-0.010372477583587169647f, 0.018422218039631843567f, 0.018345061689615249634f}
    },
    {
      {-0.0091290017589926719666f, 0.068777956068515777588f, 0.017050951719284057617f},
      {0.019998297095298767090f, -0.030350185930728912354f, -0.022068165242671966553f},
      {0.036363944411277770996f, -0.031510543078184127808f, 0.014088373631238937378f}
    },
    {
      {-0.0096963075920939445496f, -0.045541632920503616333f, 0.016950549557805061340f},
      {-0.045756552368402481079f, 0.011994170956313610077f, -0.0068400502204895019531f},
      {0.0054915240034461021423f, 0.013354141265153884888f, -0.0021574152633547782898f}
    },
    {
      {0.033635955303907394409f, -0.012978370301425457001f, 0.018026718869805335999f},
      {0.012214707210659980774f, 0.072527475655078887939f, 0.058785554021596908569f},
      {0.044307783246040344238f, 0.099839799106121063232f, 0.0051758750341832637787f}
    },
    {
      {0.072977021336555480957f, 0.078978776931762695312f, 0.012805949896574020386f},
      {0.10911326110363006592f, -0.046849891543388366699f, 0.081492230296134948730f},
      {0.054218932986259460449f, 0.13724595308303833008f, 0.077070981264114379883f}
    },
    {
      {-0.0039041449781507253647f, 0.074691116809844970703f, 0.017202150076627731323f},
      {0.084754757583141326904f, 0.056428343057632446289f, 0.030517363920807838440f},
      {0.043612848967313766479f, 0.018328335136175155640f, 0.064463861286640167236f}
    },
    {
      {0.040061395615339279175f, -0.060554970055818557739f, -0.0055807074531912803650f},
      {-0.049145128577947616577f, -0.017549529671669006348f, 0.0093207480385899543762f},
      {0.0079692015424370765686f, 0.087226033210754394531f, -0.012889797799289226532f}
    },
    {
      {-0.053077828139066696167f, 0.038486309349536895752f, 0.093465946614742279053f},
      {0.0071514057926833629608f, 0.17666517198085784912f, 0.030872400850057601929f},
      {0.056130427867174148560f, -0.0082129240036010742188f, 0.0032578918617218732834f}
    },
    {
      {-0.040591813623905181885f, 0.012699861079454421997f, -0.030488023534417152405f},
      {-0.0073697860352694988251f, -0.016357470303773880005f, -0.026610819622874259949f},
      {0.0030553957913070917130f, -0.012664354406297206879f, 0.019119607284665107727f}
    },
    {
      {-0.0060645784251391887665f, -0.12305144220590591431f, -0.048516850918531417847f},
      {-0.053089465945959091187f, -0.0028062621131539344788f, 0.046312615275382995605f},
      {0.0058750296011567115784f, 0.15625478327274322510f, 0.047571130096912384033f}
    },
    {
      {0.0083522051572799682617f, 0.050627570599317550659f, 0.016918908804655075073f},
      {0.060861505568027496338f, 0.047079827636480331421f, 0.055842392146587371826f},
      {0.0051428796723484992981f, -0.012626007199287414551f, 0.014539067633450031281f}
    },
    {
      {0.047151278704404830933f, -0.18266445398330688477f, -0.070717155933380126953f},
      {-0.091882809996604919434f, -0.076704546809196472168f, 0.035562276840209960938f},
      {-0.028219623491168022156f, 0.24888327717781066895f, 0.11987707763910293579f}
    },
    {
      {-0.0056849801912903785706f, -0.048370204865932464600f, -0.029000038281083106995f},
      {-0.023615874350070953369f, 0.0025759348645806312561f, 0.0049310862086713314056f},
      {-0.0019836009014397859573f, 0.042244821786880493164f, 0.0039331456646323204041f}
    }
  },
  {
    {
      {0.036842416971921920776f, 0.035807833075523376465f, 0.00040999392513185739517f},
      {0.021841416135430335999f, 0.026784621179103851318f, 0.011372227221727371216f},
      {-0.057422142475843429565f, -0.11610069870948791504f, -0.074868217110633850098f}
    },
    {
      {0.0084484778344631195068f, -0.011808969080448150635f, 0.0075926398858428001404f},
      {-0.063785113394260406494f, -0.085430473089218139648f, -0.079143084585666656494f},
      {0.072690829634666442871f, 0.066994808614253997803f, 0.087730690836906433105f}
    },
    {
      {-0.015077695250511169434f, -0.026001576334238052368f, -0.018046993762254714966f},
      {-0.053718138486146926880f, -0.054936159402132034302f, -0.022223368287086486816f},
      {-0.0060973754152655601501f, -0.030860004946589469910f, -0.036438800394535064697f}
    },
    {
      {0.010586851276457309723f, 0.034846547991037368774f, 0.011962288059294223785f},
      {0.035213403403759002686f, 0.020590970292687416077f, 0.013093950226902961731f},
      {-0.061587896198034286499f, -0.064421825110912322998f, -0.036094974726438522339f}
    },
    {
      {0.068035207688808441162f, 0.070240490138530731201f, 0.066958293318748474121f},
      {0.037061367183923721313f, 0.024210324510931968689f, -0.029394922778010368347f},
      {-0.041294135153293609619f, -0.060836788266897201538f, -0.041285417973995208740f}
    },
    {
      {-0.0036821130197495222092f, 0.0044088722206652164459f, -0.035876266658306121826f},
      {0.075871586799621582031f, 0.073847323656082153320f, 0.030636588111519813538f},
      {-0.082974292337894439697f, -0.10399573296308517456f, -0.086155094206333160400f}
    },
    {
      {0.024797016754746437073f, 0.048719909042119979858f, 0.013399244286119937897f},
      {-0.051718343049287796021f, -0.057976633310317993164f, -0.0059972195886075496674f},
      {0.18723092973232269287f, 0.28838256001472473145f, 0.16698595881462097168f}
    },
    {
      {0.019002305343747138977f, 0.015734417364001274109f, 0.027193004265427589417f},
      {-0.16699038445949554443f, -0.19870783388614654541f, -0.13133165240287780762f},
      {0.21209077537059783936f, 0.35905998945236206055f, 0.24901139736175537109f}
    },
    {
      {-0.038223218172788619995f, -0.056675717234611511230f, -0.020930711179971694946f},
      {0.095100067555904388428f, 0.12066695839166641235f, 0.069591216742992401123f},
      {0.14695978164672851562f, 0.22808265686035156250f, 0.17980946600437164307f}
    },
    {
      {0.040428951382637023926f, 0.029539909213781356812f, 0.010913632810115814209f},
      {0.00091083772713318467140f, -0.056595690548419952393f, 0.0027539683505892753601f},
      {0.044535141438245773315f, 0.080701895058155059814f, 0.031398449093103408813f}
    },
    {
      {-0.052164901047945022583f, -0.054953981190919876099f, -0.021506648510694503784f},
      {0.062960237264633178711f, 0.11719011515378952026f, 0.054350655525922775269f},
      {-0.034957766532897949219f, -0.056696522980928421021f, -0.070112995803356170654f}
    },
    {
      {0.048272874206304550171f, 0.051037073135375976562f, 0.023806912824511528015f},
      {-0.00083794636884704232216f, 0.0024622417986392974854f, -0.024007614701986312866f},
      {-0.050247881561517715454f, -0.068596377968788146973f, -0.045339163392782211304f}
    },
    {
      {-0.015315699391067028046f, -0.021148169413208961487f, -0.016041040420532226562f},
      {-0.041818384081125259399f, -0.036209333688020706177f, -0.015145710669457912445f},
      {-0.024394178763031959534f, -0.050059471279382705688f, -0.027713969349861145020f}
    },
    {
      {0.021931970492005348206f, 0.039789736270904541016f, 0.010847776196897029877f},
      {0.031665492802858352661f, 0.048068977892398834229f, 0.030110409483313560486f},
      {-0.030035495758056640625f, -0.060073111206293106079f, -0.031717382371425628662f}
    },
    {
      {0.019981464371085166931f, -0.0054121292196214199066f, -0.0014818983618170022964f},
      {0.066542178392410278320f, 0.048187665641307830811f, 0.074222765862941741943f},
      {0.0054938583634793758392f, -0.090587086975574493408f, -0.085727423429489135742f}
    },
    {
      {0.029309924691915512085f, 0.016886591911315917969f, -0.0087427217513322830200f},
      {0.042285211384296417236f, 0.021984817460179328918f, 0.0059805540367960929871f},
      {-0.050026118755340576172f, -0.083863027393817901611f, -0.083915911614894866943f}
    }
  },
  {
    {
      {0.0061831255443394184113f, -0.025325031951069831848f, -0.052101254463195800781f},
      {-0.052786469459533691406f, -0.036676935851573944092f, -0.063172340393066406250f},
      {-0.045523919165134429932f, -0.077072955667972564697f, -0.032800614833831787109f}
    },
    {
      {-0.17252542078495025635f, -0.10830191522836685181f, 0.053184084594249725342f},
      {-0.12478255480527877808f, -0.050918158143758773804f, 0.17839044332504272461f},
      {-0.052169509232044219971f, 0.12989611923694610596f, 0.23640370368957519531f}
    },
    {
      {0.019386725500226020813f, -0.033279191702604293823f, -0.028112174943089485168f},
      {-0.042143028229475021362f, -0.059787627309560775757f, -0.065184019505977630615f},
      {-0.035934187471866607666f, -0.067025013267993927002f, -0.054018341004848480225f}
    },
    {
      {0.0030224665533751249313f, -0.010418390855193138123f, -0.0050786896608769893646f},
      {-0.019720826297998428345f, -0.030521664768457412720f, -0.029374504461884498596f},
      {-0.061126153916120529175f, -0.035185873508453369141f, -0.019424736499786376953f}
    },
    {
      {-0.063458621501922607422f, 0.0075811007991433143616f, 0.10382718592882156372f},
      {-0.033310487866401672363f, 0.0074946908280253410339f, 0.13935326039791107178f},
      {0.030351834371685981750f, 0.11342285573482513428f, 0.15559433400630950928f}
    },
    {
      {-0.019818138331174850464f, 0.010360450483858585358f, 0.027850246056914329529f},
      {-0.0096142608672380447388f, -0.011680413968861103058f, -0.0055887652561068534851f},
      {0.015797123312950134277f, 0.0079593835398554801941f, -0.012897171080112457275f}
    },
    {
      {-0.0061100702732801437378f, -0.016092589125037193298f, -0.037817649543285369873f},
      {-0.027233803644776344299f, -0.084385305643081665039f, -0.066673003137111663818f},
      {-0.027726439759135246277f, -0.044650975614786148071f, -0.057669885456562042236f}
    },
    {
      {0.029139595106244087219f, 0.010823532007634639740f, -0.012801130302250385284f},
      {-0.025842273607850074768f, -0.0067073428072035312653f, -0.035521689802408218384f},
      {-0.033256374299526214600f, -0.051177881658077239990f, -0.039318796247243881226f}
    },
    {
      {-0.012043745256960391998f, -0.053911775350570678711f, -0.022496238350868225098f},
      {-0.044124621897935867310f, -0.023954533040523529053f, -0.034995421767234802246f},
      {-0.046758070588111877441f, -0.056480780243873596191f, -0.011828633956611156464f}
    },
    {
      {0.014625754207372665405f, 0.045184984803199768066f, 0.0087346052750945091248f},
      {0.0052475742995738983154f, 0.0030275504104793071747f, -0.031511336565017700195f},
      {0.019075792282819747925f, -0.020072503015398979187f, -0.048471093177795410156f}
    },
    {
      {-0.026043124496936798096f, -0.090423710644245147705f, -0.076067335903644561768f},
      {-0.062795571982860565186f, -0.10979944467544555664f, -0.10504655539989471436f},
      {-0.089849337935447692871f, -0.090845674276351928711f, -0.069614052772521972656f}
    },
    {
      {-0.011469171382486820221f, -0.0094484221190214157104f, 0.019962131977081298828f},
      {-0.011149561032652854919f, 0.0047358083538711071014f, 0.031896542757749557495f},
      {0.0069347717799246311188f, 0.030742956325411796570f, 0.037414882332086563110f}
    },
    {
      {0.075476773083209991455f, 0.029611511155962944031f, -0.039653368294239044189f},
      {0.086326330900192260742f, -0.00089826423209160566330f, -0.11014445126056671143f},
      {0.079098083078861236572f, -0.074007406830787658691f, -0.13658559322357177734f}
    },
    {
      {0.00059867597883567214012f, -0.024562230333685874939f, -0.022297421470284461975f},
      {-0.025466624647378921509f, -0.033150766044855117798f, -0.046812001615762710571f},
      {-0.038391545414924621582f, -0.050755206495523452759f, -0.013259151950478553772f}
    },
    {
      {0.20857627689838409424f, 0.096701502799987792969f, -0.054977666586637496948f},
      {0.17313855886459350586f, 0.021620798856019973755f, -0.17626616358757019043f},
      {0.11775808781385421753f, -0.12398885935544967651f, -0.26236468553543090820f}
    },
    {
      {0.0033588670194149017334f, 0.0054957857355475425720f, 0.00030716345645487308502f},
      {0.0073140957392752170563f, -0.0062009682878851890564f, -0.026359200477600097656f},
      {0.014630652032792568207f, -0.019257243722677230835f, -0.034575663506984710693f}
    }
  },
  {
    {
      {0.089723035693168640137f, -0.057943027466535568237f, -0.026474960148334503174f},
      {-0.10144842416048049927f, -0.014750342816114425659f, 0.15767905116081237793f},
      {-0.041041053831577301025f, 0.053539719432592391968f, -0.10776528716087341309f}
    },
    {
      {-0.15781895816326141357f, -0.12290176004171371460f, 0.16255150735378265381f},
      {-0.12905138731002807617f, 0.33785411715507507324f, -0.012165402993559837341f},
      {0.17107726633548736572f, 0.022166378796100616455f, -0.26862424612045288086f}
    },
    {
      {0.0065978216007351875305f, 0.044773336499929428101f, -0.027367558330297470093f},
      {0.068436309695243835449f, 0.0032197595573961734772f, 0.077749282121658325195f},
      {-0.016730202361941337585f, 0.040610160678625106812f, 0.044539552181959152222f}
    },
    {
      {-0.13650257885456085205f, 0.023258283734321594238f, 0.036949701607227325439f},
      {0.10114287585020065308f, 0.086342118680477142334f, -0.11999770253896713257f},
      {0.047953154891729354858f, -0.079159758985042572021f, 0.051778182387351989746f}
    },
    {
      {-0.086708880960941314697f, -0.00077563570812344551086f, 0.070819213986396789551f},
      {-0.016172910109162330627f, 0.12134969979524612427f, -0.042661435902118682861f},
      {0.074964292347431182861f, -0.027677701786160469055f, -0.10390129685401916504f}
    },
    {
      {0.043935205787420272827f, 0.017980113625526428223f, -0.025318557396531105042f},
      {0.0084577202796936035156f, -0.091284781694412231445f, 0.022306917235255241394f},
      {-0.022738030180335044861f, 0.025157466530799865723f, 0.034552924335002899170f}
    },
    {
      {-0.0085552772507071495056f, 0.092264346778392791748f, -0.030386002734303474426f},
      {0.086833663284778594971f, -0.15163822472095489502f, -0.013492627069354057312f},
      {-0.059687267988920211792f, 0.031875673681497573853f, 0.045878671109676361084f}
    },
    {
      {-0.18489743769168853760f, 0.14893464744091033936f, 0.066287182271480560303f},
      {0.079324603080749511719f, 0.11044662445783615112f, -0.17823177576065063477f},
      {0.066825665533542633057f, -0.22889555990695953369f, 0.082372322678565979004f}
    },
    {
      {-0.0056195035576820373535f, -0.11007202416658401489f, 0.049127291887998580933f},
      {-0.082841686904430389404f, 0.15593217313289642334f, 0.017125293612480163574f},
      {0.060774762183427810669f, -0.041808124631643295288f, -0.073818124830722808838f}
    },
    {
      {0.051572058349847793579f, 0.13534073531627655029f, -0.084955625236034393311f},
      {0.088480442762374877930f, -0.20585197210311889648f, -0.057630918920040130615f},
      {-0.075689412653446197510f, -0.020956594496965408325f, 0.13596133887767791748f}
    },
    {
      {0.14641465246677398682f, -0.16325759887695312500f, -0.035279840230941772461f},
      {-0.098747096955776214600f, -0.093770466744899749756f, 0.20829531550407409668f},
      {-0.028665443882346153259f, 0.18679672479629516602f, -0.10188539326190948486f}
    },
    {
      {-0.024549502879381179810f, -0.028076795861124992371f, 0.020629102364182472229f},
      {-0.030971905216574668884f, 0.068839393556118011475f, -0.010937752202153205872f},
      {0.019383069127798080444f, -0.0096265645697712898254f, -0.037497296929359436035f}
    },
    {
      {0.084895700216293334961f, 0.047240342944860458374f, -0.11455941200256347656f},
      {0.081958979368209838867f, -0.24712689220905303955f, 0.078049562871456146240f},
      {-0.097194418311119079590f, 0.045978449285030364990f, 0.12394252419471740723f}
    },
    {
      {-0.022312749177217483521f, -0.066897295415401458740f, 0.025570090860128402710f},
      {-0.021545052528381347656f, 0.075899101793766021729f, 0.027049647644162178040f},
      {0.030842565000057220459f, -0.013292388990521430969f, -0.046953789889812469482f}
    },
    {
      {0.13124273717403411865f, 0.16608841717243194580f, -0.21617107093334197998f},
      {0.14365631341934204102f, -0.33955395221710205078f, 0.039683897048234939575f},
      {-0.18436047434806823730f, -0.017727466300129890442f, 0.24639421701431274414f}
    },
    {
      {0.037760075181722640991f, 0.027492156252264976501f, -0.048310618847608566284f},
      {0.013270647265017032623f, -0.10402057319879531860f, 0.0026085020508617162704f},
      {-0.037896502763032913208f, 0.012278625741600990295f, 0.066464535892009735107f}
    }
  },
  {
    {
      {0.046114571392536163330f, 0.070131801068782806396f, 0.039206858724355697632f},
      {0.020827965810894966125f, 0.039640586823225021362f, 0.052090112119913101196f},
      {-0.076363362371921539307f, -0.086224481463432312012f, -0.10999137163162231445f}
    },
    {
      {0.033723376691341400146f, -0.011478580534458160400f, 0.0060944384895265102386f},
      {0.089367210865020751953f, 0.16654172539710998535f, 0.21042627096176147461f},
      {-0.14081886410713195801f, -0.20461992919445037842f, -0.13806785643100738525f}
    },
    {
      {0.0087954690679907798767f, -0.00017010459851007908583f, -0.016034927219152450562f},
      {0.017191005870699882507f, 0.023297280073165893555f, 0.025868747383356094360f},
      {-0.041975956410169601440f, -0.045062068849802017212f, -0.031817547976970672607f}
    },
    {
      {0.028021588921546936035f, 0.064127817749977111816f, 0.059470292180776596069f},
      {0.014781065285205841064f, 0.079689048230648040771f, 0.034248825162649154663f},
      {-0.086667776107788085938f, -0.13010948896408081055f, -0.038953661918640136719f}
    },
    {
      {0.033485174179077148438f, 0.016022136434912681580f, 0.025135837495326995850f},
      {0.0014892524341121315956f, 0.017836684361100196838f, -0.0026724995113909244537f},
      {-0.023550404235720634460f, -0.051393475383520126343f, -0.044357839971780776978f}
    },
    {
      {0.0039725056849420070648f, -0.0025710670743137598038f, -0.0037967816460877656937f},
      {-0.040585283190011978149f, -0.062385439872741699219f, -0.092701703310012817383f},
      {0.040966376662254333496f, 0.058471545577049255371f, 0.056554999202489852905f}
    },
    {
      {0.0017758733592927455902f, 0.047513779252767562866f, 0.038296069949865341187f},
      {-0.0056877764873206615448f, -0.088726520538330078125f, -0.063193969428539276123f},
      {0.043303571641445159912f, 0.11847380548715591431f, 0.10981153696775436401f}
    },
    {
      {0.037175536155700683594f, -0.0076715401373803615570f, 0.017095802351832389832f},
      {0.0062486757524311542511f, 0.016188036650419235229f, 0.046888642013072967529f},
      {0.11293820291757583618f, 0.12351956963539123535f, 0.053945049643516540527f}
    },
    {
      {0.0060284812934696674347f, -0.060666874051094055176f, -0.059651635587215423584f},
      {0.051635324954986572266f, 0.13653413951396942139f, 0.12309183180332183838f},
      {-0.026821549981832504272f, -0.046583812683820724487f, -0.026439746841788291931f}
    },
    {
      {0.026503704488277435303f, 0.078698068857192993164f, 0.078096173703670501709f},
      {-0.060945056378841400146f, -0.13012842833995819092f, -0.082177355885505676270f},
      {0.033437263220548629761f, 0.043400600552558898926f, 0.025532908737659454346f}
    },
    {
      {-0.012474842369556427002f, -0.12423870712518692017f, -0.10575001686811447144f},
      {0.064731284976005554199f, 0.10310938954353332520f, 0.11218733340501785278f},
      {0.023879574611783027649f, 0.15853495895862579346f, 0.17237368226051330566f}
    },
    {
      {0.0045812125317752361298f, -0.015759091824293136597f, -0.0099136931821703910828f},
      {0.013062955811619758606f, 0.028021086007356643677f, 0.020549608394503593445f},
      {0.0041235275566577911377f, -0.0034427444916218519211f, -0.0014575418317690491676f}
    },
    {
      {0.013243991881608963013f, 0.027518980205059051514f, 0.034462213516235351562f},
      {-0.027865571901202201843f, -0.10792329907417297363f, -0.10181124508380889893f},
      {0.016521094366908073425f, 0.057577192783355712891f, 0.056068785488605499268f}
    },
    {
      {0.028804199770092964172f, 0.046565588563680648804f, 0.036806300282478332520f},
      {0.0072605605237185955048f, 0.040416028350591659546f, 0.030098790302872657776f},
      {-0.050944633781909942627f, -0.12258575856685638428f, -0.078800447285175323486f}
    },
    {
      {-0.028683906421065330505f, -0.0029267552308738231659f, 0.041524950414896011353f},
      {-0.061308275908231735229f, -0.22471354901790618896f, -0.21295997500419616699f},
      {0.14373411238193511963f, 0.20418228209018707275f, 0.16659902036190032959f}
    },
    {
      {-0.028769236057996749878f, -0.033218786120414733887f, -0.027999637648463249207f},
      {-0.015454175882041454315f, -0.051669552922248840332f, -0.065916873514652252197f},
      {0.051226157695055007935f, 0.059577245265245437622f, 0.048094745725393295288f}
    }
  },
  {
    {
      {-0.013409781269729137421f, 0.018518332391977310181f, 0.052822019904851913452f},
      {0.00040473201079294085503f, 0.029897812753915786743f, -0.022300772368907928467f},
      {0.033900905400514602661f, -0.063839308917522430420f, -0.041407003998756408691f}
    },
    {
      {0.14559635519981384277f, 0.21064160764217376709f, 0.17200563848018646240f},
      {0.10252074897289276123f, -0.014990442432463169098f, -0.061373807489871978760f},
      {-0.10660040378570556641f, -0.25968515872955322266f, -0.19126249849796295166f}
    },
    {
      {0.0077873948030173778534f, 0.016097210347652435303f, 0.032009091228246688843f},
      {-0.020754313096404075623f, 0.015845550224184989929f, 0.0058256182819604873657f},
      {0.0035620157141238451004f, -0.050026301294565200806f, -0.046057011932134628296f}
    },
    {
      {0.038142837584018707275f, 0.019892292097210884094f, 0.026838297024369239807f},
      {0.0040728994645178318024f, 0.0016625857679173350334f, 0.0023025535047054290771f},
      {-0.036803968250751495361f, -0.015124609693884849548f, -0.0037530779372900724411f}
    },
    {
      {0.043877940624952316284f, 0.064478643238544464111f, 0.066496752202510833740f},
      {0.041256491094827651978f, 0.017140725627541542053f, 0.0084464857354760169983f},
      {-0.046795949339866638184f, -0.10489363223314285278f, -0.077676787972450256348f}
    },
    {
      {0.025468200445175170898f, -0.0058832243084907531738f, -0.014870288781821727753f},
      {0.025219418108463287354f, 0.012307968921959400177f, 0.029240364208817481995f},
      {-0.017302200198173522949f, -0.012381718493998050690f, -0.0043142889626324176788f}
    },
    {
      {0.024912210181355476379f, -0.010675096884369850159f, -0.00036416380316950380802f},
      {-0.027825308963656425476f, 0.028562720865011215210f, 0.021965321153402328491f},
      {-0.012237327173352241516f, -0.048653397709131240845f, -0.056059978902339935303f}
    },
    {
      {0.10093937814235687256f, 0.078370437026023864746f, -0.0027197990566492080688f},
      {-0.025620266795158386230f, -0.12712867558002471924f, -0.071099393069744110107f},
      {-0.090566329658031463623f, -0.080024138092994689941f, -0.027268907055258750916f}
    },
    {
      {0.012617671862244606018f, 0.062772206962108612061f, 0.055447503924369812012f},
      {0.048928726464509963989f, -0.018435418605804443359f, -0.043555166572332382202f},
      {-0.072656467556953430176f, -0.11632168292999267578f, -0.074753969907760620117f}
    },
    {
      {0.032615043222904205322f, -0.048430513590574264526f, -0.045840792357921600342f},
      {-0.052331976592540740967f, -0.0093455556780099868774f, 0.0075014960020780563354f},
      {0.050088580697774887085f, 0.062064651399850845337f, 0.028023794293403625488f}
    },
    {
      {0.038021195679903030396f, 0.12398584932088851929f, 0.14424888789653778076f},
      {0.089895829558372497559f, 0.11879388988018035889f, 0.019395023584365844727f},
      {0.015848292037844657898f, -0.078408211469650268555f, -0.10340330749750137329f}
    },
    {
      {0.036100678145885467529f, 0.062339659780263900757f, 0.044781543314456939697f},
      {0.021229898557066917419f, -0.013013034127652645111f, -0.0078125735744833946228f},
      {-0.052706338465213775635f, -0.089824199676513671875f, -0.062678813934326171875f}
    },
    {
      {-0.070951588451862335205f, -0.10231127589941024780f, -0.019923994317650794983f},
      {-0.065260633826255798340f, 0.029416127130389213562f, 0.056265655905008316040f},
      {0.065781518816947937012f, 0.069052092730998992920f, -0.00092490017414093017578f}
    },
    {
      {0.0054249232634902000427f, 0.027871198952198028564f, 0.016232762485742568970f},
      {-0.0021068130154162645340f, -0.010974308475852012634f, -0.0055626970715820789337f},
      {-0.012892192229628562927f, -0.039345402270555496216f, -0.0086820209398865699768f}
    },
    {
      {-0.080936610698699951172f, -0.18783579766750335693f, -0.090878598392009735107f},
      {-0.080605655908584594727f, 0.013013838790357112885f, 0.091329805552959442139f},
      {0.11111495643854141235f, 0.16388724744319915771f, 0.075379014015197753906f}
    },
    {
      {-0.011328042484819889069f, -0.030970862135291099548f, -0.025160955265164375305f},
      {-0.014527996070683002472f, -0.0047581167891621589661f, 0.0053471652790904045105f},
      {0.0040250010788440704346f, -0.0020105857402086257935f, 0.00060234550619497895241f}
    }
  },
  {
    {
      {-0.0074702785350382328033f, -0.0026333453133702278137f, 0.013634967617690563202f},
      {-0.028816409409046173096f, -0.040808767080307006836f, -0.028765143826603889465f},
      {-0.031227046623826026917f, -0.049307744950056076050f, -0.029572922736406326294f}
    },
    {
      {0.0059631983749568462372f, 0.039676599204540252686f, 0.023560054600238800049f},
      {-0.012808275409042835236f, -0.010166540741920471191f, 0.0063813137821853160858f},
      {0.049214363098144531250f, 0.062901310622692108154f, 0.060327611863613128662f}
    },
    {
      {0.019824789837002754211f, 0.054844830185174942017f, 0.040211569517850875854f},
      {0.021045593544840812683f, 0.019811576232314109802f, 0.012858896516263484955f},
      {0.0020881139207631349564f, 0.012850000523030757904f, 0.0049229012802243232727f}
    },
    {
      {0.0081706177443265914917f, -0.0024649098049849271774f, 0.019684066995978355408f},
      {-0.028315167874097824097f, -0.033996161073446273804f, -0.028849495574831962585f},
      {-0.035184755921363830566f, -0.036775138229131698608f, -0.029395466670393943787f}
    },
    {
      {-0.14533652365207672119f, -0.17193874716758728027f, -0.15405367314815521240f},
      {-0.13608585298061370850f, -0.16313190758228302002f, -0.14392812550067901611f},
      {-0.063913673162460327148f, -0.075367107987403869629f, -0.072812736034393310547f}
    },
    {
      {0.097183652222156524658f, 0.19915430247783660889f, 0.12925045192241668701f},
      {0.23047274351119995117f, 0.36136636137962341309f, 0.22348727285861968994f},
      {0.013935653492808341980f, 0.087082132697105407715f, 0.018948797136545181274f}
    },
    {
      {0.021551871672272682190f, 0.036914151161909103394f, 0.028567219153046607971f},
      {-0.0084063708782196044922f, -0.0017711994005367159843f, -0.010294375941157341003f},
      {0.016084732487797737122f, 0.0049807382747530937195f, 0.0083026513457298278809f}
    },
    {
      {0.039626225829124450684f, 0.025084551423788070679f, 0.033673103898763656616f},
      {0.028057327494025230408f, 0.020269671455025672913f, 0.025134328752756118774f},
      {0.018554713577032089233f, 0.020638126879930496216f, 0.010404622182250022888f}
    },
    {
      {0.0068536652252078056335f, 0.019163371995091438293f, 0.025352053344249725342f},
      {0.043728016316890716553f, 0.047349601984024047852f, 0.043046757578849792480f},
      {-0.0023711761459708213806f, 0.011738169938325881958f, 0.0051394798792898654938f}
    },
    {
      {0.048642165958881378174f, 0.083667196333408355713f, 0.054080300033092498779f},
      {0.064679436385631561279f, 0.16688917577266693115f, 0.091683715581893920898f},
      {0.038253299891948699951f, 0.092100270092487335205f, 0.065106704831123352051f}
    },
    {
      {-0.023176847025752067566f, 0.018395155668258666992f, 0.013380988501012325287f},
      {0.051815472543239593506f, 0.053207870572805404663f, 0.025149734690785408020f},
      {0.010523794218897819519f, 0.022574502974748611450f, 0.017030311748385429382f}
    },
    {
      {0.076169684529304504395f, 0.11006347090005874634f, 0.072076395153999328613f},
      {0.099361523985862731934f, 0.12398678809404373169f, 0.084974542260169982910f},
      {0.053663894534111022949f, 0.082290582358837127686f, 0.043963003903627395630f}
    },
    {
      {0.099070526659488677979f, 0.10322440415620803833f, 0.074880473315715789795f},
      {0.063285231590270996094f, 0.096509128808975219727f, 0.091597072780132293701f},
      {0.073195241391658782959f, 0.11414141207933425903f, 0.089788503944873809814f}
    },
    {
      {-0.016643935814499855042f, -0.021240292116999626160f, -0.011170677840709686279f},
      {-0.028106000274419784546f, -0.038643129169940948486f, -0.023445326834917068481f},
      {-0.035515174269676208496f, -0.034146152436733245850f, -0.024546632543206214905f}
    },
    {
      {-0.035882983356714248657f, -0.069402143359184265137f, -0.072449810802936553955f},
      {-0.089609533548355102539f, -0.16831684112548828125f, -0.10982526838779449463f},
      {-0.074615515768527984619f, -0.10332237184047698975f, -0.10075903683900833130f}
    },
    {
      {0.016567604616284370422f, 0.0020995107479393482208f, -0.0046379617415368556976f},
      {0.0071772844530642032623f, -0.012152109295129776001f, 0.0046751853078603744507f},
      {-0.0011181423906236886978f, 0.010576231405138969421f, 0.0063985115848481655121f}
    }
  },
  {
    {
      {0.0077322516590356826782f, -0.011041920632123947144f, -0.0070595601573586463928f},
      {0.0053153634071350097656f, -0.028028244152665138245f, -0.025729015469551086426f},
      {-0.0090734548866748809814f, 0.011935750953853130341f, -0.0068752546794712543488f}
    },
    {
      {0.010540483519434928894f, -0.024083700031042098999f, -0.012644439004361629486f},
      {-0.011465652845799922943f, -0.025478838011622428894f, -0.052081342786550521851f},
      {0.010285592637956142426f, -0.026580048725008964539f, -0.031992785632610321045f}
    },
    {
      {0.017767330631613731384f, 0.046238556504249572754f, 0.026685031130909919739f},
      {0.056040033698081970215f, 0.073576472699642181396f, 0.041137989610433578491f},
      {0.025432605296373367310f, 0.060967817902565002441f, 0.030331112444400787354f}
    },
    {
      {0.0023379207123070955276f, -0.0057878042571246623993f, 0.017583262175321578979f},
      {-0.0085147302597761154175f, 0.0016072121215984225273f, -0.0056547746062278747559f},
      {0.013224929571151733398f, 0.0033175870776176452637f, -0.013484200462698936462f}
    },
    {
      {0.035319481045007705688f, 0.014696598984301090240f, 0.027211515232920646667f},
      {0.051463842391967773438f, 0.028160313144326210022f, 0.027059733867645263672f},
      {0.057194169610738754272f, 0.047988306730985641479f, 0.026950279250741004944f}
    },
    {
      {-0.032540798187255859375f, -0.048064012080430984497f, -0.042485389858484268188f},
      {-0.030155302956700325012f, -0.072346508502960205078f, -0.053117293864488601685f},
      {-0.014803690835833549500f, -0.035225473344326019287f, -0.032889265567064285278f}
    },
    {
      {0.019633231684565544128f, 0.025480013340711593628f, 0.012629105709493160248f},
      {0.0045634293928742408752f, 0.018540808930993080139f, 0.012359938584268093109f},
      {0.024554528295993804932f, 0.018873620778322219849f, 0.0090731885284185409546f}
    },
    {
      {0.024655293673276901245f, -0.011263153515756130219f, 0.0086431708186864852905f},
      {0.011419109068810939789f, -0.011014084331691265106f, 0.0016099964268505573273f},
      {0.017624905332922935486f, 0.013227920047938823700f, -0.00019393887487240135670f}
    },
    {
      {0.0078237559646368026733f, 0.014781350269913673401f, 0.010176154784858226776f},
      {0.021083485335111618042f, 0.018857628107070922852f, 0.0045518749393522739410f},
      {-0.0076119615696370601654f, 0.0024745028931647539139f, 0.0011622448218986392021f}
    },
    {
      {0.026497507467865943909f, -0.0018793559866026043892f, 0.0032682034652680158615f},
      {-0.016338020563125610352f, -0.065124601125717163086f, -0.053013477474451065063f},
      {-0.0082454448565840721130f, -0.070381157100200653076f, -0.065494902431964874268f}
    },
    {
      {0.020953474566340446472f, 0.022837838158011436462f, 0.0077868765220046043396f},
      {0.0045087374746799468994f, 0.013849828392267227173f, 0.044819056987762451172f},
      {4.3681127863237634301e-05f, 0.0043543381616473197937f, -0.0030965560581535100937f}
    },
    {
      {0.0013425890356302261353f, -0.0070518432185053825378f, 0.013936452567577362061f},
      {-0.021570609882473945618f, -0.061472866684198379517f, -0.032838817685842514038f},
      {-0.022421438246965408325f, -0.048095587641000747681f, -0.037717603147029876709f}
    },
    {
      {-0.011390970088541507721f, -0.035492494702339172363f, 0.0030264991801232099533f},
      {-0.033255595713853836060f, -0.073522977530956268311f, -0.045579187572002410889f},
      {-0.0058907042257487773895f, -0.035411980003118515015f, -0.030502250418066978455f}
    },
    {
      {0.0028369536157697439194f, 0.0048130010254681110382f, -0.0061381002888083457947f},
      {0.0075080995447933673859f, -0.0041372231207787990570f, -0.0010770870139822363853f},
      {0.010206052102148532867f, 0.012487387284636497498f, 0.011919543147087097168f}
    },
    {
      {0.050408359616994857788f, -0.0076335966587066650391f, -0.026621591299772262573f},
      {0.026169637218117713928f, -0.015077928081154823303f, 0.0065276231616735458374f},
      {0.030638834461569786072f, 0.025872718542814254761f, 0.029201697558164596558f}
    },
    {
      {0.10809860378503799438f, 0.15598994493484497070f, 0.10486138612031936646f},
      {0.16680838167667388916f, 0.25452286005020141602f, 0.19293059408664703369f},
      {0.11187072843313217163f, 0.20286288857460021973f, 0.14577427506446838379f}
    }
  },
  {
    {
      {-0.048001125454902648926f, -0.083925716578960418701f, 0.19404947757720947266f},
      {-0.10069030523300170898f, -0.085409075021743774414f, 0.45146226882934570312f},
      {-0.096129462122917175293f, -0.087015219032764434814f, 0.34930163621902465820f}
    },
    {
      {-0.0027433366049081087112f, 0.019532715901732444763f, 0.0085290865972638130188f},
      {0.013157517649233341217f, 0.033652111887931823730f, -0.045848399400711059570f},
      {0.0046802097931504249573f, 0.016218595206737518311f, -0.065576121211051940918f}
    },
    {
      {-0.0075391228310763835907f, -0.026953678578138351440f, 0.0060286680236458778381f},
      {-0.015103428624570369720f, -0.047778245061635971069f, 0.026209851726889610291f},
      {-0.021275157108902931213f, -0.035876311361789703369f, 0.0093173766508698463440f}
    },
    {
      {-0.022693593055009841919f, 0.024525359272956848145f, 0.11861184239387512207f},
      {-0.046907376497983932495f, 0.089947886765003204346f, 0.33774292469024658203f},
      {-0.068093322217464447021f, 0.066877678036689758301f, 0.29844292998313903809f}
    },
    {
      {-0.033423695713281631470f, 0.033138401806354522705f, 0.015809150412678718567f},
      {-0.016635889187455177307f, 0.049349144101142883301f, -0.071557782590389251709f},
      {0.0058344267308712005615f, 0.047751273959875106812f, -0.049285929650068283081f}
    },
    {
      {-0.0092780459672212600708f, 0.044269155710935592651f, 0.0012242367956787347794f},
      {-0.00058653741143643856049f, 0.031105108559131622314f, -0.056300964206457138062f},
      {0.0010368680814281105995f, 0.020651524886488914490f, -0.067562311887741088867f}
    },
    {
      {0.014683007262647151947f, 0.013882480561733245850f, -0.039869442582130432129f},
      {0.054700482636690139771f, 0.015866255387663841248f, -0.093901835381984710693f},
      {0.024796674028038978577f, 0.0098690306767821311951f, -0.073072195053100585938f}
    },
    {
      {0.013637193478643894196f, 0.027325345203280448914f, -0.043209079653024673462f},
      {0.052349124103784561157f, 0.039565030485391616821f, -0.14566825330257415771f},
      {0.031669531017541885376f, 0.019205901771783828735f, -0.13951130211353302002f}
    },
    {
      {0.026566432788968086243f, 0.025410106405615806580f, -0.035724941641092300415f},
      {0.033012680709362030029f, 0.028625907376408576965f, -0.084088906645774841309f},
      {0.030916379764676094055f, 0.015504976734519004822f, -0.051959540694952011108f}
    },
    {
      {-0.010321940295398235321f, 0.020580647513270378113f, -0.0048702592030167579651f},
      {0.0024683633819222450256f, 0.088938973844051361084f, -0.036800455302000045776f},
      {-0.010980976745486259460f, 0.041238211095333099365f, -0.026585353538393974304f}
    },
    {
      {0.028681840747594833374f, 0.0089106280356645584106f, -0.069494105875492095947f},
      {0.057572469115257263184f, 0.029005402699112892151f, -0.15810795128345489502f},
      {0.049650993198156356812f, 0.010639958083629608154f, -0.090034164488315582275f}
    },
    {
      {0.013838898390531539917f, 0.027894185855984687805f, -0.0056868167594075202942f},
      {0.022453337907791137695f, 0.027571346610784530640f, -0.053021308034658432007f},
      {0.020913548767566680908f, 0.015609306283295154572f, -0.040171485394239425659f}
    },
    {
      {-0.0011634937254711985588f, 0.019977528601884841919f, -0.018561897799372673035f},
      {0.012117519974708557129f, 0.064935296773910522461f, -0.090147063136100769043f},
      {0.00031879023299552500248f, 0.0079960618168115615845f, -0.069210641086101531982f}
    },
    {
      {-0.035856019705533981323f, -0.028164809569716453552f, 0.17278441786766052246f},
      {-0.051173560321331024170f, -0.027928953990340232849f, 0.38431069254875183105f},
      {-0.060708530247211456299f, -0.013946407474577426910f, 0.28189408779144287109f}
    },
    {
      {-0.040581949055194854736f, 0.051745813339948654175f, -0.018614243716001510620f},
      {-0.022973652929067611694f, 0.095766112208366394043f, -0.086559534072875976562f},
      {-0.017130011692643165588f, 0.073009788990020751953f, -0.021839858964085578918f}
    },
    {
      {0.042021360248327255249f, 0.041938483715057373047f, -0.079727791249752044678f},
      {0.047578718513250350952f, 0.041747141629457473755f, -0.11491250991821289062f},
      {0.034999363124370574951f, 0.029909722506999969482f, -0.076416291296482086182f}
    }
  },
  {
    {
      {-0.0096692489460110664368f, -0.024322874844074249268f, 0.0062005831860005855560f},
      {0.040899414569139480591f, 0.051321785897016525269f, 0.048486430197954177856f},
      {0.12847790122032165527f, 0.25896859169006347656f, 0.23003295063972473145f}
    },
    {
      {0.031016966328024864197f, -0.036974538117647171021f, 0.034958902746438980103f},
      {-0.13450530171394348145f, -0.074947424232959747314f, 0.21045026183128356934f},
      {-0.24466787278652191162f, -0.018074996769428253174f, 0.25607958436012268066f}
    },
    {
      {-0.0030836935620754957199f, 0.015838762745261192322f, 0.037817023694515228271f},
      {0.030807912349700927734f, 0.090505845844745635986f, 0.071035124361515045166f},
      {0.12164568156003952026f, 0.17895001173019409180f, 0.090004578232765197754f}
    },
    {
      {0.0091220773756504058838f, -0.035841815173625946045f, 0.030076019465923309326f},
      {0.0027304938994348049164f, 0.026837948709726333618f, 0.057326503098011016846f},
      {0.15544824302196502686f, 0.23301914334297180176f, 0.091503560543060302734f}
    },
    {
      {0.016195982694625854492f, -0.020168589428067207336f, 0.033576499670743942261f},
      {-0.056630194187164306641f, -0.030953792855143547058f, 0.085292704403400421143f},
      {-0.10156521946191787720f, -0.047861121594905853271f, 0.071339353919029235840f}
    },
    {
      {-0.0031324408482760190964f, 0.016358973458409309387f, 0.0086781103163957595825f},
      {0.021808227524161338806f, 0.010423860512673854828f, 0.015993103384971618652f},
      {0.0058867931365966796875f, -0.023083996027708053589f, -0.022575696930289268494f}
    },
    {
      {0.0062204375863075256348f, 0.021188076585531234741f, 0.021543024107813835144f},
      {-0.026781355962157249451f, 0.022682368755340576172f, -0.00040967375389300286770f},
      {0.077806122601032257080f, 0.0098805036395788192749f, -0.074565961956977844238f}
    },
    {
      {0.0079387258738279342651f, -0.00086608459241688251495f, 0.045568633824586868286f},
      {-0.033566769212484359741f, 0.041590966284275054932f, 0.047462981194257736206f},
      {0.046460375189781188965f, 0.048395399004220962524f, -0.064010061323642730713f}
    },
    {
      {0.00082628225209191441536f, -0.00057726044906303286552f, -0.0096964072436094284058f},
      {0.045919485390186309814f, 0.0025439495220780372620f, -0.017347758635878562927f},
      {-0.038178905844688415527f, 0.00047949937288649380207f, 0.025233661755919456482f}
    },
    {
      {-0.0092273252084851264954f, 0.0096974810585379600525f, 0.035131432116031646729f},
      {-0.0040359981358051300049f, 0.017830789089202880859f, -0.0099887084215879440308f},
      {0.043444935232400894165f, -0.028255663812160491943f, -0.052779138088226318359f}
    },
    {
      {-0.0065166740678250789642f, 0.023912470787763595581f, -0.024252399802207946777f},
      {0.062816664576530456543f, 0.0071687204763293266296f, -0.077774263918399810791f},
      {0.041624270379543304443f, 0.0031718830578029155731f, -0.041796132922172546387f}
    },
    {
      {0.020615397021174430847f, 0.0054735466837882995605f, 0.010819664224982261658f},
      {-0.0074936766177415847778f, -0.022467078641057014465f, 0.028037065640091896057f},
      {-0.055990245193243026733f, -0.031674042344093322754f, 0.024615753442049026489f}
    },
    {
      {-0.036278359591960906982f, 0.032812532037496566772f, 0.025774106383323669434f},
      {0.0088544581085443496704f, -0.0023097763769328594208f, -0.052112638950347900391f},
      {0.037610631436109542847f, -0.015954062342643737793f, -0.038206595927476882935f}
    },
    {
      {-0.0077105537056922912598f, -0.011265233159065246582f, -0.012670519761741161346f},
      {0.025165630504488945007f, 0.042019311338663101196f, 0.012977788224816322327f},
      {0.11345512419939041138f, 0.17642818391323089600f, 0.10815426707267761230f}
    },
    {
      {-0.034927878528833389282f, 0.044144496321678161621f, -0.0067657423205673694611f},
      {0.11092098057270050049f, 0.068359583616256713867f, -0.16324876248836517334f},
      {0.18140940368175506592f, -0.055220507085323333740f, -0.18244464695453643799f}
    },
    {
      {0.0019706331659108400345f, 0.015277500264346599579f, 0.010342553257942199707f},
      {0.014385928399860858917f, 0.0027361128013581037521f, -0.0092290807515382766724f},
      {0.016845066100358963013f, -0.029700608924031257629f, -0.023174308240413665771f}
    }
  },
  {
    {
      {-0.0038569667376577854156f, 0.051170572638511657715f, -0.026425808668136596680f},
      {0.060169056057929992676f, -0.012573562562465667725f, -0.039815817028284072876f},
      {-0.041314002126455307007f, -0.063523791730403900146f, 0.090664386749267578125f}
    },
    {
      {0.012621641159057617188f, -0.066364824771881103516f, -0.052357230335474014282f},
      {-0.10783387720584869385f, -0.046182665973901748657f, 0.14391116797924041748f},
      {0.067608356475830078125f, 0.12803836166858673096f, -0.074463643133640289307f}
    },
    {
      {-0.048820000141859054565f, -0.020814390853047370911f, 0.051580216735601425171f},
      {0.0096317166462540626526f, 0.052601508796215057373f, -0.044588543474674224854f},
      {0.0025571584701538085938f, -0.079282276332378387451f, 0.0053461114875972270966f}
    },
    {
      {0.013213003054261207581f, -0.060402862727642059326f, 0.046371348202228546143f},
      {-0.040073152631521224976f, 0.087317496538162231445f, 0.061913300305604934692f},
      {0.033666335046291351318f, -0.0029021487571299076080f, -0.11503814160823822021f}
    },
    {
      {0.055637296289205551147f, 0.0043297996744513511658f, 0.013773678801953792572f},
      {-0.024467220529913902283f, 0.0080930655822157859802f, 0.039888672530651092529f},
      {0.030900740996003150940f, 0.013992537744343280792f, -0.092526592314243316650f}
    },
    {
      {0.011541737243533134460f, 0.034456435590982437134f, 0.0031902738846838474274f},
      {0.011617286130785942078f, -0.061389535665512084961f, -0.090485788881778717041f},
      {0.0037681395187973976135f, 0.00023147632600739598274f, 0.070999674499034881592f}
    },
    {
      {-0.087121859192848205566f, -0.030399885028600692749f, 0.061439111828804016113f},
      {0.14459601044654846191f, 0.23418417572975158691f, 0.035271342843770980835f},
      {-0.014036856591701507568f, -0.040396556258201599121f, 0.099875606596469879150f}
    },
    {
      {-0.046991113573312759399f, -0.16387750208377838135f, 0.026141721755266189575f},
      {-0.031941078603267669678f, 0.19683921337127685547f, 0.15474325418472290039f},
      {0.079069964587688446045f, -0.067369669675827026367f, -0.21969853341579437256f}
    },
    {
      {0.069472320377826690674f, 0.044372137635946273804f, -0.036234691739082336426f},
      {-0.063431531190872192383f, -0.075407460331916809082f, 0.13273157179355621338f},
      {0.072713047266006469727f, 0.15141355991363525391f, 0.018450424075126647949f}
    },
    {
      {-0.032809648662805557251f, 0.0028888278175145387650f, 0.048639409244060516357f},
      {0.10225883126258850098f, 0.13813158869743347168f, -0.052425622940063476562f},
      {-0.0058639580383896827698f, -0.11161869764328002930f, -0.025835510343313217163f}
    },
    {
      {0.015631353482604026794f, 0.11534423381090164185f, -0.0077159167267382144928f},
      {0.024388112127780914307f, -0.20022237300872802734f, -0.068552926182746887207f},
      {-0.033599849790334701538f, 0.11702214181423187256f, 0.28330713510513305664f}
    },
    {
      {0.039064887911081314087f, 0.017618037760257720947f, -0.012512370944023132324f},
      {-0.024339176714420318604f, -0.043113917112350463867f, 0.0028840226586908102036f},
      {-0.0046327952295541763306f, 0.0034743300639092922211f, -0.039982296526432037354f}
    },
    {
      {-0.047333151102066040039f, 0.030627487227320671082f, -0.012162523344159126282f},
      {0.036830689758062362671f, -0.019003588706254959106f, -0.11851894855499267578f},
      {-0.024793460965156555176f, -0.038970764726400375366f, 0.10425710678100585938f}
    },
    {
      {0.031257294118404388428f, 0.016313616186380386353f, -0.0099893109872937202454f},
      {0.017137570306658744812f, -0.0097036091610789299011f, 0.041604142636060714722f},
      {-0.031007245182991027832f, 0.013788688927888870239f, -0.0065831658430397510529f}
    },
    {
      {-0.044024683535099029541f, 0.11872922629117965698f, 0.061799198389053344727f},
      {0.11462616175413131714f, 0.044883586466312408447f, -0.20474407076835632324f},
      {-0.048185665160417556763f, -0.14248739182949066162f, 0.11053574830293655396f}
    },
    {
      {0.015501612797379493713f, 0.043924715369939804077f, 0.021140320226550102234f},
      {0.042192097753286361694f, -0.00051427917787805199623f, -0.085056118667125701904f},
      {-0.023217150941491127014f, -0.055821172893047332764f, -0.0069155404344201087952f}
    }
  },
  {
    {
      {0.00098466267809271812439f, -0.034430414438247680664f, -0.0022567699197679758072f},
      {0.072053946554660797119f, 0.0041222674772143363953f, -0.036909900605678558350f},
      {0.013604055158793926239f, 0.12893417477607727051f, 0.15095974504947662354f}
    },
    {
      {0.042440637946128845215f, -0.015548215247690677643f, 0.0042516971006989479065f},
      {0.23088592290878295898f, -0.016841689124703407288f, -0.26553273200988769531f},
      {0.21992208063602447510f, 0.12209054827690124512f, -0.30490005016326904297f}
    },
    {
      {0.020353527739644050598f, 0.019777484238147735596f, 0.013547891750931739807f},
      {0.11231578886508941650f, 0.078533940017223358154f, 0.048316482454538345337f},
      {0.051141567528247833252f, 0.14140105247497558594f, 0.034868255257606506348f}
    },
    {
      {-0.016241278499364852905f, 0.0019945213571190834045f, 0.014403341338038444519f},
      {0.046220541000366210938f, 0.013612370006740093231f, 0.085602417588233947754f},
      {0.16969276964664459229f, 0.057733178138732910156f, 0.068548575043678283691f}
    },
    {
      {0.014653841033577919006f, -0.013802867382764816284f, 0.0028688823804259300232f},
      {0.079644329845905303955f, 0.0093131773173809051514f, -0.084606744349002838135f},
      {0.065161034464836120605f, 0.023702038452029228210f, -0.11462316662073135376f}
    },
    {
      {-0.019142935052514076233f, 0.023733433336019515991f, 0.020832093432545661926f},
      {-0.053535275161266326904f, 0.040230698883533477783f, 0.043865125626325607300f},
      {-0.036888934671878814697f, -0.012422793544828891754f, 0.017855502665042877197f}
    },
    {
      {0.026698002591729164124f, -0.0088022155687212944031f, -0.016263961791992187500f},
      {-0.023571146652102470398f, 0.029937848448753356934f, -0.010806703008711338043f},
      {-0.011827622540295124054f, -0.025896275416016578674f, 0.067605607211589813232f}
    },
    {
      {0.070329368114471435547f, -0.023952059447765350342f, -0.032001957297325134277f},
      {0.098530739545822143555f, 0.036887209862470626831f, -0.11604323238134384155f},
