// This file is computer-generated by onnx2c 
// (TODO: add creating command line here)
// (TODO: print creation date here )

// ONNX model:
// produced by pytorch, version 1.6
// ONNX IR version: 9
// Model documentation: 
/*

*/

#include <float.h>
#include <math.h>
#include <stdbool.h>
#include <stdint.h>
#include <string.h>
#define MAX(X,Y) ( X > Y ? X : Y)
#define MIN(X,Y) ( X < Y ? X : Y)
#define CLIP(X,L) ( MAX(MIN(X,L), -L) )

/* conv1.0.bias*/
static const float tensor_conv1_0_bias[32] = 
{-0.093044951558113098145f, -0.023748964071273803711f, -0.025476800277829170227f, -0.20832718908786773682f, -0.96199244260787963867f, -0.23274897038936614990f, -0.34928947687149047852f, -0.041216310113668441772f, -0.62387943267822265625f, 0.019540987908840179443f, -1.2133895158767700195f, 0.057193074375391006470f, -0.054947342723608016968f, -0.091173186898231506348f, -0.45286366343498229980f, -0.73135977983474731445f, -0.55188596248626708984f, 0.27260559797286987305f, 0.14775180816650390625f, -1.4998214244842529297f, -0.15582062304019927979f, -0.40677326917648315430f, -0.019274940714240074158f, -0.25003859400749206543f, -1.1407668590545654297f, -0.30588108301162719727f, -0.39520353078842163086f, -0.33999404311180114746f, -0.80658382177352905273f, -0.53580152988433837891f, -0.010133380070328712463f, -0.11353454738855361938f};
/* conv1.0.weight*/
static const float tensor_conv1_0_weight[32][1][2][2] = 
{
  {
    {
      {0.063711233437061309814f, -2.1353332996368408203f},
      {-2.4077372550964355469f, 1.5501735210418701172f}
    }
  },
  {
    {
      {-1.3302065134048461914f, -0.60037732124328613281f},
      {0.33233848214149475098f, -1.9593166112899780273f}
    }
  },
  {
    {
      {-1.7853391170501708984f, -1.3929075002670288086f},
      {1.6605777740478515625f, -1.7904325723648071289f}
    }
  },
  {
    {
      {-0.12445969879627227783f, -0.027874102815985679626f},
      {0.20777191221714019775f, -0.18290738761425018311f}
    }
  },
  {
    {
      {-1.1237283945083618164f, 0.98096799850463867188f},
      {0.82129478454589843750f, 0.22331582009792327881f}
    }
  },
  {
    {
      {-4.0135173797607421875f, 0.27062287926673889160f},
      {-3.9358952045440673828f, 0.65707927942276000977f}
    }
  },
  {
    {
      {0.18993902206420898438f, -0.13002765178680419922f},
      {-0.15944653749465942383f, 0.18396568298339843750f}
    }
  },
  {
    {
      {-0.57045006752014160156f, -0.33775687217712402344f},
      {-0.18612080812454223633f, -0.30190116167068481445f}
    }
  },
  {
    {
      {-0.019952176138758659363f, 0.61624979972839355469f},
      {0.51200819015502929688f, -0.14968276023864746094f}
    }
  },
  {
    {
      {-2.4543662071228027344f, 1.1970753669738769531f},
      {-3.3286862373352050781f, -0.59506332874298095703f}
    }
  },
  {
    {
      {1.3818798065185546875f, -0.076254054903984069824f},
      {-1.5527994632720947266f, 1.4294238090515136719f}
    }
  },
  {
    {
      {-1.2886323928833007812f, -2.2784447669982910156f},
      {-0.27157518267631530762f, -1.0710549354553222656f}
    }
  },
  {
    {
      {-0.93456631898880004883f, 1.6578207015991210938f},
      {-3.0186529159545898438f, -2.4360334873199462891f}
    }
  },
  {
    {
      {0.18152497708797454834f, -3.5201368331909179688f},
      {0.74950122833251953125f, -3.8679430484771728516f}
    }
  },
  {
    {
      {-0.92909502983093261719f, 0.78770864009857177734f},
      {-0.84006690979003906250f, 0.82331436872482299805f}
    }
  },
  {
    {
      {-0.64892792701721191406f, 0.87245762348175048828f},
      {0.90352100133895874023f, -0.33823624253273010254f}
    }
  },
  {
    {
      {0.70396167039871215820f, -1.6310406923294067383f},
      {1.0461111068725585938f, -0.63348644971847534180f}
    }
  },
  {
    {
      {-1.0720058679580688477f, -1.9800599813461303711f},
      {-3.3895330429077148438f, -3.1536495685577392578f}
    }
  },
  {
    {
      {-4.7613558769226074219f, -4.1925473213195800781f},
      {-3.8583846092224121094f, -3.2670769691467285156f}
    }
  },
  {
    {
      {1.5621777772903442383f, -1.6374940872192382812f},
      {-0.0013038231991231441498f, 1.4737718105316162109f}
    }
  },
  {
    {
      {-3.8171665668487548828f, 0.35988566279411315918f},
      {0.63982439041137695312f, -1.5842236280441284180f}
    }
  },
  {
    {
      {-0.71969884634017944336f, -0.39370825886726379395f},
      {0.45929980278015136719f, 0.71891480684280395508f}
    }
  },
  {
    {
      {1.4934654235839843750f, -2.1483020782470703125f},
      {-1.6277226209640502930f, -1.4770107269287109375f}
    }
  },
  {
    {
      {-3.8824286460876464844f, -1.3669905662536621094f},
      {0.25772330164909362793f, 0.65445423126220703125f}
    }
  },
  {
    {
      {0.41742408275604248047f, 0.21598805487155914307f},
      {0.46396118402481079102f, 0.39885237812995910645f}
    }
  },
  {
    {
      {-0.066689290106296539307f, 0.11740155518054962158f},
      {0.14818379282951354980f, -0.18928299844264984131f}
    }
  },
  {
    {
      {-0.57456809282302856445f, -1.3126035928726196289f},
      {0.98967915773391723633f, 0.37744739651679992676f}
    }
  },
  {
    {
      {0.56481093168258666992f, 0.41716113686561584473f},
      {-0.83741927146911621094f, -3.6714749336242675781f}
    }
  },
  {
    {
      {1.1657423973083496094f, -0.40881723165512084961f},
      {0.56593590974807739258f, -1.1086193323135375977f}
    }
  },
  {
    {
      {1.0251547098159790039f, 1.1913757324218750000f},
      {-1.3977563381195068359f, -1.1071338653564453125f}
    }
  },
  {
    {
      {-1.3089492321014404297f, -0.36982443928718566895f},
      {-0.67815560102462768555f, -0.59732997417449951172f}
    }
  },
  {
    {
      {-1.1470803022384643555f, -1.2164450883865356445f},
      {0.039776906371116638184f, 0.043145034462213516235f}
    }
  }
};
/* out.bias*/
static const float tensor_out_bias[10] = 
{0.31083235144615173340f, 1.0447595119476318359f, 0.27881228923797607422f, -0.27269640564918518066f, -0.19387193024158477783f, 0.14647452533245086670f, 0.038189105689525604248f, 0.38769042491912841797f, -0.86442345380783081055f, -0.24688537418842315674f};
/* out.weight*/
static const float tensor_out_weight[10][1152] = 
{
  {-0.17752864956855773926f, -0.36318287253379821777f, -0.28243643045425415039f, 0.12966114282608032227f, 0.29070973396301269531f, 0.11760904639959335327f, -0.97641718387603759766f, 0.15060013532638549805f, -0.61273336410522460938f, 0.099192552268505096436f, -0.017257733270525932312f, -0.38560208678245544434f, 0.66006964445114135742f, -0.026671238243579864502f, 0.67570549249649047852f, 0.16069495677947998047f, -0.49941301345825195312f, 0.32146087288856506348f, 0.50037348270416259766f, 0.28693705797195434570f, -0.46660351753234863281f, 0.72523564100265502930f, 0.16249282658100128174f, 0.56711977720260620117f, 0.93081510066986083984f, -0.52993190288543701172f, 0.11682874709367752075f, 1.1116462945938110352f, -0.21078096330165863037f, -0.073674716055393218994f, -1.4238351583480834961f, -1.3919175863265991211f, -2.7101769447326660156f, -0.12879495322704315186f, -0.74424499273300170898f, 0.92218726873397827148f, 0.033643297851085662842f, -0.039302796125411987305f, -0.038035947829484939575f, 0.087468676269054412842f, 0.077305577695369720459f, -0.016726473346352577209f, 0.043544642627239227295f, -0.11986976861953735352f, -0.099743142724037170410f, 0.15369924902915954590f, 0.17790754139423370361f, 0.099983684718608856201f, 0.035494413226842880249f, -0.10393372178077697754f, 0.050413183867931365967f, -0.088399663567543029785f, -0.076170757412910461426f, -0.23105318844318389893f, -0.012201199308037757874f, -0.10310855507850646973f, -0.082249440252780914307f, 0.14489278197288513184f, -0.038231775164604187012f, -0.16243402659893035889f, 0.020083988085389137268f, -0.053267266601324081421f, -0.070582374930381774902f, 0.31351298093795776367f, -0.18642580509185791016f, -0.25769081711769104004f, -0.0094631649553775787354f, 0.00077210052404552698135f, 0.17864517867565155029f, 0.064063176512718200684f, -0.19915688037872314453f, -0.021329456940293312073f, 0.30802103877067565918f, -0.28736904263496398926f, -0.48611158132553100586f, 0.27660149335861206055f, -0.24714787304401397705f, 0.0043433383107185363770f, 0.41193917393684387207f, -0.67730420827865600586f, 0.29661023616790771484f, 0.60701942443847656250f, 0.016499046236276626587f, -0.083105042576789855957f, 0.42892736196517944336f, -1.2657327651977539062f, -0.62771350145339965820f, 0.40034046769142150879f, 0.92988419532775878906f, -0.18733701109886169434f, 0.94648879766464233398f, -1.1493421792984008789f, -0.94632720947265625000f, 0.26512834429740905762f, -1.1051121950149536133f, -0.22490289807319641113f, 0.43989104032516479492f, -0.42873620986938476562f, -0.73278892040252685547f, 0.80724847316741943359f, -1.5111887454986572266f, -2.4244182109832763672f, 0.30282661318778991699f, -0.20521131157875061035f, 1.3067115545272827148f, 0.76802337169647216797f, -2.7942359447479248047f, -1.0369362831115722656f, -0.043684147298336029053f, -0.050425838679075241089f, -0.10024221241474151611f, -0.11615443974733352661f, -0.077185779809951782227f, -0.027321672067046165466f, -0.015753250569105148315f, -0.025661943480372428894f, -0.072447396814823150635f, -0.096558637917041778564f, -0.044094137847423553467f, -0.041130021214485168457f, 0.014323988929390907288f, 0.020664487034082412720f, 0.16938409209251403809f, -0.038603086024522781372f, 0.026052564382553100586f, 0.12880018353462219238f, -0.091546848416328430176f, 0.18652613461017608643f, 0.072694130241870880127f, -0.39345973730087280273f, -0.15012091398239135742f, 0.18016304075717926025f, -0.13004609942436218262f, 0.10398001968860626221f, 0.15950994193553924561f, -0.086915932595729827881f, 0.10948485881090164185f, 0.090189203619956970215f, -0.026123242452740669250f, 0.10600485652685165405f, 0.026560682803392410278f, 0.013820682652294635773f, -0.070607565343379974365f, -0.12977497279644012451f, 0.019623877480626106262f, -0.35189971327781677246f, -0.11031278222799301147f, -0.22128412127494812012f, -0.22603662312030792236f, -0.59626007080078125000f, -0.49602410197257995605f, 0.16774137318134307861f, 0.34261682629585266113f, -0.19627529382705688477f, 0.22873777151107788086f, 0.41552111506462097168f, -0.30232283473014831543f, 0.066295087337493896484f, 0.76543408632278442383f, -0.68461573123931884766f, -0.73562407493591308594f, 0.060055959969758987427f, -0.54492199420928955078f, 1.0229443311691284180f, 0.66371810436248779297f, -1.4470231533050537109f, -0.14084126055240631104f, 0.22611562907695770264f, 0.29902276396751403809f, 0.63081115484237670898f, -0.48147487640380859375f, 0.62103247642517089844f, -0.29953616857528686523f, 0.63092309236526489258f, 0.10185093432664871216f, 0.87477910518646240234f, -1.0544339418411254883f, -0.81500995159149169922f, 0.18642900884151458740f, -0.13955904543399810791f, -0.059227265417575836182f, -0.10728222131729125977f, -0.16966940462589263916f, 0.27756139636039733887f, 0.33967554569244384766f, -0.048105258494615554810f, -0.19426472485065460205f, -0.30689522624015808105f, -0.38017484545707702637f, -0.35453799366950988770f, -0.42103439569473266602f, -0.030179223045706748962f, 0.055024866014719009399f, -0.045606549829244613647f, -0.014589439146220684052f, -0.63093680143356323242f, 0.33365041017532348633f, 0.50239318609237670898f, -0.16563256084918975830f, 0.21726244688034057617f, 0.74656844139099121094f, -0.27600386738777160645f, 0.63377362489700317383f, 0.14650098979473114014f, 0.48508182168006896973f, 1.0431112051010131836f, 0.58979958295822143555f, 0.56029415130615234375f, 0.47442147135734558105f, 0.53338199853897094727f, 0.022134641185402870178f, 0.78730469942092895508f, -1.1856278181076049805f, -2.1668298244476318359f, -1.2495815753936767578f, -0.42321726679801940918f, 0.0018754785414785146713f, 0.025585528463125228882f, 0.021399900317192077637f, 0.023301973938941955566f, 0.019283503293991088867f, -0.024434652179479598999f, 0.013153627514839172363f, -0.00011908241140190511942f, 0.0096356933936476707458f, 0.018666578456759452820f, -0.028862958773970603943f, 0.028850350528955459595f, -0.018765255808830261230f, 0.011372108012437820435f, -0.0058979000896215438843f, -0.0022918437607586383820f, 0.020184574648737907410f, -0.0075842589139938354492f, 0.014762396924197673798f, -0.012825093232095241547f, -0.0070852083154022693634f, -0.022230288013815879822f, 0.023498911410570144653f, 0.0012429878115653991699f, -0.0088629936799407005310f, -0.023142304271459579468f, 0.0036397597286850214005f, -0.020063254982233047485f, 0.021357659250497817993f, 0.012456831522285938263f, 0.012257511727511882782f, 0.023634094744920730591f, -0.0082699740305542945862f, -0.010043695569038391113f, -0.018281424418091773987f, 0.0085517363622784614563f, -0.00048598815919831395149f, -0.0054793646559119224548f, -0.021545106545090675354f, 0.014899480156600475311f, -0.014333616010844707489f, -0.019261522218585014343f, 0.018331019207835197449f, 0.00025575974723324179649f, 0.025583740323781967163f, -0.035063207149505615234f, -0.042207483202219009399f, -0.024458922445774078369f, -0.0029803782235831022263f, 0.0072516421787440776825f, -0.036155581474304199219f, -0.019896876066923141479f, 0.019106816500425338745f, -0.016636617481708526611f, 0.014420626685023307800f, -0.038247063755989074707f, 0.0014469245215877890587f, 0.095543354749679565430f, 0.028596250340342521667f, -0.026568433269858360291f, -0.029879929497838020325f, -0.077204033732414245605f, 0.014111577533185482025f, 0.078337892889976501465f, -0.023929266259074211121f, 0.0072164675220847129822f, -0.0040152138099074363708f, -0.012874354608356952667f, -0.056126393377780914307f, 0.016458131372928619385f, -0.0056488150730729103088f, -0.029711807146668434143f, -0.18922795355319976807f, -0.48073279857635498047f, -0.12416820228099822998f, -0.19543521106243133545f, -0.88007009029388427734f, -1.2580436468124389648f, -0.19333547353744506836f, 0.084107384085655212402f, 0.0053453622385859489441f, -0.26695838570594787598f, -0.24784064292907714844f, 0.35027644038200378418f, -0.079359337687492370605f, -0.11284913867712020874f, 0.56842166185379028320f, -0.12014611065387725830f, 0.19430924952030181885f, 0.31609046459197998047f, -0.50057590007781982422f, 0.34851986169815063477f, 0.28639289736747741699f, -1.5774716138839721680f, -0.14370797574520111084f, 0.41169637441635131836f, -0.50910824537277221680f, 0.086687408387660980225f, 0.33652877807617187500f, -0.21461977064609527588f, 0.64595335721969604492f, 0.38771176338195800781f, -0.38230422139167785645f, 0.088631138205528259277f, -0.0088876727968454360962f, -0.018817299976944923401f, -0.23949335515499114990f, -0.27067628502845764160f, -0.12063094228506088257f, 0.34235292673110961914f, 0.25110825896263122559f, 0.23427948355674743652f, 0.47191840410232543945f, 0.023902047425508499146f, -0.039445638656616210938f, -0.67628651857376098633f, -0.86374390125274658203f, -0.42166537046432495117f, -0.033388808369636535645f, 0.17559880018234252930f, -0.45152765512466430664f, -0.14250318706035614014f, -1.0455411672592163086f, 0.75235980749130249023f, 1.2475707530975341797f, 0.62240844964981079102f, -0.50711143016815185547f, -0.090244233608245849609f, 0.37509289383888244629f, 0.41054555773735046387f, 1.0930281877517700195f, 1.5575339794158935547f, 0.34835773706436157227f, 0.034981645643711090088f, 0.26328122615814208984f, -0.11420996487140655518f, 0.021114679053425788879f, -0.35639446973800659180f, -0.45039305090904235840f, -0.37096452713012695312f, 0.81521725654602050781f, 0.065681613981723785400f, -1.9727147817611694336f, -1.3471562862396240234f, 0.11364155262708663940f, -0.26300275325775146484f, -0.28347453474998474121f, 0.36516854166984558105f, 2.1150586605072021484f, 0.17434754967689514160f, -0.27814581990242004395f, 0.72207528352737426758f, -0.36995199322700500488f, 0.21003343164920806885f, 0.97129225730895996094f, 1.1333113908767700195f, 0.10525675863027572632f, -0.63260155916213989258f, 0.93279987573623657227f, 0.55678635835647583008f, 1.5331774950027465820f, 0.84892249107360839844f, -0.80883824825286865234f, 0.35900604724884033203f, -0.85208678245544433594f, -0.039757005870342254639f, -0.61229300498962402344f, 0.41196590662002563477f, -1.5759345293045043945f, 0.81197994947433471680f, 0.060481566935777664185f, -2.2728500366210937500f, -1.3976693153381347656f, -0.34312632679939270020f, -0.33381497859954833984f, -0.25547686219215393066f, 0.59686660766601562500f, 1.1460518836975097656f, -0.50306004285812377930f, -1.0515537261962890625f, 0.11579684913158416748f, 0.12052065134048461914f, 0.11436206847429275513f, 0.14712290465831756592f, 0.12242984026670455933f, 0.13170517981052398682f, 0.12619690597057342529f, 0.092333257198333740234f, -0.060250598937273025513f, -0.40353983640670776367f, -0.35425931215286254883f, 0.10342386364936828613f, 0.11548337340354919434f, -0.025146497413516044617f, 0.0048780604265630245209f, -0.37812304496765136719f, -0.60624569654464721680f, -0.25766512751579284668f, 0.12946371734142303467f, -0.24654549360275268555f, -0.17507486045360565186f, 0.33399930596351623535f, -0.10960970073938369751f, -0.19136020541191101074f, 0.13288931548595428467f, 0.075739413499832153320f, -0.17414319515228271484f, 0.043789871037006378174f, 0.26322939991950988770f, -0.096048094332218170166f, 0.12936727702617645264f, -0.051918353885412216187f, -0.17067410051822662354f, -0.22068899869918823242f, -0.071523308753967285156f, 0.12624391913414001465f, -0.10311711579561233521f, 0.23833197355270385742f, 0.30847606062889099121f, 0.14782734215259552002f, 0.044520616531372070312f, 0.084466949105262756348f, 0.10074882209300994873f, -0.73566049337387084961f, -1.3339358568191528320f, 0.018899930641055107117f, -0.38538956642150878906f, 0.17379003763198852539f, -0.11097647994756698608f, -0.91520696878433227539f, -0.044039126485586166382f, 0.40418285131454467773f, 0.056033659726381301880f, 0.38342869281768798828f, -0.45409843325614929199f, -0.97351396083831787109f, -1.0348184108734130859f, -0.34063687920570373535f, 0.95320355892181396484f, 1.0013977289199829102f, -0.046067342162132263184f, -0.33165583014488220215f, 0.44017809629440307617f, -0.57643181085586547852f, 0.16472506523132324219f, -0.79013824462890625000f, -0.83508211374282836914f, -0.14154665172100067139f, 0.18594908714294433594f, -0.26554122567176818848f, 0.16650870442390441895f, -0.39116010069847106934f, 0.0063744764775037765503f, 0.016291748732328414917f, -0.13028240203857421875f, 0.14144951105117797852f, 0.061645131558179855347f, -0.15866968035697937012f, -0.037146750837564468384f, 0.13739542663097381592f, -0.40481781959533691406f, -0.22380301356315612793f, 0.16290631890296936035f, 0.35088458657264709473f, -0.027404267340898513794f, 0.36388126015663146973f, 0.42599594593048095703f, -1.0002232789993286133f, 0.15581190586090087891f, 0.60384291410446166992f, -0.019366463646292686462f, 0.47919979691505432129f, 0.77634400129318237305f, 0.65901678800582885742f, 0.042884379625320434570f, 0.00016446597874164581299f, -0.015663800761103630066f, -0.35441324114799499512f, 0.59544605016708374023f, 0.80739098787307739258f, -0.73585754632949829102f, 0.33729216456413269043f, -0.017604691907763481140f, 0.042779356241226196289f, 0.55098247528076171875f, -1.9169435501098632812f, -0.86053359508514404297f, -0.16524828970432281494f, -1.1119275093078613281f, -1.3177582025527954102f, -0.29336401820182800293f, -0.72022527456283569336f, -0.37678825855255126953f, 0.27703699469566345215f, -2.0287315845489501953f, -0.084339112043380737305f, -0.33164232969284057617f, 0.15687823295593261719f, 0.11736128479242324829f, -0.053940594196319580078f, -0.36329707503318786621f, -0.058637071400880813599f, 0.087666228413581848145f, 0.26563841104507446289f, 0.89977669715881347656f, 1.3103882074356079102f, -0.32131341099739074707f, 0.90258795022964477539f, 0.48874184489250183105f, -0.43786093592643737793f, 0.71467941999435424805f, 0.82596987485885620117f, 0.92578381299972534180f, 0.67934727668762207031f, 0.42927768826484680176f, 0.14053772389888763428f, -0.44760844111442565918f, -0.069126009941101074219f, 0.67822951078414916992f, 0.63200044631958007812f, 0.21622255444526672363f, -2.7342069149017333984f, -2.1639263629913330078f, -1.9104460477828979492f, -0.21383871138095855713f, -0.075097508728504180908f, 0.27203881740570068359f, 0.17547436058521270752f, -0.042572867125272750854f, -0.17634288966655731201f, -0.19404789805412292480f, 0.36981892585754394531f, 0.19978106021881103516f, -0.14010497927665710449f, -0.028914790600538253784f, 0.40057739615440368652f, -0.12357847392559051514f, 0.14337657392024993896f, 0.57744175195693969727f, -0.12488740682601928711f, -0.82296258211135864258f, 0.018651336431503295898f, -1.3870453834533691406f, 0.56583672761917114258f, 0.49742281436920166016f, -1.2300912141799926758f, -0.38158640265464782715f, 0.046421304345130920410f, -0.46680268645286560059f, 0.72154146432876586914f, -0.49315017461776733398f, 0.38900807499885559082f, -0.041681595146656036377f, 0.19481198489665985107f, -0.79247915744781494141f, 0.37721383571624755859f, -0.70376813411712646484f, 0.22045265138149261475f, 0.42331823706626892090f, 0.16561457514762878418f, 0.045820455998182296753f, -0.089507564902305603027f, 0.10695034265518188477f, 0.24841721355915069580f, -0.66119074821472167969f, 0.053120370954275131226f, 0.066885270178318023682f, -0.53412717580795288086f, -0.11952364444732666016f, 0.035765279084444046021f, 0.78220862150192260742f, 0.62955999374389648438f, -0.31953287124633789062f, 0.61347377300262451172f, 0.56194567680358886719f, 0.39913579821586608887f, 0.31060644984245300293f, 1.0682387351989746094f, 0.44646996259689331055f, 1.0108211040496826172f, 0.68875837326049804688f, 1.5167224407196044922f, 0.50798904895782470703f, 0.49242362380027770996f, -0.38925153017044067383f, 0.21631094813346862793f, 0.59298747777938842773f, 0.14495092630386352539f, -0.58721047639846801758f, -0.66802799701690673828f, 0.098081246018409729004f, 0.64153134822845458984f, 0.60297900438308715820f, -2.3964669704437255859f, -1.4779345989227294922f, -1.2929791212081909180f, 0.23513340950012207031f, 0.19213739037513732910f, 0.21343952417373657227f, 0.18937897682189941406f, 0.22160805761814117432f, 0.18807256221771240234f, 0.18087786436080932617f, 0.11323519796133041382f, -0.037150077521800994873f, -0.95219224691390991211f, -0.73742204904556274414f, 0.11534667015075683594f, 0.19704231619834899902f, -0.17893742024898529053f, -0.30793878436088562012f, -0.70173811912536621094f, -0.97338497638702392578f, -0.72353589534759521484f, 0.20833587646484375000f, -0.51854407787322998047f, -0.29468572139739990234f, 0.43172410130500793457f, 0.14134921133518218994f, -0.30157369375228881836f, 0.19087845087051391602f, 0.088619664311408996582f, -0.17183603346347808838f, 0.29182863235473632812f, 0.54085242748260498047f, -0.030821621417999267578f, 0.21556311845779418945f, -0.0030544893816113471985f, -0.23923501372337341309f, -0.27145928144454956055f, -0.016449809074401855469f, 0.16937527060508728027f, 0.20117916166782379150f, 0.21060661971569061279f, 0.21612516045570373535f, 0.21820487082004547119f, 0.22198264300823211670f, 0.20301806926727294922f, 0.22828452289104461670f, 0.083480671048164367676f, -0.057690300047397613525f, -1.1056230068206787109f, -0.69706434011459350586f, 0.098355002701282501221f, 0.21620324254035949707f, -0.17763979732990264893f, 0.19396710395812988281f, -0.48481628298759460449f, -1.0475093126296997070f, -0.84536534547805786133f, 0.21300785243511199951f, -0.52648001909255981445f, -0.44993400573730468750f, 0.75017267465591430664f, -0.39477550983428955078f, -0.42821550369262695312f, 0.24198673665523529053f, 0.20138654112815856934f, -0.27877804636955261230f, 0.17575532197952270508f, 0.69514173269271850586f, -0.19273982942104339600f, 0.22294287383556365967f, -0.16239017248153686523f, -0.50002712011337280273f, -0.66181969642639160156f, -0.10721667855978012085f, 0.18269054591655731201f, -0.019221030175685882568f, 0.037089005112648010254f, -0.24824689328670501709f, -0.44799178838729858398f, -0.18913850188255310059f, -0.11714668571949005127f, -0.093209370970726013184f, -0.16893506050109863281f, 0.81198859214782714844f, -0.055940400809049606323f, 0.51543074846267700195f, 0.42307850718498229980f, -0.23168279230594635010f, -0.41648247838020324707f, -1.0857615470886230469f, -0.13509799540042877197f, 0.43328917026519775391f, 1.0302331447601318359f, -0.10097643733024597168f, 0.45602074265480041504f, -0.64231449365615844727f, -0.27894130349159240723f, -0.85799461603164672852f, 0.028903126716613769531f, -0.40823262929916381836f, 0.31536066532135009766f, 0.53771293163299560547f, 0.25904124975204467773f, -0.96588325500488281250f, 0.058066003024578094482f, -0.86028438806533813477f, 1.0131967067718505859f, 1.3223016262054443359f, 0.77374774217605590820f, -0.95765179395675659180f, -0.75651162862777709961f, -0.016941210255026817322f, 0.010026408359408378601f, -0.20552895963191986084f, 0.56873667240142822266f, -0.23838596045970916748f, -0.12339261174201965332f, 0.078813672065734863281f, -0.32725617289543151855f, 0.046972662210464477539f, 0.33725655078887939453f, -0.054982226341962814331f, 0.14188468456268310547f, 0.011931177228689193726f, -0.37234109640121459961f, 0.60374963283538818359f, -0.073494307696819305420f, 0.11428002268075942993f, -0.45006003975868225098f, -0.16454952955245971680f, -0.60590046644210815430f, -0.20544171333312988281f, -0.080650031566619873047f, 0.13127645850181579590f, 0.20871667563915252686f, -0.075138419866561889648f, -0.63055330514907836914f, -0.59418058395385742188f, 0.73111265897750854492f, -0.65513938665390014648f, -0.96972441673278808594f, 0.14431023597717285156f, 0.11545972526073455811f, 0.86468493938446044922f, 0.28712880611419677734f, -0.25013989210128784180f, -0.19079023599624633789f, 0.036250941455364227295f, -0.70119822025299072266f, -0.18080055713653564453f, -0.0014242194592952728271f, 0.090580016374588012695f, -0.19467653334140777588f, -0.52920347452163696289f, 0.92768573760986328125f, -0.55426806211471557617f, 0.19933809340000152588f, 0.0047395792789757251740f, -0.041147530078887939453f, 0.45181334018707275391f, 0.90388011932373046875f, 0.11894881725311279297f, -0.83441758155822753906f, -1.1717342138290405273f, -0.59236359596252441406f, -0.73330885171890258789f, -0.16949978470802307129f, 0.093775629997253417969f, -1.0901437997817993164f, -0.51410585641860961914f, -0.96756702661514282227f, -0.41252577304840087891f, -0.56507283449172973633f, -0.64343154430389404297f, 0.73714208602905273438f, -0.10814215987920761108f, -0.68214207887649536133f, -1.2725595235824584961f, -1.4606015682220458984f, -0.49042785167694091797f, 0.44614133238792419434f, 0.34022116661071777344f, -0.41722983121871948242f, 0.062664292752742767334f, -0.14077918231487274170f, 0.65991503000259399414f, -0.65559256076812744141f, -1.0700182914733886719f, 0.10004659742116928101f, -0.32048436999320983887f, -0.067575998604297637939f, -0.19348309934139251709f, -0.29119670391082763672f, -1.0068048238754272461f, -1.5208367109298706055f, 0.58161813020706176758f, 0.16106282174587249756f, -0.53325790166854858398f, 0.13295197486877441406f, -1.0909982919692993164f, -1.1622546911239624023f, 0.081170529127120971680f, 0.45689770579338073730f, 0.29346731305122375488f, 1.0155807733535766602f, -0.35165706276893615723f, 0.83313012123107910156f, -0.13287650048732757568f, -0.20155322551727294922f, 0.16202382743358612061f, 0.53031319379806518555f, 0.094627805054187774658f, -0.10314727574586868286f, 0.19274249672889709473f, -0.97326582670211791992f, 0.13608311116695404053f, -0.099610097706317901611f, -0.062371183186769485474f, 0.64523738622665405273f, -0.060180943459272384644f, -0.38364845514297485352f, -0.22761470079421997070f, 0.12428009510040283203f, 0.083089977502822875977f, -0.16108447313308715820f, -0.18832187354564666748f, 0.15405626595020294189f, -0.51791000366210937500f, -0.20769372582435607910f, -0.65266901254653930664f, 0.34004393219947814941f, 0.10409487038850784302f, 0.46928331255912780762f, -0.019779242575168609619f, -1.1963123083114624023f, -1.1616113185882568359f, -1.3282723426818847656f, -0.037726644426584243774f, 0.28156745433807373047f, -0.22502684593200683594f, -0.65927886962890625000f, 0.10460736602544784546f, -0.70050913095474243164f, 0.25167003273963928223f, -1.1612528562545776367f, -0.39569410681724548340f, 0.30121365189552307129f, 0.22035859525203704834f, 0.023927999660372734070f, -0.40932640433311462402f, -0.95910656452178955078f, -0.48741638660430908203f, -0.061476871371269226074f, 0.16498330235481262207f, -0.17814499139785766602f, -0.31924602389335632324f, -0.80737656354904174805f, 0.40932959318161010742f, -0.54371547698974609375f, -1.2490162849426269531f, -1.2604278326034545898f, -0.26212540268898010254f, 0.25193524360656738281f, -0.068294897675514221191f, -0.35191693902015686035f, -0.15057197213172912598f, 0.37285950779914855957f, 0.24271580576896667480f, 0.054192360490560531616f, 0.18486595153808593750f, -0.13444612920284271240f, 0.33409285545349121094f, 0.41911926865577697754f, -0.45843887329101562500f, 0.13962502777576446533f, 0.067506089806556701660f, -2.3183047771453857422f, -0.15089547634124755859f, 0.43706393241882324219f, -0.99319547414779663086f, 0.25233480334281921387f, 0.44367513060569763184f, -0.35416615009307861328f, 0.50575602054595947266f, 0.83935266733169555664f, -0.92966997623443603516f, 0.15911479294300079346f, 0.33932143449783325195f, 0.016791306436061859131f, -0.055929884314537048340f, 0.098418757319450378418f, 0.0070228306576609611511f, -0.062237489968538284302f, -0.075717709958553314209f, -0.13526996970176696777f, -0.17637963593006134033f, -0.077404625713825225830f, -0.022536179050803184509f, -0.086494192481040954590f, -0.069103956222534179688f, -0.14871487021446228027f, -0.051219217479228973389f, 0.010940925218164920807f, -0.035402767360210418701f, 0.0025677005760371685028f, 0.099926955997943878174f, -0.057830523699522018433f, -0.035287823528051376343f, 0.14955277740955352783f, -0.055995345115661621094f, 0.17721980810165405273f, 0.10031146556138992310f, -0.45058014988899230957f, -0.11863670498132705688f, 0.16566847264766693115f, -0.090886913239955902100f, 0.10497514158487319946f, 0.10266579687595367432f, -0.10990602523088455200f, 0.15110784769058227539f, 0.041889291256666183472f, -0.042260970920324325562f, 0.071465224027633666992f, 0.017345858737826347351f, 0.024896390736103057861f, -0.055244941264390945435f, -0.073741190135478973389f, -0.18800766766071319580f, -0.76199132204055786133f, -0.26867690682411193848f, -0.27383092045783996582f, 0.18202091753482818604f, -0.22726984322071075439f, 0.061928045004606246948f, 0.074083402752876281738f, -0.48302781581878662109f, -0.46317997574806213379f, 0.054318692535161972046f, 0.094473958015441894531f, 0.86698055267333984375f, 0.73011541366577148438f, -0.40642303228378295898f, -0.77224558591842651367f, -0.21082976460456848145f, 0.12340077757835388184f, -0.89595973491668701172f, -1.1902662515640258789f, -1.8623229265213012695f, -0.59515935182571411133f, -1.0918085575103759766f, -1.3023489713668823242f, -2.9233937263488769531f, -1.0911593437194824219f, -0.24150703847408294678f, 0.30506089329719543457f, 0.20938079059123992920f, -0.74794363975524902344f, -0.53344243764877319336f, -0.64994263648986816406f, 0.010408971458673477173f, 0.58063501119613647461f, -0.38521370291709899902f, -1.9042778015136718750f, -0.010014609433710575104f, -0.023829070851206779480f, -0.010628667660057544708f, -0.030115671455860137939f, 0.032443363219499588013f, 0.0098599968478083610535f, 0.010717035271227359772f, 0.039503328502178192139f, -0.32661423087120056152f, -0.011287642642855644226f, -0.87823122739791870117f, 0.24365970492362976074f, 0.00077875622082501649857f, 0.019477346912026405334f, -0.11369968950748443604f, 0.33258280158042907715f, -0.93723356723785400391f, -0.19483423233032226562f, -0.10151646286249160767f, 0.20165565609931945801f, -0.34539562463760375977f, -0.84382832050323486328f, -1.2372851371765136719f, 0.023816199973225593567f, 0.080510161817073822021f, -0.40309152007102966309f, -0.37987533211708068848f, -0.10060212761163711548f, 0.58404260873794555664f, 0.42185544967651367188f, 0.014003913849592208862f, 0.53021812438964843750f, -0.70712900161743164062f, -0.16185228526592254639f, 0.41926848888397216797f, -0.14689037203788757324f, -0.0064962608739733695984f, 0.20620812475681304932f, 0.20727922022342681885f, -0.30514210462570190430f, -1.2247058153152465820f, -0.17175148427486419678f, 0.0027579246088862419128f, -0.52404332160949707031f, -0.34002938866615295410f, -0.81450802087783813477f, -0.64806658029556274414f, -0.44820156693458557129f, -0.051068712025880813599f, 0.69723498821258544922f, 0.10257187485694885254f, -0.039773490279912948608f, -0.15534804761409759521f, -0.076180078089237213135f, -0.093459874391555786133f, 0.73973941802978515625f, 1.0556517839431762695f, 1.1068990230560302734f, 0.37289941310882568359f, 0.34265568852424621582f, -0.15625619888305664062f, -0.20512783527374267578f, 0.43531751632690429688f, -0.22902753949165344238f, 0.36502364277839660645f, -0.0047501125372946262360f, -0.046940054744482040405f, 0.98211914300918579102f, 0.18839563429355621338f, -0.87267345190048217773f, -0.65982657670974731445f, -0.24023300409317016602f, -0.22848889231681823730f, 1.0731570720672607422f, 0.64671188592910766602f, 0.55972355604171752930f, 0.72732710838317871094f, -0.019353864714503288269f, 0.93025082349777221680f, -0.64044928550720214844f, -1.1265889406204223633f, -0.11048208177089691162f, 0.025538694113492965698f, 0.76185423135757446289f, -0.51473128795623779297f, -0.67703449726104736328f, -0.80252993106842041016f, 0.13367334008216857910f, -0.26504409313201904297f, 0.010179786942899227142f, -0.75884163379669189453f, -0.58309310674667358398f, -0.97452414035797119141f, -0.52265626192092895508f, -1.1409199237823486328f, -0.097972311079502105713f, -0.021768042817711830139f, -0.17861835658550262451f, -0.65182578563690185547f, -0.23854368925094604492f, 0.34330192208290100098f, 0.59901601076126098633f, -0.75610864162445068359f, 0.27822673320770263672f, -0.11328490078449249268f, 0.59554779529571533203f, 0.011038571596145629883f, -0.10731137543916702271f, 0.049927465617656707764f, 0.070955604314804077148f, 0.046417623758316040039f, 0.043804854154586791992f, 0.050410259515047073364f, 0.036922238767147064209f, 0.054133962839841842651f, 0.013648570515215396881f, -0.033236023038625717163f, -0.32367053627967834473f, -0.18890115618705749512f, -0.0075843548402190208435f, 0.086630254983901977539f, -0.036797985434532165527f, 0.042163912206888198853f, -0.091064833104610443115f, -0.34659194946289062500f, -0.17386689782142639160f, 0.080300226807594299316f, -0.11914033442735671997f, -0.14080992341041564941f, 0.25480282306671142578f, -0.059237971901893615723f, -0.11846326291561126709f, 0.039550561457872390747f, 0.047861076891422271729f, -0.10871262848377227783f, 0.073109224438667297363f, 0.20829559862613677979f, -0.080949164927005767822f, 0.073416925966739654541f, 0.013960373587906360626f, -0.043304029852151870728f, -0.13822373747825622559f, -0.020005783066153526306f, 0.050583202391862869263f, -0.026539511978626251221f, -0.042277399450540542603f, -0.018929336220026016235f, -0.046731919050216674805f, 0.033420830965042114258f, -0.019419183954596519470f, -0.019742717966437339783f, 0.00093967717839404940605f, -0.13796895742416381836f, -0.011842488311231136322f, -0.088047549128532409668f, 0.24910727143287658691f, 0.019238941371440887451f, 0.083788752555847167969f, 0.036214780062437057495f, -0.31182983517646789551f, -0.21425677835941314697f, -0.16620998084545135498f, 0.034696251153945922852f, -0.0028428363148123025894f, -0.23783341050148010254f, -0.063239395618438720703f, -0.13868425786495208740f, -0.10186732560396194458f, -0.080388620495796203613f, -0.30389949679374694824f, -0.14806069433689117432f, 0.070157848298549652100f, 0.16015003621578216553f, -0.079563356935977935791f, -0.056495495140552520752f, -0.061798471957445144653f, -0.15606018900871276855f, 0.12252475321292877197f, 0.18530070781707763672f, -0.011872416362166404724f},
  {0.19679565727710723877f, 0.41164979338645935059f, 0.60050940513610839844f, 0.90817230939865112305f, 0.54564958810806274414f, -0.40546292066574096680f, 0.055723916739225387573f, -0.66743391752243041992f, -0.19939582049846649170f, 0.73788845539093017578f, 0.74664068222045898438f, 0.52162688970565795898f, -0.28207919001579284668f, 0.039436846971511840820f, -0.72523146867752075195f, 0.064084537327289581299f, -0.18161264061927795410f, 0.50050801038742065430f, 0.12986643612384796143f, -0.094153299927711486816f, 0.70686459541320800781f, 0.091975592076778411865f, 0.017503365874290466309f, 0.25261640548706054688f, -0.037373092025518417358f, 0.18473047018051147461f, -0.40053752064704895020f, -1.0331492424011230469f, -0.22291614115238189697f, -0.93682444095611572266f, 0.49418953061103820801f, 0.34845930337905883789f, 0.65862822532653808594f, -1.2511266469955444336f, -0.55853658914566040039f, -0.68061804771423339844f, -0.0065190102905035018921f, -0.031836990267038345337f, 0.15596416592597961426f, 0.34215843677520751953f, -0.17538306117057800293f, 0.016063056886196136475f, -0.019569551572203636169f, 0.10009677708148956299f, 0.081302367150783538818f, 0.16536380350589752197f, 0.23510123789310455322f, -0.069350026547908782959f, -0.027448469772934913635f, 0.049750648438930511475f, 0.062630958855152130127f, 0.32808557152748107910f, 0.076293088495731353760f, -0.038527857512235641479f, -0.0053397845476865768433f, -0.0076159522868692874908f, 0.044668417423963546753f, 0.088963709771633148193f, 0.17704714834690093994f, -0.090807385742664337158f, 0.014689495787024497986f, 0.00023413139570038765669f, 0.073589839041233062744f, 0.20370103418827056885f, 0.025267379358410835266f, 0.095059826970100402832f, 0.019520815461874008179f, -0.060600455850362777710f, -0.092918343842029571533f, 0.10018891096115112305f, 0.0068186237476766109467f, 0.14507463574409484863f, 0.16346599161624908447f, 0.98451364040374755859f, 0.49255374073982238770f, 0.37928423285484313965f, 0.19506089389324188232f, 0.30689027905464172363f, -0.28833293914794921875f, 1.2162611484527587891f, 0.79556292295455932617f, -0.26237940788269042969f, -0.20848613977432250977f, 0.089646339416503906250f, 0.052935928106307983398f, 0.72752565145492553711f, -0.045416235923767089844f, 0.44941866397857666016f, -0.73933094739913940430f, -0.014515588060021400452f, 0.043853506445884704590f, -1.1000859737396240234f, -0.36012095212936401367f, 0.18946577608585357666f, -0.40928304195404052734f, -1.5574415922164916992f, -0.019003445282578468323f, -1.2788944244384765625f, 0.38016226887702941895f, -0.25081941485404968262f, 0.24078154563903808594f, 1.3437410593032836914f, 0.020842874422669410706f, 0.21226918697357177734f, -0.097559325397014617920f, -0.15037126839160919189f, 0.37845531105995178223f, 1.2730858325958251953f, 0.093796923756599426270f, 0.079046942293643951416f, 0.029760884121060371399f, 0.10965466499328613281f, 0.031126968562602996826f, 0.051619835197925567627f, 0.051529467105865478516f, -0.011588193476200103760f, -0.094210751354694366455f, -0.045920833945274353027f, -0.046589173376560211182f, -0.060449559241533279419f, 0.068113975226879119873f, 0.0071330857463181018829f, -0.16656084358692169189f, 0.20139248669147491455f, -0.082686170935630798340f, -0.076875500380992889404f, 0.069472774863243103027f, 0.0082508008927106857300f, -0.18938940763473510742f, 0.21115559339523315430f, -0.033753912895917892456f, -0.053350631147623062134f, 0.075318239629268646240f, -0.050232864916324615479f, -0.13145746290683746338f, 0.28142866492271423340f, -0.16706463694572448730f, -0.021801613271236419678f, 0.079312019050121307373f, -0.037631411105394363403f, -0.0032352481503039598465f, -0.0029235484544187784195f, 0.011985043995082378387f, 0.022501872852444648743f, 0.051712747663259506226f, -0.42927160859107971191f, -0.050949078053236007690f, 0.59373050928115844727f, 0.61185669898986816406f, -0.19636745750904083252f, -0.15959072113037109375f, -0.49522179365158081055f, -0.078451089560985565186f, 0.53500479459762573242f, 0.38753351569175720215f, 0.65587574243545532227f, -0.37564995884895324707f, -0.022292722016572952271f, -0.61553037166595458984f, -0.38391748070716857910f, -0.32924890518188476562f, -0.12069078534841537476f, 0.12047826498746871948f, 0.30791011452674865723f, 0.55408149957656860352f, -0.060591511428356170654f, -2.0202624797821044922f, -0.25930923223495483398f, -1.2227149009704589844f, -0.31622156500816345215f, 0.10313738882541656494f, -1.2209221124649047852f, 0.88020741939544677734f, 0.75382643938064575195f, -0.75928127765655517578f, -0.19682547450065612793f, -0.52008640766143798828f, -0.34900832176208496094f, -0.66366934776306152344f, -0.82154822349548339844f, 0.074150592088699340820f, 0.19762127101421356201f, 0.33479750156402587891f, 0.0076871630735695362091f, 0.39149668812751770020f, 0.047406479716300964355f, 0.065219059586524963379f, 0.084022812545299530029f, 0.10584509372711181641f, 0.31985384225845336914f, 0.52894890308380126953f, 0.26002281904220581055f, 0.15752930939197540283f, -0.083349443972110748291f, 0.11418005824089050293f, 0.33469155430793762207f, -0.072804450988769531250f, 0.16842186450958251953f, 0.20137615501880645752f, 0.29023918509483337402f, -0.089070834219455718994f, 0.51786148548126220703f, 0.81596142053604125977f, 0.11240942776203155518f, -0.10100269317626953125f, -0.032052986323833465576f, -0.14511343836784362793f, 0.28128227591514587402f, 0.62908899784088134766f, -0.062153834849596023560f, 0.31287330389022827148f, 0.27589011192321777344f, 0.82708042860031127930f, 0.23134058713912963867f, 0.052485186606645584106f, -0.030198849737644195557f, -0.0014529564650729298592f, -0.017333405092358589172f, 0.014610686339437961578f, 0.016156783327460289001f, 0.00070283032255247235298f, 0.026217356324195861816f, -0.023468092083930969238f, -0.0057976501993834972382f, -0.0061157429590821266174f, -0.027811553329229354858f, -0.0072671035304665565491f, -0.017515067011117935181f, 0.0044840420596301555634f, -0.0018635299056768417358f, 0.0037224201951175928116f, 0.0078446911647915840149f, 0.0050845290534198284149f, 0.025557020679116249084f, 0.027096606791019439697f, 0.028342543169856071472f, 0.0080133695155382156372f, -0.012362668290734291077f, 0.024770282208919525146f, 0.018652241677045822144f, 0.019083913415670394897f, 0.022216502577066421509f, -0.0048034973442554473877f, -0.022232947871088981628f, -0.016127709299325942993f, -0.017651855945587158203f, 0.018928995355963706970f, -0.018615012988448143005f, 0.019935656338930130005f, 0.025488791987299919128f, -0.0070678191259503364563f, 0.0066204341128468513489f, 0.011552378535270690918f, 0.044655103236436843872f, 0.028199814260005950928f, 0.033986654132604598999f, 0.030966576188802719116f, 0.00088295125169679522514f, 0.025162147358059883118f, -0.0064926031045615673065f, 0.0078713577240705490112f, 0.020199486985802650452f, 0.049116596579551696777f, 0.019237186759710311890f, 0.042383771389722824097f, 0.031108975410461425781f, 0.059687707573175430298f, 0.0068410881794989109039f, 0.075401812791824340820f, 0.050108879804611206055f, 0.044946018606424331665f, 0.0093785943463444709778f, 0.067283414304256439209f, -0.11329572647809982300f, 0.050616301596164703369f, 0.051646329462528228760f, 0.031613152474164962769f, 0.042279530316591262817f, 0.0036221579648554325104f, 0.0082593448460102081299f, 0.038536440581083297729f, 0.013025285676121711731f, 0.032433193176984786987f, 0.031997937709093093872f, 0.022259354591369628906f, 0.0059407274238765239716f, 0.014189368113875389099f, 0.0088427346199750900269f, -0.045852854847908020020f, -0.22864557802677154541f, -0.99365401268005371094f, -0.027520887553691864014f, -0.36781471967697143555f, -0.12819065153598785400f, -0.18315096199512481689f, 0.13942664861679077148f, -0.029264705255627632141f, 0.098115243017673492432f, -0.32268896698951721191f, 0.24503564834594726562f, -0.41710373759269714355f, 0.15221874415874481201f, -0.80303406715393066406f, 0.63454777002334594727f, -0.52240264415740966797f, 0.10705853998661041260f, 0.016691237688064575195f, -0.28613632917404174805f, -0.46392366290092468262f, 0.69237053394317626953f, -0.072539106011390686035f, -0.63115715980529785156f, -0.57962328195571899414f, -0.18618196249008178711f, -0.79634106159210205078f, 0.90919297933578491211f, -0.64941012859344482422f, 0.49361744523048400879f, 0.14954806864261627197f, -0.41908484697341918945f, -0.068503111600875854492f, -0.10536675900220870972f, -0.22655120491981506348f, -0.018221247941255569458f, 0.053699310868978500366f, -0.16710740327835083008f, 0.95690965652465820312f, -0.79017704725265502930f, -0.33904296159744262695f, -0.019041026011109352112f, 0.025054825469851493835f, -0.28785035014152526855f, 0.90479278564453125000f, -0.32877972722053527832f, -0.19671685993671417236f, -0.58244329690933227539f, -0.21299439668655395508f, -0.25664550065994262695f, 0.33580851554870605469f, 0.25297963619232177734f, 0.18564212322235107422f, 0.12567406892776489258f, 0.29888743162155151367f, 0.046995010226964950562f, -0.17038533091545104980f, 0.70791780948638916016f, 0.72634613513946533203f, 0.61712545156478881836f, -0.57588833570480346680f, -0.32504895329475402832f, -0.23007169365882873535f, 1.3741036653518676758f, 0.17792704701423645020f, 0.057553593069314956665f, 0.50286310911178588867f, 0.13285450637340545654f, 0.12092974036931991577f, -0.033326644450426101685f, -0.086284950375556945801f, -0.19570764899253845215f, 0.080552965402603149414f, 0.44651523232460021973f, 0.18508796393871307373f, -1.3726652860641479492f, -0.44615614414215087891f, -0.15329016745090484619f, -0.64644110202789306641f, -0.029740802943706512451f, 0.39215612411499023438f, -0.51517558097839355469f, -0.72085303068161010742f, -0.89305156469345092773f, -0.52217918634414672852f, -0.33065941929817199707f, 0.19144523143768310547f, -1.1060129404067993164f, -0.89072090387344360352f, -0.58028709888458251953f, -0.082229211926460266113f, -1.0946053266525268555f, 0.63464450836181640625f, -0.91735512018203735352f, -0.66384828090667724609f, -0.68819850683212280273f, -0.87036103010177612305f, -1.2457649707794189453f, -1.2549878358840942383f, -0.88635188341140747070f, -0.91281634569168090820f, 0.98884934186935424805f, -0.13105086982250213623f, -0.20555700361728668213f, 0.27505317330360412598f, -0.0063654426485300064087f, 0.34139859676361083984f, 0.80425238609313964844f, 0.14185900986194610596f, 0.12661406397819519043f, 0.12021427601575851440f, 0.11278542131185531616f, 0.099539138376712799072f, 0.13868954777717590332f, 0.091873548924922943115f, 0.051785379648208618164f, 0.30354279279708862305f, -0.016362244263291358948f, 0.25383883714675903320f, 0.028773091733455657959f, 0.091476716101169586182f, 0.20961587131023406982f, 0.43668261170387268066f, 0.28299736976623535156f, 0.43737500905990600586f, 0.10351002216339111328f, 0.13585728406906127930f, 0.12140585482120513916f, 0.48700484633445739746f, -0.16758437454700469971f, 0.34502381086349487305f, 0.13962478935718536377f, 0.13298587501049041748f, 0.21633508801460266113f, 0.41965758800506591797f, 0.33337277173995971680f, 0.27517300844192504883f, 0.20204244554042816162f, 0.12915745377540588379f, 0.0044307485222816467285f, -0.050306241959333419800f, -0.28300878405570983887f, 0.049292754381895065308f, 0.14503872394561767578f, 0.10207549482583999634f, -0.029278131201863288879f, 0.23681260645389556885f, -0.50618451833724975586f, -0.28530931472778320312f, 0.094550855457782745361f, 0.14299945533275604248f, 0.41700714826583862305f, 0.21671482920646667480f, -1.3578968048095703125f, -0.52912813425064086914f, -0.50957924127578735352f, -0.38309934735298156738f, 0.22341126203536987305f, 0.35371953248977661133f, -1.0559717416763305664f, -0.10165031999349594116f, -0.71439623832702636719f, 0.13767534494400024414f, -0.19756960868835449219f, 0.20801779627799987793f, -0.38030856847763061523f, -0.46646499633789062500f, 0.61361926794052124023f, -0.12002863734960556030f, 0.49037885665893554688f, -0.43529665470123291016f, 0.59733557701110839844f, -0.010108263231813907623f, 0.087625652551651000977f, 0.32439994812011718750f, 0.15979985892772674561f, -0.30986803770065307617f, 0.48464143276214599609f, 0.66164135932922363281f, 0.94781678915023803711f, 0.090865127742290496826f, 0.073269411921501159668f, 0.34302628040313720703f, 0.34327983856201171875f, -0.054587647318840026855f, 0.064882963895797729492f, 0.063169635832309722900f, 0.29008993506431579590f, 0.23919437825679779053f, 0.74473559856414794922f, 0.077781818807125091553f, 0.16131980717182159424f, 0.047794099897146224976f, 0.28389707207679748535f, -1.2215574979782104492f, 0.43669387698173522949f, 0.46256732940673828125f, -0.31518846750259399414f, 0.097901552915573120117f, 0.13255643844604492188f, -0.18234483897686004639f, 0.74987787008285522461f, 0.35683599114418029785f, 0.023828146979212760925f, 0.069331772625446319580f, 0.050790648907423019409f, -0.72892856597900390625f, -0.36453068256378173828f, 0.12966836988925933838f, 0.11040248721837997437f, 0.063242271542549133301f, 0.15305064618587493896f, 1.8780875205993652344f, 0.65274000167846679688f, -0.031000332906842231750f, 0.091764561831951141357f, 0.76354140043258666992f, -0.62280040979385375977f, 0.039068587124347686768f, 0.085136011242866516113f, -0.50214087963104248047f, -1.1830624341964721680f, 0.24405668675899505615f, -0.40964034199714660645f, 0.64347553253173828125f, 0.093501314520835876465f, 0.94162732362747192383f, 1.0468347072601318359f, -0.047824755311012268066f, -0.92504674196243286133f, -0.77366417646408081055f, -0.14948202669620513916f, -0.16281329095363616943f, 0.19241352379322052002f, 0.64196270704269409180f, -0.18994010984897613525f, 0.29733338952064514160f, 0.50003606081008911133f, 0.48549768328666687012f, -0.27482056617736816406f, -2.6608202457427978516f, -0.49753856658935546875f, -0.24859571456909179688f, -0.048856392502784729004f, 0.028656564652919769287f, -1.1313381195068359375f, 0.27281960844993591309f, -0.26655566692352294922f, -0.025954473763704299927f, -0.24707670509815216064f, 0.076266556978225708008f, -0.83184367418289184570f, -0.047744087874889373779f, -0.14277128875255584717f, -0.27419617772102355957f, 0.62818366289138793945f, 0.51102083921432495117f, -0.077046148478984832764f, -0.15891692042350769043f, -0.31609421968460083008f, 0.098795779049396514893f, 0.40298238396644592285f, 0.17947199940681457520f, 0.27415111660957336426f, -0.33902764320373535156f, -0.0078466907143592834473f, -0.19195376336574554443f, -0.19043122231960296631f, -0.21585257351398468018f, 0.029034584760665893555f, 0.018601158633828163147f, 0.17985318601131439209f, 0.35019508004188537598f, -0.099774800240993499756f, -0.71973019838333129883f, -0.21644367277622222900f, -0.45204702019691467285f, 0.020714076235890388489f, 0.068869270384311676025f, -0.33653005957603454590f, 0.23697298765182495117f, 0.099608495831489562988f, -0.60692328214645385742f, 0.20766864717006683350f, -0.33123737573623657227f, -0.36044704914093017578f, -0.38038524985313415527f, -0.53745633363723754883f, 0.70323634147644042969f, 0.99055129289627075195f, 0.35595434904098510742f, -0.20780652761459350586f, 0.39580211043357849121f, 0.093399718403816223145f, -0.14721924066543579102f, 0.98641133308410644531f, 0.44620698690414428711f, 0.86038929224014282227f, -0.35543084144592285156f, 0.36979228258132934570f, -0.26315429806709289551f, 0.16747274994850158691f, -2.3846924304962158203f, -0.34095355868339538574f, 0.48431825637817382812f, -0.90517538785934448242f, 0.51987844705581665039f, -0.097628600895404815674f, -2.5914461612701416016f, 0.17184488475322723389f, 0.064728133380413055420f, -0.94499963521957397461f, -0.48948827385902404785f, -4.0726442337036132812f, -1.8413783311843872070f, -0.11611402779817581177f, -0.0067911525256931781769f, -0.47295337915420532227f, 0.32743558287620544434f, -0.80641365051269531250f, 1.0785176753997802734f, 0.17744362354278564453f, 0.52792716026306152344f, -0.039092957973480224609f, 0.56885999441146850586f, 0.60015678405761718750f, 0.59803265333175659180f, 0.56791329383850097656f, 0.58730405569076538086f, 0.60592573881149291992f, 0.58880203962326049805f, 0.46735826134681701660f, 0.88415753841400146484f, 0.19463449716567993164f, 0.67495417594909667969f, 0.44963544607162475586f, 0.58098071813583374023f, 0.69116842746734619141f, 1.2519518136978149414f, 0.84867364168167114258f, 1.2184928655624389648f, 0.62367206811904907227f, 0.57314628362655639648f, 0.61416125297546386719f, 1.0984590053558349609f, -0.18333508074283599854f, 0.97500562667846679688f, 0.57953107357025146484f, 0.57696479558944702148f, 0.75964462757110595703f, 1.0994918346405029297f, 0.72837430238723754883f, 0.77165043354034423828f, 0.66235440969467163086f, 0.60038560628890991211f, 0.39149868488311767578f, 0.22101007401943206787f, -0.0077385213226079940796f, 0.39521199464797973633f, 0.60061120986938476562f, 0.28662008047103881836f, 0.28771153092384338379f, 0.32133057713508605957f, 0.29699853062629699707f, 0.31316751241683959961f, 0.27855247259140014648f, 0.31976732611656188965f, 0.15801213681697845459f, 0.67528152465820312500f, -0.045381732285022735596f, 0.52719455957412719727f, 0.13815361261367797852f, 0.29140749573707580566f, 0.44852742552757263184f, 1.0045466423034667969f, 1.1277668476104736328f, 0.96125113964080810547f, 0.30801230669021606445f, 0.29743188619613647461f, 0.31557267904281616211f, 0.99498480558395385742f, -0.30516222119331359863f, 0.94703257083892822266f, 0.36263772845268249512f, 0.29669487476348876953f, 0.51550501585006713867f, 0.91881680488586425781f, 0.98310530185699462891f, 0.52974998950958251953f, 0.39296135306358337402f, 0.32766598463058471680f, 0.066009186208248138428f, 0.14437612891197204590f, -0.26882231235504150391f, 0.12007629126310348511f, 0.33027428388595581055f, 0.18843665719032287598f, 0.57270264625549316406f, -1.5691428184509277344f, -0.083603255450725555420f, -0.39805316925048828125f, 0.19575709104537963867f, -0.19804479181766510010f, 1.1053149700164794922f, 0.0056530227884650230408f, 0.44945988059043884277f, -0.18356172740459442139f, 0.19698822498321533203f, -0.20934490859508514404f, 0.095350168645381927490f, -0.12597410380840301514f, -0.15028408169746398926f, -0.39738231897354125977f, -0.97065335512161254883f, -0.20417149364948272705f, -1.3396728038787841797f, -3.1727955341339111328f, -0.67551022768020629883f, -0.24298417568206787109f, -1.0756081342697143555f, -0.85585963726043701172f, -2.3142399787902832031f, -2.3566465377807617188f, -0.54942631721496582031f, 0.53618061542510986328f, 0.79781508445739746094f, 0.067347839474678039551f, -0.37605684995651245117f, -2.0021479129791259766f, 0.28470045328140258789f, 0.25489753484725952148f, 0.35554820299148559570f, 0.018426472321152687073f, 0.019630830734968185425f, 0.26415365934371948242f, 0.61927747726440429688f, 0.10712088644504547119f, -0.12378365546464920044f, -0.026561442762613296509f, 0.26901268959045410156f, -0.20288911461830139160f, 0.29440182447433471680f, 0.83374047279357910156f, 0.25834593176841735840f, -0.0087361698970198631287f, 0.24775581061840057373f, 0.40456685423851013184f, 0.18425782024860382080f, 0.23817476630210876465f, 0.19230984151363372803f, 0.0097337085753679275513f, -0.036819051951169967651f, 0.16007615625858306885f, 0.25173139572143554688f, 0.55597597360610961914f, -0.044392421841621398926f, -0.021308943629264831543f, 0.24048526585102081299f, 0.15162403881549835205f, 0.62298637628555297852f, 0.010874295607209205627f, 0.40550822019577026367f, 0.17293222248554229736f, 0.20095495879650115967f, -0.48470285534858703613f, 0.62480139732360839844f, 0.47470775246620178223f, 0.42400223016738891602f, 0.40741598606109619141f, -0.30990490317344665527f, 0.090606726706027984619f, 0.17397421598434448242f, -0.24693623185157775879f, -0.22980411350727081299f, 0.56322473287582397461f, -0.27491289377212524414f, -0.68555545806884765625f, -0.060075044631958007812f, -0.73487174510955810547f, -0.11284033209085464478f, -0.82238131761550903320f, 0.13328906893730163574f, 0.032540246844291687012f, -0.48210898041725158691f, -1.3345009088516235352f, -0.43337580561637878418f, 0.51133739948272705078f, -0.47478836774826049805f, 0.46657007932662963867f, -1.0084490776062011719f, -1.1889438629150390625f, 0.37578532099723815918f, -0.21884594857692718506f, 0.83273160457611083984f, 0.54302090406417846680f, -1.2239789962768554688f, 0.53293681144714355469f, 0.58473968505859375000f, 0.36486274003982543945f, 1.3603576421737670898f, -0.13404302299022674561f, -1.0135861635208129883f, -0.70044046640396118164f, 0.31569743156433105469f, 0.023556085303425788879f, -0.020953034982085227966f, -0.28123065829277038574f, -0.69769173860549926758f, -0.21585732698440551758f, -0.91489601135253906250f, 0.064851723611354827881f, -0.79921621084213256836f, -0.31178718805313110352f, -1.4016650915145874023f, 0.79375636577606201172f, 0.96724271774291992188f, -0.030652042478322982788f, -0.43394237756729125977f, 0.11873171478509902954f, -0.73830729722976684570f, -0.039682004600763320923f, 0.31030309200286865234f, 0.34695053100585937500f, 0.72637140750885009766f, 1.6788634061813354492f, -0.45121210813522338867f, 0.26706346869468688965f, -0.77626705169677734375f, 0.096556499600410461426f, 1.0866572856903076172f, 1.1021664142608642578f, -0.13373765349388122559f, -0.74110615253448486328f, -0.39918574690818786621f, 0.0032890052534639835358f, 0.74753046035766601562f, -0.034948229789733886719f, -0.0061983722262084484100f, -0.41807848215103149414f, -0.26797717809677124023f, 0.048358075320720672607f, 0.18481053411960601807f, -0.12102162837982177734f, 0.17856441438198089600f, -0.41985651850700378418f, -0.10421881824731826782f, 0.20443943142890930176f, -0.28477716445922851562f, -0.0035914082545787096024f, 0.18482364714145660400f, 0.44188991189002990723f, 0.13528802990913391113f, 0.020670702680945396423f, -0.42533019185066223145f, -0.26563081145286560059f, -0.063830368220806121826f, -0.54412502050399780273f, -0.44784021377563476562f, 0.082995243370532989502f, -0.18686546385288238525f, 0.77775824069976806641f, -0.24168238043785095215f, -0.29363676905632019043f, 0.60379201173782348633f, 0.20262914896011352539f, 0.57628011703491210938f, 0.80772626399993896484f, 0.54439848661422729492f, 0.48579281568527221680f, -0.46670499444007873535f, -0.013835330493748188019f, 0.38117799162864685059f, -0.32778233289718627930f, -0.82172358036041259766f, -0.11085929721593856812f, 0.55495506525039672852f, 0.044031571596860885620f, -0.15151603519916534424f, -1.6875808238983154297f, -0.24426880478858947754f, -0.68109977245330810547f, 0.087822876870632171631f, -1.2095156908035278320f, 0.062953069806098937988f, 0.34125018119812011719f, 0.21674910187721252441f, -0.37825754284858703613f, 0.31734612584114074707f, -0.58436495065689086914f, 0.28852969408035278320f, -0.92347127199172973633f, 1.0769320726394653320f, -0.36337491869926452637f, -0.073412984609603881836f, -0.34752345085144042969f, -0.73084598779678344727f, -1.3260440826416015625f, 1.0181832313537597656f, -0.29311895370483398438f, -1.1888283491134643555f, -0.49018687009811401367f, -0.56685459613800048828f, -0.85036927461624145508f, 0.87847906351089477539f, -0.81528854370117187500f, 0.41743293404579162598f, 0.53304499387741088867f, -0.80833798646926879883f, -0.41844686865806579590f, 0.0034888864029198884964f, -0.10405810922384262085f, -0.29373002052307128906f, 0.030721286311745643616f, 0.047541126608848571777f, -0.083567626774311065674f, -0.033198807388544082642f, -0.052575968205928802490f, -0.030844043940305709839f, 0.026215648278594017029f, -0.062276631593704223633f, -0.10681696236133575439f, 0.0011887211585417389870f, -0.055785913020372390747f, 0.020869376137852668762f, 0.033094909042119979858f, -0.048321712762117385864f, -0.18032850325107574463f, 0.22183153033256530762f, -0.13461852073669433594f, -0.0046556689776480197906f, 0.047027830034494400024f, -0.054217655211687088013f, -0.18036177754402160645f, 0.25490921735763549805f, -0.071246273815631866455f, -0.051227629184722900391f, 0.051575332880020141602f, -0.084522381424903869629f, -0.17232182621955871582f, 0.27185723185539245605f, -0.16405203938484191895f, -0.030600897967815399170f, 0.040392514318227767944f, -0.017922870814800262451f, 0.020186481997370719910f, -0.030667046085000038147f, 0.0066613708622753620148f, -0.021346550434827804565f, 0.61764127016067504883f, 0.12053349614143371582f, -0.23588228225708007812f, -0.16272798180580139160f, -0.40354377031326293945f, -0.14046417176723480225f, -0.59673243761062622070f, -0.043262213468551635742f, 0.011758317239582538605f, -0.65772777795791625977f, -1.4952241182327270508f, 0.075462713837623596191f, -0.60512816905975341797f, 0.70424592494964599609f, 0.84721416234970092773f, -0.82564067840576171875f, -1.8589588403701782227f, -0.65015548467636108398f, 0.088579960167407989502f, -1.2352159023284912109f, -0.011242642998695373535f, -2.1526427268981933594f, -0.94013923406600952148f, -0.25608438253402709961f, -0.97003746032714843750f, 0.72929066419601440430f, 0.65710151195526123047f, -0.14001686871051788330f, 0.54685205221176147461f, 0.65281516313552856445f, 0.22371089458465576172f, 1.3632024526596069336f, -0.096446685492992401123f, -0.20904630422592163086f, -0.22554442286491394043f, 0.61356747150421142578f, 0.068274356424808502197f, 0.094670720398426055908f, 0.083503320813179016113f, 0.026736643165349960327f, 0.051334317773580551147f, 0.087129779160022735596f, 0.11695109307765960693f, 0.15240998566150665283f, -0.33411237597465515137f, -0.34589803218841552734f, -0.29891070723533630371f, -0.23995123803615570068f, 0.072335548698902130127f, 0.60462564229965209961f, 0.079605475068092346191f, -0.75976955890655517578f, -0.46417576074600219727f, -0.087174065411090850830f, 0.075405426323413848877f, -0.011175898835062980652f, -0.35842144489288330078f, -0.56097745895385742188f, 0.19173806905746459961f, 0.16305482387542724609f, 0.086672320961952209473f, 0.11152554303407669067f, 0.11173125356435775757f, 0.0042081610299646854401f, -0.031762570142745971680f, 0.56157201528549194336f, -0.15832988917827606201f, 0.27180731296539306641f, 0.27206459641456604004f, -0.084074147045612335205f, 0.20037539303302764893f, 0.28626683354377746582f, 0.039109878242015838623f, 0.032851774245500564575f, -0.012027971446514129639f, -0.58470892906188964844f, 0.89374732971191406250f, -0.97307568788528442383f, -0.053676400333642959595f, -0.56474018096923828125f, -0.18051846325397491455f, 0.96299594640731811523f, 0.76688343286514282227f, 0.52268064022064208984f, 0.010734113864600658417f, 0.16026128828525543213f, -1.1137419939041137695f, -0.79659003019332885742f, -0.32422024011611938477f, 0.34326457977294921875f, 0.094873346388339996338f, 0.84087204933166503906f, 0.26390722393989562988f, -0.044223938137292861938f, 0.12559014558792114258f, -0.41346344351768493652f, 0.021301191300153732300f, -0.12312862277030944824f, 0.14029982686042785645f, 0.034727655351161956787f, -0.39384654164314270020f, -0.98657792806625366211f, -0.035065189003944396973f, 0.70329582691192626953f, 0.61991220712661743164f, -0.28127250075340270996f, -0.39772021770477294922f, -0.69935339689254760742f, 0.30575519800186157227f, -0.88989824056625366211f, -0.015732323750853538513f, -2.6842334270477294922f, -1.7696520090103149414f, -1.3666965961456298828f, 0.033508725464344024658f, 0.079785957932472229004f, -0.25866618752479553223f, -2.1253705024719238281f, -2.2467136383056640625f, -1.0314186811447143555f, -0.71503913402557373047f, 0.24885961413383483887f, -0.15124124288558959961f, -1.7892683744430541992f, -1.4360337257385253906f, -0.79037594795227050781f, -0.35312926769256591797f, -0.96077406406402587891f, -0.30148264765739440918f, -1.8280172348022460938f, -0.81504350900650024414f, 0.21088467538356781006f, -1.2092757225036621094f, 0.16521728038787841797f, -1.1241647005081176758f, -0.92618077993392944336f, -0.85134410858154296875f, 0.74879348278045654297f, 0.0093922792002558708191f, 0.35118925571441650391f, -0.16627311706542968750f, -0.36028975248336791992f, 0.19566269218921661377f, 0.43076750636100769043f, 0.059755768626928329468f, 0.044144414365291595459f, 0.049841035157442092896f, 0.053118105977773666382f, 0.056339889764785766602f, 0.0059370640665292739868f, 0.019718484953045845032f, 0.0010457598837092518806f, 0.11247877776622772217f, -0.10316151380538940430f, 0.056370571255683898926f, -0.022852109745144844055f, 0.045360330492258071899f, 0.062245756387710571289f, 0.16789153218269348145f, 0.16597616672515869141f, 0.14373084902763366699f, 0.020069262012839317322f, 0.011460863985121250153f, 0.060211520642042160034f, 0.17565715312957763672f, -0.13011898100376129150f, 0.16671782732009887695f, 0.049948077648878097534f, 0.011241082102060317993f, 0.049195144325494766235f, 0.18102759122848510742f, 0.23752443492412567139f, 0.11529453098773956299f, 0.066065423190593719482f, 0.015891108661890029907f, -0.044509120285511016846f, -0.0017951533664017915726f, -0.15868161618709564209f, 0.011225805617868900299f, 0.060513317584991455078f, 0.099024608731269836426f, 0.099962636828422546387f, 0.017011389136314392090f, -0.0054508210159838199615f, 0.017349315807223320007f, 0.13567660748958587646f, 0.10773605108261108398f, 0.052754849195480346680f, 0.0061606019735336303711f, 0.024652069434523582458f, 0.00092527619563043117523f, 0.12045371532440185547f, 0.10798110812902450562f, 0.011932100169360637665f, 0.11285172402858734131f, -0.0091235693544149398804f, -0.053269337862730026245f, 0.0075762430205941200256f, 0.064034439623355865479f, 0.030128709971904754639f, 0.13358291983604431152f, -0.13143789768218994141f, -0.050437446683645248413f, 0.12385477870702743530f, 0.10270976275205612183f, 0.16189281642436981201f, 0.22798512876033782959f, 0.047857422381639480591f, 0.056913714855909347534f, 0.063832990825176239014f, 0.059986084699630737305f, 0.20518966019153594971f, -0.021463233977556228638f, -0.19054333865642547607f, 0.13455060124397277832f, 0.14467956125736236572f},
  {0.078237049281597137451f, -0.069964654743671417236f, 0.10575784742832183838f, -0.46555396914482116699f, -0.46143159270286560059f, -0.91799771785736083984f, -0.47849565744400024414f, -0.049632441252470016479f, 0.16553144156932830811f, -0.16798022389411926270f, -1.1488363742828369141f, -0.79203963279724121094f, -0.033041141927242279053f, 0.46114003658294677734f, -0.030868131667375564575f, -0.32179346680641174316f, 0.25876960158348083496f, 0.34792599081993103027f, 0.15369981527328491211f, -0.23916400969028472900f, 0.49969393014907836914f, 0.52987927198410034180f, 0.33569607138633728027f, 1.6611698865890502930f, 0.10243207961320877075f, -0.020580066367983818054f, -0.29612177610397338867f, 0.70063960552215576172f, 0.82576805353164672852f, 0.83926939964294433594f, 0.19650645554065704346f, -0.83683556318283081055f, -0.71498405933380126953f, -0.51979607343673706055f, 0.0058674863539636135101f, -0.047619938850402832031f, 0.039493128657341003418f, 0.018815839663147926331f, -0.035681873559951782227f, -0.029463538900017738342f, 0.0080632958561182022095f, 0.031049648299813270569f, 0.010737424716353416443f, 0.034911546856164932251f, 0.084735698997974395752f, 0.19659206271171569824f, 0.10241635888814926147f, 0.036673385649919509888f, 0.0037474089767783880234f, -0.054041024297475814819f, -0.23948702216148376465f, 0.038984440267086029053f, 0.051127232611179351807f, -0.0023957616649568080902f, 0.051844779402017593384f, -0.062029007822275161743f, 0.11757691949605941772f, 0.21763354539871215820f, -0.060147132724523544312f, -0.21823523938655853271f, 0.025500113144516944885f, -0.0010555608896538615227f, -0.17498591542243957520f, -0.13457617163658142090f, 0.15033349394798278809f, 0.30056437849998474121f, 0.047522742301225662231f, 0.0049124117940664291382f, -0.15952490270137786865f, -0.025605846196413040161f, 0.16014830768108367920f, 0.11493569612503051758f, 0.16827806830406188965f, 0.47384801506996154785f, 0.076301723718643188477f, -0.40976855158805847168f, -0.18194147944450378418f, -0.18347038328647613525f, -0.032984841614961624146f, -0.55096405744552612305f, -0.40363660454750061035f, 0.22998641431331634521f, -0.16538302600383758545f, -0.23833973705768585205f, -0.20666466653347015381f, -0.22717714309692382812f, 0.29691490530967712402f, 1.0646398067474365234f, -0.41514137387275695801f, -0.35249266028404235840f, -0.30862888693809509277f, -1.8476883172988891602f, -0.79056149721145629883f, 1.3681349754333496094f, -0.91279667615890502930f, -0.48146152496337890625f, -0.80122631788253784180f, -1.1593840122222900391f, -1.3613845109939575195f, -0.14631241559982299805f, 1.3472669124603271484f, 1.0537066459655761719f, 0.093566887080669403076f, -0.54607129096984863281f, -0.81490653753280639648f, -0.49016770720481872559f, 1.9138604402542114258f, 1.7637594938278198242f, 0.028946612030267715454f, 0.0033132785465568304062f, 0.040504265576601028442f, 0.047589931637048721313f, 0.044421043246984481812f, -0.023095121607184410095f, 0.062812194228172302246f, 0.068596899509429931641f, 0.12160770595073699951f, 0.036465462297201156616f, -0.045695453882217407227f, -0.060625072568655014038f, 0.0075675933621823787689f, -0.062412209808826446533f, -0.19066300988197326660f, -0.090695753693580627441f, 0.062120001763105392456f, 0.0071661584079265594482f, 0.095100112259387969971f, -0.038707647472620010376f, -0.047940567135810852051f, -0.0089899655431509017944f, -0.044040441513061523438f, 0.094573825597763061523f, 0.075230151414871215820f, 0.16588301956653594971f, 0.16092924773693084717f, 0.12708804011344909668f, -0.035810697823762893677f, 0.20162846148014068604f, 0.064044080674648284912f, 0.058954533189535140991f, 0.011623543687164783478f, -0.18157008290290832520f, -0.0074744424782693386078f, -0.0052602780051529407501f, -0.10362213104963302612f, -0.16592279076576232910f, 0.43257221579551696777f, -0.13727483153343200684f, -0.62369084358215332031f, 0.58090591430664062500f, 0.76950794458389282227f, 0.69790661334991455078f, 0.30890810489654541016f, -0.27596092224121093750f, 0.022598693147301673889f, -0.064903177320957183838f, -0.35646069049835205078f, -0.071923382580280303955f, -1.0304788351058959961f, -0.46581184864044189453f, -0.21964640915393829346f, 0.75133424997329711914f, -0.057921878993511199951f, -0.57527095079421997070f, 0.17807914316654205322f, 0.20686821639537811279f, 0.53075218200683593750f, 1.1644952297210693359f, 0.28072652220726013184f, 0.54587221145629882812f, 1.3253070116043090820f, 0.20792907476425170898f, -0.40935906767845153809f, -1.4398814439773559570f, 0.63077765703201293945f, 0.71896445751190185547f, -0.57738578319549560547f, 0.043399259448051452637f, -1.5994071960449218750f, -1.5230870246887207031f, 0.017918173223733901978f, -0.055639412254095077515f, -0.068405449390411376953f, -0.48665168881416320801f, -0.64887547492980957031f, -0.10038813948631286621f, 0.22524660825729370117f, -0.10230351239442825317f, 0.0095306057482957839966f, 0.44752427935600280762f, -0.10987596213817596436f, -0.66131258010864257812f, 0.35063290596008300781f, 0.36663722991943359375f, -0.16498258709907531738f, 0.16103163361549377441f, 0.57504099607467651367f, -0.17296718060970306396f, 0.037348151206970214844f, 0.37075001001358032227f, 0.0027600559405982494354f, -0.53910875320434570312f, 0.26702120900154113770f, 0.065138436853885650635f, 0.15974451601505279541f, -0.16322191059589385986f, 0.69779056310653686523f, -0.32894718647003173828f, -0.67844074964523315430f, -0.22239509224891662598f, 0.11872629076242446899f, -0.085444882512092590332f, 0.33646985888481140137f, -0.71378695964813232422f, -0.87021631002426147461f, -0.15433625876903533936f, 0.026501039043068885803f, 0.0024587910156697034836f, 0.015560753643512725830f, 0.012595192529261112213f, -0.028447158634662628174f, -0.0030470907222479581833f, 0.0058077163994312286377f, 0.022425130009651184082f, 0.021823830902576446533f, 0.022422298789024353027f, 0.025898518040776252747f, -0.0087581612169742584229f, -0.014278014190495014191f, -0.018269384279847145081f, -0.0029607003089040517807f, 0.028470905497670173645f, 0.017663445323705673218f, -0.026995340362191200256f, -0.0029189819470047950745f, -0.023167083039879798889f, -0.018313610926270484924f, 0.015594653785228729248f, -0.0087133310735225677490f, 0.017843950539827346802f, 0.016020389273762702942f, 0.0028393419925123453140f, 0.018139041960239410400f, 0.011393164284527301788f, -0.0017494137864559888840f, -0.014063159935176372528f, -0.026379620656371116638f, -0.015602805651724338531f, -0.0051115136593580245972f, 0.015773991122841835022f, -0.025336863473057746887f, -0.013752910308539867401f, -0.0033699350897222757339f, -0.011936984024941921234f, 0.015269620344042778015f, 0.039560381323099136353f, -0.0017927385633811354637f, -0.0039104339666664600372f, 0.011265364475548267365f, 0.015237015672028064728f, 0.019272141158580780029f, -0.016223680227994918823f, 0.0079685887321829795837f, 0.0023323621135205030441f, 0.0021803111303597688675f, 0.019192887470126152039f, 0.040814720094203948975f, 0.0053599630482494831085f, 0.0091788098216056823730f, 0.025629274547100067139f, 0.020911332219839096069f, 0.022648779675364494324f, 0.043700132519006729126f, 0.025040509179234504700f, -0.017309980466961860657f, -0.0017294773133471608162f, 0.0033981227315962314606f, 0.031685296446084976196f, -0.030802164226770401001f, -0.035337254405021667480f, -0.022545883432030677795f, 0.012945182621479034424f, 0.0086096180602908134460f, 0.024262838065624237061f, 0.021802065894007682800f, 0.0012129063252359628677f, 0.027254968881607055664f, 0.038184288889169692993f, -0.24560135602951049805f, 0.10997664928436279297f, 0.61133819818496704102f, 0.090082518756389617920f, -0.22940231859683990479f, 0.44255745410919189453f, 0.82956624031066894531f, 0.11288184672594070435f, 0.22705103456974029541f, -0.056292429566383361816f, 0.064330786466598510742f, -0.26696062088012695312f, -0.20380826294422149658f, -0.61956238746643066406f, -1.1423723697662353516f, -0.094226099550724029541f, -0.012468728236854076385f, 0.078011177480220794678f, 0.86232852935791015625f, -0.43487516045570373535f, -0.035039644688367843628f, -0.22870455682277679443f, 0.17531302571296691895f, -0.10399476438760757446f, 0.97554373741149902344f, 0.27162718772888183594f, 0.72591072320938110352f, 0.57984888553619384766f, 0.12466765940189361572f, 0.42665910720825195312f, 0.48478138446807861328f, -0.13901488482952117920f, 0.042135447263717651367f, -0.19701053202152252197f, -0.14747557044029235840f, -0.16311386227607727051f, -0.047084927558898925781f, 0.098175331950187683105f, -0.47742387652397155762f, 0.29849445819854736328f, -0.060422077775001525879f, 0.0080866347998380661011f, -0.41250863671302795410f, -0.23774798214435577393f, 0.035742118954658508301f, 1.0066477060317993164f, -0.17133085429668426514f, -0.13119050860404968262f, 0.29272386431694030762f, 0.31576716899871826172f, 1.2128846645355224609f, 0.92023390531539916992f, 0.15847772359848022461f, -0.44227987527847290039f, -0.41731503605842590332f, 0.033108029514551162720f, -1.3820918798446655273f, -0.98620086908340454102f, 0.26065504550933837891f, -0.81723314523696899414f, -0.30240449309349060059f, -0.39383655786514282227f, -0.90128201246261596680f, -0.79508227109909057617f, -1.0084079504013061523f, 0.54719966650009155273f, 0.084802538156509399414f, -0.075078740715980529785f, 0.18833656609058380127f, -0.070281796157360076904f, 1.9768245220184326172f, 1.6844563484191894531f, -0.061824154108762741089f, 0.24524118006229400635f, 1.2561253309249877930f, 2.1011681556701660156f, -0.22801159322261810303f, 0.11062248796224594116f, 0.80569225549697875977f, -0.52024495601654052734f, 0.11147349327802658081f, 0.52245348691940307617f, 0.53092151880264282227f, 1.2204108238220214844f, 0.021691400557756423950f, -0.070233561098575592041f, -0.72495818138122558594f, -0.59909510612487792969f, -0.28321111202239990234f, 0.26230594515800476074f, -0.42319825291633605957f, -1.0235900878906250000f, -0.43446740508079528809f, -0.74528437852859497070f, -0.77112132310867309570f, -1.9295849800109863281f, 0.59043312072753906250f, 0.93404823541641235352f, -0.21564175188541412354f, -0.47380381822586059570f, 0.17433123290538787842f, -0.75866228342056274414f, 0.39977490901947021484f, 1.2142256498336791992f, 0.46248960494995117188f, -0.25742530822753906250f, 0.57004553079605102539f, 0.74857902526855468750f, 0.067258156836032867432f, 0.056602891534566879272f, 0.099967703223228454590f, 0.072188898921012878418f, 0.069700859487056732178f, 0.057656858116388320923f, 0.065131433308124542236f, 0.19376863539218902588f, 0.045286837965250015259f, 0.32599231600761413574f, -0.044905528426170349121f, -0.023207111284136772156f, 0.094163835048675537109f, -0.012919726781547069550f, -0.15161716938018798828f, 0.31796014308929443359f, 0.26858979463577270508f, 0.16908121109008789062f, 0.075914017856121063232f, 0.25820863246917724609f, 0.062891542911529541016f, 0.16236145794391632080f, 0.17932350933551788330f, 0.078645281493663787842f, 0.052312549203634262085f, -0.20283578336238861084f, -0.62334841489791870117f, -0.14298062026500701904f, -0.24175271391868591309f, 0.11323381215333938599f, 0.043661110103130340576f, -0.019770191982388496399f, -0.44168573617935180664f, -0.040452402085065841675f, 0.24787224829196929932f, 0.10862714052200317383f, -0.093355447053909301758f, -0.072861492633819580078f, 0.15546229481697082520f, 0.60735946893692016602f, 0.027754405513405799866f, -0.10918594151735305786f, -0.081123359501361846924f, 0.48411601781845092773f, 0.67562317848205566406f, 0.0079179871827363967896f, -0.47650101780891418457f, -0.68911528587341308594f, 0.47665047645568847656f, 0.33164981007575988770f, 0.93638449907302856445f, 0.23896832764148712158f, -0.92782348394393920898f, -1.0367126464843750000f, -0.017449613660573959351f, 0.0076797977089881896973f, 0.31223970651626586914f, -0.72664177417755126953f, -0.75948435068130493164f, -0.017597388476133346558f, 0.031587585806846618652f, -0.55906885862350463867f, -1.5477324724197387695f, -0.18871885538101196289f, 0.13603898882865905762f, 1.2144430875778198242f, 0.14118339121341705322f, -0.24700534343719482422f, -0.32574477791786193848f, 0.32259950041770935059f, 0.79509508609771728516f, 1.2498004436492919922f, 0.047686032950878143311f, 0.023395948112010955811f, -0.060444716364145278931f, 0.090941555798053741455f, -0.31171303987503051758f, 0.064896583557128906250f, 0.058696761727333068848f, 0.28224903345108032227f, 0.31431698799133300781f, -0.62207591533660888672f, 0.69131010770797729492f, -0.21939350664615631104f, -0.0052525885403156280518f, -0.71445095539093017578f, -0.24677267670631408691f, 0.096087589859962463379f, 0.41917321085929870605f, 0.15135572850704193115f, 0.016719780862331390381f, -0.66042077541351318359f, -1.1982330083847045898f, 0.25081059336662292480f, -0.38786861300468444824f, -0.21409082412719726562f, -0.018986279144883155823f, -0.0021852895151823759079f, 0.29127305746078491211f, -0.15359653532505035400f, -0.26785027980804443359f, 0.36181253194808959961f, 0.040124692022800445557f, -0.14208173751831054688f, -0.41380468010902404785f, -0.30994427204132080078f, -0.012120888568460941315f, -0.50974923372268676758f, -0.73358875513076782227f, 0.57080692052841186523f, 0.29914945363998413086f, -0.88731825351715087891f, -1.4004095792770385742f, -0.27537742257118225098f, 0.081328608095645904541f, -0.25582244992256164551f, -0.16526506841182708740f, 0.20925477147102355957f, 0.58657753467559814453f, 0.39893862605094909668f, -0.10777542740106582642f, -0.87548375129699707031f, -0.64689630270004272461f, 0.097005359828472137451f, 0.57248818874359130859f, 1.2105759382247924805f, -0.20824156701564788818f, -0.93728142976760864258f, -0.86075913906097412109f, -0.12216635048389434814f, 0.37803232669830322266f, -0.61463201045989990234f, 0.10219133645296096802f, 0.39470025897026062012f, 0.78281706571578979492f, -0.74866396188735961914f, -0.45152479410171508789f, -1.3625012636184692383f, -0.24739855527877807617f, 0.54899120330810546875f, -0.14393185079097747803f, -0.49622166156768798828f, -1.6543241739273071289f, -0.79827833175659179688f, -0.23870556056499481201f, 0.28450280427932739258f, 0.27225309610366821289f, -0.22784036397933959961f, -0.085311099886894226074f, 0.38073801994323730469f, 1.0356389284133911133f, 0.36974769830703735352f, 0.70197051763534545898f, -0.15026481449604034424f, -0.0061510954983532428741f, -0.55512058734893798828f, 0.076017498970031738281f, -0.012570024468004703522f, -0.90964061021804809570f, -0.25485146045684814453f, -0.26151636242866516113f, 0.44965800642967224121f, 0.53591901063919067383f, -0.39917442202568054199f, 0.043215345591306686401f, 0.25198081135749816895f, -0.084589585661888122559f, 0.31843915581703186035f, 0.88809257745742797852f, 0.32015550136566162109f, 0.71666872501373291016f, 0.15579062700271606445f, -0.097562976181507110596f, -0.14565633237361907959f, 1.1034946441650390625f, 0.058023300021886825562f, -0.29285582900047302246f, -0.075996018946170806885f, -0.43603047728538513184f, -0.91060358285903930664f, -0.13731274008750915527f, -0.86143028736114501953f, 0.77412205934524536133f, -0.21995009481906890869f, 0.44890296459197998047f, -0.058517709374427795410f, -0.049446005374193191528f, -1.1817311048507690430f, -0.89981561899185180664f, -0.18891912698745727539f, 0.44726097583770751953f, -0.12963613867759704590f, 0.59347718954086303711f, -2.0998139381408691406f, -1.4369398355484008789f, -0.59329599142074584961f, 0.39588189125061035156f, 0.43594777584075927734f, -0.91461259126663208008f, -2.1613357067108154297f, -1.7307065725326538086f, -0.085023939609527587891f, -0.48650541901588439941f, -0.50469410419464111328f, -1.3499923944473266602f, 0.44485971331596374512f, 0.76596248149871826172f, -0.54438376426696777344f, -0.31666564941406250000f, -0.59079474210739135742f, -0.38203516602516174316f, 0.35277977585792541504f, -1.2295540571212768555f, -0.99930739402770996094f, -0.037846907973289489746f, -0.83503299951553344727f, 0.17858296632766723633f, 0.20704123377799987793f, 0.21953497827053070068f, 0.19876651465892791748f, 0.19493424892425537109f, 0.22817741334438323975f, 0.20612028241157531738f, 0.32520645856857299805f, 0.11923684924840927124f, 0.53853714466094970703f, -0.16903619468212127686f, -0.024464992806315422058f, 0.17757490277290344238f, 0.082335345447063446045f, -0.21418690681457519531f, 0.53229397535324096680f, 0.57161909341812133789f, 0.44566786289215087891f, 0.19329938292503356934f, 0.50845181941986083984f, 0.13409252464771270752f, 0.43941897153854370117f, 0.28726106882095336914f, 0.18850214779376983643f, 0.22517581284046173096f, -0.17175504565238952637f, -1.2850980758666992188f, -0.26911276578903198242f, -0.35312724113464355469f, 0.25094550848007202148f, 0.23002068698406219482f, 0.049732614308595657349f, -0.51726770401000976562f, 0.063830465078353881836f, 0.58296769857406616211f, 0.22909969091415405273f, 0.21234320104122161865f, 0.18713898956775665283f, 0.19274029135704040527f, 0.19005393981933593750f, 0.17742975056171417236f, 0.19248701632022857666f, 0.18230108916759490967f, 0.30930194258689880371f, 0.084884904325008392334f, 0.48917347192764282227f, -0.35442528128623962402f, -0.11096593737602233887f, 0.20271888375282287598f, -0.068621411919593811035f, -0.13310429453849792480f, 0.49782094359397888184f, 0.60724794864654541016f, 0.36395585536956787109f, 0.17793124914169311523f, 0.45823884010314941406f, 0.15992943942546844482f, 0.31070572137832641602f, 0.56780970096588134766f, 0.14484138786792755127f, 0.17393584549427032471f, -0.38128668069839477539f, -1.2247712612152099609f, -0.21730306744575500488f, -0.67564463615417480469f, 0.060968823730945587158f, 0.16207124292850494385f, 0.019890852272510528564f, -0.74176365137100219727f, -0.35447230935096740723f, 0.54175269603729248047f, 0.17521761357784271240f, -0.20057764649391174316f, -0.15757675468921661377f, 1.4187197685241699219f, 0.28921020030975341797f, 1.0593329668045043945f, -0.35993114113807678223f, -1.0425833463668823242f, -0.57868778705596923828f, -0.0074707185849547386169f, 0.42530083656311035156f, 0.52778035402297973633f, 0.47614023089408874512f, -0.057638123631477355957f, -1.1658036708831787109f, -0.45041745901107788086f, -0.43669021129608154297f, 0.31177809834480285645f, 0.45503944158554077148f, 0.39293172955513000488f, -2.0057938098907470703f, -0.76251620054244995117f, -0.28346231579780578613f, -0.050490524619817733765f, -0.26939919590950012207f, 0.20743840932846069336f, 0.15160576999187469482f, 0.71668028831481933594f, 0.64529991149902343750f, 0.50867617130279541016f, -0.76464211940765380859f, 0.66527479887008666992f, 0.68741869926452636719f, 0.74158221483230590820f, 0.69454669952392578125f, 0.13735085725784301758f, -0.56457579135894775391f, -0.024357723072171211243f, -0.0023513217456638813019f, -0.20211368799209594727f, -0.26010197401046752930f, -0.25092595815658569336f, -0.097807630896568298340f, -0.025075083598494529724f, -0.19730605185031890869f, 0.21797582507133483887f, 0.62812012434005737305f, -0.27919802069664001465f, 0.10853561013936996460f, 0.13099841773509979248f, -0.45193371176719665527f, -0.68379348516464233398f, -0.15830662846565246582f, -0.17022547125816345215f, -0.54991775751113891602f, -0.0098753459751605987549f, 0.18740567564964294434f, 0.021499732509255409241f, 0.87944698333740234375f, 0.029271347448229789734f, -0.64436727762222290039f, -0.097468093037605285645f, -0.10546032339334487915f, -0.27933198213577270508f, 0.17489132285118103027f, 0.027557453140616416931f, 0.72849249839782714844f, -0.26868820190429687500f, -0.091593638062477111816f, 0.011534390971064567566f, -0.37638998031616210938f, 0.16440388560295104980f, 0.17472697794437408447f, -0.40619888901710510254f, 0.17317055165767669678f, 0.0046510547399520874023f, 0.19006107747554779053f, 0.026357140392065048218f, 0.0026074193883687257767f, 0.057067271322011947632f, -0.19971987605094909668f, 0.092380747199058532715f, -0.14167614281177520752f, -0.79816412925720214844f, -0.55525338649749755859f, -0.78775048255920410156f, 0.062808521091938018799f, -0.47162887454032897949f, -0.63169074058532714844f, -0.69461297988891601562f, -0.62350356578826904297f, 1.8767352104187011719f, 0.99988412857055664062f, 0.33192571997642517090f, 0.36180698871612548828f, 0.45543673634529113770f, 1.2973394393920898438f, 0.97215116024017333984f, -0.084590159356594085693f, -0.070859417319297790527f, 0.48621037602424621582f, 0.50991022586822509766f, 1.1951934099197387695f, -1.3402168750762939453f, -1.4060345888137817383f, -0.44154047966003417969f, 0.22100083529949188232f, 0.79401642084121704102f, 0.86147278547286987305f, 0.024354850873351097107f, -0.13612346351146697998f, -0.14505456387996673584f, -0.69744253158569335938f, -0.37864658236503601074f, -0.61656069755554199219f, -0.0043354514054954051971f, 0.69194585084915161133f, 0.14701589941978454590f, -0.28635317087173461914f, -1.5705516338348388672f, -0.83536452054977416992f, -0.12991708517074584961f, 0.59500402212142944336f, 0.10840820521116256714f, 0.44200390577316284180f, -1.0370140075683593750f, -0.39513644576072692871f, 0.13929034769535064697f, 0.72299832105636596680f, 0.48850980401039123535f, 0.26669934391975402832f, 0.64012444019317626953f, -0.19054707884788513184f, -0.014652432873845100403f, -0.52151691913604736328f, 0.20103466510772705078f, -0.11415758728981018066f, 0.60873633623123168945f, -0.15223093330860137939f, -0.054585386067628860474f, 1.1893063783645629883f, 0.68690288066864013672f, -0.28150522708892822266f, 0.15224452316761016846f, 0.62074381113052368164f, -0.021922327578067779541f, 0.19267264008522033691f, -0.13889497518539428711f, -0.079590164124965667725f, -0.31409093737602233887f, 0.074190214276313781738f, -0.29081460833549499512f, -0.28520715236663818359f, -0.042108412832021713257f, -0.63388752937316894531f, -0.81414228677749633789f, 0.12420646101236343384f, -0.0026023164391517639160f, 0.43375429511070251465f, 0.23238503932952880859f, -0.83216530084609985352f, -0.42253756523132324219f, 0.0044857994653284549713f, 0.62157267332077026367f, 0.94583010673522949219f, 0.76773488521575927734f, -0.27805733680725097656f, 0.12677417695522308350f, 1.7239266633987426758f, 0.34121629595756530762f, 0.13262277841567993164f, -0.42610105872154235840f, 0.092873208224773406982f, 0.55294650793075561523f, 1.4686846733093261719f, -0.067921295762062072754f, -0.59392112493515014648f, -0.072499848902225494385f, 0.59275388717651367188f, -0.065314173698425292969f, 0.25044170022010803223f, -0.045383002609014511108f, -0.43373170495033264160f, 1.0810543298721313477f, 0.31840386986732482910f, 0.38523069024085998535f, -0.11239697784185409546f, 0.74468815326690673828f, -0.11276866495609283447f, 0.35825699567794799805f, 0.069055259227752685547f, -0.030596446245908737183f, -0.30780345201492309570f, -0.44419726729393005371f, -0.76813852787017822266f, -0.76422393321990966797f, -0.25191837549209594727f, 0.035981785506010055542f, -0.19778069853782653809f, 0.56521868705749511719f, -0.43136504292488098145f, -0.41839563846588134766f, -0.55923503637313842773f, -0.33876362442970275879f, -0.30625942349433898926f, 0.83450686931610107422f, 0.18287290632724761963f, 0.89898729324340820312f, 0.69747316837310791016f, 0.23694576323032379150f, 0.14913390576839447021f, 1.3511877059936523438f, 0.37083336710929870605f, 0.11512453109025955200f, 0.073929697275161743164f, 0.45503857731819152832f, -0.34780150651931762695f, -0.016106357797980308533f, -0.035842996090650558472f, 0.11742307990789413452f, 0.028712144121527671814f, -0.054349359124898910522f, -0.069404862821102142334f, 0.044169265776872634888f, 0.0098456302657723426819f, 0.098732322454452514648f, -0.012426798231899738312f, -0.013592185452580451965f, -0.086557492613792419434f, -0.046997547149658203125f, -0.085594795644283294678f, -0.21112780272960662842f, -0.10678848624229431152f, 0.026701740920543670654f, -0.019753145053982734680f, 0.027818210422992706299f, -0.022179966792464256287f, 0.016827169805765151978f, -0.014214644208550453186f, -0.021149078384041786194f, 0.014173792675137519836f, 0.095084048807621002197f, 0.17432537674903869629f, 0.20825806260108947754f, 0.14583256840705871582f, -0.029177283868193626404f, 0.15514436364173889160f, 0.11733730882406234741f, -0.029667166993021965027f, 0.040400680154561996460f, -0.10008820891380310059f, -0.028813647106289863586f, -0.031452983617782592773f, -0.46740478277206420898f, 0.21683783829212188721f, 0.13332173228263854980f, 0.21000084280967712402f, 0.28752231597900390625f, -0.036827817559242248535f, -0.67738229036331176758f, -0.43777725100517272949f, -0.40551397204399108887f, 0.44516181945800781250f, -0.094154000282287597656f, -0.46887433528900146484f, 0.072806864976882934570f, 0.29125392436981201172f, 0.29969722032546997070f, -0.21561075747013092041f, -0.22984421253204345703f, -0.41723069548606872559f, 2.2842400074005126953f, 1.7427439689636230469f, 0.22598960995674133301f, -0.23442205786705017090f, -0.048283591866493225098f, 1.2946523427963256836f, 0.46835032105445861816f, -0.24203824996948242188f, -1.0080851316452026367f, 0.11131753027439117432f, 0.25499132275581359863f, 1.2741593122482299805f, -0.76663458347320556641f, -0.91816413402557373047f, -0.54497462511062622070f, 0.65097552537918090820f, 1.3750467300415039062f, 0.95086067914962768555f, 0.016669796779751777649f, 0.014972311444580554962f, 0.0032156037632375955582f, 0.051016516983509063721f, -0.080413691699504852295f, -0.0026053108740597963333f, 0.057450648397207260132f, 0.62653988599777221680f, 0.17061106860637664795f, -0.15867713093757629395f, 0.33082956075668334961f, -0.66365885734558105469f, 0.15086992084980010986f, 0.29286155104637145996f, 0.25640073418617248535f, 0.045814957469701766968f, 0.35855591297149658203f, -0.45894306898117065430f, 0.029878156259655952454f, 0.44677132368087768555f, 0.42579910159111022949f, 0.022803036496043205261f, -0.34038585424423217773f, 0.047413047403097152710f, 0.038917426019906997681f, 0.40679281949996948242f, 0.88194161653518676758f, -0.21368242800235748291f, -0.0047018090263009071350f, 0.33587035536766052246f, 0.32868352532386779785f, -0.031624749302864074707f, 0.060386955738067626953f, 0.012826146557927131653f, -0.15764130651950836182f, -0.37289926409721374512f, 0.025514258071780204773f, -0.21299737691879272461f, 0.013298480771481990814f, -0.63975077867507934570f, -0.11124916374683380127f, -0.29715272784233093262f, 0.064191430807113647461f, -0.23856931924819946289f, -0.44318598508834838867f, -0.37401244044303894043f, -0.45213460922241210938f, 0.53448176383972167969f, 0.067665800452232360840f, -0.16706943511962890625f, -0.094262868165969848633f, -0.11118914186954498291f, 0.41885244846343994141f, 0.10659804940223693848f, -0.050063304603099822998f, 0.0013704921584576368332f, -0.42407032847404479980f, -0.76800101995468139648f, 0.61535084247589111328f, 0.40686362981796264648f, 0.34343397617340087891f, 0.72933614253997802734f, 0.88759249448776245117f, 0.44259646534919738770f, -0.28879868984222412109f, -0.35129407048225402832f, 0.026436313986778259277f, -0.63039731979370117188f, -0.092331118881702423096f, -0.40230965614318847656f, -0.93144977092742919922f, -0.87695753574371337891f, -0.22949823737144470215f, 0.29714754223823547363f, 1.2271312475204467773f, 2.0853483676910400391f, -0.95944356918334960938f, -1.2676292657852172852f, 0.12079118192195892334f, 0.91042304039001464844f, 0.11991871148347854614f, 0.37229448556900024414f, 0.67359900474548339844f, -1.2110844850540161133f, 0.16624307632446289062f, 1.0305241346359252930f, 0.42259049415588378906f, 0.30364942550659179688f, -0.36279556155204772949f, -1.3973445892333984375f, 0.16105854511260986328f, 0.69757783412933349609f, 0.75369220972061157227f, -0.59332263469696044922f, -0.40374341607093811035f, -0.17417989671230316162f, 0.51557350158691406250f, 0.37955614924430847168f, 0.18268170952796936035f, 0.25256025791168212891f, -0.45452493429183959961f, 1.3144578933715820312f, 0.58027911186218261719f, -0.081370405852794647217f, 0.079796575009822845459f, -0.0035698434803634881973f, 0.55744701623916625977f, 0.26341360807418823242f, 0.015351690351963043213f, 0.017991375178098678589f, 0.021089876070618629456f, 0.0050097983330488204956f, 0.0030192753765732049942f, 0.025396464392542839050f, 0.026957271620631217957f, 0.063331857323646545410f, 0.019451661035418510437f, 0.13044239580631256104f, -0.12511497735977172852f, -0.060929998755455017090f, 0.022796845063567161560f, 0.0088006090372800827026f, -0.045373946428298950195f, 0.16148567199707031250f, 0.22515580058097839355f, 0.075589738786220550537f, 0.0078039811924099922180f, 0.069104738533496856689f, 0.042817730456590652466f, 0.053605422377586364746f, 0.18225026130676269531f, 0.051038004457950592041f, 0.0060355560854077339172f, -0.070952080190181732178f, -0.34946364164352416992f, -0.13300313055515289307f, -0.13938644528388977051f, 0.066519953310489654541f, 0.010078555904328823090f, 0.025985103100538253784f, -0.15916885435581207275f, -0.080394372344017028809f, 0.13034613430500030518f, 0.021266061812639236450f, -0.0069053000770509243011f, 0.076447114348411560059f, 0.079229138791561126709f, 0.071031652390956878662f, -0.030781332403421401978f, 0.013944704085588455200f, -0.033677231520414352417f, -0.034481506794691085815f, -0.15770179033279418945f, -0.10072351992130279541f, -0.30213028192520141602f, -0.0064964652992784976959f, 0.036928314715623855591f, 0.025559311732649803162f, 0.050316978245973587036f, -0.20301535725593566895f, -0.093981988728046417236f, 0.022884758189320564270f, 0.016460044309496879578f, 0.45585846900939941406f, 0.17880463600158691406f, -0.20025783777236938477f, 0.10875809192657470703f, 0.40419813990592956543f, 0.030321994796395301819f, 0.13654121756553649902f, -0.14423321187496185303f, 0.043923169374465942383f, 0.083129711449146270752f, 0.45338922739028930664f, 0.053648717701435089111f, -0.15595909953117370605f, 0.0021815928630530834198f, 0.12440381944179534912f, 0.078930459916591644287f, 0.17140772938728332520f},
