// This file is computer-generated by onnx2c 
// (TODO: add creating command line here)
// (TODO: print creation date here )

// ONNX model:
// produced by pytorch, version 1.6
// ONNX IR version: 9
// Model documentation: 
/*

*/

#include <float.h>
#include <math.h>
#include <stdbool.h>
#include <stdint.h>
#include <string.h>
#define MAX(X,Y) ( X > Y ? X : Y)
#define MIN(X,Y) ( X < Y ? X : Y)
#define CLIP(X,L) ( MAX(MIN(X,L), -L) )

/* conv1.0.bias*/
static const float tensor_conv1_0_bias[32] = 
{-0.70756518840789794922f, 0.43205139040946960449f, -0.47722932696342468262f, -0.88418555259704589844f, -0.42098742723464965820f, -0.20794230699539184570f, -0.45795655250549316406f, -0.12157270312309265137f, -0.034046914428472518921f, -0.61132240295410156250f, 0.019638720899820327759f, -0.40799930691719055176f, -0.47863036394119262695f, -0.0091051105409860610962f, -0.39680147171020507812f, -0.71591430902481079102f, -0.55263543128967285156f, 0.0010306081967428326607f, -0.067487932741641998291f, -0.46580508351325988770f, -0.33832669258117675781f, -0.39842259883880615234f, -0.13078284263610839844f, -0.81164920330047607422f, -0.14986079931259155273f, -0.66815388202667236328f, -0.10835311561822891235f, -0.043206632137298583984f, -0.18586514890193939209f, -0.36125627160072326660f, -0.68758839368820190430f, -0.27601814270019531250f};
/* conv1.0.weight*/
static const float tensor_conv1_0_weight[32][1][2][2] = 
{
  {
    {
      {0.47586938738822937012f, 0.26104712486267089844f},
      {-0.035409186035394668579f, 0.50686168670654296875f}
    }
  },
  {
    {
      {-2.5906364917755126953f, -1.5635639429092407227f},
      {-0.91720354557037353516f, -1.4189991950988769531f}
    }
  },
  {
    {
      {2.1900067329406738281f, -2.1237342357635498047f},
      {2.2834515571594238281f, -2.5131182670593261719f}
    }
  },
  {
    {
      {-0.51807552576065063477f, 1.0764290094375610352f},
      {0.91222327947616577148f, -0.25888705253601074219f}
    }
  },
  {
    {
      {-0.94689553976058959961f, 0.71985459327697753906f},
      {0.82103067636489868164f, -0.41753435134887695312f}
    }
  },
  {
    {
      {-3.8148064613342285156f, -0.90511858463287353516f},
      {0.94852745532989501953f, 2.9105517864227294922f}
    }
  },
  {
    {
      {0.057068288326263427734f, -0.016869008541107177734f},
      {-0.36745381355285644531f, 0.13341432809829711914f}
    }
  },
  {
    {
      {3.3170557022094726562f, -1.0978411436080932617f},
      {-0.096862867474555969238f, -3.4262075424194335938f}
    }
  },
  {
    {
      {-1.0878576040267944336f, -2.5558216571807861328f},
      {2.1791493892669677734f, -1.9479906558990478516f}
    }
  },
  {
    {
      {1.1568944454193115234f, -3.2558174133300781250f},
      {2.6876738071441650391f, -0.17062950134277343750f}
    }
  },
  {
    {
      {-2.8309764862060546875f, -3.7924723625183105469f},
      {1.4586299657821655273f, -1.6249176263809204102f}
    }
  },
  {
    {
      {0.67141640186309814453f, 0.74240410327911376953f},
      {-0.98302066326141357422f, -1.3875470161437988281f}
    }
  },
  {
    {
      {-0.041131973266601562500f, 0.089607536792755126953f},
      {-0.14656138420104980469f, 0.34205555915832519531f}
    }
  },
  {
    {
      {-4.2701659202575683594f, -0.20847769081592559814f},
      {-3.1163690090179443359f, 1.9027717113494873047f}
    }
  },
  {
    {
      {-0.0012856721878051757812f, 0.020122289657592773438f},
      {0.18791061639785766602f, 0.18731302022933959961f}
    }
  },
  {
    {
      {0.49397855997085571289f, 0.0033276169560849666595f},
      {0.23387728631496429443f, 0.42482414841651916504f}
    }
  },
  {
    {
      {-0.15607084333896636963f, -2.2867007255554199219f},
      {1.7664411067962646484f, 0.47882580757141113281f}
    }
  },
  {
    {
      {-3.7491416931152343750f, -3.5153691768646240234f},
      {0.98456496000289916992f, 0.15053202211856842041f}
    }
  },
  {
    {
      {2.2360012531280517578f, -3.3468670845031738281f},
      {-1.8568913936614990234f, -3.6760525703430175781f}
    }
  },
  {
    {
      {0.24145124852657318115f, -0.16719344258308410645f},
      {-0.40393710136413574219f, 0.13057203590869903564f}
    }
  },
  {
    {
      {-2.8293917179107666016f, 2.5255880355834960938f},
      {-2.0819716453552246094f, 1.9809348583221435547f}
    }
  },
  {
    {
      {-0.32500880956649780273f, -0.37740838527679443359f},
      {-0.16940861940383911133f, -0.49657505750656127930f}
    }
  },
  {
    {
      {-0.40603566169738769531f, -1.9981987476348876953f},
      {0.38679540157318115234f, 1.6528159379959106445f}
    }
  },
  {
    {
      {0.29621487855911254883f, 0.68508547544479370117f},
      {0.37165501713752746582f, 0.45031958818435668945f}
    }
  },
  {
    {
      {-0.049323026090860366821f, -2.1997871398925781250f},
      {1.3613953590393066406f, -1.8650841712951660156f}
    }
  },
  {
    {
      {0.91983163356781005859f, 1.4848861694335937500f},
      {-0.45411774516105651855f, -1.8605555295944213867f}
    }
  },
  {
    {
      {-2.6878573894500732422f, -3.4754734039306640625f},
      {3.0557301044464111328f, 1.9568933248519897461f}
    }
  },
  {
    {
      {-0.25343191623687744141f, -0.070494890213012695312f},
      {0.036344707012176513672f, -0.16372972726821899414f}
    }
  },
  {
    {
      {1.4348870515823364258f, 3.3241884708404541016f},
      {-4.6202759742736816406f, -0.92652708292007446289f}
    }
  },
  {
    {
      {1.5509222745895385742f, -1.8794729709625244141f},
      {2.0355865955352783203f, -1.6871256828308105469f}
    }
  },
  {
    {
      {0.39206531643867492676f, 0.29700767993927001953f},
      {-0.16816034913063049316f, 0.52115398645401000977f}
    }
  },
  {
    {
      {0.0010358691215515136719f, 0.071976304054260253906f},
      {-0.30655181407928466797f, -0.29059171676635742188f}
    }
  }
};
/* out.bias*/
static const float tensor_out_bias[10] = 
{0.046180821955204010010f, 0.75404942035675048828f, 0.047067385166883468628f, -0.020213440060615539551f, -0.097367465496063232422f, 0.18727613985538482666f, -0.049183242022991180420f, 0.36139696836471557617f, -0.58050072193145751953f, -0.20007637143135070801f};
/* out.weight*/
static const float tensor_out_weight[10][1152] = 
{
  {-0.062776625156402587891f, -0.45004275441169738770f, -0.58457863330841064453f, -0.54619586467742919922f, -1.2939487695693969727f, -0.86173880100250244141f, -0.54107165336608886719f, 0.023706365376710891724f, 0.52745497226715087891f, 0.0056768474169075489044f, -0.12578125298023223877f, 0.64376711845397949219f, -0.58229488134384155273f, 0.18815620243549346924f, -0.24426540732383728027f, 0.13366283476352691650f, 0.22835245728492736816f, 0.068257465958595275879f, -0.82252609729766845703f, 0.17065705358982086182f, 0.32069295644760131836f, -1.9525697231292724609f, -0.18141001462936401367f, 0.46334674954414367676f, -0.66336065530776977539f, 0.057173293083906173706f, 0.48980340361595153809f, -0.22110816836357116699f, -0.40362519025802612305f, 0.24143071472644805908f, -0.72411757707595825195f, 0.81110811233520507812f, 0.15170010924339294434f, 0.51378893852233886719f, 0.17253190279006958008f, -0.27452304959297180176f, 0.029601579532027244568f, 0.0046864068135619163513f, 0.034579649567604064941f, 0.13568466901779174805f, 0.14788666367530822754f, 0.046954758465290069580f, 0.027075199410319328308f, -0.096617884933948516846f, -0.012735851109027862549f, -0.096032187342643737793f, 0.048254273831844329834f, -0.14945100247859954834f, 0.034827817231416702271f, -0.12392942607402801514f, -0.49591225385665893555f, -0.83083152770996093750f, -0.63983941078186035156f, -0.55315941572189331055f, 0.048368662595748901367f, -0.44594335556030273438f, -1.1168221235275268555f, 1.0722535848617553711f, -0.25957694649696350098f, -0.77750688791275024414f, 0.033888161182403564453f, -0.20789015293121337891f, -0.80088186264038085938f, 0.063984811305999755859f, -0.45401406288146972656f, -0.15963444113731384277f, 0.059784471988677978516f, -0.22283922135829925537f, -0.52559041976928710938f, -0.32667875289916992188f, 0.20522265136241912842f, 0.14909005165100097656f, -0.0052940300665795803070f, -0.28743329644203186035f, -0.36620846390724182129f, -0.35685074329376220703f, -1.7947126626968383789f, -0.51418715715408325195f, -0.051595225930213928223f, -0.72092705965042114258f, -1.0881999731063842773f, -0.54733711481094360352f, -0.18014343082904815674f, -0.079559735953807830811f, -0.044644676148891448975f, 0.28806519508361816406f, 0.31787842512130737305f, 0.84196317195892333984f, 1.1732457876205444336f, 0.97924345731735229492f, -0.055355723947286605835f, 1.8370252847671508789f, 1.2129504680633544922f, 1.7859915494918823242f, 0.81781995296478271484f, 0.44499698281288146973f, -0.11718533933162689209f, 0.82002174854278564453f, 1.2748248577117919922f, 0.74763816595077514648f, -0.029977409169077873230f, 0.0025428652297705411911f, -0.012509789317846298218f, 0.29568433761596679688f, -0.21047408878803253174f, -1.9253804683685302734f, -1.5509461164474487305f, -1.6642173528671264648f, -0.18546964228153228760f, -0.70462590456008911133f, -0.75128740072250366211f, -0.90715873241424560547f, -1.5547007322311401367f, -0.91722387075424194336f, -0.92296248674392700195f, 0.076010674238204956055f, 0.67117422819137573242f, -0.079576306045055389404f, -0.070668280124664306641f, 0.24733224511146545410f, -0.59232312440872192383f, 0.36225953698158264160f, -0.37102618813514709473f, 0.30077674984931945801f, -0.29169297218322753906f, -0.19516769051551818848f, -1.5805352926254272461f, 0.30773910880088806152f, 0.73218262195587158203f, -2.3231120109558105469f, -0.010139008052647113800f, 0.39719599485397338867f, -0.83790600299835205078f, 0.32230320572853088379f, 0.072247549891471862793f, 0.14885465800762176514f, -0.30018293857574462891f, 0.55622553825378417969f, -0.38671663403511047363f, 0.58933097124099731445f, 0.15834927558898925781f, 0.17790587246417999268f, 0.38746580481529235840f, 0.14903958141803741455f, 0.026566481217741966248f, -0.33206859230995178223f, -0.11460548639297485352f, -0.11220384389162063599f, -0.21565687656402587891f, -0.27652436494827270508f, -0.22959646582603454590f, -0.081722222268581390381f, 0.24861112236976623535f, 0.011058862321078777313f, 0.19317784905433654785f, 0.054296102374792098999f, -0.25520041584968566895f, 0.073493510484695434570f, -0.17900566756725311279f, 0.15541507303714752197f, -0.56011438369750976562f, 0.28328630328178405762f, -1.0965123176574707031f, 0.35835233330726623535f, 0.46468836069107055664f, -1.2050408124923706055f, -0.046352598816156387329f, 0.26028347015380859375f, -0.28760477900505065918f, 0.52451378107070922852f, -0.062462463974952697754f, 0.15988944470882415771f, -0.31899744272232055664f, 0.17822179198265075684f, -0.14467479288578033447f, -0.0087831374257802963257f, 0.098373271524906158447f, 0.21989376842975616455f, 0.092908054590225219727f, 0.031639914959669113159f, -0.78173083066940307617f, 0.14777304232120513916f, -0.038145083934068679810f, -0.67826652526855468750f, 0.11606341600418090820f, 0.24035391211509704590f, -2.0616099834442138672f, 0.31277233362197875977f, -0.32253661751747131348f, -0.56291174888610839844f, -1.1304383277893066406f, -1.1570265293121337891f, -1.4424011707305908203f, 0.18767385184764862061f, 0.16312015056610107422f, -1.0463182926177978516f, -2.4197468757629394531f, -1.2821650505065917969f, -0.25413766503334045410f, 0.82162660360336303711f, 0.34810370206832885742f, -1.7816344499588012695f, -0.37071603536605834961f, 0.53376144170761108398f, 0.72013908624649047852f, 0.017608929425477981567f, -0.69883161783218383789f, 0.25325980782508850098f, 0.37246537208557128906f, 0.51267915964126586914f, -1.5056984424591064453f, -1.0958069562911987305f, -3.1789381504058837891f, -1.3259936571121215820f, 0.069947786629199981689f, 0.071193665266036987305f, -0.014191999100148677826f, 0.0031572310253977775574f, 0.0095661021769046783447f, -0.022811146453022956848f, 0.024356776848435401917f, 0.024086864665150642395f, 0.020792923867702484131f, -0.0060813687741756439209f, 0.013306245207786560059f, -0.0062229190953075885773f, -0.022846739739179611206f, -0.0055465921759605407715f, 0.023853395134210586548f, 0.020685307681560516357f, -0.015476631931960582733f, -0.013395842164754867554f, -0.016114007681608200073f, 0.026787124574184417725f, 0.019727064296603202820f, -0.012322990223765373230f, -0.020625196397304534912f, 0.016934631392359733582f, 0.025034416466951370239f, 0.0082304291427135467529f, 0.019526265561580657959f, -0.011694131419062614441f, 0.0059809503145515918732f, 0.021924948319792747498f, 0.023885412141680717468f, -0.014579802751541137695f, -0.010041177272796630859f, 0.023854652419686317444f, -0.013685945421457290649f, -0.014315798878669738770f, -0.018202671781182289124f, -0.0026936542708426713943f, 1.9455123037914745510e-05f, -0.24242162704467773438f, 0.045141354203224182129f, -0.65512913465499877930f, -0.82885980606079101562f, -0.15056245028972625732f, -0.15258902311325073242f, -0.16229957342147827148f, -1.4986420869827270508f, -0.75405097007751464844f, -1.7381426095962524414f, -1.1010134220123291016f, 0.099731788039207458496f, 0.55587655305862426758f, 0.27380952239036560059f, -0.80892634391784667969f, -1.1622371673583984375f, -0.12554796040058135986f, -0.061019010841846466064f, 1.7513720989227294922f, 1.0090447664260864258f, 0.53753793239593505859f, -0.18225111067295074463f, 0.20897269248962402344f, -0.11091388761997222900f, 0.56851863861083984375f, 0.84758979082107543945f, 0.54105055332183837891f, 0.93228232860565185547f, 0.68937802314758300781f, -0.35046961903572082520f, 0.20779043436050415039f, -1.2895091772079467773f, -1.5752980709075927734f, 0.032044075429439544678f, -0.35112258791923522949f, -0.041993577033281326294f, -0.16819563508033752441f, -0.083482719957828521729f, 0.092665143311023712158f, -0.19282597303390502930f, -0.17906920611858367920f, -0.10121884942054748535f, -0.45035520195960998535f, -0.30371117591857910156f, -0.12517458200454711914f, 0.19612161815166473389f, 0.45147904753684997559f, -0.049207475036382675171f, -0.18031282722949981689f, 0.54247468709945678711f, 0.20683842897415161133f, 1.1702780723571777344f, 0.86712563037872314453f, -0.061820626258850097656f, -0.40244352817535400391f, 0.12030499428510665894f, 0.086937509477138519287f, -0.22866415977478027344f, 0.034493573009967803955f, -0.044419951736927032471f, -0.10345733165740966797f, 0.12706558406352996826f, 1.0394643545150756836f, -0.65015935897827148438f, -0.42432150244712829590f, -0.025807663798332214355f, 0.014711787924170494080f, 0.78369373083114624023f, -0.69980829954147338867f, -1.2036411762237548828f, -0.74261021614074707031f, 0.0051343273371458053589f, -0.041803035885095596313f, -0.21454447507858276367f, -0.26490175724029541016f, -0.56037235260009765625f, -0.26897296309471130371f, -0.040585968643426895142f, -1.0902553796768188477f, -0.40915775299072265625f, 0.12217314541339874268f, 0.15641121566295623779f, 0.61675679683685302734f, 0.091901175677776336670f, -0.28022086620330810547f, -0.12354789674282073975f, 0.15204299986362457275f, 1.6505787372589111328f, 1.2658294439315795898f, 0.092489421367645263672f, 0.10808192193508148193f, 0.20385301113128662109f, 0.77548104524612426758f, 0.32577851414680480957f, 0.10710530728101730347f, -0.10646133869886398315f, 0.30852338671684265137f, 0.43106570839881896973f, -0.17305770516395568848f, -0.59553068876266479492f, -0.68912780284881591797f, 0.0057983812876045703888f, 1.1507290601730346680f, 0.32703080773353576660f, -1.7171818017959594727f, -2.2672135829925537109f, -2.3299708366394042969f, 0.0084876157343387603760f, -0.0089640961959958076477f, -0.025670716539025306702f, 0.18454815447330474854f, 0.016175471246242523193f, 0.010266791097819805145f, 0.0073661413043737411499f, -0.16608330607414245605f, 0.24580605328083038330f, 0.34111723303794860840f, 0.55415862798690795898f, -0.045618146657943725586f, 0.027228558436036109924f, -0.20250922441482543945f, -0.72903823852539062500f, -0.25662949681282043457f, 0.43726384639739990234f, -0.18968538939952850342f, 0.030763212591409683228f, -0.70829355716705322266f, -1.2781372070312500000f, 0.77444803714752197266f, -0.20837916433811187744f, -0.95040702819824218750f, 0.024601766839623451233f, -0.21853147447109222412f, -0.69238990545272827148f, 0.67515641450881958008f, -0.79997777938842773438f, -0.39530602097511291504f, 0.053325556218624114990f, -0.18828999996185302734f, -0.048415061086416244507f, 0.010051550343632698059f, 0.19172076880931854248f, 0.13211461901664733887f, 0.0099491225555539131165f, 0.013589388690888881683f, 0.010253541171550750732f, -0.020465785637497901917f, -0.0029018484055995941162f, -0.011076780036091804504f, -0.015652572736144065857f, 0.022606596350669860840f, -0.091621667146682739258f, 0.17554834485054016113f, 0.13049662113189697266f, 0.22939640283584594727f, 0.0098525499925017356873f, -0.0068024042993783950806f, -0.13040456175804138184f, -0.28019726276397705078f, -0.51144647598266601562f, 0.079815074801445007324f, -0.10027835518121719360f, -0.35355350375175476074f, 0.17473289370536804199f, -0.84670323133468627930f, -0.62050753831863403320f, -0.037111878395080566406f, -0.018424049019813537598f, 0.21397431194782257080f, -0.15655665099620819092f, 0.12427115440368652344f, 0.38837936520576477051f, 0.47527214884757995605f, -0.13578225672245025635f, 0.097197212278842926025f, -0.14140328764915466309f, 0.41704282164573669434f, 0.63141298294067382812f, 0.26759424805641174316f, 0.015970010310411453247f, -0.024051846936345100403f, -0.0071566156111657619476f, 0.0040353289805352687836f, -0.023272762075066566467f, 0.0089435363188385963440f, -0.0051899557001888751984f, -0.011082429438829421997f, -0.0035216852556914091110f, 0.00062295503448694944382f, 0.019701773300766944885f, 0.0099262464791536331177f, -0.0013872389681637287140f, -0.022791491821408271790f, 0.010295551270246505737f, 0.011904627084732055664f, 0.018450414761900901794f, 0.023608841001987457275f, -0.020723415538668632507f, 0.026789547875523567200f, 0.022802347317337989807f, -0.023394005373120307922f, -0.019156027585268020630f, 0.0042816037312150001526f, 0.025764442980289459229f, 0.011162234470248222351f, -0.0074151372537016868591f, 0.027985043823719024658f, 0.0013768568169325590134f, -0.0052830092608928680420f, 0.011702701449394226074f, -0.028845528140664100647f, 0.018729317933320999146f, 0.0016586892306804656982f, 0.020306875929236412048f, 0.012540703639388084412f, 0.035611703991889953613f, 0.049799095839262008667f, -0.0077680400572717189789f, -0.016075454652309417725f, 0.062908634543418884277f, 0.098365694284439086914f, -0.047273728996515274048f, 0.15061780810356140137f, -0.0015983984339982271194f, 0.030127363279461860657f, -0.52989900112152099609f, -0.25434094667434692383f, -0.15338535606861114502f, 0.052496057003736495972f, 0.57621663808822631836f, -0.40844735503196716309f, -0.64174455404281616211f, 0.33338657021522521973f, 0.12735986709594726562f, 0.27640774846076965332f, 0.20981341600418090820f, 0.22557920217514038086f, 0.10563810914754867554f, -0.26765418052673339844f, 0.37051251530647277832f, 0.33375543355941772461f, 0.85871994495391845703f, 0.76383060216903686523f, -0.16583025455474853516f, 0.0087894611060619354248f, -0.13601483404636383057f, 0.35626411437988281250f, -2.7355837821960449219f, -2.5644977092742919922f, -0.56514441967010498047f, -0.18052646517753601074f, -0.027149366214871406555f, 0.028937444090843200684f, 0.0056329332292079925537f, -0.020241519436240196228f, 0.019826520234346389771f, -0.011432771570980548859f, 0.0043435664847493171692f, 0.026286883279681205750f, 0.0037509326357394456863f, 0.020558396354317665100f, 0.025805165991187095642f, -0.013498012907803058624f, -0.0019866302609443664551f, 0.0058744666166603565216f, 0.023959282785654067993f, -0.014863089658319950104f, -0.013809836469590663910f, 0.020774440839886665344f, 0.012408594600856304169f, -0.0053261253051459789276f, 0.016203250735998153687f, 0.013464366085827350616f, -0.0068217483349144458771f, -0.0014870532322674989700f, 0.0031900703907012939453f, -0.0062499982304871082306f, -0.026906246319413185120f, 0.014186432585120201111f, -0.019298171624541282654f, -0.020576154813170433044f, 0.013334746472537517548f, 0.016185861080884933472f, 0.024770718067884445190f, -0.0048586325719952583313f, 0.0081804823130369186401f, 0.020870115607976913452f, -0.017666859552264213562f, -0.40495544672012329102f, -0.29921421408653259277f, -0.19406950473785400391f, -0.87429714202880859375f, -0.57411694526672363281f, -0.12516121566295623779f, -0.0053968667052686214447f, 0.35590198636054992676f, 0.061861976981163024902f, -0.10919846594333648682f, 0.42646229267120361328f, -0.025606263428926467896f, 0.19138860702514648438f, -0.33236512541770935059f, 0.12467616051435470581f, 0.14321166276931762695f, 0.12105084955692291260f, -0.57912719249725341797f, 0.024365393444895744324f, 0.41583305597305297852f, -1.7277917861938476562f, -0.17485466599464416504f, 0.28436017036437988281f, -1.0511920452117919922f, 0.038193412125110626221f, 0.32543590664863586426f, -0.11556267738342285156f, -0.34646660089492797852f, 0.15438833832740783691f, -0.81830424070358276367f, 0.75039249658584594727f, 0.14205609261989593506f, 0.56842893362045288086f, 0.21709279716014862061f, -0.53134357929229736328f, -0.10089738667011260986f, 0.012433486990630626678f, -0.037683445960283279419f, -0.071690618991851806641f, -0.051518391817808151245f, -0.41319879889488220215f, 0.016900455579161643982f, -0.67111921310424804688f, -0.46009233593940734863f, -0.044424049556255340576f, 0.25194638967514038086f, 0.64397478103637695312f, 0.57797306776046752930f, -0.43869447708129882812f, -0.38867786526679992676f, -0.45748496055603027344f, 0.85532891750335693359f, 0.68526452779769897461f, -0.71231949329376220703f, -0.69107961654663085938f, -0.42849513888359069824f, -0.85281360149383544922f, -0.79357123374938964844f, -0.31773754954338073730f, -1.4331902265548706055f, -0.71713316440582275391f, 0.053451597690582275391f, -0.062560856342315673828f, -0.26861673593521118164f, -0.78886508941650390625f, -1.1433029174804687500f, 0.16214159131050109863f, 0.88313364982604980469f, 0.54210871458053588867f, -1.0203359127044677734f, -2.4418106079101562500f, 0.019618982449173927307f, 0.048709515482187271118f, 0.020553633570671081543f, 0.089218921959400177002f, 0.18447446823120117188f, 0.11950864642858505249f, 0.054722465574741363525f, -0.082439638674259185791f, -0.15647901594638824463f, -0.12328235059976577759f, -0.47502127289772033691f, -0.072924330830574035645f, 0.052353642880916595459f, -0.11303564906120300293f, -0.14849402010440826416f, -0.25908079743385314941f, -0.035429291427135467529f, -0.49569657444953918457f, 0.073159359395503997803f, -0.62846797704696655273f, -1.1459898948669433594f, 0.73169600963592529297f, -0.065485186874866485596f, -0.89793980121612548828f, 0.058374680578708648682f, -0.46159845590591430664f, -0.77743983268737792969f, 0.20395436882972717285f, 0.19019278883934020996f, -0.28137227892875671387f, 0.054163128137588500977f, -0.21285679936408996582f, -0.43516510725021362305f, -0.21676754951477050781f, 0.40964984893798828125f, 0.18073569238185882568f, -0.013874956406652927399f, -0.0072258058935403823853f, 0.045665945857763290405f, -0.032648328691720962524f, 0.064564973115921020508f, 0.040667619556188583374f, -0.018905436620116233826f, -0.15452158451080322266f, -0.57467120885848999023f, -0.96498692035675048828f, -1.1363095045089721680f, -1.1848038434982299805f, 0.015718633309006690979f, 0.082211077213287353516f, -0.30603423714637756348f, -0.29738393425941467285f, -0.86519885063171386719f, -1.4781454801559448242f, 0.089384317398071289062f, 0.29306715726852416992f, 0.40357264876365661621f, 1.3932961225509643555f, 0.035380341112613677979f, 0.17736901342868804932f, -0.079708762466907501221f, -0.30522677302360534668f, -0.094735242426395416260f, -0.010595439001917839050f, 1.1064047813415527344f, 0.023069255053997039795f, 0.032509461045265197754f, -0.88839018344879150391f, -1.3415791988372802734f, 0.75720417499542236328f, 0.40773075819015502930f, 0.23615410923957824707f, -0.015405881218612194061f, -0.00028072961140424013138f, 0.012312587350606918335f, 0.013616540469229221344f, -0.019543683156371116638f, -0.024557922035455703735f, 0.027614414691925048828f, 0.0045745768584311008453f, -0.023273086175322532654f, -0.0050182146951556205750f, 0.028916833922266960144f, -0.018515093252062797546f, 0.012207006104290485382f, -0.026970826089382171631f, 0.0048056258819997310638f, -0.013141703791916370392f, -0.021080976352095603943f, 0.0059037231840193271637f, 0.0057347286492586135864f, -0.017955839633941650391f, 0.028182499110698699951f, 0.019775016233325004578f, 0.043238338083028793335f, 0.032399345189332962036f, 0.0042022587731480598450f, 0.011553101241588592529f, -0.022837856784462928772f, -0.053197368979454040527f, -0.013084685429930686951f, 0.011739891953766345978f, -0.016503501683473587036f, 0.017515344545245170593f, -0.025307960808277130127f, -0.028917672112584114075f, 0.028044333681464195251f, 0.014903428032994270325f, -0.082956433296203613281f, -0.14739046990871429443f, -0.44065174460411071777f, -1.0349464416503906250f, -0.58519655466079711914f, 0.27090030908584594727f, -0.40503481030464172363f, -0.26199549436569213867f, -0.038838531821966171265f, -0.66008651256561279297f, 0.19533121585845947266f, 0.065944187343120574951f, -0.93743777275085449219f, 0.16981908679008483887f, -0.36647921800613403320f, 0.81899702548980712891f, 1.3463784456253051758f, 1.0663230419158935547f, -0.30900660157203674316f, 0.78989160060882568359f, 0.60130959749221801758f, -0.24272547662258148193f, 0.93565148115158081055f, 1.3404170274734497070f, 0.28524991869926452637f, 0.35842207074165344238f, 1.2860834598541259766f, 0.15176543593406677246f, -0.64371716976165771484f, -0.25597390532493591309f, -0.25619536638259887695f, 0.94522011280059814453f, 0.75211244821548461914f, -3.0295517444610595703f, -3.1542625427246093750f, -2.2947118282318115234f, -0.026509774848818778992f, 0.0066392524167895317078f, 0.0069341366179287433624f, 0.023810546845197677612f, -0.0015380227705463767052f, -0.028483092784881591797f, -0.010658649727702140808f, 0.011198997497558593750f, 0.029457483440637588501f, -0.019636265933513641357f, 0.0080158356577157974243f, -0.022061182186007499695f, 0.0021963180042803287506f, -0.013414748013019561768f, 0.024643458425998687744f, -0.013375144451856613159f, -0.022145295515656471252f, -0.022873399779200553894f, -0.0024685971438884735107f, 0.0057375594042241573334f, -0.020380720496177673340f, -0.016822766512632369995f, 0.0080538550391793251038f, -0.027747051790356636047f, 0.015558308921754360199f, -0.014539110474288463593f, 0.018763748928904533386f, 0.024816233664751052856f, -0.017793536186218261719f, -0.0038864556699991226196f, 0.023009063675999641418f, -0.018100209534168243408f, 0.012811036780476570129f, -0.014213557355105876923f, -0.029405407607555389404f, -0.010566407814621925354f, -0.54815286397933959961f, 0.062779277563095092773f, 0.083311490714550018311f, -0.27860242128372192383f, 0.26636347174644470215f, 0.058270152658224105835f, -1.3621910810470581055f, 0.27462449669837951660f, -0.24280151724815368652f, 0.091272629797458648682f, 0.22196248173713684082f, 0.55083674192428588867f, -0.41132682561874389648f, -0.41495043039321899414f, 0.0031538291368633508682f, -0.12795647978782653809f, -0.45335415005683898926f, 0.27014735341072082520f, -0.39147740602493286133f, 0.065378092229366302490f, -0.84830552339553833008f, -1.2785336971282958984f, -1.1753487586975097656f, -0.51583993434906005859f, 0.10326117277145385742f, -0.83588361740112304688f, -0.23832699656486511230f, -0.081880614161491394043f, 0.10127344727516174316f, -0.79025638103485107422f, -2.6312983036041259766f, -1.3435411453247070312f, 0.027669815346598625183f, 1.2055110931396484375f, 0.81215858459472656250f, 0.59610801935195922852f, -0.11108683794736862183f, -0.68084454536437988281f, -0.59831231832504272461f, -0.77055674791336059570f, -1.4748870134353637695f, -1.0626435279846191406f, -1.0143489837646484375f, 0.063546076416969299316f, 0.65251570940017700195f, -0.035413704812526702881f, -0.11314120888710021973f, 0.62460219860076904297f, -0.80528497695922851562f, 0.30564582347869873047f, -0.26123529672622680664f, 0.25097003579139709473f, 0.12526182830333709717f, 0.014280453324317932129f, -1.2094867229461669922f, 0.27189353108406066895f, 0.49576354026794433594f, -1.9315097332000732422f, -0.12512981891632080078f, 0.47400793433189392090f, -0.84118324518203735352f, 0.20632338523864746094f, 0.34898871183395385742f, -0.080300323665142059326f, -0.35446584224700927734f, 0.41076537966728210449f, -0.72501605749130249023f, 0.90654718875885009766f, 0.18880502879619598389f, 0.40868890285491943359f, 0.31127011775970458984f, -0.18745300173759460449f, -0.0096321180462837219238f, -0.11683102697134017944f, -0.12132906913757324219f, 0.032215457409620285034f, -0.56694805622100830078f, -0.21449694037437438965f, -0.011386164464056491852f, -0.30893385410308837891f, -0.48669874668121337891f, -0.34198573231697082520f, 0.11533305794000625610f, 0.36589956283569335938f, 0.0081672510132193565369f, 0.053892113268375396729f, 0.65910494327545166016f, 0.054863631725311279297f, 0.73918330669403076172f, 0.83708095550537109375f, 0.0049726371653378009796f, 0.39209774136543273926f, 0.29450562596321105957f, 0.50126916170120239258f, 0.095106944441795349121f, 0.13961084187030792236f, -0.014272338710725307465f, -0.049995105713605880737f, 0.61598169803619384766f, 0.62115156650543212891f, -0.66712111234664916992f, -0.16313956677913665771f, -0.028619512915611267090f, 0.21075642108917236328f, 0.41960254311561584473f, -1.6761631965637207031f, -1.6405776739120483398f, -0.97852617502212524414f, 0.00015439737762790173292f, 0.013355262577533721924f, -0.0044431621208786964417f, -0.12665240466594696045f, 0.20723444223403930664f, 0.18938137590885162354f, 0.0029706447385251522064f, 0.35675820708274841309f, -0.10144266486167907715f, 0.22105318307876586914f, 0.11575847864151000977f, 0.34309253096580505371f, 0.19529651105403900146f, 0.091729849576950073242f, -0.39634978771209716797f, -0.10496413707733154297f, -1.1879291534423828125f, 0.026183478534221649170f, -0.42986327409744262695f, -0.41366803646087646484f, 0.42558091878890991211f, -1.6146187782287597656f, -0.71496206521987915039f, -0.034856114536523818970f, 0.054689690470695495605f, 0.38874068856239318848f, -0.074271738529205322266f, 0.17411355674266815186f, 0.30827951431274414062f, 0.78395193815231323242f, -0.52017569541931152344f, -0.13842201232910156250f, -0.21693053841590881348f, 0.51735138893127441406f, 0.90363585948944091797f, 0.35830432176589965820f, -0.076181389391422271729f, 0.16073362529277801514f, 0.15482501685619354248f, -0.22968681156635284424f, 0.38852137327194213867f, 0.17924971878528594971f, -0.24892957508563995361f, 0.35839661955833435059f, -0.36309933662414550781f, -0.40579038858413696289f, 0.19714550673961639404f, 0.50354301929473876953f, 0.023235073313117027283f, -0.35293009877204895020f, -0.34253999590873718262f, -0.61131447553634643555f, -0.67156088352203369141f, -0.0010232267668470740318f, -0.047763772308826446533f, -0.74819743633270263672f, -1.9264364242553710938f, -0.60490286350250244141f, -1.7536482810974121094f, -1.2404237985610961914f, -0.26460316777229309082f, -1.9578151702880859375f, -1.2506971359252929688f, -0.014028353616595268250f, -0.82105505466461181641f, -1.4829245805740356445f, -0.37796527147293090820f, -1.7348382472991943359f, -0.16298621892929077148f, 1.3470318317413330078f, 0.95815557241439819336f, 0.14578126370906829834f, 0.018600458279252052307f, -0.0099908262491226196289f, 0.016874762251973152161f, -0.00064611120615154504776f, -0.025456074625253677368f, -0.0096052698791027069092f, -0.0081301275640726089478f, 0.026340369135141372681f, -0.0093715768307447433472f, -0.0088421907275915145874f, -0.024016745388507843018f, 0.0018376518273726105690f, 0.0089161973446607589722f, -0.027507577091455459595f, -0.024433029815554618835f, -0.023768525570631027222f, 0.00065556610934436321259f, 0.0086903534829616546631f, -0.0024311600718647241592f, 0.0013984430115669965744f, 0.029423218220472335815f, 0.016868012025952339172f, -0.012487198226153850555f, -0.020343493670225143433f, -0.022392129525542259216f, -0.026222778484225273132f, -0.028100663796067237854f, -0.016697727143764495850f, -0.018540894612669944763f, 0.019164947792887687683f, 0.015304142609238624573f, 0.019062692299485206604f, 0.0076934332028031349182f, 0.027049127966165542603f, -0.0054548908956348896027f, 0.020392745733261108398f, -1.2033904790878295898f, -0.83203935623168945312f, -0.59181010723114013672f, 1.2085518836975097656f, 2.0089290142059326172f, 1.3117208480834960938f, -1.8787814378738403320f, -0.78233116865158081055f, -2.1796073913574218750f, -0.062502413988113403320f, 0.74514722824096679688f, 1.8493217229843139648f, -1.3615076541900634766f, -0.48479136824607849121f, 0.34395071864128112793f, -0.20821858942508697510f, 0.47439032793045043945f, 0.77696418762207031250f, -0.84050071239471435547f, -0.80043148994445800781f, -1.2037451267242431641f, -1.9757431745529174805f, -0.11737481504678726196f, 0.68816763162612915039f, -0.094712980091571807861f, -0.054576244205236434937f, 0.54970121383666992188f, -1.8021535873413085938f, 0.18251435458660125732f, -0.071236141026020050049f, -0.28560689091682434082f, 0.37940114736557006836f, 1.0706892013549804688f, 0.60048305988311767578f, -0.36001372337341308594f, -1.1069300174713134766f, 0.0092588225379586219788f, -0.46272483468055725098f, -0.52025252580642700195f, -0.35338804125785827637f, -1.6856957674026489258f, -0.56997591257095336914f, -0.073075346648693084717f, -1.0098625421524047852f, -0.88779002428054809570f, -0.13593481481075286865f, 0.32149061560630798340f, 0.15897704660892486572f, -0.053628079593181610107f, 0.15788410604000091553f, 0.057284798473119735718f, 0.93175250291824340820f, 1.3457850217819213867f, 1.2453312873840332031f, 0.048435378819704055786f, 1.6797399520874023438f, 1.1415374279022216797f, 1.7120382785797119141f, 0.71476382017135620117f, 0.48940709233283996582f, -0.16427193582057952881f, 0.93827795982360839844f, 1.1636738777160644531f, 0.53581386804580688477f, -0.22793570160865783691f, -0.11022350192070007324f, 0.017209187150001525879f, 0.59870010614395141602f, -0.0042551937513053417206f, -1.5582280158996582031f, -1.7991601228713989258f, -1.9800591468811035156f, -0.046348176896572113037f, -0.12385088950395584106f, -0.25030866265296936035f, -0.31161084771156311035f, -0.96157377958297729492f, -0.26455718278884887695f, -0.11241868883371353149f, 0.12237621843814849854f, 0.45118862390518188477f, -0.059954818338155746460f, -0.19032180309295654297f, 0.54980629682540893555f, -0.11550349742174148560f, 0.25282615423202514648f, -0.10472557693719863892f, 0.094155356287956237793f, 0.23707228899002075195f, -0.022350542247295379639f, -0.41485261917114257812f, 0.12798598408699035645f, 0.14442202448844909668f, -1.2122578620910644531f, -0.088165633380413055420f, 0.35172709822654724121f, -0.30618506669998168945f, -0.060646630823612213135f, 0.30941641330718994141f, -0.16390578448772430420f, -0.35663780570030212402f, 0.26300963759422302246f, -0.10575278103351593018f, 0.61980509757995605469f, 0.094993658363819122314f, 0.38368794322013854980f, 0.15017589926719665527f, -0.15695703029632568359f, 0.018041303381323814392f, -0.025093911215662956238f, 0.016665872186422348022f, -0.022476777434349060059f, -0.017794515937566757202f, -0.014658126048743724823f, -0.025246914476156234741f, -0.023293962702155113220f, 0.015485472045838832855f, 0.012624708935618400574f, -0.023793919011950492859f, 0.022923385724425315857f, 0.00010395871504442766309f, 0.026027007028460502625f, 0.016634834930300712585f, -0.011870536953210830688f, 0.0031518430914729833603f, 0.018364656716585159302f, -0.025579076260328292847f, 0.0019625856075435876846f, -0.024893647059798240662f, 0.026835797354578971863f, 0.012035159394145011902f, 0.00042380412924103438854f, 0.024885419756174087524f, -0.0097186807543039321899f, -0.0018188824178650975227f, 0.021844044327735900879f, -0.0061408556066453456879f, 0.0041998103260993957520f, -0.017644559964537620544f, -0.0065932772122323513031f, -0.0064436420798301696777f, 0.016710726544260978699f, -0.027391353622078895569f, -0.0017053387127816677094f},
  {-0.069842629134654998779f, -0.11884288489818572998f, -1.4810601472854614258f, -0.36338275671005249023f, -0.85124868154525756836f, -0.44447821378707885742f, -0.23770192265510559082f, -0.40544262528419494629f, -0.076319359242916107178f, 0.32798308134078979492f, -0.10007680207490921021f, 0.038850191980600357056f, 0.12879428267478942871f, -0.54388391971588134766f, -0.090714588761329650879f, 0.19323840737342834473f, 0.29271370172500610352f, 0.0020622424781322479248f, -0.10010872036218643188f, -1.2461080551147460938f, -1.3228957653045654297f, 0.78429895639419555664f, -1.2070155143737792969f, -1.3113520145416259766f, -0.57314479351043701172f, -1.0793126821517944336f, -0.39947825670242309570f, 0.13868606090545654297f, 0.013994771055877208710f, 0.24175617098808288574f, 0.48870250582695007324f, -0.58545583486557006836f, 0.034736588597297668457f, 0.83248323202133178711f, 0.22578211128711700439f, -0.71131157875061035156f, 0.44502806663513183594f, 0.46981760859489440918f, 0.49067679047584533691f, 0.65286409854888916016f, 0.56492686271667480469f, 0.47934719920158386230f, 0.43788886070251464844f, 0.52803742885589599609f, 0.86471563577651977539f, 1.3072855472564697266f, 0.98285728693008422852f, 0.42942917346954345703f, 0.45165300369262695312f, 0.53279721736907958984f, 1.1746582984924316406f, 3.0433428287506103516f, 1.2738714218139648438f, 0.56594932079315185547f, 0.45304489135742187500f, 0.53893905878067016602f, 1.2518396377563476562f, 1.3790482282638549805f, 1.1458089351654052734f, 0.47243300080299377441f, 0.45811831951141357422f, 0.68604272603988647461f, 1.7578088045120239258f, 3.3041839599609375000f, 0.93814671039581298828f, 0.43728503584861755371f, 0.45994299650192260742f, 0.63926148414611816406f, 1.1270667314529418945f, 1.1459535360336303711f, 0.59337168931961059570f, 0.48947295546531677246f, -0.0097048487514257431030f, 0.021099163219332695007f, 0.61235713958740234375f, 0.79355108737945556641f, 0.82844364643096923828f, -0.14303158223628997803f, -0.0025884925853461027145f, 0.68988919258117675781f, 0.80950641632080078125f, 1.3605679273605346680f, 0.84425002336502075195f, 1.1236058473587036133f, -0.0076311016455292701721f, -0.54123502969741821289f, -1.2077528238296508789f, -0.37813532352447509766f, -0.22062942385673522949f, -0.14733752608299255371f, 0.10086147487163543701f, 0.26523047685623168945f, 0.42691019177436828613f, 0.45324394106864929199f, 0.69632303714752197266f, 0.065280750393867492676f, -0.042757634073495864868f, -2.1337137222290039062f, -1.7540293931961059570f, -0.41128915548324584961f, -0.69824814796447753906f, -0.90181958675384521484f, -0.031944628804922103882f, -0.43242734670639038086f, -0.19394157826900482178f, -0.13937875628471374512f, -0.50903367996215820312f, -0.049558430910110473633f, 0.077753089368343353271f, -0.15914626419544219971f, -1.8417298793792724609f, -0.22489520907402038574f, -0.28039070963859558105f, -0.77335053682327270508f, -0.088244713842868804932f, -1.2554168701171875000f, -0.47900894284248352051f, 0.43591031432151794434f, 0.18335783481597900391f, 0.21600660681724548340f, -0.086006514728069305420f, -0.89758175611495971680f, 0.015875076875090599060f, 0.10948888957500457764f, 0.37895795702934265137f, -0.0040308930911123752594f, 0.44492092728614807129f, -0.96514546871185302734f, -0.97748827934265136719f, 0.90215247869491577148f, -1.4007687568664550781f, -2.0122008323669433594f, -2.6768217086791992188f, -1.0290718078613281250f, -0.20050421357154846191f, -0.13600035011768341064f, -0.12660375237464904785f, -0.36782079935073852539f, 0.30484691262245178223f, -0.49974077939987182617f, -0.011835215613245964050f, 0.48262166976928710938f, -0.11940712481737136841f, -1.5071849822998046875f, 0.045769698917865753174f, 0.097469471395015716553f, -0.80374866724014282227f, -0.094147324562072753906f, 0.43380075693130493164f, -0.31996399164199829102f, -0.069808065891265869141f, -0.57776969671249389648f, -0.54339414834976196289f, 0.15310949087142944336f, 0.20576904714107513428f, 0.60178554058074951172f, -0.055749539285898208618f, -0.46629220247268676758f, 0.062997929751873016357f, 0.096697390079498291016f, 0.10237693786621093750f, -0.17242003977298736572f, 0.16868166625499725342f, -0.14726598560810089111f, 0.11807118356227874756f, 0.53331387042999267578f, -0.82615756988525390625f, -1.0306799411773681641f, -0.38433703780174255371f, -0.19215501844882965088f, 0.15761063992977142334f, -0.41252389550209045410f, 0.27517414093017578125f, 0.24348118901252746582f, -0.20189541578292846680f, 0.16017818450927734375f, 0.053793344646692276001f, -0.21210987865924835205f, 0.023622719570994377136f, -0.38057121634483337402f, 0.38592520356178283691f, -0.065084747970104217529f, -0.66347825527191162109f, -0.32018327713012695312f, 0.29041281342506408691f, -1.5801614522933959961f, 0.23293904960155487061f, -1.3064134120941162109f, -1.0805038213729858398f, -0.48809015750885009766f, 0.68257534503936767578f, 0.41992032527923583984f, 0.54541331529617309570f, -0.14893457293510437012f, -0.95117086172103881836f, -0.95232516527175903320f, -1.4773734807968139648f, 0.27637425065040588379f, 1.5010151863098144531f, 0.70583605766296386719f, 0.63471251726150512695f, -0.50305873155593872070f, -1.5889294147491455078f, 0.064973630011081695557f, -0.89932090044021606445f, 0.26043447852134704590f, -0.41858807206153869629f, -1.6418095827102661133f, -0.11479328572750091553f, 0.30165681242942810059f, 0.45185971260070800781f, 0.73986834287643432617f, 0.40448611974716186523f, -2.7689886093139648438f, -1.3415309190750122070f, -0.47567898035049438477f, 0.019889414310455322266f, 0.027407074347138404846f, -0.029353883117437362671f, -0.010928435251116752625f, 0.014503925107419490814f, -0.025316348299384117126f, -0.024720128625631332397f, -0.0052978554740548133850f, -0.0049558198079466819763f, -0.024334473535418510437f, -0.0080600716173648834229f, 0.023358492180705070496f, -0.0076487432233989238739f, 0.020345786586403846741f, -0.010882555507123470306f, -0.011546761728823184967f, -0.012529811821877956390f, -0.0079187117516994476318f, 0.00060970685444772243500f, 0.011339079588651657104f, -0.021416194736957550049f, 0.0011854855110868811607f, -0.0038464057724922895432f, -0.0014712691772729158401f, -0.027337847277522087097f, 0.017528502270579338074f, 0.0063600400462746620178f, 0.012577810324728488922f, -0.012733251787722110748f, -0.010398530401289463043f, 0.012544956989586353302f, 0.024567369371652603149f, 0.027964374050498008728f, -0.0083243437111377716064f, -0.014396714046597480774f, 0.0014683153713122010231f, 0.0054539567790925502777f, -0.033683687448501586914f, 0.29526981711387634277f, 0.16410812735557556152f, 1.6162467002868652344f, -0.097727581858634948730f, 0.028343634679913520813f, -0.75048309564590454102f, -0.96152210235595703125f, 0.83611726760864257812f, 1.0796307325363159180f, 0.88129496574401855469f, 0.0071768243797123432159f, -0.37688013911247253418f, 0.14284226298332214355f, -0.47886899113655090332f, -0.42981487512588500977f, -0.052836984395980834961f, 0.14521327614784240723f, 0.73909902572631835938f, 1.9432078599929809570f, 0.20560131967067718506f, 0.47160282731056213379f, 0.56993526220321655273f, 0.041498862206935882568f, 0.73307824134826660156f, 0.86504954099655151367f, -0.030945273116230964661f, -1.1632164716720581055f, -0.93980729579925537109f, -0.28105142712593078613f, 1.5358223915100097656f, 0.40343716740608215332f, -0.61153990030288696289f, -0.17233869433403015137f, -0.55103963613510131836f, -0.0087179616093635559082f, 0.0026989572215825319290f, 0.40787422657012939453f, 0.12453772127628326416f, -0.44984352588653564453f, 0.060598064213991165161f, -0.00039690392441116273403f, 0.42088016867637634277f, 0.59740966558456420898f, 0.21716949343681335449f, -0.033858750015497207642f, -0.12214715033769607544f, 0.014259424060583114624f, 0.045081987977027893066f, -0.68173021078109741211f, 0.82841324806213378906f, 0.036571692675352096558f, -0.093619845807552337646f, -0.032264232635498046875f, -0.17793357372283935547f, -0.70914578437805175781f, 1.0983597040176391602f, -0.070084080100059509277f, -0.089306131005287170410f, -0.012803405523300170898f, -0.54401844739913940430f, 0.030489901080727577209f, -0.067654654383659362793f, 0.13585403561592102051f, 0.015584507957100868225f, -0.0055182138457894325256f, -0.067058324813842773438f, 0.061238724738359451294f, 0.69655418395996093750f, 0.25186541676521301270f, 0.41025838255882263184f, 0.053478177636861801147f, 0.12304722517728805542f, -0.22402344644069671631f, -0.37328746914863586426f, -0.62738782167434692383f, -0.24908818304538726807f, 0.012137769721448421478f, 1.7111403942108154297f, 1.3573613166809082031f, 0.60102266073226928711f, -0.046808995306491851807f, 0.39440926909446716309f, 0.0020731023978441953659f, 0.37813115119934082031f, -2.1719591617584228516f, -0.56495422124862670898f, -0.37659031152725219727f, -0.86723816394805908203f, 0.092117555439472198486f, -0.55883985757827758789f, -3.5066418647766113281f, -0.046762954443693161011f, 0.17669646441936492920f, -0.023463496938347816467f, 0.0031944622751325368881f, -2.2417025566101074219f, -0.35361236333847045898f, -0.48572832345962524414f, 0.064100146293640136719f, 0.20082145929336547852f, 0.43374496698379516602f, -0.42642408609390258789f, 0.67099970579147338867f, 1.1229299306869506836f, 0.21575818955898284912f, 0.76898145675659179688f, -0.080228976905345916748f, -0.027757391333580017090f, 0.075354509055614471436f, 0.22602447867393493652f, -0.072424970567226409912f, -0.0088406354188919067383f, -0.10816109180450439453f, 0.090454205870628356934f, 0.52022331953048706055f, 0.35947352647781372070f, 0.35604774951934814453f, -0.0090464502573013305664f, -0.081293314695358276367f, -0.0072561725974082946777f, 0.59713488817214965820f, 2.7492988109588623047f, 0.44566649198532104492f, 0.050957467406988143921f, -0.067914269864559173584f, -0.051706012338399887085f, 0.72979331016540527344f, 1.1974284648895263672f, 0.34890592098236083984f, -0.14831794798374176025f, -0.032128605991601943970f, 0.023405101150274276733f, 1.2370585203170776367f, 2.0407214164733886719f, 0.12250070273876190186f, 0.090650849044322967529f, -0.018564963713288307190f, 0.11284253001213073730f, 0.66939491033554077148f, 0.84314471483230590820f, 0.13468968868255615234f, 0.067714631557464599609f, 0.030734146013855934143f, 0.043325956910848617554f, 0.040432546287775039673f, -0.18267679214477539062f, -0.099711380898952484131f, -0.0043801371939480304718f, 0.034338828176259994507f, -0.026458708569407463074f, -0.70437192916870117188f, -0.33734762668609619141f, -0.073309823870658874512f, -0.21565261483192443848f, -0.028337458148598670959f, 0.37573337554931640625f, 0.071735218167304992676f, -0.099472492933273315430f, -0.28965386748313903809f, -0.11976872384548187256f, 0.048007439821958541870f, -0.070727631449699401855f, -0.11938571929931640625f, -0.44054251909255981445f, -0.47935265302658081055f, 0.14794272184371948242f, 0.031731996685266494751f, 0.15893402695655822754f, -0.33594581484794616699f, -0.24744302034378051758f, -0.41603738069534301758f, 0.30221238732337951660f, -0.014731472358107566833f, 0.32409027218818664551f, 0.0072449469007551670074f, 0.12668958306312561035f, 0.42850565910339355469f, 0.26885470747947692871f, -0.0092492001131176948547f, -0.012787848711013793945f, -0.011743601411581039429f, 0.010392615571618080139f, 0.0086930301040410995483f, 0.014527088031172752380f, -0.016543513163924217224f, -0.0047379098832607269287f, -0.026958195492625236511f, 0.019738117232918739319f, -0.014427322894334793091f, 0.00097031175391748547554f, -0.0073233731091022491455f, 0.017646819353103637695f, 0.0021169800311326980591f, 0.0024693100713193416595f, 0.016745990142226219177f, 0.021732414141297340393f, -0.0023113929200917482376f, -0.0097974250093102455139f, -0.014933158643543720245f, 0.028408039361238479614f, 0.027611443772912025452f, -0.019853631034493446350f, -0.026372751221060752869f, -0.013589316979050636292f, 0.026724498718976974487f, -0.022006493061780929565f, -0.0048554190434515476227f, 0.024690192192792892456f, -0.015163442119956016541f, -0.0030159372836351394653f, -0.018822753801941871643f, -0.015397122129797935486f, 0.024389253929257392883f, 0.025280620902776718140f, -0.16536083817481994629f, -0.11804038286209106445f, 0.038735747337341308594f, 0.32799381017684936523f, 0.19009627401828765869f, -0.16240823268890380859f, -0.16009823977947235107f, -0.36296004056930541992f, 0.42481085658073425293f, 0.34677854180335998535f, 1.4009386301040649414f, 0.033665444701910018921f, -0.022670255973935127258f, -0.24356873333454132080f, -0.32249546051025390625f, 1.8416209220886230469f, 0.78501337766647338867f, -0.030669484287500381470f, -0.098020240664482116699f, 0.032888017594814300537f, 0.81371480226516723633f, 1.1626499891281127930f, 1.4361940622329711914f, -0.20753951370716094971f, -0.27147364616394042969f, -0.24164745211601257324f, -0.39298745989799499512f, 1.2540215253829956055f, 0.50392562150955200195f, -0.25357609987258911133f, -0.20918318629264831543f, -0.0037640032824128866196f, 0.69131851196289062500f, -0.24035872519016265869f, 0.043110679835081100464f, -0.10886947065591812134f, 0.0075969202443957328796f, 0.024589184671640396118f, -0.019522687420248985291f, 0.0094553325325250625610f, 0.023387968540191650391f, 0.010714621283113956451f, -0.029107218608260154724f, -0.0044825351797044277191f, -0.0032216033432632684708f, 0.027641283348202705383f, -0.0030379905365407466888f, 0.019327551126480102539f, 0.0015100337332114577293f, -0.027071313932538032532f, 0.023955935612320899963f, 0.023014940321445465088f, -0.011258196085691452026f, -0.0089463675394654273987f, 0.016433127224445343018f, -0.027318013831973075867f, 0.026484964415431022644f, 0.0044665755704045295715f, -0.0069542019627988338470f, -0.025351613759994506836f, -0.0081496099010109901428f, 0.024579595774412155151f, -0.024285364896059036255f, 0.0038331260439008474350f, -0.0051702065393328666687f, 0.025084884837269783020f, 0.010694320313632488251f, -0.024367436766624450684f, -0.0046328413300216197968f, 0.024068737402558326721f, -0.0077087148092687129974f, 0.018940091133117675781f, -0.038821276277303695679f, -0.061398863792419433594f, -1.3438689708709716797f, -0.39625698328018188477f, -0.68692052364349365234f, -0.31139224767684936523f, -0.17990113794803619385f, -0.21917431056499481201f, -0.13243319094181060791f, 0.25879979133605957031f, -0.12837742269039154053f, 0.068756960332393646240f, -0.20444928109645843506f, -0.51186776161193847656f, -0.010120369493961334229f, 0.15414875745773315430f, 0.25251090526580810547f, -0.034180477261543273926f, -0.095589816570281982422f, -1.1731295585632324219f, -1.2985113859176635742f, 0.77822172641754150391f, -0.87401312589645385742f, -0.81316339969635009766f, -0.24903425574302673340f, -0.93514108657836914062f, -0.33027714490890502930f, 0.14903528988361358643f, 0.14642067253589630127f, 0.22838741540908813477f, 0.25151503086090087891f, -0.43301063776016235352f, -0.076595492660999298096f, 0.67510324716567993164f, 0.12026004493236541748f, -0.65930503606796264648f, 1.1687979698181152344f, -0.051662836223840713501f, -0.82360267639160156250f, -0.64882045984268188477f, -1.0355418920516967773f, -0.52807742357254028320f, -0.021058674901723861694f, 0.89489340782165527344f, 0.34823405742645263672f, -0.50643455982208251953f, -0.66943466663360595703f, -0.43235772848129272461f, -1.6878567934036254883f, 0.58218842744827270508f, -0.067838639020919799805f, -0.42827653884887695312f, -0.54523336887359619141f, -1.0029840469360351562f, 1.1592117547988891602f, -0.82712858915328979492f, -2.4705305099487304688f, -0.22656638920307159424f, -0.78109884262084960938f, -0.57040423154830932617f, 0.14098265767097473145f, -0.46002882719039916992f, 0.73646825551986694336f, -0.093976438045501708984f, 0.55441677570343017578f, 0.78446507453918457031f, 0.71106046438217163086f, 0.60759031772613525391f, -0.16972032189369201660f, 0.29769060015678405762f, 0.61795884370803833008f, 0.85315006971359252930f, -0.031383294612169265747f, -0.019111085683107376099f, -0.025340495631098747253f, -0.093041487038135528564f, -0.15945591032505035400f, -0.051616191864013671875f, -0.028766553848981857300f, 0.17947711050510406494f, 0.074526682496070861816f, 0.025146190077066421509f, 0.090707264840602874756f, 0.021984083577990531921f, -0.068214938044548034668f, -0.0014439355581998825073f, 0.32857561111450195312f, 1.2528491020202636719f, 0.44611996412277221680f, 0.039991494268178939819f, -0.052508685737848281860f, 0.0082598114386200904846f, 0.52356970310211181641f, 0.18404994904994964600f, 0.39966654777526855469f, 0.016916627064347267151f, -0.026258699595928192139f, 0.15848769247531890869f, 1.1867414712905883789f, 2.0079929828643798828f, -0.044803548604249954224f, -0.053760085254907608032f, -0.022940315306186676025f, 0.072840370237827301025f, 0.43793210387229919434f, 0.50344496965408325195f, 0.19820705056190490723f, 0.090186081826686859131f, -0.026617664843797683716f, -0.026363188400864601135f, 0.013774865306913852692f, -0.063207827508449554443f, 0.013559876009821891785f, -0.043053187429904937744f, -0.058187138289213180542f, -0.14733032882213592529f, -0.11302280426025390625f, -1.2173314094543457031f, 0.70160049200057983398f, 0.82758361101150512695f, -0.040851671248674392700f, -0.28223764896392822266f, 0.40763175487518310547f, 0.75279015302658081055f, 0.16183148324489593506f, -0.15029130876064300537f, -0.032397259026765823364f, 0.25042283535003662109f, 2.0334355831146240234f, 0.62544643878936767578f, 0.48538216948509216309f, 0.077344030141830444336f, 0.00023695819254498928785f, 0.19550932943820953369f, 2.8199892044067382812f, 1.5454727411270141602f, -1.4127336740493774414f, -0.19077971577644348145f, -0.052201326936483383179f, 0.053078487515449523926f, -0.80356812477111816406f, -1.8246495723724365234f, -0.79574531316757202148f, -0.53611183166503906250f, 0.023463448509573936462f, -0.010793435387313365936f, -0.020247001200914382935f, -0.0042419084347784519196f, -0.014878849498927593231f, 0.0031914787832647562027f, 0.012330176308751106262f, -0.0043211304582655429840f, 0.0012426471803337335587f, 0.027768159285187721252f, -0.025000380352139472961f, 0.029372522607445716858f, -0.026930568739771842957f, 0.021324306726455688477f, -0.0058337878435850143433f, 0.022189022973179817200f, 0.0019333426607772707939f, 0.0053363321349024772644f, 0.0082741882652044296265f, 0.0067390701733529567719f, 0.025053512305021286011f, 0.0062134955078363418579f, -0.081446461379528045654f, -0.080589301884174346924f, 0.012258832342922687531f, 0.026459999382495880127f, 0.024676540866494178772f, -0.049295589327812194824f, 0.0038959318771958351135f, -0.026807639747858047485f, -0.023447409272193908691f, 0.012757632881402969360f, -0.021435048431158065796f, -0.020895997062325477600f, 0.024649504572153091431f, -0.011976262554526329041f, 0.032621625810861587524f, 0.014297502115368843079f, 0.35840255022048950195f, 0.31478953361511230469f, 0.91025626659393310547f, -0.29727691411972045898f, 0.070211067795753479004f, -0.52777910232543945312f, 0.98303115367889404297f, 0.54227560758590698242f, 0.98826277256011962891f, 0.97353225946426391602f, 0.43986684083938598633f, -0.14411719143390655518f, -0.89792281389236450195f, -0.13332575559616088867f, 0.23631200194358825684f, 0.24085740745067596436f, 0.44064891338348388672f, -0.20109735429286956787f, 0.10488057881593704224f, 0.67147147655487060547f, 1.6557353734970092773f, -0.41071993112564086914f, -0.47296285629272460938f, -1.1285637617111206055f, -0.87690961360931396484f, 0.21778066456317901611f, 0.80009859800338745117f, -0.13370947539806365967f, 0.022185649722814559937f, -0.93696153163909912109f, 0.0027808947488665580750f, -0.20259848237037658691f, 0.32360482215881347656f, 0.069853529334068298340f, -0.027670530602335929871f, 0.019586589187383651733f, 0.018266722559928894043f, 0.016527377068996429443f, 0.0039194775745272636414f, 0.017399957403540611267f, 0.020597811788320541382f, -0.026507593691349029541f, -0.0097526051104068756104f, -0.025714073330163955688f, -0.017581665888428688049f, -0.012598121538758277893f, 0.022796036675572395325f, 0.024828877300024032593f, 6.1636252212338149548e-05f, 0.0051765530370175838470f, 0.0077728657051920890808f, 0.011626660823822021484f, -0.017713624984025955200f, -0.0036900970153510570526f, 0.015392236411571502686f, -0.0043609132990241050720f, -0.015703333541750907898f, -0.027058100327849388123f, 0.014736719429492950439f, 0.017734207212924957275f, -0.0032921852543950080872f, -0.024271635338664054871f, 0.016288099810481071472f, 0.020168570801615715027f, 0.018853837624192237854f, 0.0018800690304487943649f, -0.0056892661377787590027f, 0.00064789893804118037224f, -0.014613710343837738037f, 0.013548968359827995300f, 0.11660467088222503662f, -0.031265038996934890747f, -0.69585227966308593750f, -0.70441430807113647461f, -0.75569868087768554688f, -0.89292842149734497070f, 0.0076985405758023262024f, -0.18020467460155487061f, -0.95130115747451782227f, -1.1072816848754882812f, -0.30248981714248657227f, -0.046275068074464797974f, -0.94479542970657348633f, 0.23008862137794494629f, -0.20364870131015777588f, -1.3235754966735839844f, -1.2675253152847290039f, -0.43978348374366760254f, 0.22587566077709197998f, 0.35817205905914306641f, -0.40776404738426208496f, -1.7213890552520751953f, -1.7486084699630737305f, -0.17038871347904205322f, 0.10749012231826782227f, 0.27108916640281677246f, -0.21367418766021728516f, -1.5156691074371337891f, 0.079632751643657684326f, 0.82650357484817504883f, 0.29850143194198608398f, 0.81612807512283325195f, -0.78116375207901000977f, -1.3915909528732299805f, -0.23229250311851501465f, 0.46505764126777648926f, -0.12598645687103271484f, -0.19767154753208160400f, -1.7987468242645263672f, -0.48991718888282775879f, -0.89389753341674804688f, -0.73076117038726806641f, -0.28458523750305175781f, -0.55946648120880126953f, -0.11756811290979385376f, 0.46225887537002563477f, -0.12064345180988311768f, 0.12644661962985992432f, 0.18333797156810760498f, -0.53367018699645996094f, 0.063440404832363128662f, 0.26585161685943603516f, 0.29822885990142822266f, 0.11715461313724517822f, 0.10115990787744522095f, -1.1653209924697875977f, -1.2167029380798339844f, 0.91863870620727539062f, -1.1429355144500732422f, -1.1138799190521240234f, -1.6342819929122924805f, -1.0916677713394165039f, -0.38376840949058532715f, 0.11733391880989074707f, -0.030911913141608238220f, 0.17231407761573791504f, 0.46313542127609252930f, -0.62684988975524902344f, 0.12804466485977172852f, 0.90542173385620117188f, 0.17580236494541168213f, -0.85286176204681396484f, 0.051771108061075210571f, 0.011115448549389839172f, 0.31103786826133728027f, 0.33939003944396972656f, 0.12058738619089126587f, 0.0083789015188813209534f, -0.0048584965988993644714f, 0.32334667444229125977f, 0.52892261743545532227f, 0.54090595245361328125f, 0.33296504616737365723f, 0.12784427404403686523f, 0.026667676866054534912f, 0.099323250353336334229f, -0.92750573158264160156f, 0.32322800159454345703f, -0.0092359147965908050537f, -0.28063437342643737793f, 0.035768367350101470947f, -0.070633761584758758545f, -0.99674630165100097656f, 0.79522377252578735352f, 0.23954980075359344482f, 0.041238546371459960938f, 0.041716735810041427612f, -0.58626675605773925781f, -0.93748313188552856445f, -0.25318303704261779785f, 0.12129462510347366333f, -0.45317292213439941406f, 0.026513922959566116333f, -0.063042655587196350098f, 0.71179360151290893555f, 0.57230412960052490234f, 0.10650561004877090454f, 0.33983355760574340820f, 0.027501143515110015869f, 0.00015913677634671330452f, 0.27686133980751037598f, -1.1294171810150146484f, -0.23264609277248382568f, -0.23516513407230377197f, 0.027168653905391693115f, -0.059860844165086746216f, -1.3493622541427612305f, -0.48791792988777160645f, -0.11170145124197006226f, -0.053028661757707595825f, -0.064381249248981475830f, 0.59395945072174072266f, 0.15657198429107666016f, -0.64800041913986206055f, -0.048723775893449783325f, -0.16433970630168914795f, 0.071633227169513702393f, -0.096240215003490447998f, -0.11056938022375106812f, -0.74278396368026733398f, -0.40241718292236328125f, 0.58902239799499511719f, 0.0072980676777660846710f, 0.55470740795135498047f, -0.81457322835922241211f, -0.53378891944885253906f, -0.77670902013778686523f, 0.33293807506561279297f, 0.074493736028671264648f, 0.70368313789367675781f, 0.10336632281541824341f, 0.30998086929321289062f, 0.65135788917541503906f, 0.45663341879844665527f, 0.029667338356375694275f, 0.035231217741966247559f, -0.29588031768798828125f, -1.0907254219055175781f, -0.88872289657592773438f, -0.63964861631393432617f, 0.025457859039306640625f, 0.40852648019790649414f, -0.43183073401451110840f, -1.7703706026077270508f, -1.4602009057998657227f, -0.27773100137710571289f, -0.11699670553207397461f, 0.59792196750640869141f, 0.90641689300537109375f, -2.4650154113769531250f, -1.8533446788787841797f, 0.15288342535495758057f, 0.077019669115543365479f, 0.19233186542987823486f, 0.017356021329760551453f, -4.5730423927307128906f, -1.7322893142700195312f, 0.24844157695770263672f, 0.24758373200893402100f, 0.66686165332794189453f, 0.24197790026664733887f, -2.4611821174621582031f, 0.20656454563140869141f, 0.90388512611389160156f, -0.063726283609867095947f, 0.60555511713027954102f, -0.21689780056476593018f, -1.6398818492889404297f, -0.42616549134254455566f, 0.62065351009368896484f, 0.023723041638731956482f, 0.0060951295308768749237f, -0.0069629405625164508820f, -0.0091595109552145004272f, -0.0082677332684397697449f, 0.0039814547635614871979f, -0.021761309355497360229f, -0.018135219812393188477f, -0.027053654193878173828f, -0.017901778221130371094f, 0.0044866059906780719757f, 0.013649633154273033142f, 0.026949184015393257141f, 0.025775263085961341858f, -0.025885274633765220642f, 0.0019399210577830672264f, 0.0064876712858676910400f, -0.010662323795258998871f, -0.026848388835787773132f, -0.016680296510457992554f, -0.022439701482653617859f, -0.018085658550262451172f, 0.011595405638217926025f, -0.013218070380389690399f, -0.016795132309198379517f, 0.0013788236537948250771f, -0.017093658447265625000f, -0.022891242057085037231f, 0.0098044248297810554504f, -0.021097086369991302490f, -0.013784298673272132874f, 0.014856781810522079468f, -0.0020933181513100862503f, 0.023280752822756767273f, 0.010212349705398082733f, 0.019101738929748535156f, -0.044623885303735733032f, -1.0697166919708251953f, 1.8754653930664062500f, -2.7822606563568115234f, -2.4489374160766601562f, -0.81854724884033203125f, 0.56871056556701660156f, 0.087177902460098266602f, -0.039354883134365081787f, -1.8451070785522460938f, -3.3018426895141601562f, -3.7611455917358398438f, 0.13952782750129699707f, 0.52550697326660156250f, -0.58400434255599975586f, -1.3111362457275390625f, -2.4097156524658203125f, -1.7794046401977539062f, 0.97611153125762939453f, -0.73958355188369750977f, -1.7931022644042968750f, -1.5227407217025756836f, -1.2267949581146240234f, 1.1891624927520751953f, -2.5508010387420654297f, -0.82223933935165405273f, -1.9914847612380981445f, 0.034790184348821640015f, -1.0546979904174804688f, 1.3941736221313476562f, 0.72732192277908325195f, 0.32292723655700683594f, 0.16931016743183135986f, 0.93523985147476196289f, 1.5244812965393066406f, 1.5282326936721801758f, 0.018775122240185737610f, 0.093989670276641845703f, 0.59060525894165039062f, 0.85198646783828735352f, 0.58016991615295410156f, -0.014799963682889938354f, -0.013329282402992248535f, 1.2282394170761108398f, 1.0835502147674560547f, 1.2753287553787231445f, 0.59288084506988525391f, 1.2104461193084716797f, -0.024363111704587936401f, -0.53733903169631958008f, -2.1002359390258789062f, -0.68147611618041992188f, -0.17868165671825408936f, -0.29665580391883850098f, 0.18659663200378417969f, -0.019336972385644912720f, -0.38917532563209533691f, 0.37520900368690490723f, 0.52416223287582397461f, -0.15104492008686065674f, -0.034076243638992309570f, -3.7506799697875976562f, -2.6897947788238525391f, -0.63998913764953613281f, -0.72725790739059448242f, -0.59838050603866577148f, 0.00072338635800406336784f, -0.69365423917770385742f, -0.31367322802543640137f, -0.11983826756477355957f, -0.25726690888404846191f, 0.27371564507484436035f, 0.048813801258802413940f, 0.012738551013171672821f, -0.56022608280181884766f, -0.18272888660430908203f, -0.56506335735321044922f, -0.13476854562759399414f, 0.015256999991834163666f, -0.10381948947906494141f, -0.026528241112828254700f, 0.14579093456268310547f, -0.17938818037509918213f, 0.0053199748508632183075f, 0.12186364084482192993f, -0.38595438003540039062f, -0.17158532142639160156f, 0.063992165029048919678f, 0.22703291475772857666f, -0.081146866083145141602f, 0.040039233863353729248f, -0.60524219274520874023f, -1.0936865806579589844f, 0.55178987979888916016f, -0.82113999128341674805f, -0.43223854899406433105f, -0.044659625738859176636f, -0.71257162094116210938f, -0.36103576421737670898f, 0.098373748362064361572f, -0.11436323076486587524f, 0.12040621787309646606f, 0.23933935165405273438f, -0.53518897294998168945f, 0.0088434061035513877869f, 0.61869007349014282227f, 0.26099953055381774902f, -0.33337005972862243652f, 0.0052410238422453403473f, 0.028612796217203140259f, -0.017858881503343582153f, -0.016217995434999465942f, 0.010170178487896919250f, 0.0025176210328936576843f, 0.0038010731805115938187f, -0.016454035416245460510f, -0.013372320681810379028f, 0.015500294044613838196f, -0.024224281311035156250f, 0.0045926403254270553589f, -0.0060399421490728855133f, -0.013257368467748165131f, 0.015417155809700489044f, -0.028555579483509063721f, -0.012961655855178833008f, 0.024310480803251266479f, 0.023613631725311279297f, -0.010991357266902923584f, 0.026067784056067466736f, 0.016157303005456924438f, -0.027079189196228981018f, 0.026612974703311920166f, 0.012982448562979698181f, -0.010365076363086700439f, -0.0071843694895505905151f, 0.010642173700034618378f, 0.024213694036006927490f, -0.0098293125629425048828f, -0.0036678435280919075012f, 0.014743603765964508057f, 0.025500586256384849548f, -0.014522297307848930359f, 0.021145541220903396606f, -0.0055407583713531494141f},
  {-0.18230564892292022705f, -0.65732979774475097656f, 1.0009119510650634766f, 0.59514611959457397461f, -0.080926179885864257812f, -0.22890253365039825439f, 0.66924476623535156250f, -0.088809713721275329590f, 0.16623485088348388672f, 0.047221492975950241089f, 0.028977280482649803162f, 0.54426491260528564453f, 0.012092567048966884613f, -0.38255921006202697754f, -0.087194934487342834473f, -1.0795646905899047852f, -0.44659158587455749512f, -0.19361908733844757080f, 0.51409447193145751953f, -0.52445870637893676758f, -0.27198353409767150879f, -0.16187705099582672119f, -0.29706656932830810547f, 0.15472446382045745850f, 0.61406892538070678711f, 0.38844007253646850586f, 0.70915651321411132812f, 0.55125844478607177734f, 0.48504734039306640625f, -0.14546933770179748535f, 0.93220293521881103516f, 0.47533702850341796875f, 0.21005900204181671143f, 0.33677819371223449707f, 0.24905064702033996582f, -0.64022785425186157227f, 0.064315348863601684570f, 0.064460501074790954590f, -0.032876741141080856323f, 0.013451993465423583984f, 0.13117876648902893066f, 0.12031735479831695557f, 0.051835585385560989380f, 0.069925419986248016357f, -0.0026961441617459058762f, 0.23396812379360198975f, 0.40881189703941345215f, 0.11268569529056549072f, 0.088091008365154266357f, 0.078322060406208038330f, 0.29107737541198730469f, 1.2439917325973510742f, 1.0159351825714111328f, 0.21775363385677337646f, 0.059519045054912567139f, 0.21633797883987426758f, 0.37783110141754150391f, 0.69567602872848510742f, 0.88646239042282104492f, 1.1946074664592742920e-05f, -0.026668790727853775024f, -0.037301786243915557861f, -0.78783661127090454102f, -0.85358506441116333008f, -0.65044450759887695312f, -0.23875756561756134033f, -0.018376963213086128235f, -0.15908232331275939941f, -0.049286499619483947754f, 0.14689308404922485352f, -0.42740502953529357910f, -0.11958177387714385986f, 0.046876851469278335571f, 0.042480379343032836914f, 0.92485642433166503906f, -1.2639191150665283203f, -0.38665893673896789551f, -0.54140222072601318359f, 0.027372308075428009033f, -0.46744307875633239746f, -0.61423021554946899414f, 0.053940873593091964722f, 0.19985842704772949219f, 0.26114198565483093262f, 0.23787885904312133789f, -1.0634768009185791016f, -1.2224885225296020508f, -0.39064472913742065430f, 0.66075551509857177734f, 0.77655351161956787109f, -0.13741986453533172607f, -2.0615410804748535156f, -2.1423058509826660156f, -0.63150095939636230469f, -0.0092707425355911254883f, -0.58478027582168579102f, 0.043100800365209579468f, 0.54818451404571533203f, 1.1171566247940063477f, -0.044521708041429519653f, -0.34294179081916809082f, -0.56304442882537841797f, -0.016350612044334411621f, 0.74790072441101074219f, -0.37361478805541992188f, -1.0093585252761840820f, -0.52289259433746337891f, -0.66721940040588378906f, -0.56300616264343261719f, -1.1654859781265258789f, 0.94849377870559692383f, 0.34279987215995788574f, -0.94099342823028564453f, 0.46953698992729187012f, 1.0404837131500244141f, 0.28874614834785461426f, 0.29871702194213867188f, -0.072599351406097412109f, -0.14704386889934539795f, 0.25228127837181091309f, 0.18545593321323394775f, -0.31880411505699157715f, -0.035007487982511520386f, -1.1183948516845703125f, -0.60165935754776000977f, 0.13671009242534637451f, 0.92022168636322021484f, -0.30016246438026428223f, -0.27516704797744750977f, -0.15980793535709381104f, -0.095109850168228149414f, 0.51494228839874267578f, 0.60710108280181884766f, 0.20656758546829223633f, 0.96402013301849365234f, 0.54944056272506713867f, 0.33937487006187438965f, -0.58334612846374511719f, 1.0551713705062866211f, 0.51207923889160156250f, 0.25865387916564941406f, 0.43146234750747680664f, -0.20096473395824432373f, -1.5765283107757568359f, -0.12085186690092086792f, -0.17076286673545837402f, 0.76869827508926391602f, 0.20448054373264312744f, -0.18542666733264923096f, -0.38151055574417114258f, 0.57559412717819213867f, 0.36298245191574096680f, 0.30666801333427429199f, 0.042773574590682983398f, -0.27719008922576904297f, -0.29103016853332519531f, 0.35153982043266296387f, -0.45125871896743774414f, -0.38994988799095153809f, -0.97828692197799682617f, -0.34358957409858703613f, 0.10820717364549636841f, 0.62141066789627075195f, -0.28145918250083923340f, -0.21146468818187713623f, -0.060395251959562301636f, 0.066882222890853881836f, 0.19058701395988464355f, 0.27067843079566955566f, 0.30693250894546508789f, 0.60811948776245117188f, 0.40242433547973632812f, 0.35314452648162841797f, -0.38429778814315795898f, 0.62595140933990478516f, 0.076736412942409515381f, -0.11461503803730010986f, 0.27548491954803466797f, -0.046687971800565719604f, -0.74050939083099365234f, -1.1079715490341186523f, 0.14765633642673492432f, 0.57278722524642944336f, -0.35750502347946166992f, -1.3815019130706787109f, -0.33836871385574340820f, 1.4999290704727172852f, 0.059667445719242095947f, 0.39657041430473327637f, -0.80807316303253173828f, -2.1814014911651611328f, -1.7702680826187133789f, -0.63585430383682250977f, -0.15667541325092315674f, -0.75040572881698608398f, -1.2240371704101562500f, -0.38768777251243591309f, 0.16438747942447662354f, 1.3697441816329956055f, 1.3053230047225952148f, 1.3834707736968994141f, 0.62287354469299316406f, 1.8323738574981689453f, 3.0334827899932861328f, 0.60683286190032958984f, 0.75903838872909545898f, 1.4171973466873168945f, 1.1508028507232666016f, 0.54393351078033447266f, 0.020999692380428314209f, 0.14935478568077087402f, -0.71602237224578857422f, -1.1175010204315185547f, -0.56945562362670898438f, -1.8974193334579467773f, -1.4564855098724365234f, -0.017422709614038467407f, -0.023361742496490478516f, 0.024270975962281227112f, 0.0097298771142959594727f, 0.00042336861952207982540f, -0.0081420410424470901489f, 0.012546965852379798889f, -0.026362376287579536438f, -0.0057162609882652759552f, 0.023082138970494270325f, 0.0044716121628880500793f, 0.028202246874570846558f, 0.019732234999537467957f, -0.011308385990560054779f, -0.016644544899463653564f, -0.015693666413426399231f, -0.019057372584939002991f, -0.0041373805142939090729f, -0.021216299384832382202f, 0.022864071652293205261f, -0.011156850494444370270f, 0.0044380524195730686188f, 0.011763526126742362976f, -0.015892663970589637756f, 0.0024806475266814231873f, 0.027357803657650947571f, 0.00086525722872465848923f, 0.010679909959435462952f, -0.027220597490668296814f, -0.027333017438650131226f, -0.017964465543627738953f, 0.021796829998493194580f, 0.021363556385040283203f, 0.0041533894836902618408f, -0.0061386041343212127686f, -0.020134532824158668518f, 0.011853421106934547424f, -0.0023990832269191741943f, -0.24441659450531005859f, -1.4522465467453002930f, -1.0722222328186035156f, -0.74427294731140136719f, -0.083954073488712310791f, 0.69027322530746459961f, -0.24677610397338867188f, -1.0544065237045288086f, -0.19134850800037384033f, 0.10753359645605087280f, 0.19228620827198028564f, 0.86893123388290405273f, -0.32608762383460998535f, -0.34704154729843139648f, -0.038918081670999526978f, 0.51395118236541748047f, -0.048337824642658233643f, 1.0839891433715820312f, 0.66585236787796020508f, -0.53215134143829345703f, 0.51247847080230712891f, 0.70295369625091552734f, 0.30529507994651794434f, 0.60364729166030883789f, 1.6878223419189453125f, 0.46886819601058959961f, -0.20819659531116485596f, -0.22668334841728210449f, 0.99149322509765625000f, -0.029237709939479827881f, -0.27741119265556335449f, -0.48333865404129028320f, -1.5234727859497070312f, -1.1774817705154418945f, 0.11090734601020812988f, 0.13323034346103668213f, 0.23143137991428375244f, -0.14508321881294250488f, 0.19487841427326202393f, -0.059469278901815414429f, 0.020478449761867523193f, -0.45214650034904479980f, 0.15429802238941192627f, 0.42719984054565429688f, 0.24301436543464660645f, 0.020417785272002220154f, 0.088827997446060180664f, -0.13637004792690277100f, 0.28117588162422180176f, 0.88170206546783447266f, 0.67266786098480224609f, -0.31378358602523803711f, 0.028036894276738166809f, -0.64325082302093505859f, -1.0153551101684570312f, 0.42351573705673217773f, -1.5519337654113769531f, -0.65165621042251586914f, 0.060695152729749679565f, -0.46793636679649353027f, -0.024114873260259628296f, -0.81318432092666625977f, 0.56118118762969970703f, 0.61826115846633911133f, 0.093259289860725402832f, 0.16861928999423980713f, -0.12921983003616333008f, -0.61830353736877441406f, 1.3284598588943481445f, 0.19788920879364013672f, -0.0012358527164906263351f, 0.26871794462203979492f, 0.61736506223678588867f, 0.048149995505809783936f, 0.29841211438179016113f, -0.42805096507072448730f, -0.72128063440322875977f, -1.3924381732940673828f, -0.51994067430496215820f, -0.12332072108983993530f, 0.37195292115211486816f, 0.56589126586914062500f, 0.12456574290990829468f, -2.2039003372192382812f, -0.47056901454925537109f, -0.36389011144638061523f, 0.56831032037734985352f, 0.37232777476310729980f, -0.031678423285484313965f, -3.0908958911895751953f, -2.4436738491058349609f, -0.37438020110130310059f, -0.62520700693130493164f, -0.95358085632324218750f, -0.32564878463745117188f, -0.39281898736953735352f, -0.19338950514793395996f, -0.14734013378620147705f, -0.046119917184114456177f, 0.38276261091232299805f, -0.44999372959136962891f, -0.060265805572271347046f, -1.1694896221160888672f, -0.87277132272720336914f, 0.87888252735137939453f, 0.57244855165481567383f, 0.010219335556030273438f, 0.0029761283658444881439f, -0.12281131744384765625f, -0.11614953726530075073f, 0.085073180496692657471f, 0.028023393824696540833f, -0.047967229038476943970f, -0.057492248713970184326f, -0.021127210929989814758f, 0.93117618560791015625f, 0.017745872959494590759f, -0.038876604288816452026f, -0.011939119547605514526f, -0.065048873424530029297f, 0.16659630835056304932f, 1.5331889390945434570f, 0.59196913242340087891f, 0.036510962992906570435f, -0.015361109748482704163f, 0.063390016555786132812f, 0.15523405373096466064f, 1.3103737831115722656f, -0.099290832877159118652f, -0.41434895992279052734f, -0.14268036186695098877f, -0.17083050310611724854f, -0.83409410715103149414f, -0.79882413148880004883f, 0.14870768785476684570f, 0.040737520903348922729f, -0.048646621406078338623f, -0.12123048305511474609f, -0.086617305874824523926f, -0.057625394314527511597f, -0.15950848162174224854f, 0.048023086041212081909f, -0.0089547894895076751709f, -0.0053547234274446964264f, 0.086634978652000427246f, 0.18537634611129760742f, -0.022774543613195419312f, -0.047484755516052246094f, -0.058673385530710220337f, 0.36826226115226745605f, 0.27632009983062744141f, -0.0088726161047816276550f, 0.29784557223320007324f, -0.49999573826789855957f, 0.10926904529333114624f, 0.22135394811630249023f, 0.072732500731945037842f, -0.15852224826812744141f, -0.31298911571502685547f, -0.32630866765975952148f, 0.068161956965923309326f, 0.52838897705078125000f, 0.72049367427825927734f, -0.15289057791233062744f, -0.32875710725784301758f, 0.41511201858520507812f, 0.20917917788028717041f, 0.14136166870594024658f, 0.31731998920440673828f, 0.39254909753799438477f, 0.046807251870632171631f, 0.20172958076000213623f, 0.33340540528297424316f, -0.33186197280883789062f, -0.24628250300884246826f, 0.068410694599151611328f, 0.20720688998699188232f, -0.055828832089900970459f, -0.0098454998806118965149f, 0.0040715504437685012817f, 0.016413096338510513306f, -0.0066637503914535045624f, -0.0045553683303296566010f, 0.022686546668410301208f, 0.021432824432849884033f, -0.014221502467989921570f, -0.010466109029948711395f, -0.0059603089466691017151f, 0.0045200772583484649658f, 0.017359469085931777954f, 0.020816721022129058838f, -0.010043028742074966431f, -0.019048957154154777527f, 0.018064301460981369019f, -0.00075510994065552949905f, 0.014778275974094867706f, 0.024521647021174430847f, -0.018680997192859649658f, 0.0055321920663118362427f, 0.018635720014572143555f, -0.026748761534690856934f, -0.012890768237411975861f, -0.027198879048228263855f, -0.0051250215619802474976f, -0.017707092687487602234f, -0.010210664011538028717f, 0.022236188873648643494f, 0.013026635162532329559f, -0.015448179095983505249f, -0.0074764401651918888092f, -0.023598890751600265503f, 0.0059259557165205478668f, -0.0030181463807821273804f, -0.0053146369755268096924f, 0.030955024063587188721f, 0.040058150887489318848f, 0.23944729566574096680f, -0.71693086624145507812f, -0.24354372918605804443f, 0.034816488623619079590f, 0.18428562581539154053f, -0.13227771222591400146f, 0.21389186382293701172f, 0.37819007039070129395f, -0.65008735656738281250f, -0.25333181023597717285f, -0.19510582089424133301f, 0.25505396723747253418f, -0.36580216884613037109f, 0.14278636872768402100f, 1.1994665861129760742f, 0.27247357368469238281f, 0.11808646470308303833f, -0.16087187826633453369f, 1.0606205463409423828f, 0.49404716491699218750f, 0.64929538965225219727f, 0.44013553857803344727f, -0.00057463999837636947632f, 0.23602642118930816650f, 0.50961887836456298828f, 0.68082767724990844727f, -0.16979148983955383301f, -0.15909151732921600342f, 0.078522808849811553955f, -0.085362963378429412842f, -0.56234550476074218750f, -0.91733682155609130859f, -1.1203070878982543945f, -0.45750430226325988770f, 0.026061899960041046143f, -0.0086973849684000015259f, -0.015647523105144500732f, 0.0044220439158380031586f, 0.018117222934961318970f, -0.021981187164783477783f, 0.017720069736242294312f, 0.021519025787711143494f, 0.0086119920015335083008f, 0.0055405581369996070862f, -0.022903848439455032349f, 0.010911064222455024719f, -0.00067835702793672680855f, -0.017371490597724914551f, 0.0084377005696296691895f, -0.016472719609737396240f, -0.0044870059937238693237f, -0.018019638955593109131f, 0.024822473526000976562f, 7.2299408202525228262e-05f, 0.0014773173024877905846f, 0.0019661083351820707321f, -0.021605137735605239868f, -0.023506049066781997681f, 0.023488048464059829712f, -0.014789648354053497314f, 0.0062078796327114105225f, 0.016627589240670204163f, 0.013400278054177761078f, 0.024833453819155693054f, -0.023962261155247688293f, -0.016034876927733421326f, 0.016445910558104515076f, -0.0079472558572888374329f, -0.019692724570631980896f, -0.023745419457554817200f, -0.079465925693511962891f, -0.37136089801788330078f, 0.87465244531631469727f, 0.50169730186462402344f, 0.078494399785995483398f, -0.44476348161697387695f, 0.055760275572538375854f, -0.033966340124607086182f, 0.12845183908939361572f, 0.029162975028157234192f, 0.029188714921474456787f, 0.46604600548744201660f, 0.091875769197940826416f, -0.17486473917961120605f, -0.051140390336513519287f, -1.0915127992630004883f, -0.44111222028732299805f, -0.10907825827598571777f, 0.65732038021087646484f, -0.30459299683570861816f, -0.18050445616245269775f, -0.090123459696769714355f, -0.27351307868957519531f, 0.16975550353527069092f, 0.62668788433074951172f, 0.36203199625015258789f, 0.63350611925125122070f, 0.53625744581222534180f, 0.41706010699272155762f, -0.049307532608509063721f, 0.86924755573272705078f, 0.44877216219902038574f, 0.19088481366634368896f, 0.46137836575508117676f, 0.20517696440219879150f, -0.47224166989326477051f, -1.7812163829803466797f, 0.20967677235603332520f, 0.59412586688995361328f, 0.55203694105148315430f, 0.29792010784149169922f, -0.69089668989181518555f, -0.62290006875991821289f, -0.49324747920036315918f, -0.35197260975837707520f, 0.055122930556535720825f, 0.21051283180713653564f, 0.085099138319492340088f, 0.32558164000511169434f, -0.079619072377681732178f, 0.21320982277393341064f, -0.17102411389350891113f, -0.41021645069122314453f, -0.38839468359947204590f, 1.4379367828369140625f, 0.034732244908809661865f, -0.16742658615112304688f, -0.15020158886909484863f, -0.80155837535858154297f, -0.11370920389890670776f, 0.0098471920937299728394f, -0.30127078294754028320f, -0.32415038347244262695f, -0.041537266224622726440f, 0.21445968747138977051f, 0.87301850318908691406f, -0.83816856145858764648f, -0.53073179721832275391f, 0.10224586725234985352f, 0.56752407550811767578f, 1.5316563844680786133f, 1.1864085197448730469f, 0.027630316093564033508f, 0.060848567634820938110f, -0.16268722712993621826f, 0.062857434153556823730f, 0.012684745714068412781f, 0.061837255954742431641f, -0.0051448959857225418091f, -0.23917779326438903809f, -0.13308341801166534424f, -0.61400240659713745117f, -0.46552780270576477051f, 0.13019946217536926270f, 0.039644349366426467896f, 0.20593035221099853516f, 0.77750033140182495117f, 0.95146596431732177734f, 0.13509032130241394043f, 0.027343494817614555359f, 0.026972757652401924133f, 0.32613790035247802734f, 0.15788170695304870605f, 0.29224449396133422852f, 0.29671394824981689453f, 0.088304817676544189453f, -0.077891573309898376465f, -0.21949642896652221680f, -0.83430373668670654297f, -0.90628612041473388672f, 0.38895282149314880371f, 0.26251658797264099121f, -0.041563417762517929077f, -0.19071081280708312988f, 0.030227638781070709229f, 0.099519729614257812500f, -0.41835078597068786621f, -0.065310277044773101807f, -0.060742083936929702759f, -0.079716317355632781982f, -0.25953495502471923828f, -0.13613070547580718994f, -0.083592459559440612793f, -0.13229173421859741211f, -0.14713014662265777588f, -0.087559826672077178955f, 0.18673814833164215088f, 0.090463653206825256348f, -1.4148933887481689453f, -0.21360693871974945068f, -0.039470333606004714966f, 0.73059356212615966797f, 0.35784873366355895996f, 2.0024893283843994141f, -0.81484860181808471680f, 0.12535606324672698975f, -0.10444749146699905396f, 0.078839167952537536621f, -0.49479025602340698242f, 0.58460509777069091797f, 1.0605860948562622070f, -0.25990292429924011230f, -0.17755714058876037598f, -0.99176836013793945312f, -2.1237583160400390625f, -0.23888684809207916260f, -0.27796688675880432129f, -0.32458731532096862793f, -0.13979931175708770752f, 0.60110890865325927734f, 1.1665624380111694336f, -0.019568502902984619141f, -0.18823125958442687988f, -0.16688907146453857422f, -0.010627457872033119202f, -0.027087755501270294189f, 0.022101996466517448425f, 0.0023344436194747686386f, 0.023245424032211303711f, 0.0069995624944567680359f, 0.020097864791750907898f, -0.021168651059269905090f, -0.019409069791436195374f, -0.010430621914565563202f, 0.023512378334999084473f, 0.0079327672719955444336f, 0.029418610036373138428f, 0.0095645673573017120361f, -0.026380905881524085999f, -0.029287919402122497559f, -0.013659540563821792603f, -0.019086765125393867493f, 0.0023794004227966070175f, 0.025885084643959999084f, 0.0080719012767076492310f, 0.014103772118687629700f, -0.041045803576707839966f, -0.042698815464973449707f, 0.022726016119122505188f, -0.025749916210770606995f, 0.027230126783251762390f, 0.038113545626401901245f, 0.0048083616420626640320f, 0.010139674879610538483f, 0.0029634819366037845612f, 0.026318153366446495056f, -0.013630621135234832764f, -0.0097607392817735671997f, 0.0043072779662907123566f, 0.014771392568945884705f, -0.062660604715347290039f, -0.23656959831714630127f, 1.2209167480468750000f, -0.71990752220153808594f, -1.1177467107772827148f, 0.017906639724969863892f, 0.58804190158843994141f, -0.52388596534729003906f, -0.083366960287094116211f, 0.32189619541168212891f, -0.52493029832839965820f, 0.10930984467267990112f, -0.35128861665725708008f, -1.2563264369964599609f, -0.82307320833206176758f, 0.098267138004302978516f, 1.0973643064498901367f, 0.90830242633819580078f, 0.30624985694885253906f, -0.95478898286819458008f, -1.3246387243270874023f, -0.031717419624328613281f, 0.70294260978698730469f, -1.3880650997161865234f, -0.080401174724102020264f, 0.63720339536666870117f, 1.7943266630172729492f, -0.26676008105278015137f, 0.049838919192552566528f, -1.9069981575012207031f, 0.034920491278171539307f, 1.3547995090484619141f, 0.060178201645612716675f, -0.97978764772415161133f, -1.0111783742904663086f, -0.16565534472465515137f, -0.018699120730161666870f, 0.018691733479499816895f, 0.028291050344705581665f, -0.0062868101522326469421f, -0.0033203286584466695786f, 0.025932222604751586914f, -0.023686448112130165100f, -0.017480658367276191711f, 0.017675695940852165222f, -0.026283975690603256226f, -0.011650980450212955475f, -0.020329141989350318909f, 0.024578008800745010376f, 0.018995454534888267517f, -0.027365056797862052917f, -0.00087228522170335054398f, 0.0042868298478424549103f, -0.023909432813525199890f, 0.0084625529125332832336f, -0.026970516890287399292f, 0.0024498663842678070068f, -0.025068184360861778259f, 0.0071925702504813671112f, 0.0081180762499570846558f, 0.0042469832114875316620f, 0.029414771124720573425f, -0.00059046683600172400475f, -0.025369226932525634766f, -0.019821399822831153870f, 0.016762929037213325500f, 0.0016541092190891504288f, 0.019314257428050041199f, -0.022414136677980422974f, 0.024388277903199195862f, -0.010870216414332389832f, 0.0019228305900469422340f, -0.70031815767288208008f, 0.20636521279811859131f, 0.52095371484756469727f, 0.19815224409103393555f, -0.19077125191688537598f, -0.60289019346237182617f, 0.89192408323287963867f, 0.041346456855535507202f, 0.29649585485458374023f, 0.17004530131816864014f, -0.55559211969375610352f, -0.69979965686798095703f, -0.60243660211563110352f, 0.27904883027076721191f, -0.34861621260643005371f, -0.69141960144042968750f, -1.0873556137084960938f, -0.53978043794631958008f, 1.4447325468063354492f, 0.74030721187591552734f, 0.49448874592781066895f, -0.0097975013777613639832f, -0.25777822732925415039f, 0.80442416667938232422f, 0.70437407493591308594f, 0.41512015461921691895f, -0.29106235504150390625f, 0.90143829584121704102f, 0.94365906715393066406f, 0.90670484304428100586f, -0.42165684700012207031f, -1.6040942668914794922f, -0.096700951457023620605f, 0.84249258041381835938f, 1.3663815259933471680f, 1.5155771970748901367f, -0.086212538182735443115f, -0.95194214582443237305f, 1.1779986619949340820f, 0.64730352163314819336f, -0.31395950913429260254f, -0.038449790328741073608f, 1.0285315513610839844f, 0.047149401158094406128f, 0.16996355354785919189f, 0.046694073826074600220f, 0.040232188999652862549f, 0.58801209926605224609f, -0.017530877143144607544f, -0.41448420286178588867f, -0.11264090240001678467f, -1.2108429670333862305f, -0.57707583904266357422f, -0.11079326272010803223f, 0.76099920272827148438f, -0.49557262659072875977f, -0.27368989586830139160f, -0.23767070472240447998f, -0.22237502038478851318f, 0.18087290227413177490f, 0.81029248237609863281f, 0.43179130554199218750f, 0.90331751108169555664f, 0.58991962671279907227f, 0.40257290005683898926f, -0.27963724732398986816f, 1.0646204948425292969f, 0.54072225093841552734f, 0.24452382326126098633f, 0.40613427758216857910f, 0.054782252758741378784f, -1.0477945804595947266f, -0.019370988011360168457f, 0.0047499337233603000641f, 0.29574820399284362793f, -0.37372446060180664062f, -0.00096376473084092140198f, -0.19981347024440765381f, -0.021022971719503402710f, -0.24106289446353912354f, -0.037405733019113540649f, 0.29889550805091857910f, 0.32763877511024475098f, 0.13415405154228210449f, 0.018813371658325195312f, -0.69622230529785156250f, -0.42516431212425231934f, 0.13514010608196258545f, 0.75712120532989501953f, 0.13889068365097045898f, -0.039703577756881713867f, -1.1494915485382080078f, -0.62526839971542358398f, 0.064285457134246826172f, -0.84860837459564208984f, -0.52037227153778076172f, -0.057704892009496688843f, -0.043510444462299346924f, 0.52718091011047363281f, -0.59740614891052246094f, -0.013067249208688735962f, 0.28105646371841430664f, -0.021436942741274833679f, -0.12101475894451141357f, -1.1941817998886108398f, -0.99218416213989257812f, 0.38201856613159179688f, -0.32321581244468688965f, 0.011588111519813537598f, -0.0058721280656754970551f, 0.52091258764266967773f, 0.70067459344863891602f, -0.48118144273757934570f, -0.49544960260391235352f, -0.22310686111450195312f, 0.93548876047134399414f, 0.41934305429458618164f, 0.090049192309379577637f, 0.21786601841449737549f, -0.88826602697372436523f, 0.45100018382072448730f, 0.33000046014785766602f, 0.14077313244342803955f, -0.74906158447265625000f, -0.67384421825408935547f, -0.10651945322751998901f, 0.86892199516296386719f, 0.85043758153915405273f, 0.92434132099151611328f, -0.17791679501533508301f, -0.26813426613807678223f, 0.64727407693862915039f, 0.84229087829589843750f, 0.30268678069114685059f, 0.42135071754455566406f, 0.68395513296127319336f, 0.16647914052009582520f, 0.13292425870895385742f, 0.96236079931259155273f, -0.44725877046585083008f, -0.12212768197059631348f, 0.097389630973339080811f, -0.069882467389106750488f, -0.58895617723464965820f, -0.11270829290151596069f, 0.20217718183994293213f, 0.16959939897060394287f, 0.16846551001071929932f, 0.068397596478462219238f, -0.10363552719354629517f, 0.20860210061073303223f, -0.099695190787315368652f, 0.21215406060218811035f, 0.34404775500297546387f, -0.17024905979633331299f, -0.41716304421424865723f, -0.34871232509613037109f, 0.96585333347320556641f, 0.95692920684814453125f, 0.42366257309913635254f, -1.3360953330993652344f, -0.65594011545181274414f, 0.63511866331100463867f, 1.0143491029739379883f, 0.38253617286682128906f, 0.22517967224121093750f, -1.0064884424209594727f, 0.56620383262634277344f, 0.33162626624107360840f, -0.50051885843276977539f, -1.6045835018157958984f, 0.12977704405784606934f, 1.3761453628540039062f, 1.3990874290466308594f, -0.20213831961154937744f, -2.0557646751403808594f, -0.10211586952209472656f, 1.3221812248229980469f, 2.3923490047454833984f, 1.5306341648101806641f, 0.020804874598979949951f, -0.010890773497521877289f, -0.021938383579254150391f, -0.012265102006494998932f, -0.0019319237908348441124f, -0.0045543215237557888031f, 0.014245297759771347046f, -0.0070332586765289306641f, 0.025417152792215347290f, -0.0084226084873080253601f, -0.023899581283330917358f, 0.028977805748581886292f, -0.028542215004563331604f, 0.017475439235568046570f, 0.015631265938282012939f, 0.0082809738814830780029f, -0.023746237158775329590f, -0.013344155624508857727f, -0.023833608254790306091f, -0.017509065568447113037f, 0.015547688119113445282f, 0.024949319660663604736f, 0.0018046578625217080116f, -0.024487191811203956604f, 0.010734936222434043884f, -0.022736925631761550903f, -0.018856026232242584229f, 0.0030875939410179853439f, 0.019573017954826354980f, -0.024867370724678039551f, 0.019211776554584503174f, -0.011363953351974487305f, -0.0017547664465382695198f, 0.012432512827217578888f, -0.024113507941365242004f, 0.0082053523510694503784f, -0.22037878632545471191f, 1.0120786428451538086f, 1.7929733991622924805f, 3.9513144493103027344f, 0.99609476327896118164f, -0.42128711938858032227f, -0.85258704423904418945f, 0.0082885893061757087708f, 0.18352204561233520508f, 0.70780670642852783203f, 1.6919975280761718750f, -0.37471511960029602051f, 0.51645559072494506836f, -0.015824237838387489319f, 0.66662448644638061523f, 0.55814278125762939453f, -0.025106377899646759033f, -2.3933358192443847656f, -0.64239627122879028320f, -0.77083832025527954102f, -0.12238696217536926270f, -1.5593867301940917969f, -2.4557762145996093750f, -0.79970717430114746094f, 0.64639943838119506836f, 0.073904648423194885254f, -1.0790551900863647461f, -0.74180012941360473633f, -0.080254361033439636230f, 2.1716895103454589844f, 1.2673569917678833008f, 0.12110809981822967529f, -0.28830963373184204102f, -0.0057630771771073341370f, 2.1770026683807373047f, 2.1782345771789550781f, -0.015815746039152145386f, -0.053510539233684539795f, 1.5364985466003417969f, -1.2159847021102905273f, -0.27152597904205322266f, -0.96511650085449218750f, -0.19144457578659057617f, -1.0007443428039550781f, -0.59058564901351928711f, 0.33640933036804199219f, 0.20328482985496520996f, 0.26087293028831481934f, 0.46794635057449340820f, -1.7368119955062866211f, -1.7669006586074829102f, -0.59891802072525024414f, 0.68409997224807739258f, 0.80117183923721313477f, -0.35121923685073852539f, -3.1219799518585205078f, -2.9873335361480712891f, -0.16634319722652435303f, -0.24554689228534698486f, -0.94925129413604736328f, 0.085144817829132080078f, 0.83531457185745239258f, 0.85922968387603759766f, 0.15005786716938018799f, -0.28609719872474670410f, -0.57754570245742797852f, -0.063931383192539215088f, 0.88415330648422241211f, -0.63948184251785278320f, -1.3187990188598632812f, -0.13927918672561645508f, -0.46503156423568725586f, -0.014075580053031444550f, -0.34340745210647583008f, 0.74073052406311035156f, 0.47433853149414062500f, -0.14337076246738433838f, 0.094924740493297576904f, 0.31146872043609619141f, -0.19338683784008026123f, 0.13658666610717773438f, 0.033659674227237701416f, -0.0084080155938863754272f, 0.67074900865554809570f, 0.14128828048706054688f, -0.17778138816356658936f, -0.036581214517354965210f, -0.69169312715530395508f, -0.31495004892349243164f, -0.15300036966800689697f, 0.18353025615215301514f, -0.42037731409072875977f, -0.22658315300941467285f, -0.12203469127416610718f, -0.24318875372409820557f, 0.064741693437099456787f, 0.32096123695373535156f, 0.35640528798103332520f, 0.53132033348083496094f, 0.37904691696166992188f, 0.41539195179939270020f, -0.085438370704650878906f, 0.61825931072235107422f, 0.51672714948654174805f, 0.12534733116626739502f, 0.28258964419364929199f, 0.24610999226570129395f, -0.45969483256340026855f, -0.0053721144795417785645f, 0.016080245375633239746f, -0.0058400076813995838165f, 0.0013671769993379712105f, -0.0084599824622273445129f, -0.00073771033203229308128f, 0.010337434709072113037f, -0.0042298645712435245514f, 0.025344625115394592285f, 0.0071224309504032135010f, -0.0058502531610429286957f, 0.00079956435365602374077f, 0.019366607069969177246f, 0.015271563082933425903f, 0.018150122836232185364f, -0.0065855998545885086060f, 0.00078197504626587033272f, 0.026969378814101219177f, 0.0037960016634315252304f, 0.020086161792278289795f, -0.014332372695207595825f, 0.0093808630481362342834f, 0.0015132194384932518005f, 0.013449329882860183716f, -0.025522304698824882507f, 0.0062840073369443416595f, 0.018770674243569374084f, -0.0017517915694043040276f, -0.022543586790561676025f, -0.020564900711178779602f, 0.0094419512897729873657f, 0.020847640931606292725f, 0.0028802945744246244431f, -0.0055620879866182804108f, -0.012775177136063575745f, -0.0044846422970294952393f},
